booster[0]:
0:[f14<750.5] yes=1,no=2,missing=1
	1:[f15<0.111526] yes=3,no=4,missing=3
		3:[f2<5.5] yes=7,no=8,missing=7
			7:[f11<17.5] yes=15,no=16,missing=15
				15:[f2<2.5] yes=29,no=30,missing=29
					29:leaf=-0.153488
					30:leaf=-0.0452229
				16:[f4<3.5] yes=31,no=32,missing=31
					31:leaf=-0.181959
					32:leaf=-0.0202899
			8:[f1<87.5] yes=17,no=18,missing=17
				17:[f0<6.5] yes=33,no=34,missing=33
					33:leaf=-0.0517647
					34:leaf=0.075188
				18:[f11<135.5] yes=35,no=36,missing=35
					35:leaf=-0.0938389
					36:leaf=-0.193789
		4:[f4<3.5] yes=9,no=10,missing=9
			9:[f11<14.5] yes=19,no=20,missing=19
				19:[f15<0.232051] yes=37,no=38,missing=37
					37:leaf=-0.136691
					38:leaf=-0.185196
				20:[f14<14.5] yes=39,no=40,missing=39
					39:leaf=-0.0727273
					40:leaf=-0.195992
			10:[f11<39] yes=21,no=22,missing=21
				21:[f12<29.5] yes=41,no=42,missing=41
					41:leaf=-0.0777778
					42:leaf=0.16129
				22:leaf=-0.182857
	2:[f4<3.5] yes=5,no=6,missing=5
		5:[f14<12935.5] yes=11,no=12,missing=11
			11:[f13<7.5] yes=23,no=24,missing=23
				23:[f16<0.638182] yes=43,no=44,missing=43
					43:leaf=-0.108075
					44:leaf=-0.187657
				24:[f15<0.121341] yes=45,no=46,missing=45
					45:leaf=-0.184159
					46:leaf=-0.194976
			12:leaf=-0.198161
		6:[f11<34] yes=13,no=14,missing=13
			13:[f2<7.5] yes=25,no=26,missing=25
				25:[f12<22] yes=47,no=48,missing=47
					47:leaf=-0.18
					48:leaf=-0.0263158
				26:[f8<11397.3] yes=49,no=50,missing=49
					49:leaf=0.158333
					50:leaf=-0.008
			14:[f11<44.5] yes=27,no=28,missing=27
				27:[f16<0.802724] yes=51,no=52,missing=51
					51:leaf=-0.0363636
					52:leaf=-0.173333
				28:leaf=-0.196455
booster[1]:
0:[f14<497.5] yes=1,no=2,missing=1
	1:[f15<0.111526] yes=3,no=4,missing=3
		3:[f11<38.5] yes=7,no=8,missing=7
			7:[f2<4.5] yes=15,no=16,missing=15
				15:[f2<2.5] yes=31,no=32,missing=31
					31:leaf=-0.146092
					32:leaf=-0.0690662
				16:[f8<7514.86] yes=33,no=34,missing=33
					33:leaf=-0.0733761
					34:leaf=0.0692229
			8:[f2<7.5] yes=17,no=18,missing=17
				17:[f8<3190.48] yes=35,no=36,missing=35
					35:leaf=-0.0302716
					36:leaf=-0.172274
				18:[f6<25.5] yes=37,no=38,missing=37
					37:leaf=0.0330491
					38:leaf=-0.15412
		4:[f4<3.5] yes=9,no=10,missing=9
			9:[f11<14.5] yes=19,no=20,missing=19
				19:[f15<0.233032] yes=39,no=40,missing=39
					39:leaf=-0.10728
					40:leaf=-0.167683
				20:[f16<0.583874] yes=41,no=42,missing=41
					41:leaf=-0.164747
					42:leaf=-0.180172
			10:[f11<39] yes=21,no=22,missing=21
				21:[f9<155180] yes=43,no=44,missing=43
					43:leaf=-0.0883478
					44:leaf=0.113127
				22:leaf=-0.167229
	2:[f4<3.5] yes=5,no=6,missing=5
		5:[f14<7270.5] yes=11,no=12,missing=11
			11:[f15<0.117786] yes=23,no=24,missing=23
				23:[f16<0.669271] yes=45,no=46,missing=45
					45:leaf=-0.134672
					46:leaf=-0.171825
				24:[f8<808160] yes=47,no=48,missing=47
					47:leaf=-0.175573
					48:leaf=-0.0843936
			12:[f2<16.5] yes=25,no=26,missing=25
				25:leaf=-0.179617
				26:[f16<0.477652] yes=49,no=50,missing=49
					49:leaf=-0.163497
					50:leaf=0.00275025
		6:[f11<34] yes=13,no=14,missing=13
			13:[f2<4.5] yes=27,no=28,missing=27
				27:[f14<964.5] yes=51,no=52,missing=51
					51:leaf=-0.0155521
					52:leaf=-0.162823
				28:[f14<31257] yes=53,no=54,missing=53
					53:leaf=0.0910342
					54:leaf=-0.101864
			14:[f11<45.5] yes=29,no=30,missing=29
				29:[f6<13] yes=55,no=56,missing=55
					55:leaf=-0.139605
					56:leaf=-0.0100083
				30:leaf=-0.178779
booster[2]:
0:[f14<850.5] yes=1,no=2,missing=1
	1:[f15<0.111526] yes=3,no=4,missing=3
		3:[f16<0.859334] yes=7,no=8,missing=7
			7:[f1<76.5] yes=15,no=16,missing=15
				15:[f13<6.5] yes=29,no=30,missing=29
					29:leaf=0.0915439
					30:leaf=-0.0442303
				16:[f3<2.5] yes=31,no=32,missing=31
					31:leaf=-0.143641
					32:leaf=-0.0171705
			8:[f4<3.5] yes=17,no=18,missing=17
				17:[f13<6.5] yes=33,no=34,missing=33
					33:leaf=-0.0744851
					34:leaf=-0.157396
				18:[f1<53.5] yes=35,no=36,missing=35
					35:leaf=0.139916
					36:leaf=-0.0647664
		4:[f13<5.5] yes=9,no=10,missing=9
			9:[f15<0.163451] yes=19,no=20,missing=19
				19:[f8<14164.3] yes=37,no=38,missing=37
					37:leaf=0.0695165
					38:leaf=-0.0890717
				20:[f16<0.0572727] yes=39,no=40,missing=39
					39:leaf=0.11093
					40:leaf=-0.129764
			10:[f4<3.5] yes=21,no=22,missing=21
				21:[f16<0.457385] yes=41,no=42,missing=41
					41:leaf=-0.143221
					42:leaf=-0.161661
				22:[f12<42.5] yes=43,no=44,missing=43
					43:leaf=-0.118272
					44:leaf=0.0347559
	2:[f4<3.5] yes=5,no=6,missing=5
		5:[f14<7270.5] yes=11,no=12,missing=11
			11:[f13<6.5] yes=23,no=24,missing=23
				23:[f15<0.132704] yes=45,no=46,missing=45
					45:leaf=-0.0798854
					46:leaf=-0.158545
				24:[f1<41.5] yes=47,no=48,missing=47
					47:leaf=-0.157096
					48:leaf=-0.16578
			12:leaf=-0.166031
		6:[f1<44.5] yes=13,no=14,missing=13
			13:[f16<0.314394] yes=25,no=26,missing=25
				25:[f16<0.0741758] yes=49,no=50,missing=49
					49:leaf=-0.147565
					50:leaf=0.0744952
				26:[f12<18] yes=51,no=52,missing=51
					51:leaf=-0.153035
					52:leaf=0.0338482
			14:[f5<38.5] yes=27,no=28,missing=27
				27:[f12<87] yes=53,no=54,missing=53
					53:leaf=-0.154909
					54:leaf=0.158447
				28:leaf=-0.164494
booster[3]:
0:[f14<554.5] yes=1,no=2,missing=1
	1:[f2<5.5] yes=3,no=4,missing=3
		3:[f4<3.5] yes=7,no=8,missing=7
			7:[f1<38.5] yes=15,no=16,missing=15
				15:[f2<3.5] yes=31,no=32,missing=31
					31:leaf=-0.138125
					32:leaf=-0.0890572
				16:[f8<3105.88] yes=33,no=34,missing=33
					33:leaf=-0.0723074
					34:leaf=-0.154404
			8:[f1<142] yes=17,no=18,missing=17
				17:[f9<59709] yes=35,no=36,missing=35
					35:leaf=0.111376
					36:leaf=-0.00501132
				18:leaf=-0.148966
		4:[f1<62.5] yes=9,no=10,missing=9
			9:[f2<7.5] yes=19,no=20,missing=19
				19:[f1<41.5] yes=37,no=38,missing=37
					37:leaf=-0.00707806
					38:leaf=-0.115704
				20:[f7<7305.53] yes=39,no=40,missing=39
					39:leaf=-0.068638
					40:leaf=0.0762869
			10:[f5<31.5] yes=21,no=22,missing=21
				21:[f13<6] yes=41,no=42,missing=41
					41:leaf=0.0864009
					42:leaf=-0.083222
				22:[f0<28.5] yes=43,no=44,missing=43
					43:leaf=-0.15498
					44:leaf=-0.117528
	2:[f2<7.5] yes=5,no=6,missing=5
		5:[f14<7461] yes=11,no=12,missing=11
			11:[f13<7.5] yes=23,no=24,missing=23
				23:[f16<0.643291] yes=45,no=46,missing=45
					45:leaf=-0.0843264
					46:leaf=-0.143313
				24:[f16<0.857618] yes=47,no=48,missing=47
					47:leaf=-0.145774
					48:leaf=-0.154734
			12:[f4<3.5] yes=25,no=26,missing=25
				25:leaf=-0.155927
				26:[f9<25666] yes=49,no=50,missing=49
					49:leaf=0.0317383
					50:leaf=-0.14643
		6:[f13<5.5] yes=13,no=14,missing=13
			13:[f14<11837] yes=27,no=28,missing=27
				27:[f13<1.5] yes=51,no=52,missing=51
					51:leaf=-0.0671074
					52:leaf=0.114295
				28:[f5<19.5] yes=53,no=54,missing=53
					53:leaf=-0.0290106
					54:leaf=-0.131369
			14:[f10<3199.5] yes=29,no=30,missing=29
				29:[f14<844.5] yes=55,no=56,missing=55
					55:leaf=-0.0858007
					56:leaf=-0.14653
				30:leaf=0.0290538
booster[4]:
0:[f2<7.5] yes=1,no=2,missing=1
	1:[f15<0.117786] yes=3,no=4,missing=3
		3:[f11<38.5] yes=7,no=8,missing=7
			7:[f4<3.5] yes=15,no=16,missing=15
				15:[f9<460550] yes=31,no=32,missing=31
					31:leaf=-0.125397
					32:leaf=-0.0441974
				16:[f16<0.683036] yes=33,no=34,missing=33
					33:leaf=-0.0796649
					34:leaf=0.0696626
			8:[f16<0.0406784] yes=17,no=18,missing=17
				17:[f0<38.5] yes=35,no=36,missing=35
					35:leaf=-0.13569
					36:leaf=-0.0578057
				18:[f1<883] yes=37,no=38,missing=37
					37:leaf=-0.147588
					38:leaf=-0.0712956
		4:[f4<3.5] yes=9,no=10,missing=9
			9:[f11<13.5] yes=19,no=20,missing=19
				19:[f0<54] yes=39,no=40,missing=39
					39:leaf=-0.142854
					40:leaf=0.00900495
				20:[f9<4.09836e+007] yes=41,no=42,missing=41
					41:leaf=-0.148051
					42:leaf=-0.0957662
			10:[f11<10] yes=21,no=22,missing=21
				21:[f15<0.577381] yes=43,no=44,missing=43
					43:leaf=-0.0138209
					44:leaf=0.152006
				22:[f0<36] yes=45,no=46,missing=45
					45:leaf=-0.145522
					46:leaf=-0.0816217
	2:[f11<33.5] yes=5,no=6,missing=5
		5:[f4<3.5] yes=11,no=12,missing=11
			11:[f15<0.106203] yes=23,no=24,missing=23
				23:[f6<12.5] yes=47,no=48,missing=47
					47:leaf=0.0213082
					48:leaf=-0.0929577
				24:[f8<34657.2] yes=49,no=50,missing=49
					49:leaf=-0.123877
					50:leaf=0.0162558
			12:[f15<0.239076] yes=25,no=26,missing=25
				25:[f16<0.553997] yes=51,no=52,missing=51
					51:leaf=0.157482
					52:leaf=0.0359926
				26:leaf=0.0174933
		6:[f15<0.0267047] yes=13,no=14,missing=13
			13:[f11<135.5] yes=27,no=28,missing=27
				27:[f0<20.5] yes=53,no=54,missing=53
					53:leaf=-0.119099
					54:leaf=-0.02349
				28:leaf=-0.149244
			14:[f11<41.5] yes=29,no=30,missing=29
				29:[f8<14872.3] yes=55,no=56,missing=55
					55:leaf=-0.134686
					56:leaf=-0.000792758
				30:leaf=-0.147556
booster[5]:
0:[f14<750.5] yes=1,no=2,missing=1
	1:[f2<5.5] yes=3,no=4,missing=3
		3:[f4<3.5] yes=7,no=8,missing=7
			7:[f11<13.5] yes=15,no=16,missing=15
				15:[f4<1.5] yes=31,no=32,missing=31
					31:leaf=-0.132767
					32:leaf=-0.0892012
				16:[f2<3.5] yes=33,no=34,missing=33
					33:leaf=-0.141008
					34:leaf=-0.12535
			8:[f11<39.5] yes=17,no=18,missing=17
				17:[f5<11.5] yes=35,no=36,missing=35
					35:leaf=0.00150425
					36:leaf=0.115523
				18:[f11<57.5] yes=37,no=38,missing=37
					37:leaf=-0.0214216
					38:leaf=-0.13431
		4:[f11<33.5] yes=9,no=10,missing=9
			9:[f8<7491.33] yes=19,no=20,missing=19
				19:[f14<71] yes=39,no=40,missing=39
					39:leaf=0.0437214
					40:leaf=-0.10544
				20:[f10<3323.5] yes=41,no=42,missing=41
					41:leaf=0.0457973
					42:leaf=-0.119803
			10:[f11<92.5] yes=21,no=22,missing=21
				21:[f0<24.5] yes=43,no=44,missing=43
					43:leaf=-0.115147
					44:leaf=-0.00345518
				22:[f3<2.5] yes=45,no=46,missing=45
					45:leaf=-0.1421
					46:leaf=-0.0541684
	2:[f4<3.5] yes=5,no=6,missing=5
		5:[f14<13263.5] yes=11,no=12,missing=11
			11:[f2<14.5] yes=23,no=24,missing=23
				23:[f11<32.5] yes=47,no=48,missing=47
					47:leaf=-0.128165
					48:leaf=-0.141537
				24:[f11<31] yes=49,no=50,missing=49
					49:leaf=0.0503739
					50:leaf=-0.097655
			12:[f2<16.5] yes=25,no=26,missing=25
				25:leaf=-0.141271
				26:[f9<714894] yes=51,no=52,missing=51
					51:leaf=-0.120251
					52:leaf=0.0453978
		6:[f11<34] yes=13,no=14,missing=13
			13:[f2<7.5] yes=27,no=28,missing=27
				27:[f12<22] yes=53,no=54,missing=53
					53:leaf=-0.127789
					54:leaf=0.0160928
				28:[f8<11397.3] yes=55,no=56,missing=55
					55:leaf=0.13512
					56:leaf=0.0177604
			14:[f11<43] yes=29,no=30,missing=29
				29:[f5<20] yes=57,no=58,missing=57
					57:leaf=-0.131447
					58:leaf=0.00638489
				30:leaf=-0.140443
booster[6]:
0:[f14<497.5] yes=1,no=2,missing=1
	1:[f2<5.5] yes=3,no=4,missing=3
		3:[f11<13.5] yes=7,no=8,missing=7
			7:[f4<1.5] yes=15,no=16,missing=15
				15:[f9<44767.5] yes=31,no=32,missing=31
					31:leaf=-0.130828
					32:leaf=-0.103492
				16:[f13<6.5] yes=33,no=34,missing=33
					33:leaf=0.0353197
					34:leaf=-0.081725
			8:[f4<3.5] yes=17,no=18,missing=17
				17:[f16<0.062996] yes=35,no=36,missing=35
					35:leaf=-0.0652958
					36:leaf=-0.130359
				18:[f11<39] yes=37,no=38,missing=37
					37:leaf=0.0254861
					38:leaf=-0.125922
		4:[f11<32.5] yes=9,no=10,missing=9
			9:[f8<7481.7] yes=19,no=20,missing=19
				19:[f14<71] yes=39,no=40,missing=39
					39:leaf=0.0417481
					40:leaf=-0.0851464
				20:[f11<21.5] yes=41,no=42,missing=41
					41:leaf=0.0669922
					42:leaf=-0.00947524
			10:[f11<99.5] yes=21,no=22,missing=21
				21:[f0<22.5] yes=43,no=44,missing=43
					43:leaf=-0.110097
					44:leaf=-0.000996978
				22:[f3<2.5] yes=45,no=46,missing=45
					45:leaf=-0.137293
					46:leaf=-0.0586378
	2:[f2<7.5] yes=5,no=6,missing=5
		5:[f14<7425.5] yes=11,no=12,missing=11
			11:[f13<7.5] yes=23,no=24,missing=23
				23:[f13<1.5] yes=47,no=48,missing=47
					47:leaf=-0.119342
					48:leaf=-0.0523653
				24:[f11<17.5] yes=49,no=50,missing=49
					49:leaf=-0.122559
					50:leaf=-0.133543
			12:[f4<3.5] yes=25,no=26,missing=25
				25:[f8<433202] yes=51,no=52,missing=51
					51:leaf=-0.135159
					52:leaf=-0.0805683
				26:[f9<25666] yes=53,no=54,missing=53
					53:leaf=0.0813803
					54:leaf=-0.124459
		6:[f13<5.5] yes=13,no=14,missing=13
			13:[f11<67.5] yes=27,no=28,missing=27
				27:[f14<16655] yes=55,no=56,missing=55
					55:leaf=0.0832949
					56:leaf=-0.0946127
				28:leaf=-0.133022
			14:[f11<33.5] yes=29,no=30,missing=29
				29:[f4<3.5] yes=57,no=58,missing=57
					57:leaf=-0.106285
					58:leaf=0.0795835
				30:leaf=-0.133464
booster[7]:
0:[f14<850.5] yes=1,no=2,missing=1
	1:[f15<0.111526] yes=3,no=4,missing=3
		3:[f11<38.5] yes=7,no=8,missing=7
			7:[f2<4.5] yes=15,no=16,missing=15
				15:[f14<171.5] yes=31,no=32,missing=31
					31:leaf=-0.0211025
					32:leaf=-0.0945148
				16:[f11<4.5] yes=33,no=34,missing=33
					33:leaf=-0.100727
					34:leaf=0.0617933
			8:[f2<7.5] yes=17,no=18,missing=17
				17:[f11<50.5] yes=35,no=36,missing=35
					35:leaf=-0.0939442
					36:leaf=-0.128459
				18:[f11<135.5] yes=37,no=38,missing=37
					37:leaf=-0.000253457
					38:leaf=-0.128997
		4:[f13<5.5] yes=9,no=10,missing=9
			9:[f13<1.5] yes=19,no=20,missing=19
				19:[f15<0.146429] yes=39,no=40,missing=39
					39:leaf=-0.00519042
					40:leaf=-0.113209
				20:[f1<21.5] yes=41,no=42,missing=41
					41:leaf=0.0835523
					42:leaf=-0.0624833
			10:[f11<9.5] yes=21,no=22,missing=21
				21:[f15<0.224014] yes=43,no=44,missing=43
					43:leaf=-0.0665866
					44:leaf=-0.117624
				22:[f16<0.762874] yes=45,no=46,missing=45
					45:leaf=-0.117956
					46:leaf=-0.132021
	2:[f14<16634] yes=5,no=6,missing=5
		5:[f13<7.5] yes=11,no=12,missing=11
			11:[f2<7.5] yes=23,no=24,missing=23
				23:[f7<204118] yes=47,no=48,missing=47
					47:leaf=-0.107824
					48:leaf=0.0371824
				24:[f13<0.5] yes=49,no=50,missing=49
					49:leaf=-0.0968029
					50:leaf=0.068323
			12:[f11<32.5] yes=25,no=26,missing=25
				25:[f2<6.5] yes=51,no=52,missing=51
					51:leaf=-0.122272
					52:leaf=-0.0836584
				26:leaf=-0.130571
		6:[f12<100.5] yes=13,no=14,missing=13
			13:[f2<18.5] yes=27,no=28,missing=27
				27:leaf=-0.13047
				28:[f15<0.0229167] yes=53,no=54,missing=53
					53:leaf=-0.0191241
					54:leaf=-0.109037
			14:[f5<39.5] yes=29,no=30,missing=29
				29:[f12<114.5] yes=55,no=56,missing=55
					55:leaf=0.191421
					56:leaf=-0.107599
				30:[f13<22.5] yes=57,no=58,missing=57
					57:leaf=-0.130792
					58:leaf=-0.000338097
booster[8]:
0:[f14<563.5] yes=1,no=2,missing=1
	1:[f15<0.11159] yes=3,no=4,missing=3
		3:[f11<38.5] yes=7,no=8,missing=7
			7:[f2<3.5] yes=15,no=16,missing=15
				15:[f11<8.5] yes=31,no=32,missing=31
					31:leaf=-0.0175983
					32:leaf=-0.0990949
				16:[f0<2.5] yes=33,no=34,missing=33
					33:leaf=-0.0888563
					34:leaf=0.0504571
			8:[f0<12.5] yes=17,no=18,missing=17
				17:leaf=-0.128379
				18:[f1<84.5] yes=35,no=36,missing=35
					35:leaf=0.0110256
					36:leaf=-0.105214
		4:[f11<14.5] yes=9,no=10,missing=9
			9:[f15<0.232051] yes=19,no=20,missing=19
				19:[f5<11.5] yes=37,no=38,missing=37
					37:leaf=-0.0702392
					38:leaf=0.014165
				20:[f16<0.0488095] yes=39,no=40,missing=39
					39:leaf=0.028278
					40:leaf=-0.111927
			10:[f4<3.5] yes=21,no=22,missing=21
				21:[f14<14.5] yes=41,no=42,missing=41
					41:leaf=0.0124819
					42:leaf=-0.125069
				22:[f12<50] yes=43,no=44,missing=43
					43:leaf=-0.108563
					44:leaf=0.053307
	2:[f14<7461.5] yes=5,no=6,missing=5
		5:[f15<0.132303] yes=11,no=12,missing=11
			11:[f11<32.5] yes=23,no=24,missing=23
				23:[f2<7.5] yes=45,no=46,missing=45
					45:leaf=-0.0868494
					46:leaf=0.0214087
				24:[f0<23.5] yes=47,no=48,missing=47
					47:leaf=-0.128219
					48:leaf=-0.102741
			12:[f4<3.5] yes=25,no=26,missing=25
				25:[f7<790.438] yes=49,no=50,missing=49
					49:leaf=-0.0717451
					50:leaf=-0.121994
				26:[f11<39.5] yes=51,no=52,missing=51
					51:leaf=0.0724564
					52:leaf=-0.12369
		6:[f4<3.5] yes=13,no=14,missing=13
			13:[f2<16.5] yes=27,no=28,missing=27
				27:[f14<13263.5] yes=53,no=54,missing=53
					53:leaf=-0.120121
					54:leaf=-0.126363
				28:[f16<0.426583] yes=55,no=56,missing=55
					55:leaf=-0.104537
					56:leaf=0.0744088
			14:[f11<10.5] yes=29,no=30,missing=29
				29:[f2<4.5] yes=57,no=58,missing=57
					57:leaf=-0.0458016
					58:leaf=0.127244
				30:[f11<44.5] yes=59,no=60,missing=59
					59:leaf=-0.072777
					60:leaf=-0.126034
booster[9]:
0:[f15<0.117786] yes=1,no=2,missing=1
	1:[f2<7.5] yes=3,no=4,missing=3
		3:[f11<17.5] yes=7,no=8,missing=7
			7:[f2<2.5] yes=15,no=16,missing=15
				15:[f13<4.5] yes=29,no=30,missing=29
					29:leaf=-0.0668434
					30:leaf=-0.113426
				16:[f6<2.5] yes=31,no=32,missing=31
					31:leaf=0.1485
					32:leaf=-0.0722693
			8:[f4<3.5] yes=17,no=18,missing=17
				17:[f2<3.5] yes=33,no=34,missing=33
					33:leaf=-0.121812
					34:leaf=-0.105706
				18:[f11<59.5] yes=35,no=36,missing=35
					35:leaf=-0.0178623
					36:leaf=-0.113629
		4:[f6<14.5] yes=9,no=10,missing=9
			9:[f1<62.5] yes=19,no=20,missing=19
				19:[f9<38845] yes=37,no=38,missing=37
					37:leaf=-0.0393312
					38:leaf=0.0638058
				20:[f6<10.5] yes=39,no=40,missing=39
					39:leaf=-0.0461842
					40:leaf=-0.115124
			10:[f11<92.5] yes=21,no=22,missing=21
				21:[f11<25.5] yes=41,no=42,missing=41
					41:leaf=-0.119376
					42:leaf=-0.031458
				22:[f3<2.5] yes=43,no=44,missing=43
					43:leaf=-0.124296
					44:leaf=-0.000160378
	2:[f4<3.5] yes=5,no=6,missing=5
		5:[f15<0.232681] yes=11,no=12,missing=11
			11:[f13<5.5] yes=23,no=24,missing=23
				23:[f12<79.5] yes=45,no=46,missing=45
					45:leaf=-0.0797105
					46:leaf=0.0990569
				24:[f7<801.646] yes=47,no=48,missing=47
					47:leaf=-0.00910709
					48:leaf=-0.115812
			12:[f11<26.5] yes=25,no=26,missing=25
				25:[f6<18.5] yes=49,no=50,missing=49
					49:leaf=-0.118867
					50:leaf=-0.0801409
				26:[f7<5.82167e+006] yes=51,no=52,missing=51
					51:leaf=-0.124244
					52:leaf=-0.0761745
		6:[f11<44.5] yes=13,no=14,missing=13
			13:[f2<8.5] yes=27,no=28,missing=27
				27:[f10<6.5] yes=53,no=54,missing=53
					53:leaf=-0.0568906
					54:leaf=0.159231
				28:[f11<22] yes=55,no=56,missing=55
					55:leaf=0.0279087
					56:leaf=0.148645
			14:leaf=-0.122299
booster[10]:
0:[f15<0.117786] yes=1,no=2,missing=1
	1:[f2<6.5] yes=3,no=4,missing=3
		3:[f11<33.5] yes=7,no=8,missing=7
			7:[f2<2.5] yes=15,no=16,missing=15
				15:[f13<7.5] yes=31,no=32,missing=31
					31:leaf=-0.0739346
					32:leaf=-0.112769
				16:[f7<94657.8] yes=33,no=34,missing=33
					33:leaf=-0.0783252
					34:leaf=0.028491
			8:[f0<31.5] yes=17,no=18,missing=17
				17:[f8<2988.31] yes=35,no=36,missing=35
					35:leaf=-0.0591176
					36:leaf=-0.118498
				18:[f11<41.5] yes=37,no=38,missing=37
					37:leaf=0.130889
					38:leaf=-0.107406
		4:[f6<22.5] yes=9,no=10,missing=9
			9:[f7<5893.32] yes=19,no=20,missing=19
				19:[f0<18.5] yes=39,no=40,missing=39
					39:leaf=-0.114821
					40:leaf=-0.0182315
				20:[f11<37.5] yes=41,no=42,missing=41
					41:leaf=0.0198075
					42:leaf=-0.0694793
			10:[f11<92.5] yes=21,no=22,missing=21
				21:[f0<27.5] yes=43,no=44,missing=43
					43:leaf=-0.105677
					44:leaf=-0.0207363
				22:[f10<1935] yes=45,no=46,missing=45
					45:leaf=-0.121961
					46:leaf=-0.0831897
	2:[f15<0.242897] yes=5,no=6,missing=5
		5:[f2<5.5] yes=11,no=12,missing=11
			11:[f11<10.5] yes=23,no=24,missing=23
				23:[f13<5.5] yes=47,no=48,missing=47
					47:leaf=-0.058906
					48:leaf=-0.108489
				24:[f0<58.5] yes=49,no=50,missing=49
					49:leaf=-0.119243
					50:leaf=-0.0497541
			12:[f13<5.5] yes=25,no=26,missing=25
				25:[f13<4.5] yes=51,no=52,missing=51
					51:leaf=-0.0231596
					52:leaf=0.201196
				26:[f15<0.241225] yes=53,no=54,missing=53
					53:leaf=-0.0941623
					54:leaf=0.08555
		6:[f11<26.5] yes=13,no=14,missing=13
			13:[f0<69.5] yes=27,no=28,missing=27
				27:[f9<150582] yes=55,no=56,missing=55
					55:leaf=-0.116298
					56:leaf=-0.101882
				28:leaf=0.0750359
			14:[f8<826941] yes=29,no=30,missing=29
				29:leaf=-0.120916
				30:[f5<37] yes=57,no=58,missing=57
					57:leaf=-0.00125208
					58:leaf=-0.107426
booster[11]:
0:[f15<0.117786] yes=1,no=2,missing=1
	1:[f2<5.5] yes=3,no=4,missing=3
		3:[f4<3.5] yes=7,no=8,missing=7
			7:[f16<0.8533] yes=15,no=16,missing=15
				15:[f6<11.5] yes=31,no=32,missing=31
					31:leaf=-0.0733621
					32:leaf=-0.10773
				16:[f9<8500] yes=33,no=34,missing=33
					33:leaf=-0.0560076
					34:leaf=-0.111606
			8:[f16<0.708401] yes=17,no=18,missing=17
				17:[f13<9.5] yes=35,no=36,missing=35
					35:leaf=-0.0182724
					36:leaf=-0.102922
				18:[f1<67] yes=37,no=38,missing=37
					37:leaf=0.100993
					38:leaf=-0.0382238
		4:[f1<64.5] yes=9,no=10,missing=9
			9:[f7<10975] yes=19,no=20,missing=19
				19:[f15<0.0672316] yes=39,no=40,missing=39
					39:leaf=-0.0479465
					40:leaf=-0.10035
				20:[f13<7.5] yes=41,no=42,missing=41
					41:leaf=0.0840307
					42:leaf=-0.00288492
			10:[f1<140.5] yes=21,no=22,missing=21
				21:[f1<139] yes=43,no=44,missing=43
					43:leaf=-0.0752222
					44:leaf=0.140156
				22:[f9<140651] yes=45,no=46,missing=45
					45:leaf=-0.0828942
					46:leaf=-0.11746
	2:[f4<3.5] yes=5,no=6,missing=5
		5:[f15<0.232631] yes=11,no=12,missing=11
			11:[f13<5.5] yes=23,no=24,missing=23
				23:[f0<33] yes=47,no=48,missing=47
					47:leaf=-0.079738
					48:leaf=0.114376
				24:[f7<801.646] yes=49,no=50,missing=49
					49:leaf=0.0123026
					50:leaf=-0.107988
			12:[f10<2153.5] yes=25,no=26,missing=25
				25:[f0<43.5] yes=51,no=52,missing=51
					51:leaf=-0.116436
					52:leaf=-0.0928708
				26:[f10<2190.5] yes=53,no=54,missing=53
					53:leaf=0.0540883
					54:leaf=-0.110495
		6:[f2<8.5] yes=13,no=14,missing=13
			13:[f10<5.5] yes=27,no=28,missing=27
				27:[f9<27340] yes=55,no=56,missing=55
					55:leaf=0.0809546
					56:leaf=-0.109014
				28:[f6<13] yes=57,no=58,missing=57
					57:leaf=0.0822483
					58:leaf=-0.0873244
			14:[f6<23] yes=29,no=30,missing=29
				29:[f15<0.239076] yes=59,no=60,missing=59
					59:leaf=0.126402
					60:leaf=0.0303961
				30:leaf=-0.109932
booster[12]:
0:[f15<0.117786] yes=1,no=2,missing=1
	1:[f16<0.860788] yes=3,no=4,missing=3
		3:[f13<6.5] yes=7,no=8,missing=7
			7:[f13<1.5] yes=15,no=16,missing=15
				15:[f8<16610.3] yes=31,no=32,missing=31
					31:leaf=-0.0808614
					32:leaf=0.00427383
				16:[f5<43.5] yes=33,no=34,missing=33
					33:leaf=0.0638446
					34:leaf=-0.0930598
			8:[f6<14.5] yes=17,no=18,missing=17
				17:[f9<55309.5] yes=35,no=36,missing=35
					35:leaf=-0.0807886
					36:leaf=-0.0359574
				18:[f0<16.5] yes=37,no=38,missing=37
					37:leaf=-0.113222
					38:leaf=-0.0747735
		4:[f4<3.5] yes=9,no=10,missing=9
			9:[f13<7.5] yes=19,no=20,missing=19
				19:[f8<4783.85] yes=39,no=40,missing=39
					39:leaf=0.121218
					40:leaf=-0.0946075
				20:[f16<0.942017] yes=41,no=42,missing=41
					41:leaf=-0.101412
					42:leaf=-0.113545
			10:[f9<40735.5] yes=21,no=22,missing=21
				21:leaf=0.0678769
				22:[f13<17.5] yes=43,no=44,missing=43
					43:leaf=-0.0293103
					44:leaf=-0.105319
	2:[f4<3.5] yes=5,no=6,missing=5
		5:[f15<0.232681] yes=11,no=12,missing=11
			11:[f13<5.5] yes=23,no=24,missing=23
				23:[f0<33] yes=45,no=46,missing=45
					45:leaf=-0.0794689
					46:leaf=0.104367
				24:[f7<1372.98] yes=47,no=48,missing=47
					47:leaf=-0.0414851
					48:leaf=-0.105247
			12:[f11<26.5] yes=25,no=26,missing=25
				25:[f0<69.5] yes=49,no=50,missing=49
					49:leaf=-0.109632
					50:leaf=0.087295
				26:[f8<826941] yes=51,no=52,missing=51
					51:leaf=-0.116015
					52:leaf=-0.0643313
		6:[f11<39.5] yes=13,no=14,missing=13
			13:[f0<15.5] yes=27,no=28,missing=27
				27:[f11<10] yes=53,no=54,missing=53
					53:leaf=0.0683758
					54:leaf=-0.106149
				28:[f9<155180] yes=55,no=56,missing=55
					55:leaf=0.0296689
					56:leaf=0.121628
			14:[f9<62378.5] yes=29,no=30,missing=29
				29:leaf=-0.0486302
				30:leaf=-0.117439
booster[13]:
0:[f14<850.5] yes=1,no=2,missing=1
	1:[f15<0.111526] yes=3,no=4,missing=3
		3:[f1<76.5] yes=7,no=8,missing=7
			7:[f10<3720.5] yes=15,no=16,missing=15
				15:[f14<153.5] yes=31,no=32,missing=31
					31:leaf=0.0758075
					32:leaf=-0.00376332
				16:[f16<0.0560797] yes=33,no=34,missing=33
					33:leaf=0.0134503
					34:leaf=-0.101985
			8:[f3<2.5] yes=17,no=18,missing=17
				17:[f0<13.5] yes=35,no=36,missing=35
					35:leaf=-0.116822
					36:leaf=-0.0652718
				18:[f9<224060] yes=37,no=38,missing=37
					37:leaf=0.138346
					38:leaf=-0.0483034
		4:[f13<5.5] yes=9,no=10,missing=9
			9:[f13<1.5] yes=19,no=20,missing=19
				19:[f14<102] yes=39,no=40,missing=39
					39:leaf=-0.00145571
					40:leaf=-0.0948599
				20:[f1<21.5] yes=41,no=42,missing=41
					41:leaf=0.136981
					42:leaf=-0.0302909
			10:[f1<42.5] yes=21,no=22,missing=21
				21:[f12<6.5] yes=43,no=44,missing=43
					43:leaf=-0.0972258
					44:leaf=-0.0551053
				22:[f4<3.5] yes=45,no=46,missing=45
					45:leaf=-0.112964
					46:leaf=-0.0571909
	2:[f14<13263.5] yes=5,no=6,missing=5
		5:[f13<7.5] yes=11,no=12,missing=11
			11:[f15<0.183893] yes=23,no=24,missing=23
				23:[f16<0.638182] yes=47,no=48,missing=47
					47:leaf=0.0396359
					48:leaf=-0.0788995
				24:[f13<3.5] yes=49,no=50,missing=49
					49:leaf=-0.112199
					50:leaf=-0.055098
			12:[f16<0.692398] yes=25,no=26,missing=25
				25:[f15<0.11159] yes=51,no=52,missing=51
					51:leaf=-0.0790185
					52:leaf=-0.100671
				26:[f12<11.5] yes=53,no=54,missing=53
					53:leaf=-0.111147
					54:leaf=-0.0978838
		6:[f4<3.5] yes=13,no=14,missing=13
			13:[f0<92] yes=27,no=28,missing=27
				27:[f12<1.5] yes=55,no=56,missing=55
					55:leaf=-0.105052
					56:leaf=-0.113835
				28:[f15<0.384935] yes=57,no=58,missing=57
					57:leaf=0.074222
					58:leaf=-0.107979
			14:[f9<26035] yes=29,no=30,missing=29
				29:leaf=0.0272402
				30:[f8<10930.5] yes=59,no=60,missing=59
					59:leaf=-0.060472
					60:leaf=-0.100539
booster[14]:
0:[f15<0.117786] yes=1,no=2,missing=1
	1:[f2<5.5] yes=3,no=4,missing=3
		3:[f11<17.5] yes=7,no=8,missing=7
			7:[f2<2.5] yes=15,no=16,missing=15
				15:[f15<0.0266714] yes=29,no=30,missing=29
					29:leaf=-0.0160598
					30:leaf=-0.0942605
				16:[f6<2.5] yes=31,no=32,missing=31
					31:leaf=0.211736
					32:leaf=-0.0544893
			8:[f8<102337] yes=17,no=18,missing=17
				17:[f4<3.5] yes=33,no=34,missing=33
					33:leaf=-0.10613
					34:leaf=-0.0368695
				18:[f7<550851] yes=35,no=36,missing=35
					35:leaf=0.129681
					36:leaf=-0.0984868
		4:[f11<92.5] yes=9,no=10,missing=9
			9:[f8<8415.1] yes=19,no=20,missing=19
				19:[f4<3.5] yes=37,no=38,missing=37
					37:leaf=-0.0806695
					38:leaf=0.0739752
				20:[f5<23.5] yes=39,no=40,missing=39
					39:leaf=0.0258362
					40:leaf=-0.0372051
			10:[f3<2.5] yes=21,no=22,missing=21
				21:leaf=-0.112467
				22:[f8<14686.9] yes=41,no=42,missing=41
					41:leaf=-0.107306
					42:leaf=0.0465195
	2:[f4<3.5] yes=5,no=6,missing=5
		5:[f15<0.232631] yes=11,no=12,missing=11
			11:[f2<5.5] yes=23,no=24,missing=23
				23:[f11<17.5] yes=43,no=44,missing=43
					43:leaf=-0.0931736
					44:leaf=-0.111678
				24:[f11<30.5] yes=45,no=46,missing=45
					45:leaf=-0.0412078
					46:leaf=-0.100841
			12:[f11<14.5] yes=25,no=26,missing=25
				25:[f11<4.5] yes=47,no=48,missing=47
					47:leaf=-0.10643
					48:leaf=-0.0963359
				26:[f9<291857] yes=49,no=50,missing=49
					49:leaf=-0.112441
					50:leaf=-0.103685
		6:[f11<44.5] yes=13,no=14,missing=13
			13:[f16<0.802198] yes=27,no=28,missing=27
				27:[f1<36.5] yes=51,no=52,missing=51
					51:leaf=-0.0435614
					52:leaf=0.111792
				28:leaf=-0.102452
			14:leaf=-0.108463
booster[15]:
0:[f14<907.5] yes=1,no=2,missing=1
	1:[f2<3.5] yes=3,no=4,missing=3
		3:[f11<9.5] yes=7,no=8,missing=7
			7:[f4<1.5] yes=15,no=16,missing=15
				15:[f7<9057.26] yes=31,no=32,missing=31
					31:leaf=-0.100587
					32:leaf=-0.0509552
				16:[f14<93.5] yes=33,no=34,missing=33
					33:leaf=0.0519768
					34:leaf=-0.0511132
			8:[f4<3.5] yes=17,no=18,missing=17
				17:[f11<13.5] yes=35,no=36,missing=35
					35:leaf=-0.0798527
					36:leaf=-0.106491
				18:[f12<26.5] yes=37,no=38,missing=37
					37:leaf=-0.0264511
					38:leaf=0.137003
		4:[f11<38.5] yes=9,no=10,missing=9
			9:[f13<6.5] yes=19,no=20,missing=19
				19:[f13<0.5] yes=39,no=40,missing=39
					39:leaf=-0.0105233
					40:leaf=0.135368
				20:[f0<3.5] yes=41,no=42,missing=41
					41:leaf=-0.0679004
					42:leaf=0.0204189
			10:[f0<12.5] yes=21,no=22,missing=21
				21:leaf=-0.110212
				22:[f11<98.5] yes=43,no=44,missing=43
					43:leaf=-0.0150036
					44:leaf=-0.0970016
	2:[f14<18280] yes=5,no=6,missing=5
		5:[f13<7.5] yes=11,no=12,missing=11
			11:[f13<2.5] yes=23,no=24,missing=23
				23:[f2<16.5] yes=45,no=46,missing=45
					45:leaf=-0.0853272
					46:leaf=0.1143
				24:[f12<12.5] yes=47,no=48,missing=47
					47:leaf=-0.0809741
					48:leaf=0.0944759
			12:[f11<32.5] yes=25,no=26,missing=25
				25:[f4<3.5] yes=49,no=50,missing=49
					49:leaf=-0.0928738
					50:leaf=0.0279214
				26:[f14<18115.5] yes=51,no=52,missing=51
					51:leaf=-0.108683
					52:leaf=-0.0367298
		6:[f4<3.5] yes=13,no=14,missing=13
			13:[f0<92] yes=27,no=28,missing=27
				27:[f2<18.5] yes=53,no=54,missing=53
					53:leaf=-0.11053
					54:leaf=-0.0547311
				28:[f12<17.5] yes=55,no=56,missing=55
					55:leaf=-0.100405
					56:leaf=0.0794835
			14:[f11<10.5] yes=29,no=30,missing=29
				29:leaf=0.0335419
				30:[f12<105.5] yes=57,no=58,missing=57
					57:leaf=-0.0994638
					58:leaf=0.00331531
booster[16]:
0:[f14<907.5] yes=1,no=2,missing=1
	1:[f15<0.167054] yes=3,no=4,missing=3
		3:[f11<38.5] yes=7,no=8,missing=7
			7:[f2<3.5] yes=15,no=16,missing=15
				15:[f14<93.5] yes=31,no=32,missing=31
					31:leaf=0.0426895
					32:leaf=-0.0576257
				16:[f11<4.5] yes=33,no=34,missing=33
					33:leaf=-0.0810715
					34:leaf=0.0532523
			8:[f15<0.0267047] yes=17,no=18,missing=17
				17:[f2<7.5] yes=35,no=36,missing=35
					35:leaf=-0.0661262
					36:leaf=0.0620804
				18:[f2<10.5] yes=37,no=38,missing=37
					37:leaf=-0.106073
					38:leaf=-0.0684216
		4:[f11<9.5] yes=9,no=10,missing=9
			9:[f15<0.224014] yes=19,no=20,missing=19
				19:[f14<106.5] yes=39,no=40,missing=39
					39:leaf=0.119003
					40:leaf=-0.0372097
				20:[f11<2.5] yes=41,no=42,missing=41
					41:leaf=-0.0946012
					42:leaf=-0.0568504
			10:[f16<0.33631] yes=21,no=22,missing=21
				21:[f13<5.5] yes=43,no=44,missing=43
					43:leaf=0.0671494
					44:leaf=-0.0698672
				22:[f14<17.5] yes=45,no=46,missing=45
					45:leaf=0.0305742
					46:leaf=-0.104841
	2:[f14<11704] yes=5,no=6,missing=5
		5:[f13<7.5] yes=11,no=12,missing=11
			11:[f15<0.183893] yes=23,no=24,missing=23
				23:[f11<32.5] yes=47,no=48,missing=47
					47:leaf=0.0317702
					48:leaf=-0.0790849
				24:[f13<3.5] yes=49,no=50,missing=49
					49:leaf=-0.103963
					50:leaf=-0.051016
			12:[f11<32.5] yes=25,no=26,missing=25
				25:[f2<6.5] yes=51,no=52,missing=51
					51:leaf=-0.0916046
					52:leaf=-0.0331371
				26:[f15<0.0151771] yes=53,no=54,missing=53
					53:leaf=-0.0892563
					54:leaf=-0.107313
		6:[f2<16.5] yes=13,no=14,missing=13
			13:[f2<4.5] yes=27,no=28,missing=27
				27:[f8<16392.7] yes=55,no=56,missing=55
					55:leaf=-0.109112
					56:leaf=-0.102632
				28:[f11<33.5] yes=57,no=58,missing=57
					57:leaf=-0.0966766
					58:leaf=-0.109024
			14:[f16<0.372685] yes=29,no=30,missing=29
				29:[f2<24.5] yes=59,no=60,missing=59
					59:leaf=-0.106909
					60:leaf=-0.0528
				30:leaf=0.0562381
booster[17]:
0:[f14<907.5] yes=1,no=2,missing=1
	1:[f15<0.167241] yes=3,no=4,missing=3
		3:[f11<38.5] yes=7,no=8,missing=7
			7:[f2<2.5] yes=15,no=16,missing=15
				15:[f11<10.5] yes=31,no=32,missing=31
					31:leaf=-0.0139631
					32:leaf=-0.0892129
				16:[f4<2.5] yes=33,no=34,missing=33
					33:leaf=0.00420663
					34:leaf=0.0689635
			8:[f15<0.0267047] yes=17,no=18,missing=17
				17:[f2<7.5] yes=35,no=36,missing=35
					35:leaf=-0.0684777
					36:leaf=0.0470023
				18:[f2<10.5] yes=37,no=38,missing=37
					37:leaf=-0.104105
					38:leaf=-0.06838
		4:[f16<0.457385] yes=9,no=10,missing=9
			9:[f13<7.5] yes=19,no=20,missing=19
				19:[f2<5.5] yes=39,no=40,missing=39
					39:leaf=-0.0429405
					40:leaf=0.136746
				20:[f16<0.320256] yes=41,no=42,missing=41
					41:leaf=-0.0856616
					42:leaf=-0.0233205
			10:[f11<10.5] yes=21,no=22,missing=21
				21:[f15<0.232051] yes=43,no=44,missing=43
					43:leaf=-0.00416818
					44:leaf=-0.0792245
				22:[f14<16.5] yes=45,no=46,missing=45
					45:leaf=0.0066865
					46:leaf=-0.104114
	2:[f14<13263.5] yes=5,no=6,missing=5
		5:[f13<7.5] yes=11,no=12,missing=11
			11:[f15<0.183893] yes=23,no=24,missing=23
				23:[f16<0.638494] yes=47,no=48,missing=47
					47:leaf=0.0444432
					48:leaf=-0.0686597
				24:[f7<85188.4] yes=49,no=50,missing=49
					49:leaf=-0.099964
					50:leaf=-0.032319
			12:[f11<32.5] yes=25,no=26,missing=25
				25:[f2<7.5] yes=51,no=52,missing=51
					51:leaf=-0.0865009
					52:leaf=-0.0212646
				26:leaf=-0.105332
		6:[f4<3.5] yes=13,no=14,missing=13
			13:[f2<16.5] yes=27,no=28,missing=27
				27:[f12<113.5] yes=53,no=54,missing=53
					53:leaf=-0.106381
					54:leaf=-0.0792553
				28:[f15<0.0116421] yes=55,no=56,missing=55
					55:leaf=0.061829
					56:leaf=-0.0809838
			14:[f11<10.5] yes=29,no=30,missing=29
				29:[f1<36.5] yes=57,no=58,missing=57
					57:leaf=0.0331448
					58:leaf=0.110566
				30:[f11<39] yes=59,no=60,missing=59
					59:leaf=-0.0540272
					60:leaf=-0.108934
booster[18]:
0:[f14<926.5] yes=1,no=2,missing=1
	1:[f15<0.161963] yes=3,no=4,missing=3
		3:[f11<58.5] yes=7,no=8,missing=7
			7:[f2<2.5] yes=15,no=16,missing=15
				15:[f11<9.5] yes=31,no=32,missing=31
					31:leaf=-0.00667225
					32:leaf=-0.0925212
				16:[f13<6.5] yes=33,no=34,missing=33
					33:leaf=0.103307
					34:leaf=0.0189391
			8:[f2<8.5] yes=17,no=18,missing=17
				17:[f16<0.0256884] yes=35,no=36,missing=35
					35:leaf=0.00827164
					36:leaf=-0.100178
				18:[f7<8645.38] yes=37,no=38,missing=37
					37:leaf=0.186034
					38:leaf=-0.0606903
		4:[f11<14.5] yes=9,no=10,missing=9
			9:[f2<5.5] yes=19,no=20,missing=19
				19:[f15<0.232051] yes=39,no=40,missing=39
					39:leaf=-0.0356843
					40:leaf=-0.0789205
				20:[f1<35.5] yes=41,no=42,missing=41
					41:leaf=0.0842686
					42:leaf=-0.0999149
			10:[f4<3.5] yes=21,no=22,missing=21
				21:[f16<0.583874] yes=43,no=44,missing=43
					43:leaf=-0.0733562
					44:leaf=-0.105592
				22:[f11<39] yes=45,no=46,missing=45
					45:leaf=0.0575805
					46:leaf=-0.0837673
	2:[f14<13263.5] yes=5,no=6,missing=5
		5:[f16<0.643701] yes=11,no=12,missing=11
			11:[f7<1479.69] yes=23,no=24,missing=23
				23:[f7<1434.03] yes=47,no=48,missing=47
					47:leaf=-0.0256189
					48:leaf=0.288973
				24:[f13<6.5] yes=49,no=50,missing=49
					49:leaf=-0.00964628
					50:leaf=-0.0789862
			12:[f15<0.0428577] yes=25,no=26,missing=25
				25:[f8<4804.34] yes=51,no=52,missing=51
					51:leaf=0.0823283
					52:leaf=-0.0736282
				26:[f7<1.17426] yes=53,no=54,missing=53
					53:leaf=0.0166053
					54:leaf=-0.098975
		6:[f4<3.5] yes=13,no=14,missing=13
			13:[f2<16.5] yes=27,no=28,missing=27
				27:[f6<106] yes=55,no=56,missing=55
					55:leaf=-0.104664
					56:leaf=-0.0576924
				28:[f16<0.372685] yes=57,no=58,missing=57
					57:leaf=-0.0747776
					58:leaf=0.0730389
			14:[f11<10.5] yes=29,no=30,missing=29
				29:[f1<30.5] yes=59,no=60,missing=59
					59:leaf=-0.0122162
					60:leaf=0.0642719
				30:[f2<8.5] yes=61,no=62,missing=61
					61:leaf=-0.0992788
					62:leaf=-0.0333982
booster[19]:
0:[f14<1097.5] yes=1,no=2,missing=1
	1:[f16<0.855641] yes=3,no=4,missing=3
		3:[f13<6.5] yes=7,no=8,missing=7
			7:[f13<2.5] yes=15,no=16,missing=15
				15:[f14<153] yes=31,no=32,missing=31
					31:leaf=0.078922
					32:leaf=-0.022633
				16:[f12<46] yes=33,no=34,missing=33
					33:leaf=0.143018
					34:leaf=-0.0156441
			8:[f12<4.5] yes=17,no=18,missing=17
				17:[f14<211.5] yes=35,no=36,missing=35
					35:leaf=-0.0317111
					36:leaf=-0.0865472
				18:[f5<38.5] yes=37,no=38,missing=37
					37:leaf=-0.00170549
					38:leaf=-0.075613
		4:[f11<9.5] yes=9,no=10,missing=9
			9:[f4<1.5] yes=19,no=20,missing=19
				19:[f13<19.5] yes=39,no=40,missing=39
					39:leaf=-0.0994832
					40:leaf=-0.0301721
				20:[f7<6318.8] yes=41,no=42,missing=41
					41:leaf=0.0495843
					42:leaf=-0.0638597
			10:[f4<3.5] yes=21,no=22,missing=21
				21:[f8<3015.13] yes=43,no=44,missing=43
					43:leaf=0.0284404
					44:leaf=-0.0971771
				22:[f7<31320.2] yes=45,no=46,missing=45
					45:leaf=0.0801295
					46:leaf=-0.0782468
	2:[f14<12935.5] yes=5,no=6,missing=5
		5:[f13<7.5] yes=11,no=12,missing=11
			11:[f13<1.5] yes=23,no=24,missing=23
				23:[f8<4270.79] yes=47,no=48,missing=47
					47:leaf=0.0644226
					48:leaf=-0.0756617
				24:[f12<12.5] yes=49,no=50,missing=49
					49:leaf=-0.0558539
					50:leaf=0.0770328
			12:[f7<1436.83] yes=25,no=26,missing=25
				25:[f12<6.5] yes=51,no=52,missing=51
					51:leaf=-0.091121
					52:leaf=0.104398
				26:[f13<12.5] yes=53,no=54,missing=53
					53:leaf=-0.102696
					54:leaf=-0.0836546
		6:[f4<3.5] yes=13,no=14,missing=13
			13:[f12<1.5] yes=27,no=28,missing=27
				27:[f14<20362.5] yes=55,no=56,missing=55
					55:leaf=-0.0494125
					56:leaf=-0.0976472
				28:[f12<113.5] yes=57,no=58,missing=57
					57:leaf=-0.104394
					58:leaf=-0.0762332
			14:[f11<10.5] yes=29,no=30,missing=29
				29:[f1<30.5] yes=59,no=60,missing=59
					59:leaf=0.020538
					60:leaf=0.100352
				30:[f11<39] yes=61,no=62,missing=61
					61:leaf=-0.0370419
					62:leaf=-0.102625
booster[20]:
0:[f14<786.5] yes=1,no=2,missing=1
	1:[f2<3.5] yes=3,no=4,missing=3
		3:[f1<32.5] yes=7,no=8,missing=7
			7:[f12<9.5] yes=15,no=16,missing=15
				15:[f13<5.5] yes=31,no=32,missing=31
					31:leaf=0.020368
					32:leaf=-0.0709123
				16:[f5<6.5] yes=33,no=34,missing=33
					33:leaf=0.0630366
					34:leaf=-0.0496881
			8:[f4<3.5] yes=17,no=18,missing=17
				17:[f7<2474.73] yes=35,no=36,missing=35
					35:leaf=-0.015086
					36:leaf=-0.100872
				18:[f6<20.5] yes=37,no=38,missing=37
					37:leaf=-0.0531361
					38:leaf=0.146385
		4:[f1<75.5] yes=9,no=10,missing=9
			9:[f0<2.5] yes=19,no=20,missing=19
				19:[f0<1.5] yes=39,no=40,missing=39
					39:leaf=-0.100618
					40:leaf=-0.0422247
				20:[f12<6.5] yes=41,no=42,missing=41
					41:leaf=-0.014993
					42:leaf=0.0456199
			10:[f4<2.5] yes=21,no=22,missing=21
				21:[f13<4.5] yes=43,no=44,missing=43
					43:leaf=-0.050165
					44:leaf=-0.103325
				22:[f1<197.5] yes=45,no=46,missing=45
					45:leaf=0.0136796
					46:leaf=-0.0811783
	2:[f14<7546.5] yes=5,no=6,missing=5
		5:[f13<7.5] yes=11,no=12,missing=11
			11:[f12<4.5] yes=23,no=24,missing=23
				23:[f7<25404.6] yes=47,no=48,missing=47
					47:leaf=-0.100167
					48:leaf=-0.040805
				24:[f5<19.5] yes=49,no=50,missing=49
					49:leaf=0.0379191
					50:leaf=-0.0493254
			12:[f12<6.5] yes=25,no=26,missing=25
				25:[f7<373.24] yes=51,no=52,missing=51
					51:leaf=0.0664026
					52:leaf=-0.0933264
				26:[f5<27.5] yes=53,no=54,missing=53
					53:leaf=-0.0513581
					54:leaf=-0.0958889
		6:[f4<3.5] yes=13,no=14,missing=13
			13:[f0<58.5] yes=27,no=28,missing=27
				27:[f12<0.5] yes=55,no=56,missing=55
					55:leaf=-0.0748593
					56:leaf=-0.100823
				28:[f2<5.5] yes=57,no=58,missing=57
					57:leaf=0.17953
					58:leaf=-0.0866391
			14:[f7<24824.2] yes=29,no=30,missing=29
				29:[f6<21] yes=59,no=60,missing=59
					59:leaf=0.000331874
					60:leaf=-0.0989497
				30:[f2<3.5] yes=61,no=62,missing=61
					61:leaf=-0.0524489
					62:leaf=-0.104148
booster[21]:
0:[f14<1156.5] yes=1,no=2,missing=1
	1:[f16<0.834192] yes=3,no=4,missing=3
		3:[f12<2.5] yes=7,no=8,missing=7
			7:[f16<0.458301] yes=15,no=16,missing=15
				15:[f14<209.5] yes=31,no=32,missing=31
					31:leaf=-0.0145912
					32:leaf=-0.0711974
				16:[f13<22.5] yes=33,no=34,missing=33
					33:leaf=-0.0902169
					34:leaf=-0.00483977
			8:[f1<140.5] yes=17,no=18,missing=17
				17:[f0<11.5] yes=35,no=36,missing=35
					35:leaf=-0.0187876
					36:leaf=0.0440622
				18:[f3<2.5] yes=37,no=38,missing=37
					37:leaf=-0.0943726
					38:leaf=0.0361312
		4:[f4<3.5] yes=9,no=10,missing=9
			9:[f1<20.5] yes=19,no=20,missing=19
				19:[f14<84.5] yes=39,no=40,missing=39
					39:leaf=0.00901269
					40:leaf=-0.0727381
				20:[f0<51] yes=41,no=42,missing=41
					41:leaf=-0.0930932
					42:leaf=0.0155455
			10:[f7<31320.2] yes=21,no=22,missing=21
				21:[f10<4.5] yes=43,no=44,missing=43
					43:leaf=0.101647
					44:leaf=-0.00652894
				22:leaf=-0.0674495
	2:[f14<16634] yes=5,no=6,missing=5
		5:[f13<7.5] yes=11,no=12,missing=11
			11:[f16<0.638182] yes=23,no=24,missing=23
				23:[f16<0.40983] yes=45,no=46,missing=45
					45:leaf=-0.053436
					46:leaf=0.082676
				24:[f8<59887.4] yes=47,no=48,missing=47
					47:leaf=-0.0850416
					48:leaf=0.0829126
			12:[f16<0.698837] yes=25,no=26,missing=25
				25:[f7<1443.75] yes=49,no=50,missing=49
					49:leaf=0.00788171
					50:leaf=-0.074195
				26:[f12<11.5] yes=51,no=52,missing=51
					51:leaf=-0.0989505
					52:leaf=-0.0733164
		6:[f4<3.5] yes=13,no=14,missing=13
			13:[f0<92] yes=27,no=28,missing=27
				27:[f12<1.5] yes=53,no=54,missing=53
					53:leaf=-0.0866377
					54:leaf=-0.101977
				28:[f14<36906.5] yes=55,no=56,missing=55
					55:leaf=-0.0736097
					56:leaf=0.0362921
			14:[f8<10930.5] yes=29,no=30,missing=29
				29:[f8<10322.3] yes=57,no=58,missing=57
					57:leaf=-0.0471974
					58:leaf=0.110992
				30:[f12<84] yes=59,no=60,missing=59
					59:leaf=-0.0980954
					60:leaf=-0.0080406
booster[22]:
0:[f14<1410.5] yes=1,no=2,missing=1
	1:[f15<0.163451] yes=3,no=4,missing=3
		3:[f16<0.859334] yes=7,no=8,missing=7
			7:[f1<76.5] yes=15,no=16,missing=15
				15:[f0<2.5] yes=31,no=32,missing=31
					31:leaf=-0.0447058
					32:leaf=0.0377175
				16:[f2<8.5] yes=33,no=34,missing=33
					33:leaf=-0.0803344
					34:leaf=-0.000223567
			8:[f13<6.5] yes=17,no=18,missing=17
				17:[f13<0.5] yes=35,no=36,missing=35
					35:leaf=-0.0598351
					36:leaf=0.106006
				18:[f14<130.5] yes=37,no=38,missing=37
					37:leaf=-0.0261036
					38:leaf=-0.0813219
		4:[f1<42.5] yes=9,no=10,missing=9
			9:[f12<6.5] yes=19,no=20,missing=19
				19:[f1<13.5] yes=39,no=40,missing=39
					39:leaf=-0.0577622
					40:leaf=-0.0953016
				20:[f2<5.5] yes=41,no=42,missing=41
					41:leaf=-0.045666
					42:leaf=0.0329143
			10:[f4<3.5] yes=21,no=22,missing=21
				21:[f9<1.14461e+007] yes=43,no=44,missing=43
					43:leaf=-0.100625
					44:leaf=0.0114985
				22:[f12<42.5] yes=45,no=46,missing=45
					45:leaf=-0.0916739
					46:leaf=0.0450983
	2:[f14<16634] yes=5,no=6,missing=5
		5:[f16<0.701064] yes=11,no=12,missing=11
			11:[f13<6.5] yes=23,no=24,missing=23
				23:[f13<1.5] yes=47,no=48,missing=47
					47:leaf=-0.057373
					48:leaf=0.0759321
				24:[f13<14.5] yes=49,no=50,missing=49
					49:leaf=-0.0861954
					50:leaf=-0.0542462
			12:[f12<12.5] yes=25,no=26,missing=25
				25:[f7<1.57667] yes=51,no=52,missing=51
					51:leaf=0.0430411
					52:leaf=-0.0962791
				26:[f5<4.5] yes=53,no=54,missing=53
					53:leaf=0.101734
					54:leaf=-0.0776856
		6:[f4<3.5] yes=13,no=14,missing=13
			13:[f0<92] yes=27,no=28,missing=27
				27:[f2<18.5] yes=55,no=56,missing=55
					55:leaf=-0.099709
					56:leaf=-0.025686
				28:[f13<14.5] yes=57,no=58,missing=57
					57:leaf=0.085205
					58:leaf=-0.0740617
			14:[f1<44.5] yes=29,no=30,missing=29
				29:[f0<15.5] yes=59,no=60,missing=59
					59:leaf=-0.0702658
					60:leaf=0.118854
				30:[f12<98] yes=61,no=62,missing=61
					61:leaf=-0.0981538
					62:leaf=-0.00443884
booster[23]:
0:[f15<0.117786] yes=1,no=2,missing=1
	1:[f16<0.941742] yes=3,no=4,missing=3
		3:[f6<11.5] yes=7,no=8,missing=7
			7:[f2<4.5] yes=15,no=16,missing=15
				15:[f13<6.5] yes=27,no=28,missing=27
					27:leaf=0.0294632
					28:leaf=-0.0439555
				16:[f7<3924.91] yes=29,no=30,missing=29
					29:leaf=-0.0701994
					30:leaf=0.0308178
			8:[f0<9.5] yes=17,no=18,missing=17
				17:[f8<3654.1] yes=31,no=32,missing=31
					31:leaf=0.0685773
					32:leaf=-0.0898085
				18:[f1<197.5] yes=33,no=34,missing=33
					33:leaf=-0.0190061
					34:leaf=-0.0920237
		4:[f8<187627] yes=9,no=10,missing=9
			9:[f1<13.5] yes=19,no=20,missing=19
				19:[f6<9.5] yes=35,no=36,missing=35
					35:leaf=-0.0911014
					36:leaf=0.163805
				20:[f4<3.5] yes=37,no=38,missing=37
					37:leaf=-0.0977408
					38:leaf=-0.0115383
			10:leaf=0.0612557
	2:[f4<3.5] yes=5,no=6,missing=5
		5:[f15<0.232681] yes=11,no=12,missing=11
			11:[f13<5.5] yes=21,no=22,missing=21
				21:[f0<33] yes=39,no=40,missing=39
					39:leaf=-0.0350326
					40:leaf=0.129781
				22:[f7<1372.98] yes=41,no=42,missing=41
					41:leaf=0.0378024
					42:leaf=-0.0778357
			12:[f10<2153.5] yes=23,no=24,missing=23
				23:[f0<94] yes=43,no=44,missing=43
					43:leaf=-0.0965968
					44:leaf=-0.0309206
				24:[f8<6018.5] yes=45,no=46,missing=45
					45:leaf=-0.0235544
					46:leaf=-0.0847901
		6:[f16<0.802198] yes=13,no=14,missing=13
			13:[f8<28029.4] yes=25,no=26,missing=25
				25:[f7<17446.6] yes=47,no=48,missing=47
					47:leaf=-0.00922417
					48:leaf=0.0981972
				26:leaf=-0.0846597
			14:leaf=-0.0972021
booster[24]:
0:[f15<0.117786] yes=1,no=2,missing=1
	1:[f11<32.5] yes=3,no=4,missing=3
		3:[f2<6.5] yes=7,no=8,missing=7
			7:[f13<6.5] yes=15,no=16,missing=15
				15:[f9<481844] yes=29,no=30,missing=29
					29:leaf=0.0013065
					30:leaf=0.190409
				16:[f13<12.5] yes=31,no=32,missing=31
					31:leaf=-0.0732783
					32:leaf=-0.030635
			8:[f8<8500.01] yes=17,no=18,missing=17
				17:[f8<4463.46] yes=33,no=34,missing=33
					33:leaf=0.16708
					34:leaf=-0.0547395
				18:[f2<11.5] yes=35,no=36,missing=35
					35:leaf=0.0291259
					36:leaf=0.110811
		4:[f0<12.5] yes=9,no=10,missing=9
			9:[f8<31706.5] yes=19,no=20,missing=19
				19:[f11<33.5] yes=37,no=38,missing=37
					37:leaf=-0.0543256
					38:leaf=-0.105965
				20:[f10<3669.5] yes=39,no=40,missing=39
					39:leaf=-0.0939004
					40:leaf=0.0153316
			10:[f11<92.5] yes=21,no=22,missing=21
				21:[f15<0.0268468] yes=41,no=42,missing=41
					41:leaf=0.0480557
					42:leaf=-0.0640884
				22:[f3<2.5] yes=43,no=44,missing=43
					43:leaf=-0.0964174
					44:leaf=-0.00433433
	2:[f11<40.5] yes=5,no=6,missing=5
		5:[f2<6.5] yes=11,no=12,missing=11
			11:[f0<57.5] yes=23,no=24,missing=23
				23:[f15<0.232946] yes=45,no=46,missing=45
					45:leaf=-0.0634891
					46:leaf=-0.0842301
				24:leaf=0.0981012
			12:[f15<0.255358] yes=25,no=26,missing=25
				25:[f16<0.126603] yes=47,no=48,missing=47
					47:leaf=-0.0817062
					48:leaf=0.0484667
				26:[f8<28464.9] yes=49,no=50,missing=49
					49:leaf=-0.0730602
					50:leaf=0.0703135
		6:[f2<20.5] yes=13,no=14,missing=13
			13:[f6<104] yes=27,no=28,missing=27
				27:[f1<43.5] yes=51,no=52,missing=51
					51:leaf=-0.0526363
					52:leaf=-0.101767
				28:[f11<281.5] yes=53,no=54,missing=53
					53:leaf=-0.00642087
					54:leaf=-0.0857059
			14:leaf=-0.0259209
booster[25]:
0:[f14<1156.5] yes=1,no=2,missing=1
	1:[f15<0.222566] yes=3,no=4,missing=3
		3:[f11<38.5] yes=7,no=8,missing=7
			7:[f14<152.5] yes=15,no=16,missing=15
				15:[f11<1.5] yes=31,no=32,missing=31
					31:leaf=-0.0688761
					32:leaf=0.0661189
				16:[f2<4.5] yes=33,no=34,missing=33
					33:leaf=-0.0332469
					34:leaf=0.0272423
			8:[f0<12.5] yes=17,no=18,missing=17
				17:[f13<1.5] yes=35,no=36,missing=35
					35:leaf=-0.0366848
					36:leaf=-0.103337
				18:[f15<0.0267047] yes=37,no=38,missing=37
					37:leaf=0.053641
					38:leaf=-0.0716548
		4:[f11<24.5] yes=9,no=10,missing=9
			9:[f0<12.5] yes=19,no=20,missing=19
				19:[f11<7.5] yes=39,no=40,missing=39
					39:leaf=-0.0460633
					40:leaf=-0.0818239
				20:[f16<0.378022] yes=41,no=42,missing=41
					41:leaf=0.0917968
					42:leaf=-0.0306216
			10:[f7<980050] yes=21,no=22,missing=21
				21:[f8<45914.9] yes=43,no=44,missing=43
					43:leaf=-0.100019
					44:leaf=-0.0566384
				22:leaf=0.0128392
	2:[f14<11946.5] yes=5,no=6,missing=5
		5:[f11<32.5] yes=11,no=12,missing=11
			11:[f15<0.132704] yes=23,no=24,missing=23
				23:[f13<7.5] yes=45,no=46,missing=45
					45:leaf=0.0558412
					46:leaf=-0.0307448
				24:[f12<14.5] yes=47,no=48,missing=47
					47:leaf=-0.0805586
					48:leaf=-0.0272387
			12:[f0<29.5] yes=25,no=26,missing=25
				25:[f14<10721.5] yes=49,no=50,missing=49
					49:leaf=-0.100125
					50:leaf=-0.06297
				26:[f11<67.5] yes=51,no=52,missing=51
					51:leaf=0.0062367
					52:leaf=-0.093159
		6:[f2<4.5] yes=13,no=14,missing=13
			13:[f12<0.5] yes=27,no=28,missing=27
				27:[f14<20892.5] yes=53,no=54,missing=53
					53:leaf=0.0464152
					54:leaf=-0.0952002
				28:[f0<37.5] yes=55,no=56,missing=55
					55:leaf=-0.0992784
					56:leaf=-0.040842
			14:[f12<1.5] yes=29,no=30,missing=29
				29:[f14<31403] yes=57,no=58,missing=57
					57:leaf=0.117319
					58:leaf=-0.0914757
				30:[f1<44.5] yes=59,no=60,missing=59
					59:leaf=-0.0716465
					60:leaf=-0.0943598
booster[26]:
0:[f15<0.111438] yes=1,no=2,missing=1
	1:[f2<2.5] yes=3,no=4,missing=3
		3:[f11<23.5] yes=7,no=8,missing=7
			7:[f11<1.5] yes=15,no=16,missing=15
				15:[f7<1804.75] yes=29,no=30,missing=29
					29:leaf=-0.054455
					30:leaf=-0.106308
				16:[f11<2.5] yes=31,no=32,missing=31
					31:leaf=0.134053
					32:leaf=-0.0629219
			8:[f6<29.5] yes=17,no=18,missing=17
				17:leaf=-0.101399
				18:[f11<61.5] yes=33,no=34,missing=33
					33:leaf=0.0399463
					34:leaf=-0.0966986
		4:[f6<15.5] yes=9,no=10,missing=9
			9:[f11<4.5] yes=19,no=20,missing=19
				19:[f16<0.146429] yes=35,no=36,missing=35
					35:leaf=-0.00391299
					36:leaf=-0.0828429
				20:[f11<17.5] yes=37,no=38,missing=37
					37:leaf=0.0380477
					38:leaf=-0.0186907
			10:[f2<8.5] yes=21,no=22,missing=21
				21:[f4<3.5] yes=39,no=40,missing=39
					39:leaf=-0.0850575
					40:leaf=0.0196734
				22:[f11<92.5] yes=41,no=42,missing=41
					41:leaf=0.0141596
					42:leaf=-0.0824037
	2:[f11<40.5] yes=5,no=6,missing=5
		5:[f4<3.5] yes=11,no=12,missing=11
			11:[f15<0.231327] yes=23,no=24,missing=23
				23:[f7<1479.59] yes=43,no=44,missing=43
					43:leaf=0.072591
					44:leaf=-0.0538334
				24:[f7<48109.4] yes=45,no=46,missing=45
					45:leaf=-0.081879
					46:leaf=-0.0503806
			12:[f2<4.5] yes=25,no=26,missing=25
				25:[f8<25533.3] yes=47,no=48,missing=47
					47:leaf=-0.103575
					48:leaf=0.0736111
				26:[f8<11397.3] yes=49,no=50,missing=49
					49:leaf=0.118779
					50:leaf=-0.00197464
		6:[f2<20.5] yes=13,no=14,missing=13
			13:[f6<83.5] yes=27,no=28,missing=27
				27:[f1<43.5] yes=51,no=52,missing=51
					51:leaf=-0.0475168
					52:leaf=-0.0997829
				28:[f1<425.5] yes=53,no=54,missing=53
					53:leaf=0.0195649
					54:leaf=-0.0885807
			14:leaf=-0.00117996
booster[27]:
0:[f14<4330.5] yes=1,no=2,missing=1
	1:[f15<0.170892] yes=3,no=4,missing=3
		3:[f11<32.5] yes=7,no=8,missing=7
			7:[f16<0.955534] yes=15,no=16,missing=15
				15:[f13<6.5] yes=31,no=32,missing=31
					31:leaf=0.0858015
					32:leaf=0.0140015
				16:[f12<10.5] yes=33,no=34,missing=33
					33:leaf=-0.088392
					34:leaf=0.012719
			8:[f0<12.5] yes=17,no=18,missing=17
				17:[f11<33.5] yes=35,no=36,missing=35
					35:leaf=0.00323318
					36:leaf=-0.0957665
				18:[f15<0.0267047] yes=37,no=38,missing=37
					37:leaf=0.0395621
					38:leaf=-0.0612127
		4:[f11<14.5] yes=9,no=10,missing=9
			9:[f2<5.5] yes=19,no=20,missing=19
				19:[f12<11.5] yes=39,no=40,missing=39
					39:leaf=-0.057578
					40:leaf=-0.00938203
				20:[f1<36.5] yes=41,no=42,missing=41
					41:leaf=0.0833069
					42:leaf=-0.091714
			10:[f2<6.5] yes=21,no=22,missing=21
				21:[f16<0.584119] yes=43,no=44,missing=43
					43:leaf=-0.0676845
					44:leaf=-0.0970959
				22:[f8<60041.8] yes=45,no=46,missing=45
					45:leaf=-0.051503
					46:leaf=0.159402
	2:[f14<18280] yes=5,no=6,missing=5
		5:[f16<0.701064] yes=11,no=12,missing=11
			11:[f16<0.593289] yes=23,no=24,missing=23
				23:[f11<35.5] yes=47,no=48,missing=47
					47:leaf=-0.0563496
					48:leaf=-0.0987988
				24:[f9<35515] yes=49,no=50,missing=49
					49:leaf=-0.0880436
					50:leaf=0.0712428
			12:[f8<153050] yes=25,no=26,missing=25
				25:[f12<0.5] yes=51,no=52,missing=51
					51:leaf=-0.0494016
					52:leaf=-0.093177
				26:leaf=0.112706
		6:[f0<92] yes=13,no=14,missing=13
			13:[f2<7.5] yes=27,no=28,missing=27
				27:[f15<0.0437172] yes=53,no=54,missing=53
					53:leaf=-0.0788385
					54:leaf=-0.097404
				28:[f3<2.5] yes=55,no=56,missing=55
					55:leaf=-0.0816687
					56:leaf=0.0406469
			14:[f14<35835] yes=29,no=30,missing=29
				29:leaf=-0.0576883
				30:leaf=0.0614742
booster[28]:
0:[f14<4178] yes=1,no=2,missing=1
	1:[f15<0.232681] yes=3,no=4,missing=3
		3:[f11<58.5] yes=7,no=8,missing=7
			7:[f14<152.5] yes=15,no=16,missing=15
				15:[f10<3767.5] yes=31,no=32,missing=31
					31:leaf=0.0683124
					32:leaf=-0.0699867
				16:[f12<8.5] yes=33,no=34,missing=33
					33:leaf=-0.0383586
					34:leaf=0.0187757
			8:[f0<25.5] yes=17,no=18,missing=17
				17:[f9<38099.5] yes=35,no=36,missing=35
					35:leaf=-0.0254485
					36:leaf=-0.0938829
				18:[f11<137] yes=37,no=38,missing=37
					37:leaf=0.0389947
					38:leaf=-0.0864766
		4:[f11<26.5] yes=9,no=10,missing=9
			9:[f4<3.5] yes=19,no=20,missing=19
				19:[f7<2.10149] yes=39,no=40,missing=39
					39:leaf=0.143983
					40:leaf=-0.0554294
				20:leaf=0.137527
			10:[f15<0.2621] yes=21,no=22,missing=21
				21:[f11<38.5] yes=41,no=42,missing=41
					41:leaf=0.0331082
					42:leaf=-0.0792549
				22:[f4<3.5] yes=43,no=44,missing=43
					43:leaf=-0.0984602
					44:leaf=-0.0463904
	2:[f14<18280] yes=5,no=6,missing=5
		5:[f13<9.5] yes=11,no=12,missing=11
			11:[f13<2.5] yes=23,no=24,missing=23
				23:[f7<40088.4] yes=45,no=46,missing=45
					45:leaf=-0.0900412
					46:leaf=0.0373456
				24:[f12<12.5] yes=47,no=48,missing=47
					47:leaf=-0.0697573
					48:leaf=0.0926005
			12:[f14<18067.5] yes=25,no=26,missing=25
				25:[f7<1443.75] yes=49,no=50,missing=49
					49:leaf=-0.0139663
					50:leaf=-0.0806563
				26:leaf=0.0714313
		6:[f4<3.5] yes=13,no=14,missing=13
			13:[f0<92] yes=27,no=28,missing=27
				27:[f10<3259] yes=51,no=52,missing=51
					51:leaf=-0.0962324
					52:leaf=-0.081033
				28:leaf=0.0270038
			14:[f11<10.5] yes=29,no=30,missing=29
				29:leaf=0.0651214
				30:[f12<98] yes=53,no=54,missing=53
					53:leaf=-0.0780411
					54:leaf=0.0491108
booster[29]:
0:[f14<4330.5] yes=1,no=2,missing=1
	1:[f15<0.111526] yes=3,no=4,missing=3
		3:[f11<19.5] yes=7,no=8,missing=7
			7:[f11<1.5] yes=15,no=16,missing=15
				15:[f5<6.5] yes=31,no=32,missing=31
					31:leaf=-0.0578318
					32:leaf=-0.113652
				16:[f6<4.5] yes=33,no=34,missing=33
					33:leaf=-0.0780844
					34:leaf=0.0507103
			8:[f0<12.5] yes=17,no=18,missing=17
				17:[f1<47.5] yes=35,no=36,missing=35
					35:leaf=-0.051568
					36:leaf=-0.0989259
				18:[f11<92.5] yes=37,no=38,missing=37
					37:leaf=0.0443809
					38:leaf=-0.0632059
		4:[f11<14.5] yes=9,no=10,missing=9
			9:[f6<5.5] yes=19,no=20,missing=19
				19:[f10<980] yes=39,no=40,missing=39
					39:leaf=-0.0889487
					40:leaf=-0.0311926
				20:[f5<29.5] yes=41,no=42,missing=41
					41:leaf=0.0230715
					42:leaf=-0.10026
			10:[f2<6.5] yes=21,no=22,missing=21
				21:[f4<3.5] yes=43,no=44,missing=43
					43:leaf=-0.0882133
					44:leaf=-0.00785765
				22:[f5<17.5] yes=45,no=46,missing=45
					45:leaf=0.100637
					46:leaf=-0.0584639
	2:[f2<7.5] yes=5,no=6,missing=5
		5:[f10<3259] yes=11,no=12,missing=11
			11:[f0<92] yes=23,no=24,missing=23
				23:[f4<3.5] yes=47,no=48,missing=47
					47:leaf=-0.0924896
					48:leaf=-0.0423516
				24:[f15<0.493851] yes=49,no=50,missing=49
					49:leaf=0.160115
					50:leaf=-0.0892399
			12:[f15<0.118824] yes=25,no=26,missing=25
				25:[f14<13176.5] yes=51,no=52,missing=51
					51:leaf=0.0793716
					52:leaf=-0.0742501
				26:[f8<5464.29] yes=53,no=54,missing=53
					53:leaf=0.0736332
					54:leaf=-0.0825396
		6:[f11<36.5] yes=13,no=14,missing=13
			13:[f11<26.5] yes=27,no=28,missing=27
				27:[f10<2875] yes=55,no=56,missing=55
					55:leaf=-0.0657129
					56:leaf=0.115207
				28:[f0<15.5] yes=57,no=58,missing=57
					57:leaf=-0.0647258
					58:leaf=0.112235
			14:[f2<16.5] yes=29,no=30,missing=29
				29:leaf=-0.0998887
				30:[f5<53.5] yes=59,no=60,missing=59
					59:leaf=0.0906353
					60:leaf=-0.0779532
booster[30]:
0:[f14<4330.5] yes=1,no=2,missing=1
	1:[f15<0.231117] yes=3,no=4,missing=3
		3:[f16<0.941742] yes=7,no=8,missing=7
			7:[f14<196.5] yes=15,no=16,missing=15
				15:[f10<3786] yes=31,no=32,missing=31
					31:leaf=0.0460095
					32:leaf=-0.0726253
				16:[f13<7.5] yes=33,no=34,missing=33
					33:leaf=0.0407793
					34:leaf=-0.0247049
			8:[f14<85.5] yes=17,no=18,missing=17
				17:[f8<8154.9] yes=35,no=36,missing=35
					35:leaf=0.106908
					36:leaf=-0.0625734
				18:[f15<0.199099] yes=37,no=38,missing=37
					37:leaf=-0.0854135
					38:leaf=-0.0332995
		4:[f16<0.432634] yes=9,no=10,missing=9
			9:[f5<18.5] yes=19,no=20,missing=19
				19:[f2<5.5] yes=39,no=40,missing=39
					39:leaf=-0.029436
					40:leaf=0.0857066
				20:[f15<0.252217] yes=41,no=42,missing=41
					41:leaf=0.0346013
					42:leaf=-0.0803251
			10:[f8<6150.13] yes=21,no=22,missing=21
				21:[f8<5408.93] yes=43,no=44,missing=43
					43:leaf=-0.0683927
					44:leaf=0.0733957
				22:[f10<1991] yes=45,no=46,missing=45
					45:leaf=-0.090937
					46:leaf=-0.0667834
	2:[f14<18198.5] yes=5,no=6,missing=5
		5:[f16<0.701064] yes=11,no=12,missing=11
			11:[f7<1480.51] yes=23,no=24,missing=23
				23:[f7<1424.62] yes=47,no=48,missing=47
					47:leaf=-0.056819
					48:leaf=0.260228
				24:[f16<0.589445] yes=49,no=50,missing=49
					49:leaf=-0.0639816
					50:leaf=0.0232308
			12:[f8<142689] yes=25,no=26,missing=25
				25:[f12<11.5] yes=51,no=52,missing=51
					51:leaf=-0.0939863
					52:leaf=-0.0692961
				26:leaf=0.0853022
		6:[f2<7.5] yes=13,no=14,missing=13
			13:[f0<92] yes=27,no=28,missing=27
				27:[f12<1.5] yes=53,no=54,missing=53
					53:leaf=-0.068279
					54:leaf=-0.0943065
				28:leaf=0.00620519
			14:[f3<2.5] yes=29,no=30,missing=29
				29:[f5<19.5] yes=55,no=56,missing=55
					55:leaf=-0.00215691
					56:leaf=-0.0870995
				30:[f8<11106.1] yes=57,no=58,missing=57
					57:leaf=0.091287
					58:leaf=-0.0399576
booster[31]:
0:[f14<7545.5] yes=1,no=2,missing=1
	1:[f15<0.163451] yes=3,no=4,missing=3
		3:[f11<92.5] yes=7,no=8,missing=7
			7:[f0<27.5] yes=15,no=16,missing=15
				15:[f11<17.5] yes=31,no=32,missing=31
					31:leaf=0.0164959
					32:leaf=-0.0377197
				16:[f7<22815.7] yes=33,no=34,missing=33
					33:leaf=0.0458245
					34:leaf=0.124569
			8:[f3<2.5] yes=17,no=18,missing=17
				17:leaf=-0.0919702
				18:[f10<1770.5] yes=35,no=36,missing=35
					35:leaf=-0.0664821
					36:leaf=0.105514
		4:[f11<14.5] yes=9,no=10,missing=9
			9:[f11<0.5] yes=19,no=20,missing=19
				19:[f7<1480.51] yes=37,no=38,missing=37
					37:leaf=0.0169727
					38:leaf=-0.0888267
				20:[f8<5408.62] yes=39,no=40,missing=39
					39:leaf=-0.0952675
					40:leaf=-0.0146168
			10:[f2<6.5] yes=21,no=22,missing=21
				21:[f7<56004.9] yes=41,no=42,missing=41
					41:leaf=-0.0925226
					42:leaf=-0.0580397
				22:[f8<60041.8] yes=43,no=44,missing=43
					43:leaf=-0.0516665
					44:leaf=0.141256
	2:[f2<7.5] yes=5,no=6,missing=5
		5:[f12<1.5] yes=11,no=12,missing=11
			11:[f10<2120] yes=23,no=24,missing=23
				23:[f15<0.0571895] yes=45,no=46,missing=45
					45:leaf=-0.0296371
					46:leaf=-0.0979303
				24:[f8<12784.1] yes=47,no=48,missing=47
					47:leaf=-0.0871905
					48:leaf=0.00879135
			12:[f12<22.5] yes=25,no=26,missing=25
				25:[f7<97506.9] yes=49,no=50,missing=49
					49:leaf=-0.0940602
					50:leaf=-0.059163
				26:[f7<1496.54] yes=51,no=52,missing=51
					51:leaf=0.140406
					52:leaf=-0.0717467
		6:[f13<7.5] yes=13,no=14,missing=13
			13:[f14<43972.5] yes=27,no=28,missing=27
				27:[f13<1.5] yes=53,no=54,missing=53
					53:leaf=-0.0216751
					54:leaf=0.115652
				28:leaf=-0.0887579
			14:[f1<44.5] yes=29,no=30,missing=29
				29:[f1<36.5] yes=55,no=56,missing=55
					55:leaf=-0.0785652
					56:leaf=0.0770053
				30:[f12<107] yes=57,no=58,missing=57
					57:leaf=-0.0952377
					58:leaf=-0.036502
booster[32]:
0:[f14<7545.5] yes=1,no=2,missing=1
	1:[f15<0.232681] yes=3,no=4,missing=3
		3:[f11<58.5] yes=7,no=8,missing=7
			7:[f14<204.5] yes=15,no=16,missing=15
				15:[f11<13.5] yes=29,no=30,missing=29
					29:leaf=0.0615508
					30:leaf=0.0128096
				16:[f12<8.5] yes=31,no=32,missing=31
					31:leaf=-0.040038
					32:leaf=0.0161819
			8:[f2<8.5] yes=17,no=18,missing=17
				17:[f16<0.0169495] yes=33,no=34,missing=33
					33:leaf=0.0391004
					34:leaf=-0.090542
				18:[f11<142.5] yes=35,no=36,missing=35
					35:leaf=0.06076
					36:leaf=-0.0882162
		4:[f11<24.5] yes=9,no=10,missing=9
			9:[f4<3.5] yes=19,no=20,missing=19
				19:[f2<5.5] yes=37,no=38,missing=37
					37:leaf=-0.0515621
					38:leaf=0.0192997
				20:[f11<11] yes=39,no=40,missing=39
					39:leaf=0.161961
					40:leaf=0.0577142
			10:[f15<0.275612] yes=21,no=22,missing=21
				21:[f2<6.5] yes=41,no=42,missing=41
					41:leaf=-0.0913972
					42:leaf=0.093939
				22:[f16<0.0805757] yes=43,no=44,missing=43
					43:leaf=-0.0462276
					44:leaf=-0.0940548
	2:[f4<3.5] yes=5,no=6,missing=5
		5:[f14<46503.5] yes=11,no=12,missing=11
			11:[f16<0.644296] yes=23,no=24,missing=23
				23:[f7<1479.59] yes=45,no=46,missing=45
					45:leaf=0.0713726
					46:leaf=-0.0612583
				24:[f12<109] yes=47,no=48,missing=47
					47:leaf=-0.0884451
					48:leaf=0.0127504
			12:[f0<86] yes=25,no=26,missing=25
				25:[f13<16.5] yes=49,no=50,missing=49
					49:leaf=-0.0996995
					50:leaf=-0.0799674
				26:leaf=0.0362788
		6:[f11<44.5] yes=13,no=14,missing=13
			13:[f14<34377] yes=27,no=28,missing=27
				27:[f0<16.5] yes=51,no=52,missing=51
					51:leaf=0.024582
					52:leaf=0.145106
				28:[f8<12764.2] yes=53,no=54,missing=53
					53:leaf=0.0333592
					54:leaf=-0.094415
			14:leaf=-0.0968119
booster[33]:
0:[f14<7545.5] yes=1,no=2,missing=1
	1:[f15<0.163451] yes=3,no=4,missing=3
		3:[f16<0.947502] yes=7,no=8,missing=7
			7:[f6<11.5] yes=15,no=16,missing=15
				15:[f15<0.0364745] yes=31,no=32,missing=31
					31:leaf=0.0847308
					32:leaf=0.0136764
				16:[f0<8.5] yes=33,no=34,missing=33
					33:leaf=-0.0674453
					34:leaf=0.000674288
			8:[f12<9.5] yes=17,no=18,missing=17
				17:[f14<5787.5] yes=35,no=36,missing=35
					35:leaf=-0.0922103
					36:leaf=0.0186945
				18:[f1<13.5] yes=37,no=38,missing=37
					37:leaf=0.143941
					38:leaf=-0.0614716
		4:[f1<41.5] yes=9,no=10,missing=9
			9:[f12<6.5] yes=19,no=20,missing=19
				19:[f10<1669.5] yes=39,no=40,missing=39
					39:leaf=-0.0868223
					40:leaf=-0.0419071
				20:[f14<3805] yes=41,no=42,missing=41
					41:leaf=0.0172243
					42:leaf=-0.0651378
			10:[f0<22.5] yes=21,no=22,missing=21
				21:[f2<8.5] yes=43,no=44,missing=43
					43:leaf=-0.094881
					44:leaf=-0.0392089
				22:[f5<29.5] yes=45,no=46,missing=45
					45:leaf=-0.00877923
					46:leaf=-0.0719657
	2:[f2<7.5] yes=5,no=6,missing=5
		5:[f0<92] yes=11,no=12,missing=11
			11:[f14<46503.5] yes=23,no=24,missing=23
				23:[f12<1.5] yes=47,no=48,missing=47
					47:leaf=-0.0272023
					48:leaf=-0.0781526
				24:[f2<6.5] yes=49,no=50,missing=49
					49:leaf=-0.0949133
					50:leaf=-0.0520325
			12:[f14<30806] yes=25,no=26,missing=25
				25:leaf=-0.0234982
				26:leaf=0.060201
		6:[f5<22.5] yes=13,no=14,missing=13
			13:[f1<32.5] yes=27,no=28,missing=27
				27:[f14<25443.5] yes=51,no=52,missing=51
					51:leaf=-0.0136288
					52:leaf=-0.0960732
				28:[f15<0.111197] yes=53,no=54,missing=53
					53:leaf=0.229043
					54:leaf=0.0165778
			14:[f12<60.5] yes=29,no=30,missing=29
				29:[f2<17.5] yes=55,no=56,missing=55
					55:leaf=-0.0982739
					56:leaf=-0.0342605
				30:[f5<41.5] yes=57,no=58,missing=57
					57:leaf=0.0867881
					58:leaf=-0.075142
booster[34]:
0:[f14<7545.5] yes=1,no=2,missing=1
	1:[f15<0.232681] yes=3,no=4,missing=3
		3:[f16<0.942017] yes=7,no=8,missing=7
			7:[f1<140.5] yes=15,no=16,missing=15
				15:[f0<11.5] yes=31,no=32,missing=31
					31:leaf=-0.00573176
					32:leaf=0.0341811
				16:[f0<28.5] yes=33,no=34,missing=33
					33:leaf=-0.0947282
					34:leaf=-0.0165462
			8:[f1<19.5] yes=17,no=18,missing=17
				17:[f14<472] yes=35,no=36,missing=35
					35:leaf=0.0369457
					36:leaf=-0.0834254
				18:[f13<1.5] yes=37,no=38,missing=37
					37:leaf=-0.00371641
					38:leaf=-0.0863075
		4:[f16<0.633587] yes=9,no=10,missing=9
			9:[f7<12057.8] yes=19,no=20,missing=19
				19:[f16<0.2965] yes=39,no=40,missing=39
					39:leaf=-0.0877691
					40:leaf=-0.0257272
				20:[f15<0.745192] yes=41,no=42,missing=41
					41:leaf=-0.0157323
					42:leaf=0.224405
			10:[f8<6150.13] yes=21,no=22,missing=21
				21:[f7<8232.52] yes=43,no=44,missing=43
					43:leaf=-0.0269956
					44:leaf=0.23328
				22:[f0<42.5] yes=45,no=46,missing=45
					45:leaf=-0.0790028
					46:leaf=0.0371209
	2:[f4<3.5] yes=5,no=6,missing=5
		5:[f14<46503.5] yes=11,no=12,missing=11
			11:[f16<0.643701] yes=23,no=24,missing=23
				23:[f7<1935.96] yes=47,no=48,missing=47
					47:leaf=0.0643096
					48:leaf=-0.0529284
				24:[f12<109.5] yes=49,no=50,missing=49
					49:leaf=-0.0847376
					50:leaf=0.0346396
			12:[f0<86] yes=25,no=26,missing=25
				25:[f13<16.5] yes=51,no=52,missing=51
					51:leaf=-0.0981371
					52:leaf=-0.0726822
				26:leaf=-0.00592292
		6:[f7<24824.2] yes=13,no=14,missing=13
			13:[f8<9398.74] yes=27,no=28,missing=27
				27:[f8<6153.06] yes=53,no=54,missing=53
					53:leaf=0.0558825
					54:leaf=-0.0753916
				28:[f10<4.5] yes=55,no=56,missing=55
					55:leaf=0.0240679
					56:leaf=0.129057
			14:[f12<87] yes=29,no=30,missing=29
				29:[f14<33926.5] yes=57,no=58,missing=57
					57:leaf=-0.0393006
					58:leaf=-0.0879614
				30:leaf=0.0101539
booster[35]:
0:[f14<1410.5] yes=1,no=2,missing=1
	1:[f12<4.5] yes=3,no=4,missing=3
		3:[f11<10.5] yes=7,no=8,missing=7
			7:[f5<8.5] yes=15,no=16,missing=15
				15:[f10<1991] yes=31,no=32,missing=31
					31:leaf=-0.0781163
					32:leaf=0.00527615
				16:[f3<1.5] yes=33,no=34,missing=33
					33:leaf=0.157353
					34:leaf=-0.0400928
			8:[f15<0.0840396] yes=17,no=18,missing=17
				17:[f4<2.5] yes=35,no=36,missing=35
					35:leaf=-0.0581211
					36:leaf=0.0184473
				18:[f9<161389] yes=37,no=38,missing=37
					37:leaf=-0.0907556
					38:leaf=-0.0415563
		4:[f11<92.5] yes=9,no=10,missing=9
			9:[f11<1.5] yes=19,no=20,missing=19
				19:[f7<1798.56] yes=39,no=40,missing=39
					39:leaf=0.0262278
					40:leaf=-0.0855736
				20:[f13<6.5] yes=41,no=42,missing=41
					41:leaf=0.0747444
					42:leaf=0.0108203
			10:[f3<2.5] yes=21,no=22,missing=21
				21:[f8<6703.54] yes=43,no=44,missing=43
					43:leaf=-0.0361201
					44:leaf=-0.0876133
				22:[f15<0.0279459] yes=45,no=46,missing=45
					45:leaf=0.1335
					46:leaf=-0.0829212
	2:[f14<18196] yes=5,no=6,missing=5
		5:[f11<32.5] yes=11,no=12,missing=11
			11:[f9<129706] yes=23,no=24,missing=23
				23:[f12<13.5] yes=47,no=48,missing=47
					47:leaf=-0.0618991
					48:leaf=0.00239261
				24:[f3<1.5] yes=49,no=50,missing=49
					49:leaf=0.0987999
					50:leaf=-0.0247607
			12:[f12<52.5] yes=25,no=26,missing=25
				25:[f12<1.5] yes=51,no=52,missing=51
					51:leaf=-0.0517343
					52:leaf=-0.0928939
				26:[f5<71.5] yes=53,no=54,missing=53
					53:leaf=0.0437368
					54:leaf=-0.0936454
		6:[f4<3.5] yes=13,no=14,missing=13
			13:[f12<29.5] yes=27,no=28,missing=27
				27:[f12<1.5] yes=55,no=56,missing=55
					55:leaf=-0.0536191
					56:leaf=-0.0887661
				28:[f5<18.5] yes=57,no=58,missing=57
					57:leaf=0.0379583
					58:leaf=-0.0758742
			14:[f11<39] yes=29,no=30,missing=29
				29:[f13<19.5] yes=59,no=60,missing=59
					59:leaf=0.0531638
					60:leaf=-0.0846357
				30:leaf=-0.079049
booster[36]:
0:[f14<7270.5] yes=1,no=2,missing=1
	1:[f11<38.5] yes=3,no=4,missing=3
		3:[f2<6.5] yes=7,no=8,missing=7
			7:[f14<105.5] yes=15,no=16,missing=15
				15:[f15<0.365152] yes=31,no=32,missing=31
					31:leaf=0.0503661
					32:leaf=-0.056911
				16:[f12<8.5] yes=33,no=34,missing=33
					33:leaf=-0.0412112
					34:leaf=-0.00205394
			8:[f9<85939] yes=17,no=18,missing=17
				17:[f6<14.5] yes=35,no=36,missing=35
					35:leaf=0.0257171
					36:leaf=-0.0657139
				18:[f13<13.5] yes=37,no=38,missing=37
					37:leaf=0.0223769
					38:leaf=0.0908368
		4:[f15<0.0441583] yes=9,no=10,missing=9
			9:[f11<98.5] yes=19,no=20,missing=19
				19:[f2<3.5] yes=39,no=40,missing=39
					39:leaf=-0.0655576
					40:leaf=0.0370382
				20:[f15<0.031849] yes=41,no=42,missing=41
					41:leaf=-0.0839053
					42:leaf=0.0680528
			10:[f11<41.5] yes=21,no=22,missing=21
				21:[f15<0.144345] yes=43,no=44,missing=43
					43:leaf=0.0376999
					44:leaf=-0.0928384
				22:[f6<41.5] yes=45,no=46,missing=45
					45:leaf=-0.0959823
					46:leaf=-0.0660816
	2:[f12<22.5] yes=5,no=6,missing=5
		5:[f10<3358] yes=11,no=12,missing=11
			11:[f2<5.5] yes=23,no=24,missing=23
				23:[f14<17528] yes=47,no=48,missing=47
					47:leaf=-0.075033
					48:leaf=-0.0960259
				24:[f12<1.5] yes=49,no=50,missing=49
					49:leaf=0.0876585
					50:leaf=-0.0623329
			12:[f10<3828.5] yes=25,no=26,missing=25
				25:leaf=0.173749
				26:[f12<1.5] yes=51,no=52,missing=51
					51:leaf=-9.90146e-005
					52:leaf=-0.0794242
		6:[f5<12.5] yes=13,no=14,missing=13
			13:[f14<12943.5] yes=27,no=28,missing=27
				27:leaf=0.225267
				28:[f10<6.5] yes=53,no=54,missing=53
					53:leaf=0.134665
					54:leaf=-0.0838616
			14:[f12<81.5] yes=29,no=30,missing=29
				29:[f2<16.5] yes=55,no=56,missing=55
					55:leaf=-0.079541
					56:leaf=0.081078
				30:[f5<39.5] yes=57,no=58,missing=57
					57:leaf=0.0788227
					58:leaf=-0.0811066
booster[37]:
0:[f14<4501.5] yes=1,no=2,missing=1
	1:[f11<32.5] yes=3,no=4,missing=3
		3:[f4<3.5] yes=7,no=8,missing=7
			7:[f10<5960.5] yes=15,no=16,missing=15
				15:[f6<15.5] yes=29,no=30,missing=29
					29:leaf=0.00591385
					30:leaf=-0.0638404
				16:[f1<4.5] yes=31,no=32,missing=31
					31:leaf=0.00720971
					32:leaf=-0.0690435
			8:[f3<2.5] yes=17,no=18,missing=17
				17:[f16<0.802198] yes=33,no=34,missing=33
					33:leaf=0.11825
					34:leaf=0.0362855
				18:[f16<0.48591] yes=35,no=36,missing=35
					35:leaf=0.0987252
					36:leaf=-0.0376394
		4:[f0<11.5] yes=9,no=10,missing=9
			9:[f1<35.5] yes=19,no=20,missing=19
				19:leaf=0.0284847
				20:[f11<33.5] yes=37,no=38,missing=37
					37:leaf=0.000670179
					38:leaf=-0.0957767
			10:[f11<135] yes=21,no=22,missing=21
				21:[f6<8.5] yes=39,no=40,missing=39
					39:leaf=-0.0856681
					40:leaf=0.0216492
				22:[f10<0.5] yes=41,no=42,missing=41
					41:leaf=-0.0546192
					42:leaf=-0.0943521
	2:[f4<3.5] yes=5,no=6,missing=5
		5:[f10<3410.5] yes=11,no=12,missing=11
			11:[f0<44.5] yes=23,no=24,missing=23
				23:[f4<2.5] yes=43,no=44,missing=43
					43:leaf=-0.0872165
					44:leaf=-0.0619488
				24:[f1<135] yes=45,no=46,missing=45
					45:leaf=0.096334
					46:leaf=-0.0819226
			12:[f10<3684] yes=25,no=26,missing=25
				25:leaf=0.206962
				26:[f13<4.5] yes=47,no=48,missing=47
					47:leaf=0.0530771
					48:leaf=-0.063486
		6:[f11<44.5] yes=13,no=14,missing=13
			13:[f1<136] yes=27,no=28,missing=27
				27:[f11<10.5] yes=49,no=50,missing=49
					49:leaf=0.0937649
					50:leaf=-0.0236102
				28:leaf=0.199406
			14:leaf=-0.094607
booster[38]:
0:[f14<18280] yes=1,no=2,missing=1
	1:[f16<0.855247] yes=3,no=4,missing=3
		3:[f4<2.5] yes=7,no=8,missing=7
			7:[f5<23.5] yes=15,no=16,missing=15
				15:[f13<6.5] yes=27,no=28,missing=27
					27:leaf=0.0491057
					28:leaf=-0.0153403
				16:[f0<17.5] yes=29,no=30,missing=29
					29:leaf=-0.0853376
					30:leaf=-0.0272185
			8:[f10<1563] yes=17,no=18,missing=17
				17:[f13<22.5] yes=31,no=32,missing=31
					31:leaf=-0.00476759
					32:leaf=0.100993
				18:[f14<818.5] yes=33,no=34,missing=33
					33:leaf=0.128119
					34:leaf=0.380777
		4:[f14<90.5] yes=9,no=10,missing=9
			9:[f1<19.5] yes=19,no=20,missing=19
				19:[f8<11099.3] yes=35,no=36,missing=35
					35:leaf=0.13175
					36:leaf=-0.00812634
				20:[f15<0.0359294] yes=37,no=38,missing=37
					37:leaf=0.0663311
					38:leaf=-0.0743083
			10:[f8<5494.2] yes=21,no=22,missing=21
				21:[f8<5341.54] yes=39,no=40,missing=39
					39:leaf=-0.0218917
					40:leaf=0.330677
				22:[f8<407672] yes=41,no=42,missing=41
					41:leaf=-0.0630151
					42:leaf=0.131433
	2:[f4<3.5] yes=5,no=6,missing=5
		5:[f0<92] yes=11,no=12,missing=11
			11:[f6<76] yes=23,no=24,missing=23
				23:[f16<0.18775] yes=43,no=44,missing=43
					43:leaf=-0.0521844
					44:leaf=-0.0859007
				24:leaf=0.0375241
			12:leaf=0.0341719
		6:[f13<19.5] yes=13,no=14,missing=13
			13:[f0<11.5] yes=25,no=26,missing=25
				25:leaf=-0.051707
				26:[f1<44.5] yes=45,no=46,missing=45
					45:leaf=0.0949972
					46:leaf=-0.0122242
			14:leaf=-0.0853965
booster[39]:
0:[f14<2259.5] yes=1,no=2,missing=1
	1:[f2<3.5] yes=3,no=4,missing=3
		3:[f11<9.5] yes=7,no=8,missing=7
			7:[f11<1.5] yes=15,no=16,missing=15
				15:[f8<5494.67] yes=29,no=30,missing=29
					29:leaf=0.0644209
					30:leaf=-0.0797156
				16:[f0<12.5] yes=31,no=32,missing=31
					31:leaf=0.0110773
					32:leaf=0.188377
			8:[f11<13.5] yes=17,no=18,missing=17
				17:[f5<14.5] yes=33,no=34,missing=33
					33:leaf=-0.0513715
					34:leaf=0.0840833
				18:[f6<20.5] yes=35,no=36,missing=35
					35:leaf=-0.0834614
					36:leaf=-0.0286883
		4:[f11<3.5] yes=9,no=10,missing=9
			9:[f8<4337.38] yes=19,no=20,missing=19
				19:leaf=-0.00175808
				20:[f8<12344.3] yes=37,no=38,missing=37
					37:leaf=-0.103691
					38:leaf=-0.00792682
			10:[f11<21.5] yes=21,no=22,missing=21
				21:[f6<16.5] yes=39,no=40,missing=39
					39:leaf=0.0496239
					40:leaf=-0.0768177
				22:[f0<9.5] yes=41,no=42,missing=41
					41:leaf=-0.0744894
					42:leaf=0.0092331
	2:[f14<21718] yes=5,no=6,missing=5
		5:[f11<32.5] yes=11,no=12,missing=11
			11:[f9<461688] yes=23,no=24,missing=23
				23:[f2<13.5] yes=43,no=44,missing=43
					43:leaf=-0.0381253
					44:leaf=0.13491
				24:[f3<1.5] yes=45,no=46,missing=45
					45:leaf=0.215355
					46:leaf=-0.0381416
			12:[f2<15.5] yes=25,no=26,missing=25
				25:[f13<15.5] yes=47,no=48,missing=47
					47:leaf=-0.0967387
					48:leaf=-0.0618101
				26:[f13<11.5] yes=49,no=50,missing=49
					49:leaf=0.0882583
					50:leaf=-0.0874932
		6:[f0<92] yes=13,no=14,missing=13
			13:[f15<0.241902] yes=27,no=28,missing=27
				27:[f3<2.5] yes=51,no=52,missing=51
					51:leaf=-0.068957
					52:leaf=-0.00474709
				28:[f6<29.5] yes=53,no=54,missing=53
					53:leaf=-0.0906954
					54:leaf=-0.0063576
			14:leaf=0.0488167
booster[40]:
0:[f14<4655.5] yes=1,no=2,missing=1
	1:[f11<32.5] yes=3,no=4,missing=3
		3:[f10<5960.5] yes=7,no=8,missing=7
			7:[f13<6.5] yes=15,no=16,missing=15
				15:[f13<1.5] yes=29,no=30,missing=29
					29:leaf=0.000430182
					30:leaf=0.0868902
				16:[f13<12.5] yes=31,no=32,missing=31
					31:leaf=-0.0341601
					32:leaf=0.0115866
			8:[f13<15.5] yes=17,no=18,missing=17
				17:[f13<5.5] yes=33,no=34,missing=33
					33:leaf=-0.00693091
					34:leaf=-0.0878237
				18:[f6<2.5] yes=35,no=36,missing=35
					35:leaf=0.0593498
					36:leaf=-0.0611366
		4:[f0<9.5] yes=9,no=10,missing=9
			9:[f4<1.5] yes=19,no=20,missing=19
				19:[f0<3.5] yes=37,no=38,missing=37
					37:leaf=0.0979524
					38:leaf=-0.0878046
				20:[f9<7.65287e+006] yes=39,no=40,missing=39
					39:leaf=-0.0972394
					40:leaf=0.00717198
			10:[f11<92.5] yes=21,no=22,missing=21
				21:[f16<0.0177116] yes=41,no=42,missing=41
					41:leaf=0.169937
					42:leaf=-0.00769397
				22:[f3<2.5] yes=43,no=44,missing=43
					43:leaf=-0.0786795
					44:leaf=0.0481506
	2:[f2<7.5] yes=5,no=6,missing=5
		5:[f10<3077] yes=11,no=12,missing=11
			11:[f4<3.5] yes=23,no=24,missing=23
				23:[f16<0.173163] yes=45,no=46,missing=45
					45:leaf=-0.0513931
					46:leaf=-0.0815746
				24:[f0<34.5] yes=47,no=48,missing=47
					47:leaf=-0.0389134
					48:leaf=0.139853
			12:[f5<3.5] yes=25,no=26,missing=25
				25:[f8<6148.35] yes=49,no=50,missing=49
					49:leaf=-0.0343447
					50:leaf=-0.0964111
				26:[f8<6690.48] yes=51,no=52,missing=51
					51:leaf=0.194081
					52:leaf=-0.017108
		6:[f10<2864] yes=13,no=14,missing=13
			13:[f0<14.5] yes=27,no=28,missing=27
				27:[f5<13.5] yes=53,no=54,missing=53
					53:leaf=0.00634079
					54:leaf=-0.0874492
				28:[f5<19.5] yes=55,no=56,missing=55
					55:leaf=0.174399
					56:leaf=-0.0130324
			14:leaf=0.16233
booster[41]:
0:[f14<12935.5] yes=1,no=2,missing=1
	1:[f11<58.5] yes=3,no=4,missing=3
		3:[f15<0.0501572] yes=7,no=8,missing=7
			7:[f12<38.5] yes=15,no=16,missing=15
				15:[f12<10.5] yes=31,no=32,missing=31
					31:leaf=0.00480802
					32:leaf=0.0610005
				16:[f11<17.5] yes=33,no=34,missing=33
					33:leaf=-0.104903
					34:leaf=0.0436516
			8:[f11<13.5] yes=17,no=18,missing=17
				17:[f11<1.5] yes=35,no=36,missing=35
					35:leaf=-0.0426188
					36:leaf=0.0136099
				18:[f4<3.5] yes=37,no=38,missing=37
					37:leaf=-0.0520225
					38:leaf=0.049004
		4:[f15<0.0266077] yes=9,no=10,missing=9
			9:[f11<92.5] yes=19,no=20,missing=19
				19:[f10<1] yes=39,no=40,missing=39
					39:leaf=-0.0763388
					40:leaf=0.0697994
				20:[f3<2.5] yes=41,no=42,missing=41
					41:leaf=-0.0851594
					42:leaf=0.0556292
			10:[f6<41.5] yes=21,no=22,missing=21
				21:[f15<0.032129] yes=43,no=44,missing=43
					43:leaf=-0.0106766
					44:leaf=-0.0966409
				22:[f11<179] yes=45,no=46,missing=45
					45:leaf=0.0198835
					46:leaf=-0.0908221
	2:[f4<2.5] yes=5,no=6,missing=5
		5:[f12<1.5] yes=11,no=12,missing=11
			11:[f10<4135.5] yes=23,no=24,missing=23
				23:[f11<19.5] yes=47,no=48,missing=47
					47:leaf=-0.0934265
					48:leaf=-0.00362787
				24:[f10<6612.5] yes=49,no=50,missing=49
					49:leaf=0.154925
					50:leaf=-0.0266238
			12:[f2<14.5] yes=25,no=26,missing=25
				25:[f16<0.556259] yes=51,no=52,missing=51
					51:leaf=-0.0714816
					52:leaf=-0.0918831
				26:leaf=0.0232929
		6:[f12<7.5] yes=13,no=14,missing=13
			13:[f8<32946.4] yes=27,no=28,missing=27
				27:leaf=-0.0992953
				28:leaf=-0.0273886
			14:[f11<13.5] yes=29,no=30,missing=29
				29:[f10<1.5] yes=53,no=54,missing=53
					53:leaf=0.246613
					54:leaf=0.0344222
				30:[f2<8.5] yes=55,no=56,missing=55
					55:leaf=-0.0719345
					56:leaf=0.0278281
booster[42]:
0:[f14<18280.5] yes=1,no=2,missing=1
	1:[f11<92.5] yes=3,no=4,missing=3
		3:[f2<2.5] yes=7,no=8,missing=7
			7:[f11<9.5] yes=15,no=16,missing=15
				15:[f11<0.5] yes=29,no=30,missing=29
					29:leaf=-0.0620026
					30:leaf=0.0131239
				16:[f15<0.0457158] yes=31,no=32,missing=31
					31:leaf=-0.0122117
					32:leaf=-0.0744243
			8:[f14<157.5] yes=17,no=18,missing=17
				17:[f10<4770] yes=33,no=34,missing=33
					33:leaf=0.0420185
					34:leaf=-0.0701236
				18:[f9<377314] yes=35,no=36,missing=35
					35:leaf=-0.0117868
					36:leaf=0.0588663
		4:[f3<2.5] yes=9,no=10,missing=9
			9:[f12<52.5] yes=19,no=20,missing=19
				19:leaf=-0.0983373
				20:[f12<77.5] yes=37,no=38,missing=37
					37:leaf=0.00736351
					38:leaf=-0.0866731
			10:[f13<20.5] yes=21,no=22,missing=21
				21:[f9<374230] yes=39,no=40,missing=39
					39:leaf=-0.0822937
					40:leaf=-0.0105627
				22:leaf=0.153973
	2:[f14<46503.5] yes=5,no=6,missing=5
		5:[f12<1.5] yes=11,no=12,missing=11
			11:[f9<28925.5] yes=23,no=24,missing=23
				23:leaf=-0.085319
				24:[f9<43683] yes=41,no=42,missing=41
					41:leaf=0.219759
					42:leaf=-0.00229332
			12:[f3<2.5] yes=25,no=26,missing=25
				25:[f12<100.5] yes=43,no=44,missing=43
					43:leaf=-0.0734197
					44:leaf=0.0346391
				26:[f13<17.5] yes=45,no=46,missing=45
					45:leaf=0.0988546
					46:leaf=-0.0884001
		6:[f0<86] yes=13,no=14,missing=13
			13:[f2<5.5] yes=27,no=28,missing=27
				27:[f14<85814.5] yes=47,no=48,missing=47
					47:leaf=-0.0919748
					48:leaf=-0.0267117
				28:[f13<19.5] yes=49,no=50,missing=49
					49:leaf=-0.0728907
					50:leaf=0.0653429
			14:leaf=0.0280824
booster[43]:
0:[f14<16634] yes=1,no=2,missing=1
	1:[f14<338.5] yes=3,no=4,missing=3
		3:[f10<5567] yes=7,no=8,missing=7
			7:[f1<35.5] yes=15,no=16,missing=15
				15:[f13<14.5] yes=29,no=30,missing=29
					29:leaf=0.00690757
					30:leaf=0.05415
				16:[f0<11.5] yes=31,no=32,missing=31
					31:leaf=-0.0809365
					32:leaf=0.0189442
			8:[f1<8.5] yes=17,no=18,missing=17
				17:[f7<14590] yes=33,no=34,missing=33
					33:leaf=-0.0615512
					34:leaf=0.068615
				18:[f12<7.5] yes=35,no=36,missing=35
					35:leaf=-0.0917697
					36:leaf=-0.0338918
		4:[f12<6.5] yes=9,no=10,missing=9
			9:[f7<51703.2] yes=19,no=20,missing=19
				19:[f1<17.5] yes=37,no=38,missing=37
					37:leaf=-0.0351887
					38:leaf=-0.0811777
				20:[f1<45.5] yes=39,no=40,missing=39
					39:leaf=0.0460123
					40:leaf=-0.0803094
			10:[f7<1479.69] yes=21,no=22,missing=21
				21:[f0<5.5] yes=41,no=42,missing=41
					41:leaf=0.233117
					42:leaf=-0.0896628
				22:[f4<2.5] yes=43,no=44,missing=43
					43:leaf=-0.0282601
					44:leaf=0.0209811
	2:[f4<3.5] yes=5,no=6,missing=5
		5:[f12<1.5] yes=11,no=12,missing=11
			11:[f14<20875] yes=23,no=24,missing=23
				23:leaf=0.149122
				24:[f10<4978] yes=45,no=46,missing=45
					45:leaf=-0.084289
					46:leaf=0.00820972
			12:[f3<2.5] yes=25,no=26,missing=25
				25:[f12<113.5] yes=47,no=48,missing=47
					47:leaf=-0.0797819
					48:leaf=0.0055588
				26:[f10<3.5] yes=49,no=50,missing=49
					49:leaf=0.102307
					50:leaf=-0.0627807
		6:[f13<17.5] yes=13,no=14,missing=13
			13:[f1<44.5] yes=27,no=28,missing=27
				27:[f12<12] yes=51,no=52,missing=51
					51:leaf=0.0338662
					52:leaf=0.114782
				28:[f14<34245] yes=53,no=54,missing=53
					53:leaf=0.0816223
					54:leaf=-0.0573657
			14:leaf=-0.0812687
booster[44]:
0:[f14<18280.5] yes=1,no=2,missing=1
	1:[f11<32.5] yes=3,no=4,missing=3
		3:[f13<7.5] yes=7,no=8,missing=7
			7:[f13<1.5] yes=15,no=16,missing=15
				15:[f14<85] yes=31,no=32,missing=31
					31:leaf=0.117258
					32:leaf=-0.0183341
				16:[f11<1.5] yes=33,no=34,missing=33
					33:leaf=-0.0143202
					34:leaf=0.0848765
			8:[f13<14.5] yes=17,no=18,missing=17
				17:[f12<10.5] yes=35,no=36,missing=35
					35:leaf=-0.057781
					36:leaf=0.0066699
				18:[f14<65.5] yes=37,no=38,missing=37
					37:leaf=0.0834298
					38:leaf=-0.000318959
		4:[f15<0.0267047] yes=9,no=10,missing=9
			9:[f0<9.5] yes=19,no=20,missing=19
				19:[f14<5832.5] yes=39,no=40,missing=39
					39:leaf=-0.0907028
					40:leaf=-0.0267783
				20:[f11<135.5] yes=41,no=42,missing=41
					41:leaf=0.0468152
					42:leaf=-0.077163
			10:[f0<23.5] yes=21,no=22,missing=21
				21:[f12<1.5] yes=43,no=44,missing=43
					43:leaf=-0.0373423
					44:leaf=-0.0898892
				22:[f8<58584.7] yes=45,no=46,missing=45
					45:leaf=-0.0380803
					46:leaf=0.162566
	2:[f2<4.5] yes=5,no=6,missing=5
		5:[f10<3259] yes=11,no=12,missing=11
			11:[f3<2.5] yes=23,no=24,missing=23
				23:[f4<3.5] yes=47,no=48,missing=47
					47:leaf=-0.0908053
					48:leaf=-0.0213001
				24:[f12<14.5] yes=49,no=50,missing=49
					49:leaf=-0.0881843
					50:leaf=0.099137
			12:[f8<6143.93] yes=25,no=26,missing=25
				25:leaf=0.12872
				26:[f12<1.5] yes=51,no=52,missing=51
					51:leaf=0.0179124
					52:leaf=-0.0878506
		6:[f11<33.5] yes=13,no=14,missing=13
			13:[f4<2.5] yes=27,no=28,missing=27
				27:[f10<2985] yes=53,no=54,missing=53
					53:leaf=-0.077971
					54:leaf=0.0810199
				28:[f0<23.5] yes=55,no=56,missing=55
					55:leaf=-0.00336274
					56:leaf=0.157028
			14:[f2<17.5] yes=29,no=30,missing=29
				29:leaf=-0.0945698
				30:leaf=-0.0105034
booster[45]:
0:[f14<11042.5] yes=1,no=2,missing=1
	1:[f2<6.5] yes=3,no=4,missing=3
		3:[f11<8.5] yes=7,no=8,missing=7
			7:[f3<1.5] yes=15,no=16,missing=15
				15:[f11<1.5] yes=31,no=32,missing=31
					31:leaf=-0.0150795
					32:leaf=0.0581226
				16:[f0<9.5] yes=33,no=34,missing=33
					33:leaf=-0.0497202
					34:leaf=0.0235814
			8:[f15<0.0501397] yes=17,no=18,missing=17
				17:[f4<2.5] yes=35,no=36,missing=35
					35:leaf=-0.0270875
					36:leaf=0.034908
				18:[f11<43.5] yes=37,no=38,missing=37
					37:leaf=-0.0399982
					38:leaf=-0.0931023
		4:[f11<135.5] yes=9,no=10,missing=9
			9:[f4<2.5] yes=19,no=20,missing=19
				19:[f8<7231.93] yes=39,no=40,missing=39
					39:leaf=-0.101561
					40:leaf=0.0186856
				20:[f11<32.5] yes=41,no=42,missing=41
					41:leaf=0.0757591
					42:leaf=0.0185608
			10:[f13<10.5] yes=21,no=22,missing=21
				21:leaf=-0.0394535
				22:leaf=-0.0959835
	2:[f2<4.5] yes=5,no=6,missing=5
		5:[f12<0.5] yes=11,no=12,missing=11
			11:[f14<20892.5] yes=23,no=24,missing=23
				23:leaf=0.123709
				24:[f1<19.5] yes=43,no=44,missing=43
					43:leaf=-0.0859466
					44:leaf=-0.00463267
			12:[f15<0.043798] yes=25,no=26,missing=25
				25:[f11<11.5] yes=45,no=46,missing=45
					45:leaf=0.0958897
					46:leaf=-0.0720659
				26:[f8<16392.7] yes=47,no=48,missing=47
					47:leaf=-0.0853608
					48:leaf=-0.0514372
		6:[f4<2.5] yes=13,no=14,missing=13
			13:[f8<11116.9] yes=27,no=28,missing=27
				27:[f11<1.5] yes=49,no=50,missing=49
					49:leaf=-0.0232112
					50:leaf=-0.0901779
				28:[f13<16.5] yes=51,no=52,missing=51
					51:leaf=-0.0545266
					52:leaf=0.0566377
			14:[f11<33.5] yes=29,no=30,missing=29
				29:[f13<20.5] yes=53,no=54,missing=53
					53:leaf=0.0220906
					54:leaf=0.150556
				30:[f13<7.5] yes=55,no=56,missing=55
					55:leaf=-0.0342578
					56:leaf=-0.0957371
booster[46]:
0:[f14<21717.5] yes=1,no=2,missing=1
	1:[f11<93.5] yes=3,no=4,missing=3
		3:[f4<3.5] yes=7,no=8,missing=7
			7:[f15<0.255111] yes=15,no=16,missing=15
				15:[f9<459176] yes=29,no=30,missing=29
					29:leaf=-0.00450133
					30:leaf=0.0646698
				16:[f11<14.5] yes=31,no=32,missing=31
					31:leaf=-0.0171015
					32:leaf=-0.0671473
			8:[f6<6.5] yes=17,no=18,missing=17
				17:leaf=0.164927
				18:[f1<102] yes=33,no=34,missing=33
					33:leaf=0.0360885
					34:leaf=0.121325
		4:[f3<2.5] yes=9,no=10,missing=9
			9:[f15<0.0427531] yes=19,no=20,missing=19
				19:[f15<0.0270677] yes=35,no=36,missing=35
					35:leaf=-0.0794338
					36:leaf=0.0470414
				20:leaf=-0.0944669
			10:[f13<20.5] yes=21,no=22,missing=21
				21:leaf=-0.0749347
				22:leaf=0.124409
	2:[f12<100.5] yes=5,no=6,missing=5
		5:[f15<0.235504] yes=11,no=12,missing=11
			11:[f3<2.5] yes=23,no=24,missing=23
				23:[f1<5.5] yes=37,no=38,missing=37
					37:leaf=0.0727501
					38:leaf=-0.0641324
				24:[f5<22.5] yes=39,no=40,missing=39
					39:leaf=0.0732648
					40:leaf=-0.0721441
			12:[f9<8058.5] yes=25,no=26,missing=25
				25:[f16<0.563492] yes=41,no=42,missing=41
					41:leaf=0.0928295
					42:leaf=-0.092443
				26:[f14<30546] yes=43,no=44,missing=43
					43:leaf=-0.0606385
					44:leaf=-0.0957798
		6:[f5<65] yes=13,no=14,missing=13
			13:[f15<0.106067] yes=27,no=28,missing=27
				27:leaf=0.0204537
				28:leaf=0.142491
			14:leaf=-0.0806352
booster[47]:
0:[f14<4811] yes=1,no=2,missing=1
	1:[f11<14.5] yes=3,no=4,missing=3
		3:[f5<20.5] yes=7,no=8,missing=7
			7:[f8<35507.7] yes=15,no=16,missing=15
				15:[f11<1.5] yes=29,no=30,missing=29
					29:leaf=-0.025423
					30:leaf=0.0381104
				16:[f9<1.26192e+006] yes=31,no=32,missing=31
					31:leaf=-0.085469
					32:leaf=0.0693059
			8:[f0<22.5] yes=17,no=18,missing=17
				17:[f14<1445] yes=33,no=34,missing=33
					33:leaf=-0.126178
					34:leaf=-0.076188
				18:[f7<7620.28] yes=35,no=36,missing=35
					35:leaf=0.0812491
					36:leaf=-0.0929239
		4:[f0<13.5] yes=9,no=10,missing=9
			9:[f14<60.5] yes=19,no=20,missing=19
				19:[f4<2.5] yes=37,no=38,missing=37
					37:leaf=-0.0335408
					38:leaf=0.0940437
				20:[f11<17.5] yes=39,no=40,missing=39
					39:leaf=-0.0162565
					40:leaf=-0.0646843
			10:[f16<0.0647784] yes=21,no=22,missing=21
				21:[f2<9.5] yes=41,no=42,missing=41
					41:leaf=0.121199
					42:leaf=0.0035682
				22:[f2<7.5] yes=43,no=44,missing=43
					43:leaf=-0.0278902
					44:leaf=0.0300112
	2:[f16<0.701064] yes=5,no=6,missing=5
		5:[f7<1935.96] yes=11,no=12,missing=11
			11:[f2<2.5] yes=23,no=24,missing=23
				23:leaf=-0.0921671
				24:[f5<4.5] yes=45,no=46,missing=45
					45:leaf=0.318472
					46:leaf=-0.00668269
			12:[f16<0.589445] yes=25,no=26,missing=25
				25:[f2<7.5] yes=47,no=48,missing=47
					47:leaf=-0.0609856
					48:leaf=0.000209827
				26:[f12<1.5] yes=49,no=50,missing=49
					49:leaf=0.221532
					50:leaf=0.00594404
		6:[f7<530633] yes=13,no=14,missing=13
			13:[f12<100.5] yes=27,no=28,missing=27
				27:[f12<1.5] yes=51,no=52,missing=51
					51:leaf=-0.0255557
					52:leaf=-0.0761715
				28:[f0<28.5] yes=53,no=54,missing=53
					53:leaf=-0.0860185
					54:leaf=0.17052
			14:leaf=0.0736251
booster[48]:
0:[f15<0.263447] yes=1,no=2,missing=1
	1:[f14<335.5] yes=3,no=4,missing=3
		3:[f8<16856.9] yes=7,no=8,missing=7
			7:[f7<16856.4] yes=15,no=16,missing=15
				15:[f8<11696.1] yes=29,no=30,missing=29
					29:leaf=0.0284216
					30:leaf=-0.0442541
				16:[f9<109371] yes=31,no=32,missing=31
					31:leaf=0.108588
					32:leaf=0.0282092
			8:[f9<106736] yes=17,no=18,missing=17
				17:[f14<62.5] yes=33,no=34,missing=33
					33:leaf=0.0107613
					34:leaf=-0.0865038
				18:[f7<35292.1] yes=35,no=36,missing=35
					35:leaf=0.0727643
					36:leaf=-0.0102304
		4:[f7<1479.59] yes=9,no=10,missing=9
			9:[f0<5.5] yes=19,no=20,missing=19
				19:[f15<0.148352] yes=37,no=38,missing=37
					37:leaf=0.200305
					38:leaf=0.0233766
				20:leaf=-0.0874637
			10:[f7<9314.2] yes=21,no=22,missing=21
				21:[f0<27.5] yes=39,no=40,missing=39
					39:leaf=-0.0544727
					40:leaf=0.0182918
				22:[f11<33.5] yes=41,no=42,missing=41
					41:leaf=0.0132122
					42:leaf=-0.0421485
	2:[f11<26.5] yes=5,no=6,missing=5
		5:[f14<20360] yes=11,no=12,missing=11
			11:[f0<1.5] yes=23,no=24,missing=23
				23:[f15<0.741338] yes=43,no=44,missing=43
					43:leaf=-0.0222648
					44:leaf=0.106792
				24:[f11<4.5] yes=45,no=46,missing=45
					45:leaf=-0.0654883
					46:leaf=-0.0115445
			12:[f1<87.5] yes=25,no=26,missing=25
				25:[f7<29292.2] yes=47,no=48,missing=47
					47:leaf=-0.0850053
					48:leaf=-0.0275767
				26:leaf=0.0210705
		6:[f4<3.5] yes=13,no=14,missing=13
			13:[f4<1.5] yes=27,no=28,missing=27
				27:[f8<19753.7] yes=49,no=50,missing=49
					49:leaf=0.0637741
					50:leaf=-0.0694143
				28:[f15<0.278064] yes=51,no=52,missing=51
					51:leaf=-0.00578722
					52:leaf=-0.0913518
			14:leaf=0.00885602
booster[49]:
0:[f14<16634] yes=1,no=2,missing=1
	1:[f11<92.5] yes=3,no=4,missing=3
		3:[f12<8.5] yes=7,no=8,missing=7
			7:[f7<866.978] yes=15,no=16,missing=15
				15:[f7<725.565] yes=31,no=32,missing=31
					31:leaf=0.0092225
					32:leaf=0.30475
				16:[f2<2.5] yes=33,no=34,missing=33
					33:leaf=-0.0435185
					34:leaf=-0.00358562
			8:[f5<4.5] yes=17,no=18,missing=17
				17:[f3<1.5] yes=35,no=36,missing=35
					35:leaf=0.17558
					36:leaf=-0.0338993
				18:[f11<1.5] yes=37,no=38,missing=37
					37:leaf=-0.0712061
					38:leaf=0.0130854
		4:[f15<0.0427531] yes=9,no=10,missing=9
			9:[f15<0.0270677] yes=19,no=20,missing=19
				19:[f10<1535] yes=39,no=40,missing=39
					39:leaf=-0.0873996
					40:leaf=0.02404
				20:leaf=0.0591622
			10:[f10<1988] yes=21,no=22,missing=21
				21:leaf=-0.0949059
				22:[f13<14.5] yes=41,no=42,missing=41
					41:leaf=-0.08403
					42:leaf=-0.0262984
	2:[f15<0.242897] yes=5,no=6,missing=5
		5:[f12<1.5] yes=11,no=12,missing=11
			11:[f8<21498.4] yes=23,no=24,missing=23
				23:leaf=-0.0394762
				24:leaf=0.249643
			12:[f3<2.5] yes=25,no=26,missing=25
				25:[f4<3.5] yes=43,no=44,missing=43
					43:leaf=-0.0614285
					44:leaf=0.0331007
				26:[f12<10.5] yes=45,no=46,missing=45
					45:leaf=-0.06497
					46:leaf=0.0713172
		6:[f12<0.5] yes=13,no=14,missing=13
			13:[f16<0.904545] yes=27,no=28,missing=27
				27:leaf=0.0982481
				28:leaf=-0.0553913
			14:[f12<112.5] yes=29,no=30,missing=29
				29:[f10<3407.5] yes=47,no=48,missing=47
					47:leaf=-0.093404
					48:leaf=-0.0564765
				30:leaf=0.00999296
booster[50]:
0:[f14<46503.5] yes=1,no=2,missing=1
	1:[f11<38.5] yes=3,no=4,missing=3
		3:[f7<84754.3] yes=7,no=8,missing=7
			7:[f4<3.5] yes=15,no=16,missing=15
				15:[f14<64.5] yes=29,no=30,missing=29
					29:leaf=0.0424655
					30:leaf=-0.0130392
				16:[f3<2.5] yes=31,no=32,missing=31
					31:leaf=0.080834
					32:leaf=0.012979
			8:[f10<4021] yes=17,no=18,missing=17
				17:[f10<3054.5] yes=33,no=34,missing=33
					33:leaf=0.0560748
					34:leaf=0.236605
				18:[f14<3962.5] yes=35,no=36,missing=35
					35:leaf=-0.0859265
					36:leaf=-0.00421774
		4:[f0<27.5] yes=9,no=10,missing=9
			9:[f14<138.5] yes=19,no=20,missing=19
				19:[f16<0.0453984] yes=37,no=38,missing=37
					37:leaf=0.104087
					38:leaf=-0.0360992
				20:[f12<1.5] yes=39,no=40,missing=39
					39:leaf=-0.027252
					40:leaf=-0.075622
			10:[f11<204.5] yes=21,no=22,missing=21
				21:[f12<60.5] yes=41,no=42,missing=41
					41:leaf=-0.00676201
					42:leaf=0.132628
				22:leaf=-0.0891027
	2:[f13<12.5] yes=5,no=6,missing=5
		5:[f12<107.5] yes=11,no=12,missing=11
			11:[f16<0.0458042] yes=23,no=24,missing=23
				23:leaf=-0.0265816
				24:leaf=-0.0941336
			12:leaf=0.0194167
		6:[f14<59625] yes=13,no=14,missing=13
			13:[f14<54949] yes=25,no=26,missing=25
				25:leaf=-0.082143
				26:[f10<7.5] yes=43,no=44,missing=43
					43:leaf=0.0213276
					44:leaf=0.261291
			14:[f14<85055] yes=27,no=28,missing=27
				27:[f0<10.5] yes=45,no=46,missing=45
					45:leaf=-0.085602
					46:leaf=-0.0335391
				28:leaf=0.0440116
booster[51]:
0:[f2<2.5] yes=1,no=2,missing=1
	1:[f14<8234] yes=3,no=4,missing=3
		3:[f9<6513] yes=7,no=8,missing=7
			7:[f15<0.583333] yes=15,no=16,missing=15
				15:[f13<18.5] yes=31,no=32,missing=31
					31:leaf=0.0063634
					32:leaf=0.348818
				16:[f13<12.5] yes=33,no=34,missing=33
					33:leaf=0.0658578
					34:leaf=-0.0854554
			8:[f13<7.5] yes=17,no=18,missing=17
				17:[f4<1.5] yes=35,no=36,missing=35
					35:leaf=-0.0878403
					36:leaf=0.0586174
				18:[f13<12.5] yes=37,no=38,missing=37
					37:leaf=-0.0746556
					38:leaf=-0.0183599
		4:[f9<103848] yes=9,no=10,missing=9
			9:[f13<4.5] yes=19,no=20,missing=19
				19:[f7<10139] yes=39,no=40,missing=39
					39:leaf=-0.0881009
					40:leaf=0.119423
				20:[f5<7.5] yes=41,no=42,missing=41
					41:leaf=-0.0887934
					42:leaf=-0.0450109
			10:[f0<6.5] yes=21,no=22,missing=21
				21:[f16<0.948684] yes=43,no=44,missing=43
					43:leaf=0.015136
					44:leaf=-0.0886708
				22:[f15<0.163028] yes=45,no=46,missing=45
					45:leaf=-0.036
					46:leaf=0.110779
	2:[f5<19.5] yes=5,no=6,missing=5
		5:[f15<0.0377493] yes=11,no=12,missing=11
			11:[f9<110150] yes=23,no=24,missing=23
				23:[f9<97504.5] yes=47,no=48,missing=47
					47:leaf=0.0794896
					48:leaf=0.311874
				24:[f7<109325] yes=49,no=50,missing=49
					49:leaf=-0.0536786
					50:leaf=0.157158
			12:[f3<1.5] yes=25,no=26,missing=25
				25:[f7<1479.59] yes=51,no=52,missing=51
					51:leaf=0.154084
					52:leaf=0.0199236
				26:[f16<0.337398] yes=53,no=54,missing=53
					53:leaf=0.0110313
					54:leaf=-0.0390492
		6:[f0<15.5] yes=13,no=14,missing=13
			13:[f2<14.5] yes=27,no=28,missing=27
				27:[f1<49.5] yes=55,no=56,missing=55
					55:leaf=-0.0387211
					56:leaf=-0.0843614
				28:leaf=0.138661
			14:[f14<2558.5] yes=29,no=30,missing=29
				29:[f1<395.5] yes=57,no=58,missing=57
					57:leaf=0.0297862
					58:leaf=-0.0944688
				30:[f1<86] yes=59,no=60,missing=59
					59:leaf=-0.0820667
					60:leaf=-0.00780254
booster[52]:
0:[f15<0.384968] yes=1,no=2,missing=1
	1:[f14<338.5] yes=3,no=4,missing=3
		3:[f8<14637.5] yes=7,no=8,missing=7
			7:[f6<14.5] yes=15,no=16,missing=15
				15:[f9<13407.5] yes=31,no=32,missing=31
					31:leaf=-0.0260945
					32:leaf=0.0462451
				16:[f0<22.5] yes=33,no=34,missing=33
					33:leaf=-0.0647595
					34:leaf=0.042287
			8:[f9<102220] yes=17,no=18,missing=17
				17:[f15<0.031754] yes=35,no=36,missing=35
					35:leaf=0.0596208
					36:leaf=-0.0676711
				18:[f4<1.5] yes=37,no=38,missing=37
					37:leaf=0.1432
					38:leaf=0.00251786
		4:[f9<78908] yes=9,no=10,missing=9
			9:[f0<68] yes=19,no=20,missing=19
				19:[f11<15.5] yes=39,no=40,missing=39
					39:leaf=-0.0160813
					40:leaf=-0.0642033
				20:leaf=0.238158
			10:[f11<41.5] yes=21,no=22,missing=21
				21:[f11<27.5] yes=41,no=42,missing=41
					41:leaf=0.0101234
					42:leaf=0.07074
				22:[f15<0.225403] yes=43,no=44,missing=43
					43:leaf=-0.0492321
					44:leaf=0.0597925
	2:[f8<6150.13] yes=5,no=6,missing=5
		5:[f8<5336.96] yes=11,no=12,missing=11
			11:[f7<473.607] yes=23,no=24,missing=23
				23:leaf=0.0185676
				24:[f8<4949.87] yes=45,no=46,missing=45
					45:leaf=-0.0882308
					46:leaf=-0.0143303
			12:[f5<8.5] yes=25,no=26,missing=25
				25:[f6<2.5] yes=47,no=48,missing=47
					47:leaf=-0.0536829
					48:leaf=0.549186
				26:[f8<5965.74] yes=49,no=50,missing=49
					49:leaf=-0.0910774
					50:leaf=0.000586764
		6:[f12<0.5] yes=13,no=14,missing=13
			13:[f13<12.5] yes=27,no=28,missing=27
				27:[f15<0.638182] yes=51,no=52,missing=51
					51:leaf=-0.0261536
					52:leaf=-0.090611
				28:[f5<6.5] yes=53,no=54,missing=53
					53:leaf=-0.0238784
					54:leaf=0.135044
			14:[f14<11001] yes=29,no=30,missing=29
				29:[f4<3.5] yes=55,no=56,missing=55
					55:leaf=-0.0535691
					56:leaf=0.0872192
				30:leaf=-0.0974371
booster[53]:
0:[f2<5.5] yes=1,no=2,missing=1
	1:[f10<1992] yes=3,no=4,missing=3
		3:[f12<6.5] yes=7,no=8,missing=7
			7:[f14<171.5] yes=15,no=16,missing=15
				15:[f5<7.5] yes=31,no=32,missing=31
					31:leaf=-0.092071
					32:leaf=0.0192187
				16:[f16<0.252451] yes=33,no=34,missing=33
					33:leaf=-0.0253756
					34:leaf=-0.0905313
			8:[f8<6343.93] yes=17,no=18,missing=17
				17:[f7<8334.76] yes=35,no=36,missing=35
					35:leaf=-0.00102448
					36:leaf=0.33917
				18:[f2<3.5] yes=37,no=38,missing=37
					37:leaf=-0.0613168
					38:leaf=-0.00748603
		4:[f4<2.5] yes=9,no=10,missing=9
			9:[f8<6237.87] yes=19,no=20,missing=19
				19:[f10<3321] yes=39,no=40,missing=39
					39:leaf=0.018745
					40:leaf=0.165747
				20:[f13<4.5] yes=41,no=42,missing=41
					41:leaf=0.0473524
					42:leaf=-0.0237181
			10:[f5<10.5] yes=21,no=22,missing=21
				21:leaf=0.325525
				22:[f7<22032.8] yes=43,no=44,missing=43
					43:leaf=0.034212
					44:leaf=0.181715
	2:[f5<19.5] yes=5,no=6,missing=5
		5:[f12<10.5] yes=11,no=12,missing=11
			11:[f8<8232.94] yes=23,no=24,missing=23
				23:[f14<71.5] yes=45,no=46,missing=45
					45:leaf=0.0419605
					46:leaf=-0.0800016
				24:[f16<0.670833] yes=47,no=48,missing=47
					47:leaf=0.0439756
					48:leaf=-0.0819632
			12:[f5<11.5] yes=25,no=26,missing=25
				25:[f16<0.181878] yes=49,no=50,missing=49
					49:leaf=0.0404906
					50:leaf=-0.0892957
				26:[f14<373] yes=51,no=52,missing=51
					51:leaf=0.0471946
					52:leaf=0.12893
		6:[f8<6834.73] yes=13,no=14,missing=13
			13:[f13<20.5] yes=27,no=28,missing=27
				27:[f8<5233] yes=53,no=54,missing=53
					53:leaf=-0.052308
					54:leaf=-0.111097
				28:leaf=0.0372004
			14:[f0<20.5] yes=29,no=30,missing=29
				29:[f12<1.5] yes=55,no=56,missing=55
					55:leaf=0.125415
					56:leaf=-0.0357638
				30:[f0<72.5] yes=57,no=58,missing=57
					57:leaf=0.0411732
					58:leaf=-0.0816976
booster[54]:
0:[f13<6.5] yes=1,no=2,missing=1
	1:[f13<0.5] yes=3,no=4,missing=3
		3:[f15<0.143413] yes=7,no=8,missing=7
			7:[f1<11.5] yes=15,no=16,missing=15
				15:[f10<3178] yes=27,no=28,missing=27
					27:leaf=0.040263
					28:leaf=0.172744
				16:[f8<5039.5] yes=29,no=30,missing=29
					29:leaf=0.170665
					30:leaf=-0.034189
			8:[f6<4.5] yes=17,no=18,missing=17
				17:[f16<0.559028] yes=31,no=32,missing=31
					31:leaf=0.0425717
					32:leaf=-0.0760231
				18:[f7<20977.7] yes=33,no=34,missing=33
					33:leaf=-0.0974835
					34:leaf=-0.051723
		4:[f1<14.5] yes=9,no=10,missing=9
			9:[f4<1.5] yes=19,no=20,missing=19
				19:[f15<0.261364] yes=35,no=36,missing=35
					35:leaf=-0.0615815
					36:leaf=-0.00289394
				20:[f10<970.5] yes=37,no=38,missing=37
					37:leaf=-0.0301778
					38:leaf=0.157287
			10:[f0<3.5] yes=21,no=22,missing=21
				21:leaf=-0.100873
				22:[f12<6.5] yes=39,no=40,missing=39
					39:leaf=-0.0293103
					40:leaf=0.0619476
	2:[f13<11.5] yes=5,no=6,missing=5
		5:[f9<4003.5] yes=11,no=12,missing=11
			11:leaf=0.215043
			12:[f12<9.5] yes=23,no=24,missing=23
				23:[f15<0.0371232] yes=41,no=42,missing=41
					41:leaf=-0.0109269
					42:leaf=-0.0780284
				24:[f16<0.920844] yes=43,no=44,missing=43
					43:leaf=-0.0383574
					44:leaf=0.0579318
		6:[f8<3523.65] yes=13,no=14,missing=13
			13:leaf=-0.102519
			14:[f1<49.5] yes=25,no=26,missing=25
				25:[f12<10.5] yes=45,no=46,missing=45
					45:leaf=-0.00380839
					46:leaf=0.0308578
				26:[f0<22.5] yes=47,no=48,missing=47
					47:leaf=-0.0629823
					48:leaf=0.0078737
booster[55]:
0:[f11<95.5] yes=1,no=2,missing=1
	1:[f14<46503.5] yes=3,no=4,missing=3
		3:[f4<2.5] yes=7,no=8,missing=7
			7:[f3<1.5] yes=15,no=16,missing=15
