booster[0]:
0:[citys<4] yes=1,no=2,missing=1
	1:[log_ids<248] yes=3,no=4,missing=3
		3:leaf=-0.191544
		4:leaf=-0.0888889
	2:[log_ids<7] yes=5,no=6,missing=5
		5:[divs<3] yes=7,no=8,missing=7
			7:[citys<5] yes=11,no=12,missing=11
				11:leaf=0.0133333
				12:leaf=-0.0105263
			8:[log_ids<5] yes=13,no=14,missing=13
				13:leaf=-0.0451613
				14:leaf=-0.122581
		6:[log_ids<45] yes=9,no=10,missing=9
			9:[citys<11] yes=15,no=16,missing=15
				15:[log_ids<42] yes=17,no=18,missing=17
					17:leaf=-0.164286
					18:leaf=-0.0285714
				16:[divs<5] yes=19,no=20,missing=19
					19:leaf=-0.0736842
					20:leaf=0.0486487
			10:leaf=-0.194398
booster[1]:
0:[citys<4] yes=1,no=2,missing=1
	1:[log_ids<7] yes=3,no=4,missing=3
		3:[citys<3] yes=7,no=8,missing=7
			7:[ips<6] yes=13,no=14,missing=13
				13:leaf=-0.172173
				14:leaf=-0.104274
			8:[log_ids<4] yes=15,no=16,missing=15
				15:leaf=-0.089032
				16:leaf=-0.153092
		4:leaf=-0.178153
	2:[log_ids<7] yes=5,no=6,missing=5
		5:[divs<3] yes=9,no=10,missing=9
			9:leaf=0.0431441
			10:[log_ids<5] yes=17,no=18,missing=17
				17:leaf=-0.033564
				18:[log_ids<6] yes=21,no=22,missing=21
					21:leaf=-0.135854
					22:leaf=-0.0350244
		6:[log_ids<45] yes=11,no=12,missing=11
			11:[citys<8] yes=19,no=20,missing=19
				19:[divs<5] yes=23,no=24,missing=23
					23:leaf=-0.130354
					24:leaf=-0.16243
				20:[log_ids<11] yes=25,no=26,missing=25
					25:leaf=0.0683324
					26:leaf=-0.0699997
			12:leaf=-0.176892
booster[2]:
0:[log_froms<2] yes=1,no=2,missing=1
	1:leaf=-0.16194
	2:[log_ids<21] yes=3,no=4,missing=3
		3:[ips<14] yes=5,no=6,missing=5
			5:[log_ids<7] yes=7,no=8,missing=7
				7:[ips<5] yes=11,no=12,missing=11
					11:leaf=-0.145343
					12:leaf=-0.0819821
				8:[ips<9] yes=13,no=14,missing=13
					13:leaf=-0.157818
					14:leaf=-0.131354
			6:[log_ids<17] yes=9,no=10,missing=9
				9:leaf=0.0434431
				10:leaf=-0.148649
		4:leaf=-0.161254
booster[3]:
0:[log_froms<2] yes=1,no=2,missing=1
	1:leaf=-0.151314
	2:[log_ids<7] yes=3,no=4,missing=3
		3:[ips<5] yes=5,no=6,missing=5
			5:[divs<2] yes=9,no=10,missing=9
				9:[ips<2] yes=15,no=16,missing=15
					15:leaf=-0.130756
					16:leaf=-0.0133329
				10:leaf=-0.137969
			6:[divs<3] yes=11,no=12,missing=11
				11:leaf=0.0291597
				12:[ips<6] yes=17,no=18,missing=17
					17:leaf=-0.106134
					18:leaf=-0.0314099
		4:[log_ids<45] yes=7,no=8,missing=7
			7:[ips<9] yes=13,no=14,missing=13
				13:leaf=-0.149811
				14:[log_ids<12] yes=19,no=20,missing=19
					19:leaf=-0.0496913
					20:leaf=-0.138495
			8:leaf=-0.153769
booster[4]:
0:[citys<4] yes=1,no=2,missing=1
	1:[ips<62] yes=3,no=4,missing=3
		3:[log_ids<7] yes=7,no=8,missing=7
			7:[citys<3] yes=15,no=16,missing=15
				15:leaf=-0.139963
				16:[log_ids<4] yes=23,no=24,missing=23
					23:leaf=-0.0620475
					24:leaf=-0.113321
			8:leaf=-0.146013
		4:[ips<72] yes=9,no=10,missing=9
			9:leaf=-0.0155134
			10:leaf=-0.125424
	2:[log_ids<7] yes=5,no=6,missing=5
		5:[ips<6] yes=11,no=12,missing=11
			11:[types<2] yes=17,no=18,missing=17
				17:leaf=-0.0911637
				18:[ips<5] yes=25,no=26,missing=25
					25:leaf=-0.0251167
					26:leaf=0.0623968
			12:leaf=0.0754984
		6:[log_ids<17] yes=13,no=14,missing=13
			13:[citys<9] yes=19,no=20,missing=19
				19:[log_ids<12] yes=27,no=28,missing=27
					27:leaf=-0.0906887
					28:leaf=-0.129728
				20:[citys<13] yes=29,no=30,missing=29
					29:leaf=0.0133861
					30:leaf=0.0798256
			14:[citys<5] yes=21,no=22,missing=21
				21:leaf=-0.14849
				22:[log_ids<45] yes=31,no=32,missing=31
					31:leaf=-0.0964769
					32:leaf=-0.140553
booster[5]:
0:[citys<4] yes=1,no=2,missing=1
	1:[ips<62] yes=3,no=4,missing=3
		3:[citys<3] yes=7,no=8,missing=7
			7:leaf=-0.136167
			8:[divs<3] yes=15,no=16,missing=15
				15:[ips<5] yes=25,no=26,missing=25
					25:leaf=-0.0643404
					26:leaf=-0.121089
				16:leaf=-0.133017
		4:[ips<72] yes=9,no=10,missing=9
			9:leaf=0.00606734
			10:leaf=-0.118786
	2:[divs<5] yes=5,no=6,missing=5
		5:[ips<7] yes=11,no=12,missing=11
			11:[divs<3] yes=17,no=18,missing=17
				17:[ips<5] yes=27,no=28,missing=27
					27:leaf=-0.0939574
					28:leaf=0.00757609
				18:[ips<6] yes=29,no=30,missing=29
					29:leaf=-0.0800183
					30:leaf=-0.030958
			12:[citys<6] yes=19,no=20,missing=19
				19:leaf=-0.113788
				20:[ips<10] yes=31,no=32,missing=31
					31:leaf=-0.101436
					32:leaf=-0.00728937
		6:[citys<8] yes=13,no=14,missing=13
			13:[divs<10] yes=21,no=22,missing=21
				21:leaf=-0.119937
				22:leaf=-0.141646
			14:[ips<18] yes=23,no=24,missing=23
				23:[citys<11] yes=33,no=34,missing=33
					33:leaf=-0.00870164
					34:leaf=0.143313
				24:[types<2] yes=35,no=36,missing=35
					35:leaf=-0.0227679
					36:leaf=-0.127887
booster[6]:
0:[log_froms<2] yes=1,no=2,missing=1
	1:leaf=-0.129705
	2:[log_ids<11] yes=3,no=4,missing=3
		3:[ips<10] yes=5,no=6,missing=5
			5:[ips<5] yes=9,no=10,missing=9
				9:[divs<2] yes=13,no=14,missing=13
					13:leaf=-0.0522173
					14:leaf=-0.122272
				10:[log_ids<7] yes=15,no=16,missing=15
					15:leaf=-0.0314254
					16:leaf=-0.108145
			6:leaf=0.119004
		4:[log_ids<45] yes=7,no=8,missing=7
			7:[log_ids<43] yes=11,no=12,missing=11
				11:[ips<25] yes=17,no=18,missing=17
					17:leaf=-0.125769
					18:leaf=-0.0718447
				12:[divs<9] yes=19,no=20,missing=19
					19:leaf=-0.114247
					20:leaf=0.0750558
			8:leaf=-0.13253
booster[7]:
0:[citys<4] yes=1,no=2,missing=1
	1:[log_ids<7] yes=3,no=4,missing=3
		3:[citys<3] yes=7,no=8,missing=7
			7:[ips<6] yes=15,no=16,missing=15
				15:leaf=-0.12169
				16:leaf=-0.064184
			8:[log_ids<4] yes=17,no=18,missing=17
				17:leaf=-0.0406972
				18:leaf=-0.100491
		4:[ips<62] yes=9,no=10,missing=9
			9:leaf=-0.12873
			10:[ips<72] yes=19,no=20,missing=19
				19:leaf=-0.0047268
				20:leaf=-0.112512
	2:[log_ids<7] yes=5,no=6,missing=5
		5:[types<2] yes=11,no=12,missing=11
			11:[log_ids<6] yes=21,no=22,missing=21
				21:leaf=-0.0856475
				22:leaf=0.0563521
			12:[log_ids<5] yes=23,no=24,missing=23
				23:leaf=0.0223294
				24:leaf=0.0111089
		6:[log_ids<37] yes=13,no=14,missing=13
			13:[citys<8] yes=25,no=26,missing=25
				25:[ips<25] yes=27,no=28,missing=27
					27:leaf=-0.103008
					28:leaf=0.0581429
				26:[citys<11] yes=29,no=30,missing=29
					29:leaf=-0.0203138
					30:leaf=0.0665758
			14:leaf=-0.126216
booster[8]:
0:[log_froms<2] yes=1,no=2,missing=1
	1:leaf=-0.120116
	2:[divs<3] yes=3,no=4,missing=3
		3:[ips<10] yes=5,no=6,missing=5
			5:[ips<3] yes=9,no=10,missing=9
				9:[divs<2] yes=17,no=18,missing=17
					17:leaf=-0.0700587
					18:leaf=-0.108324
				10:[log_froms<3] yes=19,no=20,missing=19
					19:leaf=-0.0801747
					20:leaf=-0.112673
			6:[ips<11] yes=11,no=12,missing=11
				11:leaf=0.0906161
				12:leaf=-0.115416
		4:[types<2] yes=7,no=8,missing=7
			7:[divs<4] yes=13,no=14,missing=13
				13:[ips<2] yes=21,no=22,missing=21
					21:leaf=-0.0477631
					22:leaf=-0.100103
				14:leaf=-0.118766
			8:[ips<9] yes=15,no=16,missing=15
				15:leaf=-0.116222
				16:[divs<10] yes=23,no=24,missing=23
					23:leaf=-0.0765279
					24:leaf=-0.113522
booster[9]:
0:[citys<4] yes=1,no=2,missing=1
	1:[ips<62] yes=3,no=4,missing=3
		3:[citys<3] yes=7,no=8,missing=7
			7:leaf=-0.117032
			8:[ips<7] yes=13,no=14,missing=13
				13:[types<2] yes=19,no=20,missing=19
					19:leaf=-0.0817122
					20:leaf=-0.10547
				14:leaf=-0.117709
		4:[ips<72] yes=9,no=10,missing=9
			9:leaf=0.0110023
			10:leaf=-0.104489
	2:[ips<29] yes=5,no=6,missing=5
		5:[citys<13] yes=11,no=12,missing=11
			11:[ips<7] yes=15,no=16,missing=15
				15:[log_froms<3] yes=21,no=22,missing=21
					21:leaf=-0.0409468
					22:leaf=-0.110513
				16:[citys<6] yes=23,no=24,missing=23
					23:leaf=-0.106666
					24:leaf=-0.0615215
			12:[citys<15] yes=17,no=18,missing=17
				17:leaf=0.0920789
				18:leaf=0.0349364
		6:leaf=-0.111587
booster[10]:
0:[citys<4] yes=1,no=2,missing=1
	1:[log_ids<7] yes=3,no=4,missing=3
		3:[citys<3] yes=7,no=8,missing=7
			7:[ips<6] yes=15,no=16,missing=15
				15:[log_froms<2] yes=27,no=28,missing=27
					27:leaf=-0.111859
					28:leaf=-0.0988971
				16:leaf=-0.0401286
			8:[log_ids<4] yes=17,no=18,missing=17
				17:leaf=-0.0264622
				18:[log_froms<2] yes=29,no=30,missing=29
					29:leaf=-0.113255
					30:leaf=-0.0603416
		4:[ips<62] yes=9,no=10,missing=9
			9:leaf=-0.117126
			10:[ips<73] yes=19,no=20,missing=19
				19:leaf=-0.00237063
				20:leaf=-0.0994391
	2:[log_ids<12] yes=5,no=6,missing=5
		5:[ips<10] yes=11,no=12,missing=11
			11:[log_ids<7] yes=21,no=22,missing=21
				21:[ips<6] yes=31,no=32,missing=31
					31:leaf=-0.0227965
					32:leaf=0.0901996
				22:[citys<7] yes=33,no=34,missing=33
					33:leaf=-0.073199
					34:leaf=0.0560907
			12:leaf=0.0975991
		6:[citys<11] yes=13,no=14,missing=13
			13:[log_ids<49] yes=23,no=24,missing=23
				23:[log_ids<43] yes=35,no=36,missing=35
					35:leaf=-0.0978016
					36:leaf=-0.0340924
				24:leaf=-0.11817
			14:[log_froms<4] yes=25,no=26,missing=25
				25:[citys<14] yes=37,no=38,missing=37
					37:leaf=0.079836
					38:leaf=-0.0131257
				26:leaf=-0.118959
booster[11]:
0:[log_froms<2] yes=1,no=2,missing=1
	1:[log_ids<2] yes=3,no=4,missing=3
		3:leaf=-0.100337
		4:[ips<6] yes=7,no=8,missing=7
			7:leaf=-0.114974
			8:[log_ids<9] yes=13,no=14,missing=13
				13:[ips<7] yes=23,no=24,missing=23
					23:leaf=-0.0651703
					24:leaf=-0.0183029
				14:leaf=-0.108294
	2:[log_ids<7] yes=5,no=6,missing=5
		5:[ips<5] yes=9,no=10,missing=9
			9:[divs<2] yes=15,no=16,missing=15
				15:[ips<2] yes=25,no=26,missing=25
					25:leaf=-0.096671
					26:leaf=0.0252853
				16:[log_ids<6] yes=27,no=28,missing=27
					27:leaf=-0.0927059
					28:leaf=-0.0589808
			10:[log_froms<3] yes=17,no=18,missing=17
				17:[ips<6] yes=29,no=30,missing=29
					29:leaf=-0.0156302
					30:leaf=0.0459639
				18:leaf=-0.0985994
		6:[log_ids<45] yes=11,no=12,missing=11
			11:[ips<9] yes=19,no=20,missing=19
				19:[divs<4] yes=31,no=32,missing=31
					31:leaf=-0.0959069
					32:leaf=-0.113182
				20:[log_ids<43] yes=33,no=34,missing=33
					33:leaf=-0.0875699
					34:leaf=0.0787675
			12:[log_ids<230] yes=21,no=22,missing=21
				21:leaf=-0.118085
				22:[log_froms<3] yes=35,no=36,missing=35
					35:leaf=0.0245045
					36:leaf=-0.116851
booster[12]:
0:[log_froms<2] yes=1,no=2,missing=1
	1:[log_ids<2] yes=3,no=4,missing=3
		3:leaf=-0.0971336
		4:[ips<6] yes=7,no=8,missing=7
			7:leaf=-0.111015
			8:[log_ids<9] yes=13,no=14,missing=13
				13:[ips<7] yes=21,no=22,missing=21
					21:leaf=-0.061155
					22:leaf=-0.0169118
				14:leaf=-0.104306
	2:[log_ids<21] yes=5,no=6,missing=5
		5:[ips<9] yes=9,no=10,missing=9
			9:[log_ids<7] yes=15,no=16,missing=15
				15:[ips<5] yes=23,no=24,missing=23
					23:leaf=-0.0819843
					24:leaf=-0.0171857
				16:[ips<6] yes=25,no=26,missing=25
					25:leaf=-0.108858
					26:leaf=-0.0905123
			10:[log_ids<12] yes=17,no=18,missing=17
				17:[ips<10] yes=27,no=28,missing=27
					27:leaf=-0.0543198
					28:leaf=0.11975
				18:[ips<14] yes=29,no=30,missing=29
					29:leaf=-0.0841857
					30:leaf=-0.0226488
		6:[ips<12] yes=11,no=12,missing=11
			11:leaf=-0.11732
			12:[log_ids<45] yes=19,no=20,missing=19
				19:[log_ids<43] yes=31,no=32,missing=31
					31:leaf=-0.0906617
					32:leaf=0.0403545
				20:leaf=-0.111993
booster[13]:
0:[citys<4] yes=1,no=2,missing=1
	1:[log_ids<7] yes=3,no=4,missing=3
		3:[citys<3] yes=7,no=8,missing=7
			7:[log_froms<2] yes=15,no=16,missing=15
				15:[log_ids<2] yes=27,no=28,missing=27
					27:leaf=-0.0917304
					28:leaf=-0.106506
				16:[citys<2] yes=29,no=30,missing=29
					29:leaf=-0.102861
					30:leaf=-0.0760789
			8:[log_ids<4] yes=17,no=18,missing=17
				17:[log_froms<2] yes=31,no=32,missing=31
					31:leaf=0.0173737
					32:leaf=-0.0263311
				18:[log_froms<2] yes=33,no=34,missing=33
					33:leaf=-0.105546
					34:leaf=-0.0586442
		4:[log_ids<227] yes=9,no=10,missing=9
			9:leaf=-0.109257
			10:leaf=-0.0450176
	2:[log_ids<12] yes=5,no=6,missing=5
		5:[citys<6] yes=11,no=12,missing=11
			11:[log_ids<7] yes=19,no=20,missing=19
				19:[ips<6] yes=35,no=36,missing=35
					35:leaf=0.00257263
					36:leaf=0.0790477
				20:[ips<9] yes=37,no=38,missing=37
					37:leaf=-0.0554253
					38:leaf=-0.110376
			12:[ips<10] yes=21,no=22,missing=21
				21:[citys<7] yes=39,no=40,missing=39
					39:leaf=-0.0883664
					40:leaf=0.0576096
				22:leaf=0.170856
		6:[citys<11] yes=13,no=14,missing=13
			13:[log_ids<45] yes=23,no=24,missing=23
				23:[log_ids<42] yes=41,no=42,missing=41
					41:leaf=-0.085674
					42:leaf=0.0759912
				24:leaf=-0.109565
			14:[ips<66] yes=25,no=26,missing=25
				25:[citys<14] yes=43,no=44,missing=43
					43:leaf=0.121292
					44:leaf=0.00336334
				26:leaf=-0.1109
booster[14]:
0:[log_froms<2] yes=1,no=2,missing=1
	1:[log_ids<2] yes=3,no=4,missing=3
		3:leaf=-0.0898858
		4:leaf=-0.103025
	2:[log_ids<7] yes=5,no=6,missing=5
		5:[divs<2] yes=7,no=8,missing=7
			7:[types<2] yes=11,no=12,missing=11
				11:leaf=0.19922
				12:leaf=-0.103919
			8:[log_ids<5] yes=13,no=14,missing=13
				13:[divs<4] yes=19,no=20,missing=19
					19:leaf=-0.0848092
					20:leaf=-0.0421436
				14:[divs<3] yes=21,no=22,missing=21
					21:leaf=-0.00837609
					22:leaf=-0.0637128
		6:[log_ids<21] yes=9,no=10,missing=9
			9:[log_ids<16] yes=15,no=16,missing=15
				15:[log_ids<12] yes=23,no=24,missing=23
					23:leaf=-0.0828309
					24:leaf=-0.0999776
				16:[types<2] yes=25,no=26,missing=25
					25:leaf=-0.0774846
					26:leaf=-0.0354492
			10:[types<2] yes=17,no=18,missing=17
				17:[log_ids<37] yes=27,no=28,missing=27
					27:leaf=-0.0941659
					28:leaf=-0.111967
				18:[log_froms<3] yes=29,no=30,missing=29
					29:leaf=-0.0797853
					30:leaf=-0.0995543
booster[15]:
0:[log_ids<45] yes=1,no=2,missing=1
	1:[log_froms<2] yes=3,no=4,missing=3
		3:[ips<16] yes=7,no=8,missing=7
			7:[log_ids<2] yes=13,no=14,missing=13
				13:leaf=-0.0851421
				14:leaf=-0.101398
			8:[log_ids<25] yes=15,no=16,missing=15
				15:leaf=0.0627177
				16:leaf=-0.104333
		4:[log_ids<43] yes=9,no=10,missing=9
			9:[log_ids<7] yes=17,no=18,missing=17
				17:[ips<5] yes=21,no=22,missing=21
					21:leaf=-0.0728983
					22:leaf=-0.0196552
				18:[ips<6] yes=23,no=24,missing=23
					23:leaf=-0.102659
					24:leaf=-0.0759131
			10:[types<2] yes=19,no=20,missing=19
				19:leaf=-0.028385
				20:leaf=0.0386347
	2:[log_ids<230] yes=5,no=6,missing=5
		5:leaf=-0.109202
		6:[ips<64] yes=11,no=12,missing=11
			11:leaf=0.00362143
			12:leaf=-0.108262
booster[16]:
0:[citys<4] yes=1,no=2,missing=1
	1:[log_ids<7] yes=3,no=4,missing=3
		3:[citys<3] yes=7,no=8,missing=7
			7:[log_froms<2] yes=15,no=16,missing=15
				15:[log_ids<2] yes=27,no=28,missing=27
					27:leaf=-0.0850757
					28:leaf=-0.100982
				16:[log_ids<6] yes=29,no=30,missing=29
					29:leaf=-0.0856459
					30:leaf=-0.0455022
			8:[log_ids<4] yes=17,no=18,missing=17
				17:leaf=0.0281542
				18:[log_froms<2] yes=31,no=32,missing=31
					31:leaf=-0.0968766
					32:leaf=-0.0263376
		4:[ips<62] yes=9,no=10,missing=9
			9:leaf=-0.103657
			10:leaf=-0.0244467
	2:[log_ids<12] yes=5,no=6,missing=5
		5:[citys<6] yes=11,no=12,missing=11
			11:[log_froms<3] yes=19,no=20,missing=19
				19:[ips<7] yes=33,no=34,missing=33
					33:leaf=0.0175239
					34:leaf=-0.0528903
				20:leaf=-0.0972694
			12:[ips<10] yes=21,no=22,missing=21
				21:[citys<8] yes=35,no=36,missing=35
					35:leaf=-0.0612118
					36:leaf=0.0948882
				22:leaf=0.177478
		6:[citys<11] yes=13,no=14,missing=13
			13:[log_ids<33] yes=23,no=24,missing=23
				23:[ips<23] yes=37,no=38,missing=37
					37:leaf=-0.0737572
					38:leaf=0.079476
				24:[ips<13] yes=39,no=40,missing=39
					39:leaf=-0.0621671
					40:leaf=-0.101695
			14:[ips<66] yes=25,no=26,missing=25
				25:[citys<14] yes=41,no=42,missing=41
					41:leaf=0.102836
					42:leaf=0.00538078
				26:leaf=-0.104607
booster[17]:
0:[citys<4] yes=1,no=2,missing=1
	1:[log_ids<7] yes=3,no=4,missing=3
		3:[citys<2] yes=7,no=8,missing=7
			7:[log_ids<2] yes=15,no=16,missing=15
				15:leaf=-0.0822819
				16:leaf=-0.0973332
			8:[types<2] yes=17,no=18,missing=17
				17:[citys<3] yes=29,no=30,missing=29
					29:leaf=-0.0616658
					30:leaf=-0.0215511
				18:[log_ids<5] yes=31,no=32,missing=31
					31:leaf=-0.105758
					32:leaf=-0.0607965
		4:[log_ids<20] yes=9,no=10,missing=9
			9:[log_ids<19] yes=19,no=20,missing=19
				19:[divs<10] yes=33,no=34,missing=33
					33:leaf=-0.0992812
					34:leaf=-0.0193465
				20:[divs<4] yes=35,no=36,missing=35
					35:leaf=0.0100519
					36:leaf=-0.03619
			10:leaf=-0.105061
	2:[log_ids<12] yes=5,no=6,missing=5
		5:[citys<6] yes=11,no=12,missing=11
			11:[log_ids<7] yes=21,no=22,missing=21
				21:[divs<3] yes=37,no=38,missing=37
					37:leaf=0.061818
					38:leaf=0.00704776
				22:[types<2] yes=39,no=40,missing=39
					39:leaf=-0.0100189
					40:leaf=-0.0661333
			12:[log_ids<10] yes=23,no=24,missing=23
				23:[citys<8] yes=41,no=42,missing=41
					41:leaf=-0.051094
					42:leaf=0.0834523
				24:[divs<3] yes=43,no=44,missing=43
					43:leaf=0.13574
					44:leaf=0.0459712
		6:[citys<11] yes=13,no=14,missing=13
			13:[log_ids<49] yes=25,no=26,missing=25
				25:[log_ids<43] yes=45,no=46,missing=45
					45:leaf=-0.0734518
					46:leaf=0.00416128
				26:leaf=-0.101954
			14:[divs<36] yes=27,no=28,missing=27
				27:[divs<14] yes=47,no=48,missing=47
					47:leaf=0.0572393
					48:leaf=0.125965
				28:leaf=-0.103761
booster[18]:
0:[log_froms<2] yes=1,no=2,missing=1
	1:[log_ids<2] yes=3,no=4,missing=3
		3:leaf=-0.0785043
		4:leaf=-0.0959349
	2:[log_ids<7] yes=5,no=6,missing=5
		5:[divs<2] yes=7,no=8,missing=7
			7:leaf=0.0355454
			8:[log_ids<5] yes=11,no=12,missing=11
				11:[divs<4] yes=17,no=18,missing=17
					17:leaf=-0.0735206
					18:leaf=-0.0391188
				12:[divs<3] yes=19,no=20,missing=19
					19:leaf=0.0261644
					20:leaf=-0.0491084
		6:[log_ids<21] yes=9,no=10,missing=9
			9:[log_ids<15] yes=13,no=14,missing=13
				13:[log_ids<12] yes=21,no=22,missing=21
					21:leaf=-0.0650422
					22:leaf=-0.100738
				14:[types<2] yes=23,no=24,missing=23
					23:leaf=-0.0690985
					24:leaf=-0.0168452
			10:[types<2] yes=15,no=16,missing=15
				15:[divs<12] yes=25,no=26,missing=25
					25:leaf=-0.104925
					26:leaf=-0.0814592
				16:[log_froms<3] yes=27,no=28,missing=27
					27:leaf=-0.055731
					28:leaf=-0.0923071
booster[19]:
0:[log_froms<2] yes=1,no=2,missing=1
	1:[log_ids<2] yes=3,no=4,missing=3
		3:leaf=-0.0713494
		4:leaf=-0.0917183
	2:[log_ids<21] yes=5,no=6,missing=5
		5:[divs<3] yes=7,no=8,missing=7
			7:[types<2] yes=11,no=12,missing=11
				11:[divs<2] yes=19,no=20,missing=19
					19:leaf=0.0958373
					20:leaf=-0.0350881
				12:[log_ids<5] yes=21,no=22,missing=21
					21:leaf=-0.086558
					22:leaf=-0.0289833
			8:[log_ids<15] yes=13,no=14,missing=13
				13:[log_ids<12] yes=23,no=24,missing=23
					23:leaf=-0.0648784
					24:leaf=-0.0973742
				14:[types<2] yes=25,no=26,missing=25
					25:leaf=-0.0614743
					26:leaf=-0.00456367
		6:[types<2] yes=9,no=10,missing=9
			9:[log_ids<45] yes=15,no=16,missing=15
				15:[divs<9] yes=27,no=28,missing=27
					27:leaf=-0.0963422
					28:leaf=-0.0602368
				16:leaf=-0.107239
			10:[divs<35] yes=17,no=18,missing=17
				17:[divs<29] yes=29,no=30,missing=29
					29:leaf=-0.0799848
					30:leaf=0.0758744
				18:leaf=-0.103013
booster[20]:
0:[log_froms<2] yes=1,no=2,missing=1
	1:[log_ids<2] yes=3,no=4,missing=3
		3:leaf=-0.0735422
		4:leaf=-0.0899249
	2:[log_ids<45] yes=5,no=6,missing=5
		5:[log_ids<43] yes=7,no=8,missing=7
			7:[log_ids<7] yes=11,no=12,missing=11
				11:[log_ids<5] yes=15,no=16,missing=15
					15:leaf=-0.0591331
					16:leaf=-0.0207354
				12:[log_ids<21] yes=17,no=18,missing=17
					17:leaf=-0.0612529
					18:leaf=-0.0762411
			8:leaf=0.0306719
		6:[log_ids<97] yes=9,no=10,missing=9
			9:leaf=-0.106842
			10:[divs<35] yes=13,no=14,missing=13
				13:[divs<29] yes=19,no=20,missing=19
					19:leaf=-0.0895708
					20:leaf=0.0580515
				14:leaf=-0.102391
booster[21]:
0:[citys<4] yes=1,no=2,missing=1
	1:[log_ids<7] yes=3,no=4,missing=3
		3:[citys<2] yes=7,no=8,missing=7
			7:[log_ids<6] yes=15,no=16,missing=15
				15:[log_ids<2] yes=29,no=30,missing=29
					29:leaf=-0.0713396
					30:leaf=-0.0921144
				16:[log_froms<2] yes=31,no=32,missing=31
					31:leaf=-0.0882562
					32:leaf=-0.00272404
			8:[types<2] yes=17,no=18,missing=17
				17:[log_froms<2] yes=33,no=34,missing=33
					33:leaf=-0.0620771
					34:leaf=-0.0135499
				18:[log_ids<5] yes=35,no=36,missing=35
					35:leaf=-0.100144
					36:leaf=-0.0358258
		4:[log_ids<133] yes=9,no=10,missing=9
			9:[citys<3] yes=19,no=20,missing=19
				19:[types<2] yes=37,no=38,missing=37
					37:leaf=-0.103071
					38:leaf=-0.0882135
				20:[log_ids<15] yes=39,no=40,missing=39
					39:leaf=-0.101399
					40:leaf=-0.0725348
			10:leaf=-0.0508277
	2:[log_ids<45] yes=5,no=6,missing=5
		5:[citys<8] yes=11,no=12,missing=11
			11:[log_ids<7] yes=21,no=22,missing=21
				21:[citys<5] yes=41,no=42,missing=41
					41:leaf=0.0485909
					42:leaf=0.0179056
				22:[citys<5] yes=43,no=44,missing=43
					43:leaf=-0.0756944
					44:leaf=-0.0145781
			12:[types<2] yes=23,no=24,missing=23
				23:[log_ids<27] yes=45,no=46,missing=45
					45:leaf=0.0237371
					46:leaf=0.184405
				24:[citys<13] yes=47,no=48,missing=47
					47:leaf=-0.0305747
					48:leaf=0.0796886
		6:[citys<11] yes=13,no=14,missing=13
			13:[log_ids<49] yes=25,no=26,missing=25
				25:leaf=-0.0481961
				26:leaf=-0.0985172
			14:[citys<14] yes=27,no=28,missing=27
				27:leaf=0.0757858
				28:leaf=-0.0893864
booster[22]:
0:[citys<4] yes=1,no=2,missing=1
	1:[log_ids<7] yes=3,no=4,missing=3
		3:[citys<3] yes=7,no=8,missing=7
			7:[citys<2] yes=15,no=16,missing=15
				15:[log_ids<2] yes=29,no=30,missing=29
					29:leaf=-0.0604857
					30:leaf=-0.0895917
				16:[log_froms<2] yes=31,no=32,missing=31
					31:leaf=-0.0759135
					32:leaf=-0.0407184
			8:[log_ids<4] yes=17,no=18,missing=17
				17:leaf=0.0751481
				18:[log_froms<2] yes=33,no=34,missing=33
					33:leaf=-0.0873051
					34:leaf=-0.0157295
		4:[log_ids<133] yes=9,no=10,missing=9
			9:[citys<3] yes=19,no=20,missing=19
				19:leaf=-0.0974144
				20:[log_ids<25] yes=35,no=36,missing=35
					35:leaf=-0.0638916
					36:leaf=-0.0975426
			10:[log_ids<149] yes=21,no=22,missing=21
				21:leaf=-0.00752129
				22:leaf=-0.0358304
	2:[log_ids<12] yes=5,no=6,missing=5
		5:[citys<6] yes=11,no=12,missing=11
			11:[log_ids<7] yes=23,no=24,missing=23
				23:[types<2] yes=37,no=38,missing=37
					37:leaf=0.0238124
					38:leaf=0.0555041
				24:[types<2] yes=39,no=40,missing=39
					39:leaf=0.0197843
					40:leaf=-0.0469544
			12:[log_ids<10] yes=25,no=26,missing=25
				25:leaf=0.0316221
				26:leaf=0.113994
		6:[log_ids<49] yes=13,no=14,missing=13
			13:[citys<11] yes=27,no=28,missing=27
				27:[log_ids<43] yes=41,no=42,missing=41
					41:leaf=-0.056869
					42:leaf=0.0200613
				28:[log_ids<28] yes=43,no=44,missing=43
					43:leaf=0.0547673
					44:leaf=0.129547
			14:leaf=-0.089448
booster[23]:
0:[citys<4] yes=1,no=2,missing=1
	1:[log_ids<7] yes=3,no=4,missing=3
		3:[citys<3] yes=7,no=8,missing=7
			7:[divs<5] yes=15,no=16,missing=15
				15:[ips<3] yes=25,no=26,missing=25
					25:leaf=-0.0669331
					26:leaf=-0.0846595
				16:[log_ids<6] yes=27,no=28,missing=27
					27:leaf=-0.0341961
					28:leaf=0.0153742
			8:[divs<3] yes=17,no=18,missing=17
				17:[divs<2] yes=29,no=30,missing=29
					29:leaf=-0.0327596
					30:leaf=0.0782541
				18:[ips<5] yes=31,no=32,missing=31
					31:leaf=-0.0822746
					32:leaf=-0.00996461
		4:[ips<61] yes=9,no=10,missing=9
			9:[log_ids<25] yes=19,no=20,missing=19
				19:[ips<16] yes=33,no=34,missing=33
					33:leaf=-0.0853092
					34:leaf=0.029936
				20:leaf=-0.100991
			10:leaf=0.028178
	2:[log_ids<45] yes=5,no=6,missing=5
		5:[citys<13] yes=11,no=12,missing=11
			11:[log_ids<12] yes=21,no=22,missing=21
				21:[citys<6] yes=35,no=36,missing=35
					35:leaf=-0.00475961
					36:leaf=0.076476
				22:[log_ids<42] yes=37,no=38,missing=37
					37:leaf=-0.0488682
					38:leaf=0.0923009
			12:leaf=0.0915786
		6:[citys<11] yes=13,no=14,missing=13
			13:leaf=-0.0973851
			14:[citys<16] yes=23,no=24,missing=23
				23:leaf=0.0250004
				24:leaf=-0.0957535
booster[24]:
0:[citys<4] yes=1,no=2,missing=1
	1:[log_ids<7] yes=3,no=4,missing=3
		3:[citys<2] yes=7,no=8,missing=7
			7:[log_ids<6] yes=15,no=16,missing=15
				15:[log_ids<2] yes=29,no=30,missing=29
					29:leaf=-0.0583791
					30:leaf=-0.0907209
				16:[log_froms<2] yes=31,no=32,missing=31
					31:leaf=-0.0827092
					32:leaf=0.0104305
			8:[types<2] yes=17,no=18,missing=17
				17:[log_froms<2] yes=33,no=34,missing=33
					33:leaf=-0.0516396
					34:leaf=-0.0131955
				18:[log_ids<5] yes=35,no=36,missing=35
					35:leaf=-0.0960277
					36:leaf=-0.0284245
		4:[log_ids<132] yes=9,no=10,missing=9
			9:[log_ids<14] yes=19,no=20,missing=19
				19:leaf=-0.0969192
				20:[log_ids<20] yes=37,no=38,missing=37
					37:leaf=-0.0464393
					38:leaf=-0.0943839
			10:[log_ids<149] yes=21,no=22,missing=21
				21:leaf=-0.007275
				22:leaf=-0.0314592
	2:[log_ids<45] yes=5,no=6,missing=5
		5:[citys<11] yes=11,no=12,missing=11
			11:[log_ids<12] yes=23,no=24,missing=23
				23:[log_froms<3] yes=39,no=40,missing=39
					39:leaf=0.0188572
					40:leaf=-0.0355499
				24:[citys<5] yes=41,no=42,missing=41
					41:leaf=-0.0718929
					42:leaf=-0.0155812
			12:[log_ids<28] yes=25,no=26,missing=25
				25:leaf=0.0110012
				26:leaf=0.128186
		6:[citys<11] yes=13,no=14,missing=13
			13:leaf=-0.0890961
			14:[log_froms<3] yes=27,no=28,missing=27
				27:leaf=0.0733375
				28:leaf=-0.0858658
booster[25]:
0:[citys<4] yes=1,no=2,missing=1
	1:[ips<62] yes=3,no=4,missing=3
		3:[citys<3] yes=7,no=8,missing=7
			7:[ips<3] yes=11,no=12,missing=11
				11:[log_froms<2] yes=19,no=20,missing=19
					19:leaf=-0.0735284
					20:leaf=-0.052735
				12:[citys<2] yes=21,no=22,missing=21
					21:leaf=-0.0925662
					22:leaf=-0.0752393
			8:[ips<7] yes=13,no=14,missing=13
				13:[types<2] yes=23,no=24,missing=23
					23:leaf=-0.0132388
					24:leaf=-0.0600874
				14:[log_froms<2] yes=25,no=26,missing=25
					25:leaf=-0.0254698
					26:leaf=-0.0818189
		4:leaf=0.0460624
	2:[ips<62] yes=5,no=6,missing=5
		5:[citys<11] yes=9,no=10,missing=9
			9:[ips<7] yes=15,no=16,missing=15
				15:[ips<6] yes=27,no=28,missing=27
					27:leaf=-0.0222433
					28:leaf=0.069341
				16:[citys<6] yes=29,no=30,missing=29
					29:leaf=-0.0601678
					30:leaf=-0.00667956
			10:[citys<14] yes=17,no=18,missing=17
				17:leaf=0.078996
				18:[citys<16] yes=31,no=32,missing=31
					31:leaf=-0.0139184
					32:leaf=0.0670221
		6:leaf=-0.0977661
booster[26]:
0:[log_froms<2] yes=1,no=2,missing=1
	1:[log_ids<2] yes=3,no=4,missing=3
		3:leaf=-0.0487917
		4:[ips<6] yes=7,no=8,missing=7
			7:[log_ids<6] yes=13,no=14,missing=13
				13:[ips<2] yes=23,no=24,missing=23
					23:leaf=-0.0868492
					24:leaf=-0.0649691
				14:leaf=-0.097997
			8:[log_ids<9] yes=15,no=16,missing=15
				15:[log_ids<7] yes=25,no=26,missing=25
					25:leaf=0.0381413
					26:leaf=0.00485036
				16:[log_ids<25] yes=27,no=28,missing=27
					27:leaf=-0.0475256
					28:leaf=-0.0928587
	2:[log_ids<7] yes=5,no=6,missing=5
		5:[log_froms<3] yes=9,no=10,missing=9
			9:[ips<5] yes=17,no=18,missing=17
				17:[ips<2] yes=29,no=30,missing=29
					29:leaf=-0.0901767
					30:leaf=-0.0166832
				18:[log_ids<6] yes=31,no=32,missing=31
					31:leaf=0.0445886
					32:leaf=0.0057179
			10:leaf=-0.0867436
		6:[log_ids<45] yes=11,no=12,missing=11
			11:[ips<9] yes=19,no=20,missing=19
				19:[ips<4] yes=33,no=34,missing=33
					33:leaf=-0.0929727
					34:leaf=-0.0628043
				20:[log_ids<43] yes=35,no=36,missing=35
					35:leaf=-0.0290168
					36:leaf=0.096195
			12:[log_ids<97] yes=21,no=22,missing=21
				21:leaf=-0.0998033
				22:[ips<68] yes=37,no=38,missing=37
					37:leaf=-0.0334409
					38:leaf=-0.0971143
booster[27]:
0:[log_froms<2] yes=1,no=2,missing=1
	1:[ips<16] yes=3,no=4,missing=3
		3:[divs<2] yes=7,no=8,missing=7
			7:leaf=-0.0660061
			8:[ips<6] yes=15,no=16,missing=15
				15:leaf=-0.0815391
				16:[ips<9] yes=25,no=26,missing=25
					25:leaf=-0.0317014
					26:leaf=-0.0870877
		4:[ips<19] yes=9,no=10,missing=9
			9:leaf=0.0342066
			10:[ips<26] yes=17,no=18,missing=17
				17:leaf=-0.0817563
				18:leaf=-0.0306278
	2:[divs<5] yes=5,no=6,missing=5
		5:[types<3] yes=11,no=12,missing=11
			11:[ips<5] yes=19,no=20,missing=19
				19:[divs<2] yes=27,no=28,missing=27
					27:leaf=0.0492628
					28:leaf=-0.0479183
				20:[ips<12] yes=29,no=30,missing=29
					29:leaf=0.0023353
					30:leaf=-0.0526624
			12:leaf=-0.106192
		6:[types<2] yes=13,no=14,missing=13
			13:[ips<29] yes=21,no=22,missing=21
				21:[ips<26] yes=31,no=32,missing=31
					31:leaf=-0.0687497
					32:leaf=0.00458283
				22:leaf=-0.095108
			14:[log_froms<3] yes=23,no=24,missing=23
				23:[ips<58] yes=33,no=34,missing=33
					33:leaf=-0.0445055
					34:leaf=0.104224
				24:[divs<6] yes=35,no=36,missing=35
					35:leaf=-0.00541677
					36:leaf=-0.079012
booster[28]:
0:[citys<5] yes=1,no=2,missing=1
	1:[log_ids<20] yes=3,no=4,missing=3
		3:[citys<3] yes=7,no=8,missing=7
			7:[log_ids<16] yes=15,no=16,missing=15
				15:[log_ids<7] yes=29,no=30,missing=29
					29:leaf=-0.0563076
					30:leaf=-0.0868849
				16:[divs<6] yes=31,no=32,missing=31
					31:leaf=-0.040314
					32:leaf=0.0315258
			8:[divs<3] yes=17,no=18,missing=17
				17:[log_ids<6] yes=33,no=34,missing=33
					33:leaf=0.0812102
					34:leaf=-0.0493302
				18:[log_ids<15] yes=35,no=36,missing=35
					35:leaf=-0.0527349
					36:leaf=0.00678644
		4:[log_ids<133] yes=9,no=10,missing=9
			9:[log_froms<2] yes=19,no=20,missing=19
				19:[citys<3] yes=37,no=38,missing=37
					37:leaf=-0.0891089
					38:leaf=0.0364595
				20:leaf=-0.0971925
			10:[citys<3] yes=21,no=22,missing=21
				21:leaf=-0.00251991
				22:leaf=-0.0823886
	2:[log_ids<45] yes=5,no=6,missing=5
		5:[citys<8] yes=11,no=12,missing=11
			11:[divs<10] yes=23,no=24,missing=23
				23:[log_ids<20] yes=39,no=40,missing=39
					39:leaf=-0.00300139
					40:leaf=0.0878949
				24:[divs<15] yes=41,no=42,missing=41
					41:leaf=-0.0837298
					42:leaf=-0.0332927
			12:[log_ids<11] yes=25,no=26,missing=25
				25:leaf=0.123779
				26:[citys<11] yes=43,no=44,missing=43
					43:leaf=0.00520941
					44:leaf=0.0805948
		6:[divs<29] yes=13,no=14,missing=13
			13:leaf=-0.0903936
			14:[divs<35] yes=27,no=28,missing=27
				27:leaf=0.0883053
				28:leaf=-0.0931485
booster[29]:
0:[citys<3] yes=1,no=2,missing=1
	1:[log_ids<132] yes=3,no=4,missing=3
		3:[log_ids<7] yes=7,no=8,missing=7
			7:[citys<2] yes=13,no=14,missing=13
				13:[log_ids<2] yes=23,no=24,missing=23
					23:leaf=-0.0481368
					24:leaf=-0.0778303
				14:[types<2] yes=25,no=26,missing=25
					25:leaf=-0.0285645
					26:leaf=-0.0759382
			8:[types<2] yes=15,no=16,missing=15
				15:leaf=-0.0908623
				16:[log_ids<14] yes=27,no=28,missing=27
					27:leaf=-0.0871262
					28:leaf=-0.0567368
		4:leaf=0.0294528
	2:[log_ids<32] yes=5,no=6,missing=5
		5:[citys<8] yes=9,no=10,missing=9
			9:[log_ids<7] yes=17,no=18,missing=17
				17:[citys<4] yes=29,no=30,missing=29
					29:leaf=0.00256281
					30:leaf=0.0483442
				18:[log_ids<30] yes=31,no=32,missing=31
					31:leaf=-0.0288035
					32:leaf=0.0915883
			10:[citys<9] yes=19,no=20,missing=19
				19:leaf=0.108868
				20:[log_froms<3] yes=33,no=34,missing=33
					33:leaf=-0.0257593
					34:leaf=0.0990551
		6:[citys<6] yes=11,no=12,missing=11
			11:leaf=-0.0894179
			12:[log_froms<3] yes=21,no=22,missing=21
				21:[citys<11] yes=35,no=36,missing=35
					35:leaf=-0.0358044
					36:leaf=0.0751018
				22:[log_ids<100] yes=37,no=38,missing=37
					37:leaf=-0.0145232
					38:leaf=-0.0928979
booster[30]:
0:[citys<4] yes=1,no=2,missing=1
	1:[log_ids<7] yes=3,no=4,missing=3
		3:[citys<3] yes=7,no=8,missing=7
			7:[types<2] yes=15,no=16,missing=15
				15:[log_froms<2] yes=27,no=28,missing=27
					27:leaf=-0.0559875
					28:leaf=-0.0152601
				16:leaf=-0.074415
			8:[log_ids<4] yes=17,no=18,missing=17
				17:leaf=0.0518165
				18:[log_ids<6] yes=29,no=30,missing=29
					29:leaf=-0.0183135
					30:leaf=-0.0493607
		4:[log_ids<133] yes=9,no=10,missing=9
			9:[citys<3] yes=19,no=20,missing=19
				19:[types<2] yes=31,no=32,missing=31
					31:leaf=-0.0903486
					32:leaf=-0.0661971
				20:[log_ids<25] yes=33,no=34,missing=33
					33:leaf=-0.0351567
					34:leaf=-0.0819728
			10:leaf=-0.00946213
	2:[log_ids<45] yes=5,no=6,missing=5
		5:[log_ids<42] yes=11,no=12,missing=11
			11:[log_ids<37] yes=21,no=22,missing=21
				21:[log_ids<31] yes=35,no=36,missing=35
					35:leaf=-0.000695174
					36:leaf=0.0756856
				22:leaf=-0.0915401
			12:leaf=0.107865
		6:[citys<11] yes=13,no=14,missing=13
			13:[log_ids<99] yes=23,no=24,missing=23
				23:[log_ids<72] yes=37,no=38,missing=37
					37:leaf=-0.070204
					38:leaf=-0.00734702
				24:leaf=-0.0938545
			14:[log_froms<4] yes=25,no=26,missing=25
				25:leaf=0.0410785
				26:leaf=-0.0847588
booster[31]:
0:[log_ids<21] yes=1,no=2,missing=1
	1:[log_froms<2] yes=3,no=4,missing=3
		3:[log_ids<2] yes=7,no=8,missing=7
			7:leaf=-0.0334237
			8:[log_ids<14] yes=15,no=16,missing=15
				15:[log_ids<9] yes=27,no=28,missing=27
					27:leaf=-0.0550037
					28:leaf=-0.0969296
				16:[divs<3] yes=29,no=30,missing=29
					29:leaf=0.0113912
					30:leaf=-0.0358976
		4:[log_ids<7] yes=9,no=10,missing=9
			9:[log_ids<5] yes=17,no=18,missing=17
				17:[divs<2] yes=31,no=32,missing=31
					31:leaf=0.04528
					32:leaf=-0.0358952
				18:[divs<3] yes=33,no=34,missing=33
					33:leaf=0.0601869
					34:leaf=-0.00970351
			10:[log_ids<8] yes=19,no=20,missing=19
				19:leaf=-0.0798872
				20:[log_ids<11] yes=35,no=36,missing=35
					35:leaf=-0.00337143
					36:leaf=-0.0319961
	2:[divs<7] yes=5,no=6,missing=5
		5:[divs<4] yes=11,no=12,missing=11
			11:[divs<3] yes=21,no=22,missing=21
				21:leaf=-0.0920424
				22:leaf=-0.0210516
			12:leaf=-0.0858673
		6:[log_ids<45] yes=13,no=14,missing=13
			13:[log_ids<43] yes=23,no=24,missing=23
				23:[divs<8] yes=37,no=38,missing=37
					37:leaf=0.0244948
					38:leaf=-0.0548637
				24:leaf=0.0829764
			14:[types<2] yes=25,no=26,missing=25
				25:leaf=-0.0978816
				26:[divs<35] yes=39,no=40,missing=39
					39:leaf=-0.0191914
					40:leaf=-0.0900006
booster[32]:
0:[log_ids<33] yes=1,no=2,missing=1
	1:[ips<14] yes=3,no=4,missing=3
		3:[log_ids<21] yes=7,no=8,missing=7
			7:[log_froms<2] yes=15,no=16,missing=15
				15:[log_ids<5] yes=25,no=26,missing=25
					25:leaf=-0.0449527
					26:leaf=-0.0722346
				16:[divs<3] yes=27,no=28,missing=27
					27:leaf=0.00418645
					28:leaf=-0.0282406
			8:leaf=-0.100819
		4:[divs<7] yes=9,no=10,missing=9
			9:[divs<5] yes=17,no=18,missing=17
				17:[log_ids<23] yes=29,no=30,missing=29
					29:leaf=-0.0435933
					30:leaf=0.0273526
				18:leaf=-0.0571083
			10:[divs<13] yes=19,no=20,missing=19
				19:[ips<16] yes=31,no=32,missing=31
					31:leaf=0.0256145
					32:leaf=0.173795
				20:leaf=-0.0482642
	2:[divs<29] yes=5,no=6,missing=5
		5:[log_ids<44] yes=11,no=12,missing=11
			11:[log_ids<43] yes=21,no=22,missing=21
				21:[ips<27] yes=33,no=34,missing=33
					33:leaf=-0.0828079
					34:leaf=-0.0231313
				22:leaf=0.0645657
			12:[ips<64] yes=23,no=24,missing=23
				23:[log_froms<2] yes=35,no=36,missing=35
					35:leaf=-0.0476616
					36:leaf=-0.0941893
				24:leaf=-0.0315192
		6:[divs<35] yes=13,no=14,missing=13
			13:leaf=0.0725549
			14:leaf=-0.0929794
booster[33]:
0:[citys<5] yes=1,no=2,missing=1
	1:[divs<7] yes=3,no=4,missing=3
		3:[citys<4] yes=7,no=8,missing=7
			7:[log_froms<2] yes=15,no=16,missing=15
				15:[divs<2] yes=29,no=30,missing=29
					29:leaf=-0.0494646
					30:leaf=-0.0734731
				16:[types<2] yes=31,no=32,missing=31
					31:leaf=-0.0280046
					32:leaf=-0.0626191
			8:[log_froms<3] yes=17,no=18,missing=17
				17:[types<2] yes=33,no=34,missing=33
					33:leaf=-0.0123457
					34:leaf=0.0248091
				18:leaf=-0.0481952
		4:[log_froms<2] yes=9,no=10,missing=9
			9:leaf=-0.0127605
			10:[divs<13] yes=19,no=20,missing=19
				19:leaf=-0.0954705
				20:[types<2] yes=35,no=36,missing=35
					35:leaf=-0.0929777
					36:leaf=0.00458871
	2:[divs<5] yes=5,no=6,missing=5
		5:[types<2] yes=11,no=12,missing=11
			11:[citys<7] yes=21,no=22,missing=21
				21:leaf=0.0830504
				22:leaf=-0.00665147
			12:[citys<6] yes=23,no=24,missing=23
				23:leaf=-0.055566
				24:[citys<8] yes=37,no=38,missing=37
					37:leaf=0.0844934
					38:leaf=0.0247931
		6:[log_froms<3] yes=13,no=14,missing=13
			13:[citys<6] yes=25,no=26,missing=25
				25:[divs<8] yes=39,no=40,missing=39
					39:leaf=-0.012529
					40:leaf=-0.0909403
				26:[divs<7] yes=41,no=42,missing=41
					41:leaf=-0.0445431
					42:leaf=0.0473344
			14:[citys<7] yes=27,no=28,missing=27
				27:leaf=-0.0159349
				28:[divs<15] yes=43,no=44,missing=43
					43:leaf=-0.0212071
					44:leaf=-0.0908867
booster[34]:
0:[citys<4] yes=1,no=2,missing=1
	1:[log_ids<7] yes=3,no=4,missing=3
		3:[types<2] yes=7,no=8,missing=7
			7:[citys<2] yes=15,no=16,missing=15
				15:[log_ids<6] yes=29,no=30,missing=29
					29:leaf=-0.0477878
					30:leaf=0.0313909
				16:[divs<2] yes=31,no=32,missing=31
					31:leaf=0.0361765
					32:leaf=-0.0124162
			8:[citys<3] yes=17,no=18,missing=17
				17:[divs<4] yes=33,no=34,missing=33
					33:leaf=-0.0751915
					34:leaf=-0.0286536
				18:leaf=-0.0315756
		4:[log_ids<133] yes=9,no=10,missing=9
			9:[citys<3] yes=19,no=20,missing=19
				19:[log_ids<24] yes=35,no=36,missing=35
					35:leaf=-0.0762663
					36:leaf=-0.0992643
				20:[log_ids<25] yes=37,no=38,missing=37
					37:leaf=-0.0273729
					38:leaf=-0.0823811
			10:leaf=-0.00763328
	2:[log_ids<49] yes=5,no=6,missing=5
		5:[citys<13] yes=11,no=12,missing=11
			11:[divs<3] yes=21,no=22,missing=21
				21:[types<2] yes=39,no=40,missing=39
					39:leaf=0.0573133
					40:leaf=-0.00541533
				22:[log_ids<43] yes=41,no=42,missing=41
					41:leaf=-0.0158846
					42:leaf=0.0726486
			12:[log_ids<26] yes=23,no=24,missing=23
				23:leaf=0.0386517
				24:leaf=0.0896954
		6:[citys<11] yes=13,no=14,missing=13
			13:[divs<29] yes=25,no=26,missing=25
				25:leaf=-0.0935649
				26:leaf=-0.0442247
			14:[divs<36] yes=27,no=28,missing=27
				27:leaf=0.0341221
				28:leaf=-0.0806418
booster[35]:
0:[citys<3] yes=1,no=2,missing=1
	1:[log_ids<7] yes=3,no=4,missing=3
		3:[citys<2] yes=7,no=8,missing=7
			7:[log_ids<2] yes=15,no=16,missing=15
				15:leaf=-0.0228519
				16:[log_ids<6] yes=29,no=30,missing=29
					29:leaf=-0.0680892
					30:leaf=-0.0143777
			8:[divs<2] yes=17,no=18,missing=17
				17:leaf=0.0435476
				18:[log_ids<5] yes=31,no=32,missing=31
					31:leaf=-0.0547644
					32:leaf=0.0138556
		4:[log_ids<132] yes=9,no=10,missing=9
			9:[log_ids<20] yes=19,no=20,missing=19
				19:[log_ids<17] yes=33,no=34,missing=33
					33:leaf=-0.074209
					34:leaf=0.0127714
				20:leaf=-0.0938328
			10:leaf=0.0322583
	2:[log_ids<45] yes=5,no=6,missing=5
		5:[citys<5] yes=11,no=12,missing=11
			11:[log_ids<6] yes=21,no=22,missing=21
				21:[divs<3] yes=35,no=36,missing=35
					35:leaf=0.0490734
					36:leaf=-0.00796234
				22:[log_ids<25] yes=37,no=38,missing=37
					37:leaf=-0.0220843
					38:leaf=-0.0797709
			12:[log_ids<11] yes=23,no=24,missing=23
				23:[log_ids<9] yes=39,no=40,missing=39
					39:leaf=-0.000433977
					40:leaf=0.0956431
				24:[citys<13] yes=41,no=42,missing=41
					41:leaf=-0.0187089
					42:leaf=0.0591733
		6:[divs<23] yes=13,no=14,missing=13
			13:[log_ids<49] yes=25,no=26,missing=25
				25:leaf=-0.0312468
				26:leaf=-0.0902917
			14:[divs<35] yes=27,no=28,missing=27
				27:leaf=0.0425255
				28:leaf=-0.0875632
booster[36]:
0:[citys<5] yes=1,no=2,missing=1
	1:[log_ids<7] yes=3,no=4,missing=3
		3:[citys<2] yes=7,no=8,missing=7
			7:[ips<3] yes=15,no=16,missing=15
				15:[log_ids<6] yes=27,no=28,missing=27
					27:leaf=-0.0363312
					28:leaf=0.0338851
				16:leaf=-0.0854539
			8:[ips<5] yes=17,no=18,missing=17
				17:[divs<2] yes=29,no=30,missing=29
					29:leaf=0.0458357
					30:leaf=-0.0224126
				18:[log_ids<6] yes=31,no=32,missing=31
					31:leaf=0.0545047
					32:leaf=0.000464915
		4:[log_ids<25] yes=9,no=10,missing=9
			9:[ips<16] yes=19,no=20,missing=19
				19:[log_ids<15] yes=33,no=34,missing=33
					33:leaf=-0.0711451
					34:leaf=-0.0238024
				20:leaf=0.11911
			10:[ips<61] yes=21,no=22,missing=21
				21:leaf=-0.0873535
				22:leaf=0.023985
	2:[log_ids<45] yes=5,no=6,missing=5
		5:[ips<6] yes=11,no=12,missing=11
			11:leaf=-0.0676926
			12:[ips<7] yes=23,no=24,missing=23
				23:[log_ids<8] yes=35,no=36,missing=35
					35:leaf=0.0183979
					36:leaf=0.131237
				24:[ips<8] yes=37,no=38,missing=37
					37:leaf=-0.0804869
					38:leaf=0.0243077
		6:[citys<11] yes=13,no=14,missing=13
			13:leaf=-0.0847669
			14:[citys<12] yes=25,no=26,missing=25
				25:leaf=0.0730661
				26:leaf=-0.0632969
booster[37]:
0:[citys<4] yes=1,no=2,missing=1
	1:[log_ids<20] yes=3,no=4,missing=3
		3:[log_ids<19] yes=7,no=8,missing=7
			7:[log_ids<7] yes=15,no=16,missing=15
				15:[citys<2] yes=25,no=26,missing=25
					25:leaf=-0.0454319
					26:leaf=-0.0137037
				16:[log_ids<15] yes=27,no=28,missing=27
					27:leaf=-0.0763627
					28:leaf=-0.00951142
			8:leaf=0.11455
		4:[ips<56] yes=9,no=10,missing=9
			9:[ips<14] yes=17,no=18,missing=17
				17:leaf=-0.0981209
				18:[ips<21] yes=29,no=30,missing=29
					29:leaf=-0.0330828
					30:leaf=-0.0937636
			10:leaf=0.00708936
	2:[log_ids<49] yes=5,no=6,missing=5
		5:[citys<6] yes=11,no=12,missing=11
			11:[ips<19] yes=19,no=20,missing=19
				19:[log_ids<17] yes=31,no=32,missing=31
					31:leaf=0.00110455
					32:leaf=-0.0854107
				20:leaf=0.100728
			12:[log_ids<12] yes=21,no=22,missing=21
				21:[ips<10] yes=33,no=34,missing=33
					33:leaf=-0.00934055
					34:leaf=0.152915
				22:[log_ids<16] yes=35,no=36,missing=35
					35:leaf=-0.0627688
					36:leaf=0.0199548
		6:[citys<11] yes=13,no=14,missing=13
			13:leaf=-0.0865059
			14:[citys<12] yes=23,no=24,missing=23
				23:leaf=0.0546004
				24:leaf=-0.0600307
booster[38]:
0:[log_froms<2] yes=1,no=2,missing=1
	1:[ips<13] yes=3,no=4,missing=3
		3:[divs<2] yes=7,no=8,missing=7
			7:[ips<4] yes=13,no=14,missing=13
				13:[ips<3] yes=19,no=20,missing=19
					19:leaf=-0.038895
					20:leaf=0.0175689
				14:[ips<7] yes=21,no=22,missing=21
					21:leaf=-0.0827259
					22:leaf=-0.0320566
			8:[ips<6] yes=15,no=16,missing=15
				15:leaf=-0.0667501
				16:[ips<8] yes=23,no=24,missing=23
					23:leaf=-0.0184702
					24:leaf=-0.0604313
		4:[ips<17] yes=9,no=10,missing=9
			9:leaf=0.0560851
			10:leaf=-0.0534445
	2:[ips<68] yes=5,no=6,missing=5
		5:[ips<60] yes=11,no=12,missing=11
			11:[divs<10] yes=17,no=18,missing=17
				17:[ips<2] yes=25,no=26,missing=25
					25:leaf=-0.0872182
					26:leaf=-0.0129692
				18:[log_froms<3] yes=27,no=28,missing=27
					27:leaf=-0.0652548
					28:leaf=-0.0172383
			12:leaf=0.0886608
		6:leaf=-0.0886665
booster[39]:
0:[log_ids<33] yes=1,no=2,missing=1
	1:[log_froms<2] yes=3,no=4,missing=3
		3:[divs<7] yes=7,no=8,missing=7
			7:[log_ids<8] yes=15,no=16,missing=15
				15:[divs<4] yes=25,no=26,missing=25
					25:leaf=-0.0350047
					26:leaf=0.0210865
				16:[log_ids<14] yes=27,no=28,missing=27
					27:leaf=-0.0865086
					28:leaf=-0.0414117
			8:leaf=0.0244241
		4:[log_ids<26] yes=9,no=10,missing=9
			9:[log_ids<23] yes=17,no=18,missing=17
				17:[divs<9] yes=29,no=30,missing=29
					29:leaf=-0.006508
					30:leaf=-0.0548
				18:leaf=-0.0860875
			10:[divs<7] yes=19,no=20,missing=19
				19:[divs<5] yes=31,no=32,missing=31
					31:leaf=0.0283963
					32:leaf=-0.055211
				20:[log_ids<31] yes=33,no=34,missing=33
					33:leaf=0.0148657
					34:leaf=0.112027
	2:[divs<29] yes=5,no=6,missing=5
		5:[log_ids<49] yes=11,no=12,missing=11
			11:[log_ids<43] yes=21,no=22,missing=21
				21:leaf=-0.0720375
				22:[log_ids<45] yes=35,no=36,missing=35
					35:leaf=0.0422931
					36:leaf=-0.0430535
			12:[divs<15] yes=23,no=24,missing=23
				23:leaf=-0.095026
				24:[types<2] yes=37,no=38,missing=37
					37:leaf=-0.0768663
					38:leaf=0.00276127
		6:[divs<35] yes=13,no=14,missing=13
			13:leaf=0.0912624
			14:leaf=-0.086335
booster[40]:
0:[citys<3] yes=1,no=2,missing=1
	1:[log_ids<7] yes=3,no=4,missing=3
		3:[citys<2] yes=7,no=8,missing=7
			7:[log_ids<2] yes=15,no=16,missing=15
				15:leaf=-0.00565767
				16:[log_ids<6] yes=29,no=30,missing=29
					29:leaf=-0.0562535
					30:leaf=0.0197203
			8:[types<2] yes=17,no=18,missing=17
				17:[log_froms<2] yes=31,no=32,missing=31
					31:leaf=-0.0174789
					32:leaf=0.0370549
				18:[log_ids<5] yes=33,no=34,missing=33
					33:leaf=-0.0747687
					34:leaf=-0.0020541
		4:[types<2] yes=9,no=10,missing=9
			9:[log_ids<18] yes=19,no=20,missing=19
				19:[log_ids<16] yes=35,no=36,missing=35
					35:leaf=-0.080797
					36:leaf=0.0377817
				20:leaf=-0.0940532
			10:[log_ids<14] yes=21,no=22,missing=21
				21:leaf=-0.0821269
				22:[log_froms<3] yes=37,no=38,missing=37
					37:leaf=0.0526239
					38:leaf=-0.0706931
	2:[log_ids<37] yes=5,no=6,missing=5
		5:[citys<13] yes=11,no=12,missing=11
			11:[log_ids<5] yes=23,no=24,missing=23
				23:[types<2] yes=39,no=40,missing=39
					39:leaf=0.0696336
					40:leaf=0.0189062
				24:[citys<5] yes=41,no=42,missing=41
					41:leaf=-0.0183304
					42:leaf=0.0141927
			12:leaf=0.0669709
		6:[citys<6] yes=13,no=14,missing=13
			13:[log_ids<49] yes=25,no=26,missing=25
				25:leaf=-0.032625
				26:leaf=-0.0825406
			14:[citys<12] yes=27,no=28,missing=27
				27:[citys<11] yes=43,no=44,missing=43
					43:leaf=-0.0253338
					44:leaf=0.0408211
				28:leaf=-0.0693503
booster[41]:
0:[log_ids<44] yes=1,no=2,missing=1
	1:[log_froms<2] yes=3,no=4,missing=3
		3:[log_ids<2] yes=7,no=8,missing=7
			7:leaf=-0.00916462
			8:[log_ids<9] yes=15,no=16,missing=15
				15:[types<2] yes=21,no=22,missing=21
					21:leaf=-0.0334818
					22:leaf=-0.0655475
				16:[divs<7] yes=23,no=24,missing=23
					23:leaf=-0.0744936
					24:leaf=-0.0134142
		4:[log_froms<3] yes=9,no=10,missing=9
			9:[log_ids<41] yes=17,no=18,missing=17
				17:[log_ids<7] yes=25,no=26,missing=25
					25:leaf=0.00830798
					26:leaf=-0.0188235
				18:leaf=0.0761609
			10:[log_ids<9] yes=19,no=20,missing=19
				19:leaf=-0.0802817
				20:[divs<6] yes=27,no=28,missing=27
					27:leaf=0.0181556
					28:leaf=-0.0597815
	2:[divs<29] yes=5,no=6,missing=5
		5:[log_ids<120] yes=11,no=12,missing=11
			11:leaf=-0.0867708
			12:leaf=-0.0446621
		6:[divs<35] yes=13,no=14,missing=13
			13:leaf=0.0701363
			14:leaf=-0.0832002
booster[42]:
0:[citys<4] yes=1,no=2,missing=1
	1:[log_ids<7] yes=3,no=4,missing=3
		3:[citys<2] yes=7,no=8,missing=7
			7:[log_ids<2] yes=15,no=16,missing=15
				15:leaf=0.00260488
				16:[ips<2] yes=27,no=28,missing=27
					27:leaf=-0.0790517
					28:leaf=-0.0402488
			8:[types<2] yes=17,no=18,missing=17
				17:[log_ids<4] yes=29,no=30,missing=29
					29:leaf=0.0342375
					30:leaf=-0.00889998
				18:[log_ids<5] yes=31,no=32,missing=31
					31:leaf=-0.0719525
					32:leaf=0.0166496
		4:[ips<58] yes=9,no=10,missing=9
			9:[log_ids<25] yes=19,no=20,missing=19
				19:[log_ids<15] yes=33,no=34,missing=33
					33:leaf=-0.0697352
					34:leaf=-0.00755476
				20:leaf=-0.0904142
			10:leaf=0.0580079
	2:[log_ids<37] yes=5,no=6,missing=5
		5:[log_ids<7] yes=11,no=12,missing=11
			11:[ips<6] yes=21,no=22,missing=21
				21:[types<2] yes=35,no=36,missing=35
					35:leaf=-0.0279857
					36:leaf=0.0715581
				22:leaf=0.0949859
			12:[citys<5] yes=23,no=24,missing=23
				23:[log_ids<17] yes=37,no=38,missing=37
					37:leaf=0.00831095
					38:leaf=-0.081202
				24:[types<2] yes=39,no=40,missing=39
					39:leaf=0.0544875
					40:leaf=-0.000168789
		6:[citys<6] yes=13,no=14,missing=13
			13:leaf=-0.078639
			14:[citys<7] yes=25,no=26,missing=25
				25:leaf=0.0459236
				26:[log_ids<227] yes=41,no=42,missing=41
					41:leaf=-0.0761881
					42:leaf=-0.00662745
booster[43]:
0:[log_ids<32] yes=1,no=2,missing=1
	1:[ips<25] yes=3,no=4,missing=3
		3:[ips<6] yes=7,no=8,missing=7
			7:[log_ids<6] yes=13,no=14,missing=13
				13:[ips<5] yes=21,no=22,missing=21
					21:leaf=-0.0194563
					22:leaf=0.021945
				14:[log_froms<2] yes=23,no=24,missing=23
					23:leaf=-0.0837168
					24:leaf=-0.0474054
			8:[log_ids<21] yes=15,no=16,missing=15
				15:[ips<7] yes=25,no=26,missing=25
					25:leaf=0.0472769
					26:leaf=0.00153668
				16:[ips<15] yes=27,no=28,missing=27
					27:leaf=-0.0899173
					28:leaf=0.0160109
		4:leaf=0.119733
	2:[divs<9] yes=5,no=6,missing=5
		5:[ips<28] yes=9,no=10,missing=9
			9:leaf=-0.0962057
			10:leaf=-0.0408709
		6:[ips<20] yes=11,no=12,missing=11
			11:[log_ids<42] yes=17,no=18,missing=17
				17:leaf=0.0437071
				18:leaf=0.00847011
			12:[ips<34] yes=19,no=20,missing=19
				19:leaf=-0.0963059
				20:[ips<63] yes=29,no=30,missing=29
					29:leaf=0.0346742
					30:leaf=-0.0719304
booster[44]:
0:[types<3] yes=1,no=2,missing=1
	1:[ips<68] yes=3,no=4,missing=3
		3:[ips<6] yes=7,no=8,missing=7
			7:[divs<5] yes=9,no=10,missing=9
				9:[log_froms<2] yes=13,no=14,missing=13
					13:leaf=-0.0283171
					14:leaf=-0.00445114
				10:leaf=-0.0559986
			8:[ips<60] yes=11,no=12,missing=11
				11:[divs<5] yes=15,no=16,missing=15
					15:leaf=0.0196269
					16:leaf=-0.014192
				12:leaf=0.0786255
		4:leaf=-0.0851123
	2:[divs<5] yes=5,no=6,missing=5
		5:leaf=-0.105176
		6:leaf=-0.0542971
booster[45]:
0:[citys<3] yes=1,no=2,missing=1
	1:[log_ids<7] yes=3,no=4,missing=3
		3:[ips<5] yes=7,no=8,missing=7
			7:[ips<4] yes=15,no=16,missing=15
				15:[types<2] yes=27,no=28,missing=27
					27:leaf=-0.0164578
					28:leaf=-0.05528
				16:leaf=-0.0799091
			8:[log_ids<6] yes=17,no=18,missing=17
				17:leaf=0.010905
				18:leaf=0.040293
		4:[types<2] yes=9,no=10,missing=9
			9:[log_ids<18] yes=19,no=20,missing=19
				19:[log_ids<16] yes=29,no=30,missing=29
					29:leaf=-0.0701333
					30:leaf=0.0425749
				20:leaf=-0.0916294
			10:[ips<10] yes=21,no=22,missing=21
				21:[ips<5] yes=31,no=32,missing=31
					31:leaf=-0.074643
					32:leaf=-0.0277684
				22:[log_ids<31] yes=33,no=34,missing=33
					33:leaf=0.140958
					34:leaf=0.015642
	2:[log_ids<45] yes=5,no=6,missing=5
		5:[log_ids<42] yes=11,no=12,missing=11
			11:[log_ids<33] yes=23,no=24,missing=23
				23:[ips<14] yes=35,no=36,missing=35
					35:leaf=-0.000964327
					36:leaf=0.0465668
				24:leaf=-0.060996
			12:leaf=0.0978695
		6:[citys<11] yes=13,no=14,missing=13
			13:[types<2] yes=25,no=26,missing=25
				25:leaf=-0.087287
				26:[log_ids<99] yes=37,no=38,missing=37
					37:leaf=-0.0073022
					38:leaf=-0.0784665
			14:leaf=0.00481322
booster[46]:
0:[citys<3] yes=1,no=2,missing=1
	1:[divs<13] yes=3,no=4,missing=3
		3:[divs<7] yes=7,no=8,missing=7
			7:[divs<2] yes=13,no=14,missing=13
				13:[log_froms<2] yes=23,no=24,missing=23
					23:leaf=-0.0207377
					24:leaf=0.105539
				14:[divs<3] yes=25,no=26,missing=25
					25:leaf=-0.0472631
					26:leaf=-0.0195929
			8:leaf=-0.0752998
		4:leaf=0.0468379
	2:[divs<10] yes=5,no=6,missing=5
		5:[types<3] yes=9,no=10,missing=9
			9:[divs<7] yes=15,no=16,missing=15
				15:[divs<5] yes=27,no=28,missing=27
					27:leaf=0.0197438
					28:leaf=-0.0201021
				16:[citys<5] yes=29,no=30,missing=29
					29:leaf=-0.0203712
					30:leaf=0.0599701
			10:[log_froms<3] yes=17,no=18,missing=17
				17:leaf=0.00216964
				18:leaf=-0.0672088
		6:[citys<6] yes=11,no=12,missing=11
			11:[citys<4] yes=19,no=20,missing=19
				19:leaf=-0.0444786
				20:leaf=-0.0921101
			12:[types<2] yes=21,no=22,missing=21
				21:leaf=0.0443739
				22:[divs<29] yes=31,no=32,missing=31
					31:leaf=-0.0767259
					32:leaf=0.00530207
booster[47]:
0:[citys<4] yes=1,no=2,missing=1
	1:[divs<4] yes=3,no=4,missing=3
		3:[ips<12] yes=7,no=8,missing=7
			7:[ips<8] yes=15,no=16,missing=15
				15:[types<2] yes=25,no=26,missing=25
					25:leaf=-0.0136648
					26:leaf=-0.0450198
				16:leaf=-0.0863307
			8:leaf=0.0583464
		4:[types<2] yes=9,no=10,missing=9
			9:[ips<6] yes=17,no=18,missing=17
				17:[divs<6] yes=27,no=28,missing=27
					27:leaf=-0.0348024
					28:leaf=0.0216478
				18:[ips<17] yes=29,no=30,missing=29
					29:leaf=-0.0584358
					30:leaf=-0.0883021
			10:[ips<6] yes=19,no=20,missing=19
				19:[ips<5] yes=31,no=32,missing=31
					31:leaf=-0.0912818
					32:leaf=-0.0334824
				20:[ips<14] yes=33,no=34,missing=33
					33:leaf=0.0535769
					34:leaf=-0.023446
	2:[divs<10] yes=5,no=6,missing=5
		5:[types<3] yes=11,no=12,missing=11
			11:[ips<7] yes=21,no=22,missing=21
				21:[ips<6] yes=35,no=36,missing=35
					35:leaf=0.00337646
					36:leaf=0.0737268
				22:[ips<9] yes=37,no=38,missing=37
					37:leaf=-0.0206599
					38:leaf=0.0187042
			12:leaf=-0.048055
		6:[citys<6] yes=13,no=14,missing=13
			13:leaf=-0.0897832
			14:[types<2] yes=23,no=24,missing=23
				23:leaf=0.0536082
				24:[ips<34] yes=39,no=40,missing=39
					39:leaf=-0.090929
					40:leaf=0.00693781
booster[48]:
0:[citys<3] yes=1,no=2,missing=1
	1:[log_ids<8] yes=3,no=4,missing=3
		3:[divs<5] yes=7,no=8,missing=7
			7:[divs<4] yes=15,no=16,missing=15
				15:[types<2] yes=29,no=30,missing=29
					29:leaf=-0.0135279
					30:leaf=-0.0463856
				16:leaf=-0.0680009
			8:leaf=0.0205667
		4:[types<2] yes=9,no=10,missing=9
			9:[log_ids<18] yes=17,no=18,missing=17
				17:[log_ids<16] yes=31,no=32,missing=31
					31:leaf=-0.0725048
					32:leaf=0.0147447
				18:leaf=-0.0891743
			10:[log_ids<14] yes=19,no=20,missing=19
				19:leaf=-0.069306
				20:[log_ids<20] yes=33,no=34,missing=33
					33:leaf=0.07561
					34:leaf=-0.0145346
	2:[divs<3] yes=5,no=6,missing=5
		5:[divs<2] yes=11,no=12,missing=11
			11:[citys<4] yes=21,no=22,missing=21
				21:leaf=-0.00332091
				22:leaf=-0.0398893
			12:[log_ids<8] yes=23,no=24,missing=23
				23:[types<2] yes=35,no=36,missing=35
					35:leaf=0.117139
					36:leaf=0.0365379
				24:[types<2] yes=37,no=38,missing=37
					37:leaf=0.0317153
					38:leaf=-0.033624
		6:[log_ids<122] yes=13,no=14,missing=13
			13:[citys<11] yes=25,no=26,missing=25
				25:[divs<8] yes=39,no=40,missing=39
					39:leaf=-0.00196417
					40:leaf=-0.0253079
				26:[log_ids<20] yes=41,no=42,missing=41
					41:leaf=0.0541507
					42:leaf=0.0190407
			14:[citys<11] yes=27,no=28,missing=27
				27:leaf=-0.0825323
				28:leaf=-0.0183783
booster[49]:
0:[citys<4] yes=1,no=2,missing=1
	1:[log_ids<25] yes=3,no=4,missing=3
		3:[log_ids<19] yes=7,no=8,missing=7
			7:[log_ids<7] yes=15,no=16,missing=15
				15:[log_froms<2] yes=27,no=28,missing=27
					27:leaf=-0.0246386
					28:leaf=-0.00377995
				16:[log_ids<14] yes=29,no=30,missing=29
					29:leaf=-0.0571089
					30:leaf=-0.014414
			8:[log_ids<20] yes=17,no=18,missing=17
				17:leaf=0.141995
				18:[log_ids<22] yes=31,no=32,missing=31
					31:leaf=-0.0783005
					32:leaf=0.0419568
		4:[log_ids<133] yes=9,no=10,missing=9
			9:[divs<8] yes=19,no=20,missing=19
				19:leaf=-0.0928802
				20:[log_ids<42] yes=33,no=34,missing=33
					33:leaf=-0.00864012
					34:leaf=-0.057249
			10:leaf=0.0468888
	2:[log_ids<11] yes=5,no=6,missing=5
		5:[citys<8] yes=11,no=12,missing=11
			11:[log_froms<3] yes=21,no=22,missing=21
				21:[divs<5] yes=35,no=36,missing=35
					35:leaf=0.0306906
					36:leaf=-0.0228527
				22:leaf=-0.0518899
			12:leaf=0.118239
		6:[log_ids<15] yes=13,no=14,missing=13
			13:[divs<5] yes=23,no=24,missing=23
				23:leaf=-0.0173946
				24:leaf=-0.0842457
			14:[citys<5] yes=25,no=26,missing=25
				25:[divs<7] yes=37,no=38,missing=37
					37:leaf=0.0115169
					38:leaf=-0.0873229
				26:[log_ids<20] yes=39,no=40,missing=39
					39:leaf=-0.0353902
					40:leaf=0.0164229
booster[50]:
0:[citys<3] yes=1,no=2,missing=1
	1:[log_ids<20] yes=3,no=4,missing=3
		3:[ips<10] yes=7,no=8,missing=7
			7:[log_ids<8] yes=15,no=16,missing=15
				15:[log_ids<5] yes=25,no=26,missing=25
					25:leaf=-0.030841
					26:leaf=0.00393845
				16:[ips<7] yes=27,no=28,missing=27
					27:leaf=-0.0773414
					28:leaf=-0.0205016
			8:leaf=0.0445579
		4:[ips<18] yes=9,no=10,missing=9
			9:leaf=-0.0937475
			10:[log_ids<83] yes=17,no=18,missing=17
				17:leaf=-0.0344078
				18:leaf=0.0111131
	2:[log_ids<21] yes=5,no=6,missing=5
		5:[log_ids<15] yes=11,no=12,missing=11
			11:[log_ids<11] yes=19,no=20,missing=19
				19:[citys<8] yes=29,no=30,missing=29
					29:leaf=0.0115605
					30:leaf=0.0960729
				20:[ips<11] yes=31,no=32,missing=31
					31:leaf=-0.0834097
					32:leaf=0.0123379
			12:[ips<10] yes=21,no=22,missing=21
				21:[ips<9] yes=33,no=34,missing=33
					33:leaf=0.0440388
					34:leaf=0.234372
				22:[ips<14] yes=35,no=36,missing=35
					35:leaf=-0.0548513
					36:leaf=0.0436722
		6:[ips<12] yes=13,no=14,missing=13
			13:leaf=-0.0909935
			14:[log_ids<49] yes=23,no=24,missing=23
				23:[log_ids<43] yes=37,no=38,missing=37
					37:leaf=-0.0144244
					38:leaf=0.0777139
				24:[citys<6] yes=39,no=40,missing=39
					39:leaf=-0.0856537
					40:leaf=-0.0287699
booster[51]:
0:[log_ids<32] yes=1,no=2,missing=1
	1:[ips<25] yes=3,no=4,missing=3
		3:[log_froms<2] yes=7,no=8,missing=7
			7:[log_ids<2] yes=13,no=14,missing=13
				13:leaf=0.0119816
				14:[ips<16] yes=21,no=22,missing=21
					21:leaf=-0.0509859
					22:leaf=0.0597169
			8:[log_ids<23] yes=15,no=16,missing=15
				15:[divs<9] yes=23,no=24,missing=23
					23:leaf=0.00457189
					24:leaf=-0.0429533
				16:[log_ids<26] yes=25,no=26,missing=25
					25:leaf=-0.0812567
					26:leaf=-0.012868
		4:leaf=0.0979985
	2:[divs<14] yes=5,no=6,missing=5
		5:[ips<28] yes=9,no=10,missing=9
			9:[divs<9] yes=17,no=18,missing=17
				17:leaf=-0.0939304
				18:leaf=-0.0388009
			10:leaf=-0.03148
		6:[divs<35] yes=11,no=12,missing=11
			11:[divs<29] yes=19,no=20,missing=19
				19:[ips<21] yes=27,no=28,missing=27
					27:leaf=0.0515995
					28:leaf=-0.0472752
				20:leaf=0.0551115
			12:leaf=-0.0789731
booster[52]:
0:[log_ids<45] yes=1,no=2,missing=1
	1:[citys<3] yes=3,no=4,missing=3
		3:[log_ids<3] yes=7,no=8,missing=7
			7:[ips<2] yes=13,no=14,missing=13
				13:[log_ids<2] yes=21,no=22,missing=21
					21:leaf=0.00867889
					22:leaf=-0.0708524
				14:[citys<2] yes=23,no=24,missing=23
					23:leaf=0.0541177
					24:leaf=0.00260922
			8:[log_ids<20] yes=15,no=16,missing=15
				15:[ips<7] yes=25,no=26,missing=25
					25:leaf=-0.0305622
					26:leaf=0.0171316
				16:[ips<16] yes=27,no=28,missing=27
					27:leaf=-0.0775117
					28:leaf=-0.0123019
		4:[types<3] yes=9,no=10,missing=9
			9:[ips<7] yes=17,no=18,missing=17
				17:[ips<6] yes=29,no=30,missing=29
					29:leaf=0.0101836
					30:leaf=0.0601372
				18:[citys<6] yes=31,no=32,missing=31
					31:leaf=-0.033947
					32:leaf=0.0215772
			10:leaf=-0.0580564
	2:[log_ids<97] yes=5,no=6,missing=5
		5:leaf=-0.0818103
		6:[ips<68] yes=11,no=12,missing=11
			11:[ips<60] yes=19,no=20,missing=19
				19:leaf=-0.0283373
				20:leaf=0.0667958
			12:leaf=-0.0786646
booster[53]:
0:[citys<4] yes=1,no=2,missing=1
	1:[log_ids<7] yes=3,no=4,missing=3
		3:[citys<2] yes=7,no=8,missing=7
			7:[log_ids<2] yes=15,no=16,missing=15
				15:leaf=-0.00282798
				16:[log_ids<6] yes=27,no=28,missing=27
					27:leaf=-0.0463349
					28:leaf=0.0161185
			8:[types<2] yes=17,no=18,missing=17
				17:[log_ids<6] yes=29,no=30,missing=29
					29:leaf=0.0393975
					30:leaf=-0.0221265
				18:[log_ids<5] yes=31,no=32,missing=31
					31:leaf=-0.0625815
					32:leaf=0.00988922
		4:[log_ids<14] yes=9,no=10,missing=9
			9:[citys<2] yes=19,no=20,missing=19
				19:[divs<3] yes=33,no=34,missing=33
					33:leaf=-0.0760706
					34:leaf=-0.00991829
				20:leaf=-0.078538
			10:[log_ids<25] yes=21,no=22,missing=21
				21:[citys<3] yes=35,no=36,missing=35
					35:leaf=-0.00924817
					36:leaf=0.0440406
				22:[log_ids<127] yes=37,no=38,missing=37
					37:leaf=-0.0745567
					38:leaf=0.0334596
	2:[log_ids<49] yes=5,no=6,missing=5
		5:[log_ids<31] yes=11,no=12,missing=11
			11:[log_ids<23] yes=23,no=24,missing=23
				23:[log_ids<20] yes=39,no=40,missing=39
					39:leaf=0.00316309
					40:leaf=0.0900513
				24:[log_ids<27] yes=41,no=42,missing=41
					41:leaf=-0.0808303
					42:leaf=0.018351
			12:[divs<8] yes=25,no=26,missing=25
				25:leaf=0.103929
				26:[log_ids<43] yes=43,no=44,missing=43
					43:leaf=-0.0210189
					44:leaf=0.0620382
		6:[citys<11] yes=13,no=14,missing=13
			13:leaf=-0.0576108
			14:leaf=0.00610676
booster[54]:
0:[ips<68] yes=1,no=2,missing=1
	1:[ips<14] yes=3,no=4,missing=3
		3:[log_ids<11] yes=5,no=6,missing=5
			5:[ips<5] yes=9,no=10,missing=9
				9:[log_ids<7] yes=17,no=18,missing=17
					17:leaf=-0.00541447
					18:leaf=-0.062751
				10:[ips<10] yes=19,no=20,missing=19
					19:leaf=0.0188717
					20:leaf=0.0775458
			6:[log_ids<15] yes=11,no=12,missing=11
				11:[ips<11] yes=21,no=22,missing=21
					21:leaf=-0.0873482
					22:leaf=0.00703143
				12:[log_ids<21] yes=23,no=24,missing=23
					23:leaf=0.0135473
					24:leaf=-0.0621184
		4:[log_ids<32] yes=7,no=8,missing=7
			7:[divs<7] yes=13,no=14,missing=13
				13:[types<2] yes=25,no=26,missing=25
					25:leaf=-0.0384253
					26:leaf=0.0548629
				14:[ips<16] yes=27,no=28,missing=27
					27:leaf=-0.00202597
					28:leaf=0.113558
			8:[divs<15] yes=15,no=16,missing=15
				15:[divs<7] yes=29,no=30,missing=29
					29:leaf=0.0100799
					30:leaf=-0.0833862
				16:[divs<33] yes=31,no=32,missing=31
					31:leaf=0.0401269
					32:leaf=-0.0253885
	2:leaf=-0.0790274
booster[55]:
0:[citys<2] yes=1,no=2,missing=1
	1:[ips<3] yes=3,no=4,missing=3
		3:[log_froms<2] yes=7,no=8,missing=7
			7:[ips<2] yes=15,no=16,missing=15
				15:leaf=-0.0143695
				16:leaf=-0.0231649
			8:[types<2] yes=17,no=18,missing=17
				17:leaf=0.0575629
				18:leaf=-0.0369409
		4:[ips<10] yes=9,no=10,missing=9
			9:leaf=-0.0872834
			10:[ips<14] yes=19,no=20,missing=19
				19:leaf=0.0215889
				20:leaf=-0.0537496
	2:[log_froms<3] yes=5,no=6,missing=5
		5:[ips<60] yes=11,no=12,missing=11
			11:[ips<29] yes=21,no=22,missing=21
				21:[citys<6] yes=25,no=26,missing=25
					25:leaf=0.00290808
					26:leaf=0.0293541
				22:leaf=-0.0696728
			12:leaf=0.0832097
		6:[ips<5] yes=13,no=14,missing=13
			13:leaf=0.0132156
			14:[ips<34] yes=23,no=24,missing=23
				23:[citys<9] yes=27,no=28,missing=27
					27:leaf=-0.0482857
					28:leaf=0.000337333
				24:leaf=0.0106811
booster[56]:
0:[citys<2] yes=1,no=2,missing=1
	1:[ips<3] yes=3,no=4,missing=3
		3:[types<2] yes=7,no=8,missing=7
			7:[log_froms<2] yes=15,no=16,missing=15
				15:[ips<2] yes=23,no=24,missing=23
					23:leaf=-0.00658334
					24:leaf=0.000771613
				16:leaf=0.019073
			8:leaf=-0.0548276
		4:[ips<10] yes=9,no=10,missing=9
			9:leaf=-0.0751607
			10:[types<2] yes=17,no=18,missing=17
				17:leaf=-0.0408084
				18:leaf=0.0945449
	2:[log_froms<3] yes=5,no=6,missing=5
		5:[ips<60] yes=11,no=12,missing=11
			11:[ips<31] yes=19,no=20,missing=19
				19:[citys<6] yes=25,no=26,missing=25
					25:leaf=0.000190233
					26:leaf=0.0197681
				20:leaf=-0.077541
			12:leaf=0.0445345
		6:[ips<35] yes=13,no=14,missing=13
			13:[ips<26] yes=21,no=22,missing=21
				21:[types<3] yes=27,no=28,missing=27
					27:leaf=-0.0142452
					28:leaf=-0.0704522
				22:leaf=0.0503048
			14:leaf=-0.0785883
booster[57]:
0:[log_ids<7] yes=1,no=2,missing=1
	1:[ips<5] yes=3,no=4,missing=3
		3:[ips<4] yes=7,no=8,missing=7
			7:[types<2] yes=13,no=14,missing=13
				13:[ips<2] yes=21,no=22,missing=21
					21:leaf=-0.0147541
					22:leaf=0.0270947
				14:[log_ids<3] yes=23,no=24,missing=23
					23:leaf=-0.00348833
					24:leaf=-0.0487391
			8:[types<2] yes=15,no=16,missing=15
				15:leaf=-0.0770633
				16:[log_ids<5] yes=25,no=26,missing=25
					25:leaf=-0.00202727
					26:leaf=0.0632854
		4:[ips<6] yes=9,no=10,missing=9
			9:[log_ids<6] yes=17,no=18,missing=17
				17:[divs<4] yes=27,no=28,missing=27
					27:leaf=0.0483282
					28:leaf=-0.00677642
				18:leaf=-0.024291
			10:leaf=0.0508408
	2:[ips<4] yes=5,no=6,missing=5
		5:leaf=-0.0826296
		6:[log_ids<8] yes=11,no=12,missing=11
			11:leaf=-0.0776509
			12:[log_ids<49] yes=19,no=20,missing=19
				19:[log_ids<43] yes=29,no=30,missing=29
					29:leaf=-0.00328702
					30:leaf=0.0569347
				20:[types<2] yes=31,no=32,missing=31
					31:leaf=-0.0864306
					32:leaf=-0.00685076
booster[58]:
0:[log_froms<3] yes=1,no=2,missing=1
	1:[log_ids<49] yes=3,no=4,missing=3
		3:[citys<3] yes=7,no=8,missing=7
			7:[log_ids<7] yes=13,no=14,missing=13
				13:[log_ids<6] yes=23,no=24,missing=23
					23:leaf=-0.00777901
					24:leaf=0.0402102
				14:[log_ids<13] yes=25,no=26,missing=25
					25:leaf=-0.0694213
					26:leaf=-0.00769755
			8:[log_ids<4] yes=15,no=16,missing=15
				15:leaf=0.057795
				16:[log_ids<24] yes=27,no=28,missing=27
					27:leaf=-0.003302
					28:leaf=0.031834
		4:[log_ids<133] yes=9,no=10,missing=9
			9:leaf=-0.0848066
			10:[citys<5] yes=17,no=18,missing=17
				17:leaf=0.0458578
				18:leaf=-0.0147117
	2:[log_ids<9] yes=5,no=6,missing=5
		5:leaf=-0.0735107
		6:[log_ids<23] yes=11,no=12,missing=11
			11:[divs<7] yes=19,no=20,missing=19
				19:[divs<5] yes=29,no=30,missing=29
					29:leaf=-0.0166313
					30:leaf=0.0524639
				20:leaf=-0.0175703
			12:[divs<23] yes=21,no=22,missing=21
				21:[divs<6] yes=31,no=32,missing=31
					31:leaf=-0.0144154
					32:leaf=-0.093818
				22:leaf=0.00866575
booster[59]:
0:[log_ids<25] yes=1,no=2,missing=1
	1:[ips<14] yes=3,no=4,missing=3
		3:[log_ids<21] yes=7,no=8,missing=7
			7:[log_ids<19] yes=13,no=14,missing=13
				13:[log_ids<7] yes=21,no=22,missing=21
					21:leaf=0.0061805
					22:leaf=-0.0212397
				14:[ips<10] yes=23,no=24,missing=23
					23:leaf=0.152421
					24:leaf=0.0185454
			8:leaf=-0.0877243
		4:[log_ids<22] yes=9,no=10,missing=9
			9:[ips<15] yes=15,no=16,missing=15
				15:leaf=0.0488421
				16:leaf=-0.0545755
			10:leaf=0.150987
	2:[ips<12] yes=5,no=6,missing=5
		5:leaf=-0.0886044
		6:[citys<5] yes=11,no=12,missing=11
			11:[ips<56] yes=17,no=18,missing=17
				17:[log_ids<48] yes=25,no=26,missing=25
					25:leaf=-0.0655739
					26:leaf=-0.0270948
				18:leaf=0.0185729
			12:[ips<18] yes=19,no=20,missing=19
				19:leaf=0.0427883
				20:[ips<25] yes=27,no=28,missing=27
					27:leaf=-0.0567026
					28:leaf=0.0065203
booster[60]:
0:[divs<8] yes=1,no=2,missing=1
	1:[log_ids<19] yes=3,no=4,missing=3
		3:[divs<7] yes=7,no=8,missing=7
			7:[citys<2] yes=15,no=16,missing=15
				15:[log_ids<2] yes=23,no=24,missing=23
					23:leaf=0.00357354
					24:leaf=-0.0347585
				16:[log_ids<7] yes=25,no=26,missing=25
					25:leaf=0.00731496
					26:leaf=-0.00918728
			8:leaf=-0.0863961
		4:[log_ids<21] yes=9,no=10,missing=9
			9:[citys<3] yes=17,no=18,missing=17
				17:leaf=0.00939659
				18:leaf=0.162628
			10:[divs<7] yes=19,no=20,missing=19
				19:[divs<4] yes=27,no=28,missing=27
					27:leaf=0.0293511
					28:leaf=-0.0546268
				20:[log_ids<30] yes=29,no=30,missing=29
					29:leaf=0.00713985
					30:leaf=0.0753468
	2:[types<2] yes=5,no=6,missing=5
		5:[citys<8] yes=11,no=12,missing=11
			11:leaf=-0.0916882
			12:leaf=0.0666852
		6:[citys<3] yes=13,no=14,missing=13
			13:leaf=0.0611336
			14:[divs<10] yes=21,no=22,missing=21
				21:[log_ids<22] yes=31,no=32,missing=31
					31:leaf=-0.00627418
					32:leaf=0.0490171
				22:[log_ids<65] yes=33,no=34,missing=33
					33:leaf=-0.0922766
					34:leaf=0.0131003
booster[61]:
0:[log_ids<12] yes=1,no=2,missing=1
	1:[ips<10] yes=3,no=4,missing=3
		3:[types<3] yes=7,no=8,missing=7
			7:[log_ids<10] yes=11,no=12,missing=11
				11:[ips<6] yes=17,no=18,missing=17
					17:leaf=-0.00126767
					18:leaf=0.0333665
				12:[types<2] yes=19,no=20,missing=19
					19:leaf=-0.0588715
					20:leaf=0.0122783
			8:leaf=-0.0719628
		4:leaf=0.0662482
	2:[ips<4] yes=5,no=6,missing=5
		5:leaf=-0.0829591
		6:[log_ids<15] yes=9,no=10,missing=9
			9:[ips<8] yes=13,no=14,missing=13
				13:leaf=-0.0828856
				14:leaf=-0.0242838
			10:[log_ids<16] yes=15,no=16,missing=15
				15:leaf=0.0499947
				16:[log_ids<49] yes=21,no=22,missing=21
					21:leaf=-0.00335585
					22:leaf=-0.0377031
booster[62]:
0:[ips<63] yes=1,no=2,missing=1
	1:[ips<60] yes=3,no=4,missing=3
		3:[log_ids<12] yes=5,no=6,missing=5
			5:[ips<10] yes=7,no=8,missing=7
				7:[types<2] yes=11,no=12,missing=11
					11:leaf=0.00334515
					12:leaf=-0.0188563
				8:leaf=0.0667398
			6:[log_ids<14] yes=9,no=10,missing=9
				9:leaf=-0.0822238
				10:[types<2] yes=13,no=14,missing=13
					13:leaf=-0.025115
					14:leaf=0.0099834
		4:leaf=0.0892371
	2:leaf=-0.0619973
booster[63]:
0:[log_froms<3] yes=1,no=2,missing=1
	1:[ips<2] yes=3,no=4,missing=3
		3:[divs<2] yes=7,no=8,missing=7
			7:leaf=-0.0154205
			8:leaf=-0.0603344
		4:[ips<3] yes=9,no=10,missing=9
			9:[log_froms<2] yes=15,no=16,missing=15
				15:leaf=-0.0141497
				16:[divs<3] yes=21,no=22,missing=21
					21:leaf=0.0606526
					22:leaf=-0.0111225
			10:[ips<8] yes=17,no=18,missing=17
				17:[divs<7] yes=23,no=24,missing=23
					23:leaf=-0.00930328
					24:leaf=-0.0690247
				18:[types<2] yes=25,no=26,missing=25
					25:leaf=-0.0104839
					26:leaf=0.026472
	2:[ips<9] yes=5,no=6,missing=5
		5:[divs<4] yes=11,no=12,missing=11
			11:leaf=-0.00348419
			12:leaf=-0.0714393
		6:[ips<10] yes=13,no=14,missing=13
			13:leaf=0.0443818
			14:[ips<13] yes=19,no=20,missing=19
				19:leaf=-0.067412
				20:[ips<18] yes=27,no=28,missing=27
					27:leaf=0.0581353
					28:leaf=-0.0444655
booster[64]:
0:[log_ids<134] yes=1,no=2,missing=1
	1:[log_ids<86] yes=3,no=4,missing=3
		3:[log_ids<49] yes=7,no=8,missing=7
			7:[citys<4] yes=9,no=10,missing=9
				9:[log_ids<6] yes=11,no=12,missing=11
					11:leaf=0.00429447
					12:leaf=-0.0173757
				10:[log_ids<43] yes=13,no=14,missing=13
					13:leaf=0.00608042
					14:leaf=0.0743007
			8:leaf=-0.0595624
		4:leaf=0.0922242
	2:[citys<11] yes=5,no=6,missing=5
		5:leaf=-0.0512789
		6:leaf=-0.0224257
booster[65]:
0:[ips<6] yes=1,no=2,missing=1
	1:[log_ids<12] yes=3,no=4,missing=3
		3:[citys<5] yes=7,no=8,missing=7
			7:[log_ids<2] yes=13,no=14,missing=13
				13:leaf=0.0066761
				14:[ips<2] yes=19,no=20,missing=19
					19:leaf=-0.058849
					20:leaf=-0.00603276
			8:leaf=-0.0926466
		4:leaf=-0.0807669
	2:[log_ids<7] yes=5,no=6,missing=5
		5:[citys<4] yes=9,no=10,missing=9
			9:leaf=0.015507
			10:leaf=0.0781398
		6:[ips<25] yes=11,no=12,missing=11
			11:[log_ids<25] yes=15,no=16,missing=15
				15:[ips<16] yes=21,no=22,missing=21
					21:leaf=-0.000381873
					22:leaf=0.0733443
				16:[citys<6] yes=23,no=24,missing=23
					23:leaf=-0.0795869
					24:leaf=0.00766093
			12:[divs<8] yes=17,no=18,missing=17
				17:leaf=0.0834776
				18:[log_ids<97] yes=25,no=26,missing=25
					25:leaf=-0.0821916
					26:leaf=0.0301796
booster[66]:
0:[citys<3] yes=1,no=2,missing=1
	1:[ips<4] yes=3,no=4,missing=3
		3:[types<2] yes=7,no=8,missing=7
			7:[divs<3] yes=15,no=16,missing=15
				15:[ips<2] yes=29,no=30,missing=29
					29:leaf=-0.015979
					30:leaf=0.0103019
				16:[ips<3] yes=31,no=32,missing=31
					31:leaf=0.0834659
					32:leaf=-0.00745249
			8:[ips<3] yes=17,no=18,missing=17
				17:[citys<2] yes=33,no=34,missing=33
					33:leaf=-0.00462894
					34:leaf=-0.078968
				18:leaf=-0.0177977
		4:[types<2] yes=9,no=10,missing=9
			9:[divs<6] yes=19,no=20,missing=19
				19:leaf=-0.0687951
				20:[ips<11] yes=35,no=36,missing=35
					35:leaf=0.0316079
					36:leaf=-0.0766181
			10:[ips<8] yes=21,no=22,missing=21
				21:leaf=-0.0395575
				22:[divs<6] yes=37,no=38,missing=37
					37:leaf=0.0968813
					38:leaf=0.0211779
	2:[divs<8] yes=5,no=6,missing=5
		5:[ips<25] yes=11,no=12,missing=11
			11:[ips<17] yes=23,no=24,missing=23
				23:[ips<14] yes=39,no=40,missing=39
					39:leaf=0.0111677
					40:leaf=0.0729113
				24:leaf=-0.0832228
			12:leaf=0.0905916
		6:[citys<6] yes=13,no=14,missing=13
			13:[divs<9] yes=25,no=26,missing=25
				25:leaf=0.015357
				26:leaf=-0.0821173
			14:[ips<23] yes=27,no=28,missing=27
				27:[citys<8] yes=41,no=42,missing=41
					41:leaf=-0.0214707
					42:leaf=0.0503385
				28:[divs<22] yes=43,no=44,missing=43
					43:leaf=-0.0880111
					44:leaf=0.0280678
booster[67]:
0:[log_ids<32] yes=1,no=2,missing=1
	1:[citys<3] yes=3,no=4,missing=3
		3:[log_ids<3] yes=7,no=8,missing=7
			7:[divs<2] yes=13,no=14,missing=13
				13:[citys<2] yes=23,no=24,missing=23
					23:leaf=0.00727558
					24:leaf=0.103
				14:[citys<2] yes=25,no=26,missing=25
					25:leaf=0.00313546
					26:leaf=-0.0511578
			8:[log_ids<4] yes=15,no=16,missing=15
				15:[citys<2] yes=27,no=28,missing=27
					27:leaf=-0.0593013
					28:leaf=-0.0316796
				16:[divs<5] yes=29,no=30,missing=29
					29:leaf=-0.00110572
					30:leaf=-0.0346369
		4:[divs<3] yes=9,no=10,missing=9
			9:[log_ids<9] yes=17,no=18,missing=17
				17:[divs<2] yes=31,no=32,missing=31
					31:leaf=-0.00847459
					32:leaf=0.055248
				18:[citys<5] yes=33,no=34,missing=33
					33:leaf=0.0336341
					34:leaf=-0.0192894
			10:[log_ids<9] yes=19,no=20,missing=19
				19:[divs<5] yes=35,no=36,missing=35
					35:leaf=-0.0112967
					36:leaf=-0.0688974
				20:[divs<9] yes=37,no=38,missing=37
					37:leaf=0.0257084
					38:leaf=-0.0331498
	2:[divs<9] yes=5,no=6,missing=5
		5:leaf=-0.0696083
		6:[types<2] yes=11,no=12,missing=11
			11:leaf=-0.0569029
			12:[citys<7] yes=21,no=22,missing=21
				21:leaf=0.0601218
				22:leaf=-0.00652573
booster[68]:
0:[log_froms<2] yes=1,no=2,missing=1
	1:[log_ids<4] yes=3,no=4,missing=3
		3:[log_ids<2] yes=7,no=8,missing=7
			7:leaf=0.0128276
			8:[log_ids<3] yes=15,no=16,missing=15
				15:[divs<2] yes=25,no=26,missing=25
					25:leaf=0.0192047
					26:leaf=-0.0786597
				16:[divs<2] yes=27,no=28,missing=27
					27:leaf=-0.0178327
					28:leaf=0.0480617
		4:[log_ids<24] yes=9,no=10,missing=9
			9:[divs<4] yes=17,no=18,missing=17
				17:[log_ids<7] yes=29,no=30,missing=29
					29:leaf=-0.0325946
					30:leaf=-0.063772
				18:[log_ids<9] yes=31,no=32,missing=31
					31:leaf=0.0185582
					32:leaf=-0.0300158
			10:leaf=0.022681
	2:[log_ids<5] yes=5,no=6,missing=5
		5:[divs<2] yes=11,no=12,missing=11
			11:leaf=0.0506847
			12:[divs<3] yes=19,no=20,missing=19
				19:[log_ids<4] yes=33,no=34,missing=33
					33:leaf=-0.0256288
					34:leaf=0.00846773
				20:[types<2] yes=35,no=36,missing=35
					35:leaf=-0.080281
					36:leaf=0.00865586
		6:[log_ids<45] yes=13,no=14,missing=13
			13:[log_ids<26] yes=21,no=22,missing=21
				21:[log_ids<23] yes=37,no=38,missing=37
					37:leaf=0.0112639
					38:leaf=-0.0730137
				22:[log_froms<3] yes=39,no=40,missing=39
					39:leaf=0.0628671
					40:leaf=-0.0425553
			14:[divs<14] yes=23,no=24,missing=23
				23:leaf=-0.0827403
				24:[log_ids<134] yes=41,no=42,missing=41
					41:leaf=0.0356901
					42:leaf=-0.0172281
