booster[0]:
0:[divs<35] yes=1,no=2,missing=1
	1:[citys<11] yes=3,no=4,missing=3
		3:[log_ids<460] yes=5,no=6,missing=5
			5:[log_ids<32] yes=9,no=10,missing=9
				9:[citys<5] yes=15,no=16,missing=15
					15:leaf=-0.190665
					16:leaf=-0.14338
				10:[types<2] yes=17,no=18,missing=17
					17:leaf=-0.199037
					18:leaf=-0.193011
			6:[divs<33] yes=11,no=12,missing=11
				11:leaf=0.19915
				12:leaf=-0.199644
		4:[divs<31] yes=7,no=8,missing=7
			7:[log_ids<39] yes=13,no=14,missing=13
				13:[log_ids<36] yes=19,no=20,missing=19
					19:leaf=-0.0243081
					20:leaf=0.195238
				14:[citys<18] yes=21,no=22,missing=21
					21:leaf=-0.194958
					22:leaf=-0.0915254
			8:leaf=0.0786575
	2:leaf=-0.199997
booster[1]:
0:[ips<68] yes=1,no=2,missing=1
	1:[ips<60] yes=3,no=4,missing=3
		3:[ips<35] yes=5,no=6,missing=5
			5:[ips<34] yes=9,no=10,missing=9
				9:[divs<10] yes=15,no=16,missing=15
					15:leaf=-0.171406
					16:leaf=-0.178232
				10:[divs<21] yes=17,no=18,missing=17
					17:leaf=-0.181415
					18:leaf=-0.112385
			6:leaf=-0.18087
		4:[ips<63] yes=7,no=8,missing=7
			7:[divs<29] yes=11,no=12,missing=11
				11:leaf=-0.17832
				12:[divs<33] yes=19,no=20,missing=19
					19:leaf=0.181188
					20:leaf=0.0679831
			8:[divs<17] yes=13,no=14,missing=13
				13:[divs<10] yes=21,no=22,missing=21
					21:leaf=-0.177359
					22:leaf=0.0211585
				14:leaf=-0.181848
	2:leaf=-0.181891
booster[2]:
0:[ips<68] yes=1,no=2,missing=1
	1:[ips<60] yes=3,no=4,missing=3
		3:[log_ids<45] yes=5,no=6,missing=5
			5:[ips<25] yes=9,no=10,missing=9
				9:[log_ids<43] yes=17,no=18,missing=17
					17:leaf=-0.156949
					18:leaf=-0.11654
				10:[log_ids<32] yes=19,no=20,missing=19
					19:leaf=0.0476097
					20:leaf=-0.154381
			6:[log_froms<3] yes=11,no=12,missing=11
				11:[log_ids<49] yes=21,no=22,missing=21
					21:leaf=-0.161964
					22:leaf=-0.168758
				12:[log_ids<123] yes=23,no=24,missing=23
					23:leaf=-0.158921
					24:leaf=-0.168632
		4:[ips<63] yes=7,no=8,missing=7
			7:[divs<29] yes=13,no=14,missing=13
				13:leaf=-0.164853
				14:[divs<33] yes=25,no=26,missing=25
					25:leaf=0.167645
					26:leaf=0.0628429
			8:[divs<17] yes=15,no=16,missing=15
				15:[divs<10] yes=27,no=28,missing=27
					27:leaf=-0.164428
					28:leaf=0.015333
				16:leaf=-0.168219
	2:leaf=-0.168272
booster[3]:
0:[divs<35] yes=1,no=2,missing=1
	1:[citys<11] yes=3,no=4,missing=3
		3:[divs<31] yes=5,no=6,missing=5
			5:[citys<5] yes=9,no=10,missing=9
				9:[types<2] yes=15,no=16,missing=15
					15:leaf=-0.154892
					16:leaf=-0.150236
				10:[divs<4] yes=17,no=18,missing=17
					17:leaf=-0.0841352
					18:leaf=-0.145149
			6:[log_froms<3] yes=11,no=12,missing=11
				11:[types<2] yes=19,no=20,missing=19
					19:leaf=-0.156694
					20:leaf=0.14477
				12:leaf=-0.157738
		4:[divs<31] yes=7,no=8,missing=7
			7:[divs<17] yes=13,no=14,missing=13
				13:[citys<19] yes=21,no=22,missing=21
					21:leaf=0.0123011
					22:leaf=-0.163666
				14:[divs<22] yes=23,no=24,missing=23
					23:leaf=-0.157661
					24:leaf=-0.0355268
			8:leaf=0.0564486
	2:leaf=-0.157704
booster[4]:
0:[ips<68] yes=1,no=2,missing=1
	1:[ips<60] yes=3,no=4,missing=3
		3:[citys<11] yes=5,no=6,missing=5
			5:[log_ids<32] yes=9,no=10,missing=9
				9:[citys<5] yes=17,no=18,missing=17
					17:leaf=-0.140681
					18:leaf=-0.0930701
				10:[citys<6] yes=19,no=20,missing=19
					19:leaf=-0.14944
					20:leaf=-0.139609
			6:[log_ids<45] yes=11,no=12,missing=11
				11:[ips<30] yes=21,no=22,missing=21
					21:leaf=0.059718
					22:leaf=-0.1015
				12:[divs<16] yes=23,no=24,missing=23
					23:leaf=-0.0644266
					24:leaf=-0.149794
		4:[ips<63] yes=7,no=8,missing=7
			7:[log_ids<361] yes=13,no=14,missing=13
				13:[divs<30] yes=25,no=26,missing=25
					25:leaf=-0.146403
					26:leaf=0.0476165
				14:leaf=0.149321
			8:[citys<3] yes=15,no=16,missing=15
				15:leaf=0.0242466
				16:leaf=-0.149346
	2:leaf=-0.1493
booster[5]:
0:[ips<68] yes=1,no=2,missing=1
	1:[ips<60] yes=3,no=4,missing=3
		3:[citys<11] yes=5,no=6,missing=5
			5:[log_ids<32] yes=9,no=10,missing=9
				9:[ips<25] yes=17,no=18,missing=17
					17:leaf=-0.129438
					18:leaf=0.0829691
				10:[citys<6] yes=19,no=20,missing=19
					19:leaf=-0.142423
					20:leaf=-0.132988
			6:[log_ids<39] yes=11,no=12,missing=11
				11:[log_ids<36] yes=21,no=22,missing=21
					21:leaf=-0.0020363
					22:leaf=0.201453
				12:[citys<18] yes=23,no=24,missing=23
					23:leaf=-0.139155
					24:leaf=-0.0653882
		4:[ips<63] yes=7,no=8,missing=7
			7:[log_ids<361] yes=13,no=14,missing=13
				13:[citys<8] yes=25,no=26,missing=25
					25:leaf=-0.139477
					26:leaf=0.0437648
				14:leaf=0.142344
			8:[citys<3] yes=15,no=16,missing=15
				15:leaf=0.0220107
				16:leaf=-0.142478
	2:leaf=-0.142463
booster[6]:
0:[ips<68] yes=1,no=2,missing=1
	1:[ips<60] yes=3,no=4,missing=3
		3:[log_ids<45] yes=5,no=6,missing=5
			5:[log_ids<43] yes=9,no=10,missing=9
				9:[ips<25] yes=17,no=18,missing=17
					17:leaf=-0.124327
					18:leaf=-0.0924391
				10:[types<2] yes=19,no=20,missing=19
					19:leaf=-0.111363
					20:leaf=-0.0173184
			6:[log_froms<3] yes=11,no=12,missing=11
				11:[log_ids<49] yes=21,no=22,missing=21
					21:leaf=-0.129619
					22:leaf=-0.137431
				12:[log_ids<123] yes=23,no=24,missing=23
					23:leaf=-0.125132
					24:leaf=-0.137355
		4:[ips<63] yes=7,no=8,missing=7
			7:[log_ids<361] yes=13,no=14,missing=13
				13:[ips<61] yes=25,no=26,missing=25
					25:leaf=0.0441275
					26:leaf=-0.133629
				14:leaf=0.13664
			8:[ips<67] yes=15,no=16,missing=15
				15:leaf=-0.136812
				16:[log_ids<124] yes=27,no=28,missing=27
					27:leaf=-0.13563
					28:leaf=0.0255644
	2:leaf=-0.136824
booster[7]:
0:[ips<68] yes=1,no=2,missing=1
	1:[citys<11] yes=3,no=4,missing=3
		3:[ips<62] yes=5,no=6,missing=5
			5:[citys<5] yes=9,no=10,missing=9
				9:[ips<21] yes=17,no=18,missing=17
					17:leaf=-0.125529
					18:leaf=-0.131998
				10:[ips<18] yes=19,no=20,missing=19
					19:leaf=-0.084169
					20:leaf=-0.12505
			6:[citys<3] yes=11,no=12,missing=11
				11:[citys<2] yes=21,no=22,missing=21
					21:leaf=-0.125551
					22:leaf=0.0783309
				12:leaf=-0.132082
		4:[citys<14] yes=7,no=8,missing=7
			7:[log_froms<3] yes=13,no=14,missing=13
				13:[ips<21] yes=23,no=24,missing=23
					23:leaf=0.141038
					24:leaf=0.0248607
				14:[ips<22] yes=25,no=26,missing=25
					25:leaf=-0.032645
					26:leaf=-0.135723
			8:[ips<45] yes=15,no=16,missing=15
				15:[ips<42] yes=27,no=28,missing=27
					27:leaf=-0.0410642
					28:leaf=0.280703
				16:leaf=-0.132999
	2:leaf=-0.132115
booster[8]:
0:[divs<35] yes=1,no=2,missing=1
	1:[citys<11] yes=3,no=4,missing=3
		3:[log_ids<460] yes=5,no=6,missing=5
			5:[log_ids<32] yes=9,no=10,missing=9
				9:[citys<5] yes=15,no=16,missing=15
					15:leaf=-0.117669
					16:leaf=-0.0643898
				10:[citys<6] yes=17,no=18,missing=17
					17:leaf=-0.126627
					18:leaf=-0.117985
			6:[divs<33] yes=11,no=12,missing=11
				11:leaf=0.129395
				12:leaf=-0.127804
		4:[log_ids<263] yes=7,no=8,missing=7
			7:[log_ids<100] yes=13,no=14,missing=13
				13:[log_ids<45] yes=19,no=20,missing=19
					19:leaf=0.0352518
					20:leaf=-0.133723
				14:[divs<25] yes=21,no=22,missing=21
					21:leaf=0.236207
					22:leaf=0.03539
			8:leaf=-0.12748
	2:leaf=-0.128152
booster[9]:
0:[ips<68] yes=1,no=2,missing=1
	1:[ips<60] yes=3,no=4,missing=3
		3:[log_ids<45] yes=5,no=6,missing=5
			5:[log_ids<43] yes=9,no=10,missing=9
				9:[ips<25] yes=17,no=18,missing=17
					17:leaf=-0.109652
					18:leaf=-0.0725643
				10:[divs<9] yes=19,no=20,missing=19
					19:leaf=-0.128099
					20:leaf=0.054853
			6:[ips<30] yes=11,no=12,missing=11
				11:leaf=-0.125092
				12:[log_ids<49] yes=21,no=22,missing=21
					21:leaf=-0.0842846
					22:leaf=-0.122083
		4:[ips<63] yes=7,no=8,missing=7
			7:[log_ids<361] yes=13,no=14,missing=13
				13:[divs<30] yes=23,no=24,missing=23
					23:leaf=-0.121354
					24:leaf=0.0294098
				14:leaf=0.125676
			8:[divs<17] yes=15,no=16,missing=15
				15:[divs<10] yes=25,no=26,missing=25
					25:leaf=-0.120387
					26:leaf=0.0237013
				16:leaf=-0.124676
	2:leaf=-0.124764
booster[10]:
0:[log_ids<511] yes=1,no=2,missing=1
	1:[citys<11] yes=3,no=4,missing=3
		3:[log_ids<464] yes=5,no=6,missing=5
			5:[log_ids<32] yes=9,no=10,missing=9
				9:[citys<4] yes=15,no=16,missing=15
					15:leaf=-0.112439
					16:leaf=-0.0648461
				10:[types<2] yes=17,no=18,missing=17
					17:leaf=-0.121179
					18:leaf=-0.114332
			6:leaf=0.122507
		4:[log_froms<3] yes=7,no=8,missing=7
			7:[citys<15] yes=11,no=12,missing=11
				11:[log_ids<41] yes=19,no=20,missing=19
					19:leaf=0.10988
					20:leaf=0.0109465
				12:[log_ids<23] yes=21,no=22,missing=21
					21:leaf=-0.00587642
					22:leaf=-0.11365
			8:[citys<16] yes=13,no=14,missing=13
				13:[log_ids<25] yes=23,no=24,missing=23
					23:leaf=-0.0698577
					24:leaf=-0.122681
				14:[log_ids<100] yes=25,no=26,missing=25
					25:leaf=0.00447386
					26:leaf=0.221447
	2:leaf=-0.121836
booster[11]:
0:[divs<35] yes=1,no=2,missing=1
	1:[divs<34] yes=3,no=4,missing=3
		3:[log_ids<460] yes=5,no=6,missing=5
			5:[log_ids<45] yes=9,no=10,missing=9
				9:[log_ids<43] yes=11,no=12,missing=11
					11:leaf=-0.100311
					12:leaf=-0.046739
				10:[types<2] yes=13,no=14,missing=13
					13:leaf=-0.119087
					14:leaf=-0.110417
			6:leaf=0.119781
		4:[types<2] yes=7,no=8,missing=7
			7:leaf=-0.11898
			8:leaf=0.0280386
	2:leaf=-0.119365
booster[12]:
0:[divs<35] yes=1,no=2,missing=1
	1:[citys<11] yes=3,no=4,missing=3
		3:[log_ids<32] yes=5,no=6,missing=5
			5:[citys<4] yes=9,no=10,missing=9
				9:[citys<3] yes=15,no=16,missing=15
					15:leaf=-0.109215
					16:leaf=-0.0934715
				10:[log_ids<12] yes=17,no=18,missing=17
					17:leaf=0.0117171
					18:leaf=-0.0722411
			6:[log_ids<460] yes=11,no=12,missing=11
				11:[types<2] yes=19,no=20,missing=19
					19:leaf=-0.116083
					20:leaf=-0.105789
				12:[divs<33] yes=21,no=22,missing=21
					21:leaf=0.117376
					22:leaf=-0.116761
		4:[log_ids<263] yes=7,no=8,missing=7
			7:[log_ids<20] yes=13,no=14,missing=13
				13:[citys<14] yes=23,no=24,missing=23
					23:leaf=0.151125
					24:leaf=-0.132866
				14:[log_ids<100] yes=25,no=26,missing=25
					25:leaf=-0.0397719
					26:leaf=0.0335584
			8:leaf=-0.116387
	2:leaf=-0.117186
booster[13]:
0:[ips<68] yes=1,no=2,missing=1
	1:[citys<11] yes=3,no=4,missing=3
		3:[ips<67] yes=5,no=6,missing=5
			5:[citys<5] yes=9,no=10,missing=9
				9:[ips<62] yes=15,no=16,missing=15
					15:leaf=-0.10795
					16:leaf=-0.0662991
				10:[ips<18] yes=17,no=18,missing=17
					17:leaf=-0.0507038
					18:leaf=-0.102877
			6:[citys<5] yes=11,no=12,missing=11
				11:leaf=0.0581708
				12:leaf=-0.113732
		4:[log_froms<4] yes=7,no=8,missing=7
			7:[ips<20] yes=13,no=14,missing=13
				13:[log_froms<2] yes=19,no=20,missing=19
					19:leaf=-0.141018
					20:leaf=0.113977
				14:[ips<26] yes=21,no=22,missing=21
					21:leaf=-0.119466
					22:leaf=0.00411365
			8:leaf=-0.114358
	2:leaf=-0.115292
booster[14]:
0:[ips<68] yes=1,no=2,missing=1
	1:[ips<60] yes=3,no=4,missing=3
		3:[log_ids<45] yes=5,no=6,missing=5
			5:[log_froms<2] yes=9,no=10,missing=9
				9:[log_ids<25] yes=17,no=18,missing=17
					17:leaf=-0.0997687
					18:leaf=-0.116063
				10:[log_ids<43] yes=19,no=20,missing=19
					19:leaf=-0.0840327
					20:leaf=-0.0118366
			6:[log_froms<3] yes=11,no=12,missing=11
				11:[log_ids<49] yes=21,no=22,missing=21
					21:leaf=-0.100077
					22:leaf=-0.114251
				12:[log_ids<123] yes=23,no=24,missing=23
					23:leaf=-0.0938287
					24:leaf=-0.114107
		4:[ips<63] yes=7,no=8,missing=7
			7:[log_ids<361] yes=13,no=14,missing=13
				13:[divs<30] yes=25,no=26,missing=25
					25:leaf=-0.109549
					26:leaf=0.0229314
				14:leaf=0.116482
			8:[divs<17] yes=15,no=16,missing=15
				15:[divs<10] yes=27,no=28,missing=27
					27:leaf=-0.108354
					28:leaf=0.0518277
				16:leaf=-0.114126
	2:leaf=-0.113626
booster[15]:
0:[log_ids<45] yes=1,no=2,missing=1
	1:[citys<5] yes=3,no=4,missing=3
		3:[log_ids<20] yes=7,no=8,missing=7
			7:[citys<4] yes=13,no=14,missing=13
				13:[log_ids<19] yes=25,no=26,missing=25
					25:leaf=-0.0944467
					26:leaf=-0.0524349
				14:[log_ids<7] yes=27,no=28,missing=27
					27:leaf=0.174673
					28:leaf=-0.0597993
			8:[citys<3] yes=15,no=16,missing=15
				15:[types<3] yes=29,no=30,missing=29
					29:leaf=-0.112685
					30:leaf=-0.0831048
				16:[log_froms<2] yes=31,no=32,missing=31
					31:leaf=-0.0738993
					32:leaf=-0.105859
		4:[log_ids<43] yes=9,no=10,missing=9
			9:[log_ids<37] yes=17,no=18,missing=17
				17:[citys<8] yes=33,no=34,missing=33
					33:leaf=-0.0362261
					34:leaf=0.0422428
				18:leaf=-0.114916
			10:[citys<6] yes=19,no=20,missing=19
				19:leaf=-0.113501
				20:[log_froms<2] yes=35,no=36,missing=35
					35:leaf=-0.104103
					36:leaf=0.401395
	2:[log_ids<511] yes=5,no=6,missing=5
		5:[citys<10] yes=11,no=12,missing=11
			11:[log_ids<464] yes=21,no=22,missing=21
				21:[types<2] yes=37,no=38,missing=37
					37:leaf=-0.111712
					38:leaf=-0.103332
				22:leaf=0.114439
			12:[log_ids<227] yes=23,no=24,missing=23
				23:[log_ids<48] yes=39,no=40,missing=39
					39:leaf=0.162317
					40:leaf=-0.0951657
				24:[log_ids<246] yes=41,no=42,missing=41
					41:leaf=0.0211991
					42:leaf=-0.111385
		6:leaf=-0.112135
booster[16]:
0:[ips<68] yes=1,no=2,missing=1
	1:[citys<11] yes=3,no=4,missing=3
		3:[ips<67] yes=5,no=6,missing=5
			5:[citys<5] yes=9,no=10,missing=9
				9:[ips<62] yes=15,no=16,missing=15
					15:leaf=-0.101379
					16:leaf=-0.0591736
				10:[divs<10] yes=17,no=18,missing=17
					17:leaf=-0.0381882
					18:leaf=-0.0974357
			6:[divs<35] yes=11,no=12,missing=11
				11:leaf=0.0498374
				12:leaf=-0.109005
		4:[divs<36] yes=7,no=8,missing=7
			7:[ips<16] yes=13,no=14,missing=13
				13:[divs<4] yes=19,no=20,missing=19
					19:leaf=-0.14411
					20:leaf=0.144403
				14:[citys<19] yes=21,no=22,missing=21
					21:leaf=0.0111914
					22:leaf=-0.116457
			8:leaf=-0.111229
	2:leaf=-0.110875
booster[17]:
0:[divs<35] yes=1,no=2,missing=1
	1:[divs<34] yes=3,no=4,missing=3
		3:[log_ids<460] yes=5,no=6,missing=5
			5:[log_ids<45] yes=9,no=10,missing=9
				9:[log_froms<2] yes=11,no=12,missing=11
					11:leaf=-0.0979492
					12:leaf=-0.0705873
				10:[types<2] yes=13,no=14,missing=13
					13:leaf=-0.109171
					14:leaf=-0.0954816
			6:leaf=0.113621
		4:[types<2] yes=7,no=8,missing=7
			7:leaf=-0.109149
			8:leaf=0.0154482
	2:leaf=-0.109753
booster[18]:
0:[divs<35] yes=1,no=2,missing=1
	1:[citys<11] yes=3,no=4,missing=3
		3:[log_ids<32] yes=5,no=6,missing=5
			5:[citys<4] yes=9,no=10,missing=9
				9:[citys<3] yes=15,no=16,missing=15
					15:leaf=-0.0955853
					16:leaf=-0.0697389
				10:[log_ids<7] yes=17,no=18,missing=17
					17:leaf=0.178741
					18:leaf=-0.0336994
			6:[log_ids<460] yes=11,no=12,missing=11
				11:[types<2] yes=19,no=20,missing=19
					19:leaf=-0.10658
					20:leaf=-0.0913057
				12:[divs<33] yes=21,no=22,missing=21
					21:leaf=0.111949
					22:leaf=-0.108061
		4:[log_ids<263] yes=7,no=8,missing=7
			7:[log_ids<20] yes=13,no=14,missing=13
				13:[citys<14] yes=23,no=24,missing=23
					23:leaf=0.12293
					24:leaf=-0.114799
				14:[log_ids<28] yes=25,no=26,missing=25
					25:leaf=-0.0977001
					26:leaf=0.0143084
			8:leaf=-0.107436
	2:leaf=-0.108738
booster[19]:
0:[ips<68] yes=1,no=2,missing=1
	1:[citys<11] yes=3,no=4,missing=3
		3:[ips<67] yes=5,no=6,missing=5
			5:[citys<5] yes=9,no=10,missing=9
				9:[ips<62] yes=15,no=16,missing=15
					15:leaf=-0.0956402
					16:leaf=-0.0549667
				10:[divs<10] yes=17,no=18,missing=17
					17:leaf=-0.026723
					18:leaf=-0.0895066
			6:[divs<35] yes=11,no=12,missing=11
				11:leaf=0.0768882
				12:leaf=-0.105352
		4:[divs<36] yes=7,no=8,missing=7
			7:[ips<20] yes=13,no=14,missing=13
				13:[divs<8] yes=19,no=20,missing=19
					19:leaf=-0.0134084
					20:leaf=0.107092
				14:[ips<26] yes=21,no=22,missing=21
					21:leaf=-0.0985915
					22:leaf=0.0144913
			8:leaf=-0.107649
	2:leaf=-0.107831
booster[20]:
0:[divs<35] yes=1,no=2,missing=1
	1:[divs<34] yes=3,no=4,missing=3
		3:[log_ids<460] yes=5,no=6,missing=5
			5:[log_ids<45] yes=9,no=10,missing=9
				9:[log_froms<2] yes=11,no=12,missing=11
					11:leaf=-0.0909394
					12:leaf=-0.0603279
				10:[types<2] yes=13,no=14,missing=13
					13:leaf=-0.106036
					14:leaf=-0.0886522
			6:leaf=0.11117
		4:[types<2] yes=7,no=8,missing=7
			7:leaf=-0.106277
			8:leaf=0.0146966
	2:leaf=-0.107045
booster[21]:
0:[divs<35] yes=1,no=2,missing=1
	1:[citys<8] yes=3,no=4,missing=3
		3:[citys<5] yes=5,no=6,missing=5
			5:[ips<62] yes=9,no=10,missing=9
				9:[ips<21] yes=17,no=18,missing=17
					17:leaf=-0.0856697
					18:leaf=-0.104585
				10:[ips<68] yes=19,no=20,missing=19
					19:leaf=0.0293891
					20:leaf=-0.106165
			6:[ips<35] yes=11,no=12,missing=11
				11:[ips<34] yes=21,no=22,missing=21
					21:leaf=-0.0457446
					22:leaf=0.671936
				12:leaf=-0.106912
		4:[ips<18] yes=7,no=8,missing=7
			7:[ips<17] yes=13,no=14,missing=13
				13:[ips<9] yes=23,no=24,missing=23
					23:leaf=0.494181
					24:leaf=0.0209181
				14:leaf=0.634036
			8:[citys<10] yes=15,no=16,missing=15
				15:[citys<9] yes=25,no=26,missing=25
					25:leaf=-0.107867
					26:leaf=-0.0610159
				16:[ips<67] yes=27,no=28,missing=27
					27:leaf=0.00811371
					28:leaf=-0.10523
	2:leaf=-0.106329
booster[22]:
0:[ips<68] yes=1,no=2,missing=1
	1:[ips<60] yes=3,no=4,missing=3
		3:[ips<35] yes=5,no=6,missing=5
			5:[ips<34] yes=9,no=10,missing=9
				9:[divs<10] yes=15,no=16,missing=15
					15:leaf=-0.069159
					16:leaf=-0.0918144
				10:[divs<21] yes=17,no=18,missing=17
					17:leaf=-0.104648
					18:leaf=0.106057
			6:[ips<44] yes=11,no=12,missing=11
				11:[ips<43] yes=19,no=20,missing=19
					19:leaf=-0.103746
					20:leaf=0.0408425
				12:leaf=-0.106284
		4:[types<2] yes=7,no=8,missing=7
			7:leaf=-0.106135
			8:[divs<21] yes=13,no=14,missing=13
				13:leaf=0.0729752
				14:[ips<63] yes=21,no=22,missing=21
					21:leaf=0.0226786
					22:leaf=-0.106623
	2:leaf=-0.105681
booster[23]:
0:[log_ids<45] yes=1,no=2,missing=1
	1:[citys<5] yes=3,no=4,missing=3
		3:[log_ids<20] yes=7,no=8,missing=7
			7:[citys<4] yes=13,no=14,missing=13
				13:[divs<16] yes=25,no=26,missing=25
					25:leaf=-0.0710276
					26:leaf=0.617887
				14:[log_ids<7] yes=27,no=28,missing=27
					27:leaf=0.195425
					28:leaf=-0.018887
			8:[citys<3] yes=15,no=16,missing=15
				15:[divs<13] yes=29,no=30,missing=29
					29:leaf=-0.103424
					30:leaf=-0.0899644
				16:[log_froms<2] yes=31,no=32,missing=31
					31:leaf=-0.0336197
					32:leaf=-0.0927943
		4:[log_ids<43] yes=9,no=10,missing=9
			9:[log_ids<37] yes=17,no=18,missing=17
				17:[log_froms<2] yes=33,no=34,missing=33
					33:leaf=-0.0783497
					34:leaf=0.0284674
				18:leaf=-0.108088
			10:[divs<9] yes=19,no=20,missing=19
				19:leaf=-0.115706
				20:[citys<6] yes=35,no=36,missing=35
					35:leaf=-0.0930709
					36:leaf=0.451788
	2:[divs<35] yes=5,no=6,missing=5
		5:[citys<10] yes=11,no=12,missing=11
			11:[log_ids<460] yes=21,no=22,missing=21
				21:[divs<15] yes=37,no=38,missing=37
					37:leaf=-0.104161
					38:leaf=-0.0847858
				22:[divs<33] yes=39,no=40,missing=39
					39:leaf=0.109186
					40:leaf=-0.104125
			12:[log_ids<120] yes=23,no=24,missing=23
				23:[log_ids<48] yes=41,no=42,missing=41
					41:leaf=0.208161
					42:leaf=-0.110561
				24:[citys<15] yes=43,no=44,missing=43
					43:leaf=-0.00231675
					44:leaf=0.239478
		6:leaf=-0.105124
booster[24]:
0:[ips<68] yes=1,no=2,missing=1
	1:[citys<8] yes=3,no=4,missing=3
		3:[log_ids<25] yes=5,no=6,missing=5
			5:[ips<16] yes=9,no=10,missing=9
				9:[citys<4] yes=17,no=18,missing=17
					17:leaf=-0.0728925
					18:leaf=-0.0115561
				10:[citys<3] yes=19,no=20,missing=19
					19:leaf=-0.0653593
					20:leaf=0.417162
			6:[ips<67] yes=11,no=12,missing=11
				11:[log_ids<464] yes=21,no=22,missing=21
					21:leaf=-0.0931742
					22:leaf=0.0164492
				12:[divs<35] yes=23,no=24,missing=23
					23:leaf=0.0668973
					24:leaf=-0.100605
		4:[log_ids<29] yes=7,no=8,missing=7
			7:[log_ids<11] yes=13,no=14,missing=13
				13:[divs<5] yes=25,no=26,missing=25
					25:leaf=0.207423
					26:leaf=0.51843
				14:[divs<12] yes=27,no=28,missing=27
					27:leaf=0.0303901
					28:leaf=0.282656
			8:[citys<9] yes=15,no=16,missing=15
				15:leaf=-0.105792
				16:[divs<14] yes=29,no=30,missing=29
					29:leaf=-0.0736701
					30:leaf=0.00444918
	2:leaf=-0.104606
booster[25]:
0:[log_ids<45] yes=1,no=2,missing=1
	1:[citys<5] yes=3,no=4,missing=3
		3:[log_ids<20] yes=7,no=8,missing=7
			7:[citys<3] yes=13,no=14,missing=13
				13:[divs<13] yes=25,no=26,missing=25
					25:leaf=-0.074238
					26:leaf=0.408115
				14:[log_ids<6] yes=27,no=28,missing=27
					27:leaf=0.143871
					28:leaf=-0.0336282
			8:[citys<3] yes=15,no=16,missing=15
				15:[types<3] yes=29,no=30,missing=29
					29:leaf=-0.102043
					30:leaf=-0.0539806
				16:[log_ids<25] yes=31,no=32,missing=31
					31:leaf=-0.0511484
					32:leaf=-0.0908089
		4:[log_ids<43] yes=9,no=10,missing=9
			9:[log_ids<37] yes=17,no=18,missing=17
				17:[log_ids<12] yes=33,no=34,missing=33
					33:leaf=0.0855456
					34:leaf=0.00342906
				18:leaf=-0.106419
			10:[divs<9] yes=19,no=20,missing=19
				19:leaf=-0.111823
				20:[citys<6] yes=35,no=36,missing=35
					35:leaf=-0.0914296
					36:leaf=0.33021
	2:[divs<35] yes=5,no=6,missing=5
		5:[divs<29] yes=11,no=12,missing=11
			11:[citys<18] yes=21,no=22,missing=21
				21:[divs<15] yes=37,no=38,missing=37
					37:leaf=-0.102838
					38:leaf=-0.0837756
				22:[citys<19] yes=39,no=40,missing=39
					39:leaf=0.208606
					40:leaf=-0.104072
			12:[types<2] yes=23,no=24,missing=23
				23:leaf=-0.103913
				24:[log_ids<114] yes=41,no=42,missing=41
					41:leaf=0.17278
					42:leaf=-0.016418
		6:leaf=-0.104161
booster[26]:
0:[ips<68] yes=1,no=2,missing=1
	1:[ips<60] yes=3,no=4,missing=3
		3:[ips<35] yes=5,no=6,missing=5
			5:[ips<34] yes=9,no=10,missing=9
				9:[divs<10] yes=15,no=16,missing=15
					15:leaf=-0.0576259
					16:leaf=-0.0853487
				10:[divs<21] yes=17,no=18,missing=17
					17:leaf=-0.101901
					18:leaf=0.127516
			6:[ips<44] yes=11,no=12,missing=11
				11:[ips<43] yes=19,no=20,missing=19
					19:leaf=-0.100422
					20:leaf=0.0396078
				12:leaf=-0.104208
		4:[types<2] yes=7,no=8,missing=7
			7:leaf=-0.103655
			8:[divs<21] yes=13,no=14,missing=13
				13:leaf=0.0776001
				14:[ips<63] yes=21,no=22,missing=21
					21:leaf=0.023027
					22:leaf=-0.104229
	2:leaf=-0.103743
booster[27]:
0:[divs<35] yes=1,no=2,missing=1
	1:[types<2] yes=3,no=4,missing=3
		3:[ips<21] yes=5,no=6,missing=5
			5:[ips<16] yes=9,no=10,missing=9
				9:[divs<4] yes=17,no=18,missing=17
					17:leaf=-0.0477128
					18:leaf=-0.0785458
				10:[divs<12] yes=19,no=20,missing=19
					19:leaf=-0.0655149
					20:leaf=0.0432064
			6:[ips<31] yes=11,no=12,missing=11
				11:[ips<28] yes=21,no=22,missing=21
					21:leaf=-0.101995
					22:leaf=-0.0304961
				12:[ips<36] yes=23,no=24,missing=23
					23:leaf=-0.095587
					24:leaf=-0.103657
		4:[divs<31] yes=7,no=8,missing=7
			7:[ips<70] yes=13,no=14,missing=13
				13:[ips<66] yes=25,no=26,missing=25
					25:leaf=-0.0517231
					26:leaf=0.0646521
				14:leaf=-0.103681
			8:[ips<62] yes=15,no=16,missing=15
				15:[divs<34] yes=27,no=28,missing=27
					27:leaf=-0.102874
					28:leaf=0.0068388
				16:[divs<32] yes=29,no=30,missing=29
					29:leaf=0.10775
					30:leaf=-0.0862009
	2:leaf=-0.103386
booster[28]:
0:[log_ids<45] yes=1,no=2,missing=1
	1:[citys<5] yes=3,no=4,missing=3
		3:[log_ids<20] yes=7,no=8,missing=7
			7:[citys<3] yes=13,no=14,missing=13
				13:[log_ids<16] yes=25,no=26,missing=25
					25:leaf=-0.0706339
					26:leaf=-0.0323889
				14:[log_ids<7] yes=27,no=28,missing=27
					27:leaf=0.113929
					28:leaf=-0.0249957
			8:[citys<3] yes=15,no=16,missing=15
				15:[types<3] yes=29,no=30,missing=29
					29:leaf=-0.100343
					30:leaf=-0.036004
				16:[log_froms<2] yes=31,no=32,missing=31
					31:leaf=-0.0121881
					32:leaf=-0.0855278
		4:[log_ids<43] yes=9,no=10,missing=9
			9:[log_ids<37] yes=17,no=18,missing=17
				17:[log_froms<2] yes=33,no=34,missing=33
					33:leaf=-0.0690319
					34:leaf=0.038207
				18:leaf=-0.104776
			10:[log_froms<3] yes=19,no=20,missing=19
				19:[log_ids<44] yes=35,no=36,missing=35
					35:leaf=0.307469
					36:leaf=0.112644
				20:leaf=-0.107928
	2:[log_ids<511] yes=5,no=6,missing=5
		5:[citys<10] yes=11,no=12,missing=11
			11:[log_ids<464] yes=21,no=22,missing=21
				21:[types<2] yes=37,no=38,missing=37
					37:leaf=-0.100928
					38:leaf=-0.0789639
				22:leaf=0.106682
			12:[log_ids<120] yes=23,no=24,missing=23
				23:[log_ids<48] yes=39,no=40,missing=39
					39:leaf=0.161358
					40:leaf=-0.106338
				24:[citys<17] yes=41,no=42,missing=41
					41:leaf=-0.0104983
					42:leaf=0.188049
		6:leaf=-0.103016
booster[29]:
0:[ips<68] yes=1,no=2,missing=1
	1:[ips<60] yes=3,no=4,missing=3
		3:[log_ids<45] yes=5,no=6,missing=5
			5:[log_froms<2] yes=9,no=10,missing=9
				9:[log_ids<25] yes=15,no=16,missing=15
					15:leaf=-0.061817
					16:leaf=-0.10448
				10:[log_ids<7] yes=17,no=18,missing=17
					17:leaf=0.0539136
					18:leaf=-0.0356247
			6:[log_froms<3] yes=11,no=12,missing=11
				11:[log_ids<49] yes=19,no=20,missing=19
					19:leaf=-0.0627343
					20:leaf=-0.103382
				12:[log_ids<123] yes=21,no=22,missing=21
					21:leaf=-0.0466374
					22:leaf=-0.103168
		4:[types<2] yes=7,no=8,missing=7
			7:leaf=-0.102142
			8:[log_ids<361] yes=13,no=14,missing=13
				13:[ips<66] yes=23,no=24,missing=23
					23:leaf=-0.00299711
					24:leaf=0.0560577
				14:leaf=0.105717
	2:leaf=-0.102745
booster[30]:
0:[divs<35] yes=1,no=2,missing=1
	1:[types<2] yes=3,no=4,missing=3
		3:[ips<31] yes=5,no=6,missing=5
			5:[divs<4] yes=9,no=10,missing=9
				9:[log_froms<2] yes=17,no=18,missing=17
					17:leaf=-0.0689529
					18:leaf=0.00660191
				10:[ips<16] yes=19,no=20,missing=19
					19:leaf=-0.0739942
					20:leaf=-0.0526876
			6:[ips<36] yes=11,no=12,missing=11
				11:[divs<22] yes=21,no=22,missing=21
					21:leaf=-0.102424
					22:leaf=0.0583314
				12:leaf=-0.102643
		4:[divs<29] yes=7,no=8,missing=7
			7:[log_froms<4] yes=13,no=14,missing=13
				13:[divs<17] yes=23,no=24,missing=23
					23:leaf=-0.0381967
					24:leaf=-0.100299
				14:[divs<15] yes=25,no=26,missing=25
					25:leaf=-0.0393727
					26:leaf=0.730891
			8:[ips<63] yes=15,no=16,missing=15
				15:[divs<30] yes=27,no=28,missing=27
					27:leaf=0.347233
					28:leaf=0.00894271
				16:leaf=-0.103009
	2:leaf=-0.102488
booster[31]:
0:[divs<35] yes=1,no=2,missing=1
	1:[log_ids<32] yes=3,no=4,missing=3
		3:[ips<25] yes=5,no=6,missing=5
			5:[log_ids<23] yes=9,no=10,missing=9
				9:[ips<14] yes=17,no=18,missing=17
					17:leaf=-0.0338373
					18:leaf=0.0649721
				10:[ips<15] yes=19,no=20,missing=19
					19:leaf=-0.0941321
					20:leaf=-0.0315879
			6:[log_ids<31] yes=11,no=12,missing=11
				11:[log_froms<3] yes=21,no=22,missing=21
					21:leaf=-0.107137
					22:leaf=0.114834
				12:leaf=0.619827
		4:[divs<29] yes=7,no=8,missing=7
			7:[log_ids<49] yes=13,no=14,missing=13
				13:[divs<9] yes=23,no=24,missing=23
					23:leaf=-0.0842841
					24:leaf=-0.0143311
				14:[ips<67] yes=25,no=26,missing=25
					25:leaf=-0.0980754
					26:leaf=-0.0429067
			8:[ips<63] yes=15,no=16,missing=15
				15:[divs<30] yes=27,no=28,missing=27
					27:leaf=0.187063
					28:leaf=0.00590661
				16:leaf=-0.10244
	2:leaf=-0.102243
booster[32]:
0:[ips<68] yes=1,no=2,missing=1
	1:[citys<5] yes=3,no=4,missing=3
		3:[ips<67] yes=5,no=6,missing=5
			5:[ips<19] yes=9,no=10,missing=9
				9:[log_froms<4] yes=15,no=16,missing=15
					15:leaf=-0.0609775
					16:leaf=0.369069
				10:[ips<62] yes=17,no=18,missing=17
					17:leaf=-0.0953406
					18:leaf=-0.0286775
			6:leaf=0.0802121
		4:[divs<10] yes=7,no=8,missing=7
			7:[ips<30] yes=11,no=12,missing=11
				11:[ips<25] yes=19,no=20,missing=19
					19:leaf=0.0249887
					20:leaf=0.154967
				12:leaf=-0.104122
			8:[citys<8] yes=13,no=14,missing=13
				13:[divs<19] yes=21,no=22,missing=21
					21:leaf=-0.104064
					22:leaf=-0.0402197
				14:[divs<17] yes=23,no=24,missing=23
					23:leaf=0.0793699
					24:leaf=-0.0191953
	2:leaf=-0.10202
booster[33]:
0:[divs<35] yes=1,no=2,missing=1
	1:[citys<5] yes=3,no=4,missing=3
		3:[log_ids<20] yes=5,no=6,missing=5
			5:[citys<3] yes=9,no=10,missing=9
				9:[divs<13] yes=17,no=18,missing=17
					17:leaf=-0.0564148
					18:leaf=0.349468
				10:[divs<7] yes=19,no=20,missing=19
					19:leaf=0.0388212
					20:leaf=-0.10035
			6:[log_ids<460] yes=11,no=12,missing=11
				11:[log_ids<132] yes=21,no=22,missing=21
					21:leaf=-0.0886419
					22:leaf=-0.0594442
				12:[divs<33] yes=23,no=24,missing=23
					23:leaf=0.104941
					24:leaf=-0.0993111
		4:[log_ids<45] yes=7,no=8,missing=7
			7:[log_ids<43] yes=13,no=14,missing=13
				13:[log_ids<37] yes=25,no=26,missing=25
					25:leaf=0.0325479
					26:leaf=-0.103019
				14:[divs<9] yes=27,no=28,missing=27
					27:leaf=-0.100584
					28:leaf=0.221282
			8:[divs<29] yes=15,no=16,missing=15
				15:[citys<18] yes=29,no=30,missing=29
					29:leaf=-0.0989311
					30:leaf=0.0886152
				16:[log_ids<114] yes=31,no=32,missing=31
					31:leaf=0.203767
					32:leaf=-0.0163118
	2:leaf=-0.101832
booster[34]:
0:[ips<68] yes=1,no=2,missing=1
	1:[ips<60] yes=3,no=4,missing=3
		3:[log_ids<45] yes=5,no=6,missing=5
			5:[log_froms<2] yes=9,no=10,missing=9
				9:[log_ids<25] yes=15,no=16,missing=15
					15:leaf=-0.0511982
					16:leaf=-0.103224
				10:[log_ids<7] yes=17,no=18,missing=17
					17:leaf=0.0695102
					18:leaf=-0.0232356
			6:[log_froms<3] yes=11,no=12,missing=11
				11:[log_ids<49] yes=19,no=20,missing=19
					19:leaf=-0.0436304
					20:leaf=-0.102184
				12:[log_ids<123] yes=21,no=22,missing=21
					21:leaf=-0.0375752
					22:leaf=-0.101878
		4:[divs<44] yes=7,no=8,missing=7
			7:[ips<67] yes=13,no=14,missing=13
				13:[divs<31] yes=23,no=24,missing=23
					23:leaf=-0.101346
					24:leaf=0.0170911
				14:leaf=0.0654203
			8:leaf=-0.100291
	2:leaf=-0.101648
booster[35]:
0:[ips<68] yes=1,no=2,missing=1
	1:[citys<5] yes=3,no=4,missing=3
		3:[ips<67] yes=5,no=6,missing=5
			5:[ips<21] yes=9,no=10,missing=9
				9:[citys<3] yes=15,no=16,missing=15
					15:leaf=-0.0707076
					16:leaf=-0.0238518
				10:[ips<62] yes=17,no=18,missing=17
					17:leaf=-0.0949952
					18:leaf=-0.022317
			6:leaf=0.0650576
		4:[divs<10] yes=7,no=8,missing=7
			7:[ips<30] yes=11,no=12,missing=11
				11:[ips<25] yes=19,no=20,missing=19
					19:leaf=0.0218307
					20:leaf=0.130368
				12:leaf=-0.102905
			8:[citys<8] yes=13,no=14,missing=13
				13:[divs<19] yes=21,no=22,missing=21
					21:leaf=-0.103533
					22:leaf=-0.0292573
				14:[types<2] yes=23,no=24,missing=23
					23:leaf=0.117393
					24:leaf=-0.0143805
	2:leaf=-0.101484
booster[36]:
0:[ips<68] yes=1,no=2,missing=1
	1:[citys<5] yes=3,no=4,missing=3
		3:[log_ids<20] yes=5,no=6,missing=5
			5:[citys<4] yes=9,no=10,missing=9
				9:[log_ids<19] yes=17,no=18,missing=17
					17:leaf=-0.0435648
					18:leaf=0.0916324
				10:[ips<10] yes=19,no=20,missing=19
					19:leaf=0.0999145
					20:leaf=-0.103895
			6:[ips<62] yes=11,no=12,missing=11
				11:[log_ids<25] yes=21,no=22,missing=21
					21:leaf=-0.0573958
					22:leaf=-0.0914853
				12:[citys<3] yes=23,no=24,missing=23
					23:leaf=0.0684124
					24:leaf=-0.101165
		4:[log_ids<45] yes=7,no=8,missing=7
			7:[log_ids<43] yes=13,no=14,missing=13
				13:[log_ids<12] yes=25,no=26,missing=25
					25:leaf=0.082081
					26:leaf=0.00388306
				14:[ips<16] yes=27,no=28,missing=27
					27:leaf=0.229357
					28:leaf=0.0687672
			8:[ips<32] yes=15,no=16,missing=15
				15:leaf=-0.102699
				16:[types<2] yes=29,no=30,missing=29
					29:leaf=-0.101262
					30:leaf=0.00870077
	2:leaf=-0.101337
booster[37]:
0:[divs<35] yes=1,no=2,missing=1
	1:[citys<4] yes=3,no=4,missing=3
		3:[ips<62] yes=5,no=6,missing=5
			5:[ips<23] yes=9,no=10,missing=9
				9:[citys<3] yes=15,no=16,missing=15
					15:leaf=-0.0664747
					16:leaf=-0.0248849
				10:leaf=-0.101555
			6:[ips<68] yes=11,no=12,missing=11
				11:[divs<24] yes=17,no=18,missing=17
					17:leaf=0.0356834
					18:leaf=0.103606
				12:leaf=-0.0998558
		4:[ips<62] yes=7,no=8,missing=7
			7:[divs<5] yes=13,no=14,missing=13
				13:[ips<30] yes=19,no=20,missing=19
					19:leaf=0.0398237
					20:leaf=0.241613
				14:[citys<8] yes=21,no=22,missing=21
					21:leaf=-0.0331317
					22:leaf=0.0147856
			8:leaf=-0.101306
	2:leaf=-0.101224
booster[38]:
0:[divs<35] yes=1,no=2,missing=1
	1:[citys<5] yes=3,no=4,missing=3
		3:[log_froms<4] yes=5,no=6,missing=5
			5:[citys<2] yes=9,no=10,missing=9
				9:[divs<5] yes=17,no=18,missing=17
					17:leaf=-0.0615728
					18:leaf=-0.0874462
				10:[divs<4] yes=19,no=20,missing=19
					19:leaf=-0.0112905
					20:leaf=-0.0524043
			6:[divs<21] yes=11,no=12,missing=11
				11:[types<3] yes=21,no=22,missing=21
					21:leaf=-0.0933342
					22:leaf=0.160808
				12:leaf=0.57742
		4:[types<3] yes=7,no=8,missing=7
			7:[divs<10] yes=13,no=14,missing=13
				13:[log_froms<2] yes=23,no=24,missing=23
					23:leaf=-0.0690392
					24:leaf=0.0371401
				14:[citys<8] yes=25,no=26,missing=25
					25:leaf=-0.0613728
					26:leaf=0.0073792
			8:[citys<11] yes=15,no=16,missing=15
				15:leaf=-0.107353
				16:leaf=0.0220878
	2:leaf=-0.101101
booster[39]:
0:[divs<35] yes=1,no=2,missing=1
	1:[log_ids<32] yes=3,no=4,missing=3
		3:[log_froms<2] yes=5,no=6,missing=5
			5:[divs<7] yes=9,no=10,missing=9
				9:[log_ids<9] yes=17,no=18,missing=17
					17:leaf=-0.0289882
					18:leaf=-0.0758412
				10:[log_ids<25] yes=19,no=20,missing=19
					19:leaf=0.160999
					20:leaf=-0.099977
			6:[log_ids<7] yes=11,no=12,missing=11
				11:[log_froms<3] yes=21,no=22,missing=21
					21:leaf=0.0900212
					22:leaf=-0.0667464
				12:[log_ids<31] yes=23,no=24,missing=23
					23:leaf=-0.0132311
					24:leaf=0.0994017
		4:[divs<14] yes=7,no=8,missing=7
			7:[log_ids<49] yes=13,no=14,missing=13
				13:[log_ids<36] yes=25,no=26,missing=25
					25:leaf=-0.105834
					26:leaf=-0.0280804
				14:leaf=-0.10156
			8:[types<2] yes=15,no=16,missing=15
				15:[log_ids<37] yes=27,no=28,missing=27
					27:leaf=0.116231
					28:leaf=-0.0867876
				16:[log_froms<4] yes=29,no=30,missing=29
					29:leaf=-0.0045152
					30:leaf=0.237125
	2:leaf=-0.100989
booster[40]:
0:[ips<68] yes=1,no=2,missing=1
	1:[citys<5] yes=3,no=4,missing=3
		3:[ips<62] yes=5,no=6,missing=5
			5:[ips<21] yes=9,no=10,missing=9
				9:[citys<3] yes=17,no=18,missing=17
					17:leaf=-0.0618299
					18:leaf=-0.0108441
				10:[log_froms<2] yes=19,no=20,missing=19
					19:leaf=-0.0191598
					20:leaf=-0.0995298
			6:[citys<3] yes=11,no=12,missing=11
				11:[ips<65] yes=21,no=22,missing=21
					21:leaf=0.0962623
					22:leaf=0.0431786
				12:leaf=-0.100067
		4:[types<3] yes=7,no=8,missing=7
			7:[ips<36] yes=13,no=14,missing=13
				13:[ips<34] yes=23,no=24,missing=23
					23:leaf=0.0110364
					24:leaf=0.157351
				14:[citys<11] yes=25,no=26,missing=25
					25:leaf=-0.100834
					26:leaf=0.00767851
			8:[citys<11] yes=15,no=16,missing=15
				15:leaf=-0.105912
				16:leaf=0.0112697
	2:leaf=-0.100884
booster[41]:
0:[divs<35] yes=1,no=2,missing=1
	1:[citys<4] yes=3,no=4,missing=3
		3:[ips<62] yes=5,no=6,missing=5
			5:[log_ids<25] yes=9,no=10,missing=9
				9:[ips<16] yes=17,no=18,missing=17
					17:leaf=-0.0353168
					18:leaf=0.208451
				10:[divs<23] yes=19,no=20,missing=19
					19:leaf=-0.0918245
					20:leaf=-0.0471766
			6:[ips<68] yes=11,no=12,missing=11
				11:[divs<24] yes=21,no=22,missing=21
					21:leaf=0.0428363
					22:leaf=0.102579
				12:leaf=-0.0988951
		4:[log_ids<49] yes=7,no=8,missing=7
			7:[log_ids<48] yes=13,no=14,missing=13
				13:[log_ids<12] yes=23,no=24,missing=23
					23:leaf=0.0705656
					24:leaf=0.00624174
				14:[divs<15] yes=25,no=26,missing=25
					25:leaf=1.24292
					26:leaf=-0.078851
			8:[divs<29] yes=15,no=16,missing=15
				15:[citys<18] yes=27,no=28,missing=27
					27:leaf=-0.101546
					28:leaf=0.0793803
				16:[ips<62] yes=29,no=30,missing=29
					29:leaf=0.0144782
					30:leaf=-0.100391
	2:leaf=-0.100802
booster[42]:
0:[divs<35] yes=1,no=2,missing=1
	1:[log_ids<32] yes=3,no=4,missing=3
		3:[ips<25] yes=5,no=6,missing=5
			5:[log_ids<25] yes=9,no=10,missing=9
				9:[ips<16] yes=17,no=18,missing=17
					17:leaf=-0.0128649
					18:leaf=0.130461
				10:[divs<12] yes=19,no=20,missing=19
					19:leaf=-0.0766022
					20:leaf=0.0150041
			6:[log_ids<31] yes=11,no=12,missing=11
				11:[log_ids<29] yes=21,no=22,missing=21
					21:leaf=0.058424
					22:leaf=-0.107443
				12:leaf=0.293233
		4:[divs<14] yes=7,no=8,missing=7
			7:[log_ids<49] yes=13,no=14,missing=13
				13:[log_ids<36] yes=23,no=24,missing=23
					23:leaf=-0.105588
					24:leaf=-0.0198813
				14:leaf=-0.101177
			8:[ips<68] yes=15,no=16,missing=15
				15:[ips<32] yes=25,no=26,missing=25
					25:leaf=-0.052171
					26:leaf=0.00766938
				16:leaf=-0.100291
	2:leaf=-0.100717
booster[43]:
0:[divs<35] yes=1,no=2,missing=1
	1:[citys<4] yes=3,no=4,missing=3
		3:[ips<62] yes=5,no=6,missing=5
			5:[log_ids<25] yes=9,no=10,missing=9
				9:[ips<16] yes=17,no=18,missing=17
					17:leaf=-0.028961
					18:leaf=0.134351
				10:[divs<23] yes=19,no=20,missing=19
					19:leaf=-0.0896674
					20:leaf=-0.044539
			6:[ips<68] yes=11,no=12,missing=11
				11:[divs<24] yes=21,no=22,missing=21
					21:leaf=0.0392908
					22:leaf=0.101839
				12:leaf=-0.0982574
		4:[log_ids<49] yes=7,no=8,missing=7
			7:[log_ids<48] yes=13,no=14,missing=13
				13:[log_ids<12] yes=23,no=24,missing=23
					23:leaf=0.067501
					24:leaf=0.00571683
				14:[divs<8] yes=25,no=26,missing=25
					25:leaf=0.536713
					26:leaf=-0.0864649
			8:[divs<29] yes=15,no=16,missing=15
				15:[citys<18] yes=27,no=28,missing=27
					27:leaf=-0.101243
					28:leaf=0.0769483
				16:[log_ids<114] yes=29,no=30,missing=29
					29:leaf=0.115361
					30:leaf=-0.0120972
	2:leaf=-0.100639
booster[44]:
0:[ips<68] yes=1,no=2,missing=1
	1:[citys<5] yes=3,no=4,missing=3
		3:[ips<67] yes=5,no=6,missing=5
			5:[ips<21] yes=9,no=10,missing=9
				9:[citys<3] yes=15,no=16,missing=15
					15:leaf=-0.052097
					16:leaf=-0.00289826
				10:[divs<4] yes=17,no=18,missing=17
					17:leaf=0.0434021
					18:leaf=-0.0877314
			6:leaf=0.0373675
		4:[types<3] yes=7,no=8,missing=7
			7:[divs<35] yes=11,no=12,missing=11
				11:[divs<10] yes=19,no=20,missing=19
					19:leaf=0.0296266
					20:leaf=-0.00437474
				12:leaf=-0.0997947
			8:[citys<11] yes=13,no=14,missing=13
				13:leaf=-0.10578
				14:leaf=0.00498726
	2:leaf=-0.100565
booster[45]:
0:[divs<35] yes=1,no=2,missing=1
	1:[citys<5] yes=3,no=4,missing=3
		3:[log_froms<4] yes=5,no=6,missing=5
			5:[citys<2] yes=9,no=10,missing=9
				9:[divs<5] yes=17,no=18,missing=17
					17:leaf=-0.0460293
					18:leaf=-0.0803634
				10:[divs<4] yes=19,no=20,missing=19
					19:leaf=0.00366148
					20:leaf=-0.0372269
			6:[divs<24] yes=11,no=12,missing=11
				11:[divs<21] yes=21,no=22,missing=21
					21:leaf=0.0293468
					22:leaf=0.599001
				12:leaf=-0.0924977
		4:[types<3] yes=7,no=8,missing=7
			7:[divs<10] yes=13,no=14,missing=13
				13:[log_froms<2] yes=23,no=24,missing=23
					23:leaf=-0.0626723
					24:leaf=0.0305311
				14:[citys<6] yes=25,no=26,missing=25
					25:leaf=-0.102342
					26:leaf=-0.000452895
			8:[citys<11] yes=15,no=16,missing=15
				15:leaf=-0.105113
				16:leaf=0.015478
	2:leaf=-0.100504
booster[46]:
0:[divs<35] yes=1,no=2,missing=1
	1:[citys<4] yes=3,no=4,missing=3
		3:[log_ids<7] yes=5,no=6,missing=5
			5:[citys<2] yes=9,no=10,missing=9
				9:[log_ids<2] yes=17,no=18,missing=17
					17:leaf=0.0614698
					18:leaf=-0.0432252
				10:[divs<5] yes=19,no=20,missing=19
					19:leaf=0.0644745
					20:leaf=0.212292
			6:[types<2] yes=11,no=12,missing=11
				11:[log_ids<25] yes=21,no=22,missing=21
					21:leaf=-0.0414079
					22:leaf=-0.0922587
				12:[divs<13] yes=23,no=24,missing=23
					23:leaf=-0.0457152
					24:leaf=0.0323041
		4:[log_ids<49] yes=7,no=8,missing=7
			7:[log_ids<43] yes=13,no=14,missing=13
				13:[log_ids<37] yes=25,no=26,missing=25
					25:leaf=0.0160638
					26:leaf=-0.101944
				14:[log_ids<44] yes=27,no=28,missing=27
					27:leaf=0.176865
					28:leaf=0.020092
			8:[divs<29] yes=15,no=16,missing=15
				15:[citys<18] yes=29,no=30,missing=29
					29:leaf=-0.101035
					30:leaf=0.0660099
				16:[log_ids<114] yes=31,no=32,missing=31
					31:leaf=0.0996534
					32:leaf=-0.0115861
	2:leaf=-0.100443
booster[47]:
0:[ips<68] yes=1,no=2,missing=1
	1:[citys<5] yes=3,no=4,missing=3
		3:[log_ids<20] yes=5,no=6,missing=5
			5:[log_ids<15] yes=9,no=10,missing=9
				9:[log_ids<7] yes=17,no=18,missing=17
					17:leaf=0.0377286
					18:leaf=-0.0538925
				10:[ips<4] yes=19,no=20,missing=19
					19:leaf=-0.100577
					20:leaf=0.0792116
			6:[ips<62] yes=11,no=12,missing=11
				11:[log_froms<4] yes=21,no=22,missing=21
					21:leaf=-0.0757153
					22:leaf=0.0864063
				12:[citys<3] yes=23,no=24,missing=23
					23:leaf=0.0468967
					24:leaf=-0.0984303
		4:[log_ids<45] yes=7,no=8,missing=7
			7:[log_ids<43] yes=13,no=14,missing=13
				13:[ips<14] yes=25,no=26,missing=25
					25:leaf=-0.0154685
					26:leaf=0.0369839
				14:[log_froms<3] yes=27,no=28,missing=27
					27:leaf=0.15239
					28:leaf=-0.102141
			8:[ips<32] yes=15,no=16,missing=15
				15:leaf=-0.101687
				16:[ips<35] yes=29,no=30,missing=29
					29:leaf=0.118597
					30:leaf=-0.00975569
	2:leaf=-0.100397
booster[48]:
0:[ips<68] yes=1,no=2,missing=1
	1:[log_ids<7] yes=3,no=4,missing=3
		3:[ips<6] yes=5,no=6,missing=5
			5:[citys<2] yes=9,no=10,missing=9
				9:[ips<3] yes=17,no=18,missing=17
					17:leaf=0.000796045
					18:leaf=-0.0938147
				10:[log_ids<6] yes=19,no=20,missing=19
					19:leaf=0.08593
					20:leaf=-0.0281354
			6:[divs<2] yes=11,no=12,missing=11
				11:leaf=0.0517351
				12:leaf=0.315462
		4:[citys<5] yes=7,no=8,missing=7
			7:[log_ids<20] yes=13,no=14,missing=13
				13:[log_ids<15] yes=21,no=22,missing=21
					21:leaf=-0.0493498
					22:leaf=0.0439151
				14:[ips<62] yes=23,no=24,missing=23
					23:leaf=-0.071767
					24:leaf=0.0189033
			8:[divs<35] yes=15,no=16,missing=15
				15:[ips<9] yes=25,no=26,missing=25
					25:leaf=-0.0443038
					26:leaf=0.01008
				16:leaf=-0.0992069
	2:leaf=-0.100345
booster[49]:
0:[log_ids<232] yes=1,no=2,missing=1
	1:[citys<3] yes=3,no=4,missing=3
		3:[log_ids<20] yes=7,no=8,missing=7
			7:[log_ids<16] yes=13,no=14,missing=13
				13:[log_ids<7] yes=21,no=22,missing=21
					21:leaf=0.0115643
					22:leaf=-0.0602928
				14:[types<2] yes=23,no=24,missing=23
					23:leaf=-0.0146593
					24:leaf=0.149899
			8:[log_ids<132] yes=15,no=16,missing=15
				15:[types<3] yes=25,no=26,missing=25
					25:leaf=-0.0909447
					26:leaf=0.0319165
				16:[log_ids<136] yes=27,no=28,missing=27
					27:leaf=0.0220956
					28:leaf=-0.0986363
		4:[log_ids<45] yes=9,no=10,missing=9
			9:[log_ids<43] yes=17,no=18,missing=17
				17:[log_ids<37] yes=29,no=30,missing=29
					29:leaf=0.0126154
					30:leaf=-0.0733114
				18:[citys<6] yes=31,no=32,missing=31
					31:leaf=-0.0961043
					32:leaf=0.139633
			10:[citys<10] yes=19,no=20,missing=19
				19:[log_froms<3] yes=33,no=34,missing=33
					33:leaf=-0.088872
					34:leaf=-0.0207371
				20:[log_ids<48] yes=35,no=36,missing=35
					35:leaf=0.215245
					36:leaf=0.00363636
	2:[citys<3] yes=5,no=6,missing=5
		5:[types<2] yes=11,no=12,missing=11
			11:leaf=-0.0966126
			12:leaf=0.101321
		6:leaf=-0.100303
booster[50]:
0:[ips<68] yes=1,no=2,missing=1
	1:[citys<3] yes=3,no=4,missing=3
		3:[ips<61] yes=5,no=6,missing=5
			5:[ips<23] yes=9,no=10,missing=9
				9:[divs<13] yes=17,no=18,missing=17
					17:leaf=-0.0434494
					18:leaf=0.0511246
				10:leaf=-0.0998961
			6:[divs<24] yes=11,no=12,missing=11
				11:leaf=0.0106643
				12:leaf=0.100665
		4:[divs<4] yes=7,no=8,missing=7
			7:[ips<7] yes=13,no=14,missing=13
				13:[ips<6] yes=19,no=20,missing=19
					19:leaf=0.0669339
					20:leaf=0.164899
				14:[ips<8] yes=21,no=22,missing=21
					21:leaf=-0.0847513
					22:leaf=0.0159759
			8:[citys<8] yes=15,no=16,missing=15
				15:[ips<35] yes=23,no=24,missing=23
					23:leaf=-0.0155705
					24:leaf=-0.100241
				16:[types<2] yes=25,no=26,missing=25
					25:leaf=0.0910249
					26:leaf=-0.00197849
	2:leaf=-0.100251
booster[51]:
0:[divs<35] yes=1,no=2,missing=1
	1:[ips<68] yes=3,no=4,missing=3
		3:[log_froms<4] yes=5,no=6,missing=5
			5:[divs<29] yes=7,no=8,missing=7
				7:[divs<17] yes=11,no=12,missing=11
					11:leaf=-0.01054
					12:leaf=-0.0740935
				8:[ips<34] yes=13,no=14,missing=13
					13:leaf=-0.0993829
					14:leaf=0.0181916
			6:[ips<21] yes=9,no=10,missing=9
				9:[ips<17] yes=15,no=16,missing=15
					15:leaf=0.0245634
					16:leaf=0.40629
				10:leaf=-0.0818488
		4:leaf=-0.0994454
	2:leaf=-0.100215
booster[52]:
0:[ips<68] yes=1,no=2,missing=1
	1:[log_ids<23] yes=3,no=4,missing=3
		3:[log_froms<2] yes=5,no=6,missing=5
			5:[ips<8] yes=9,no=10,missing=9
				9:[log_ids<8] yes=17,no=18,missing=17
					17:leaf=-0.0172184
					18:leaf=-0.102055
				10:[ips<9] yes=19,no=20,missing=19
					19:leaf=0.143625
					20:leaf=-0.0356669
			6:[ips<14] yes=11,no=12,missing=11
				11:[log_ids<21] yes=21,no=22,missing=21
					21:leaf=0.0184002
					22:leaf=-0.0887507
				12:[log_ids<22] yes=23,no=24,missing=23
					23:leaf=0.0031945
					24:leaf=0.247632
		4:[ips<12] yes=7,no=8,missing=7
			7:[types<3] yes=13,no=14,missing=13
				13:[ips<5] yes=25,no=26,missing=25
					25:leaf=-0.0595255
					26:leaf=-0.102855
				14:[log_ids<38] yes=27,no=28,missing=27
					27:leaf=-0.094401
					28:leaf=0.526628
			8:[types<2] yes=15,no=16,missing=15
				15:[log_ids<49] yes=29,no=30,missing=29
					29:leaf=0.00600638
					30:leaf=-0.100378
				16:[ips<13] yes=31,no=32,missing=31
					31:leaf=0.0889794
					32:leaf=-0.00624918
	2:leaf=-0.100166
booster[53]:
0:[divs<35] yes=1,no=2,missing=1
	1:[citys<3] yes=3,no=4,missing=3
		3:[divs<13] yes=5,no=6,missing=5
			5:[ips<12] yes=9,no=10,missing=9
				9:[ips<10] yes=15,no=16,missing=15
					15:leaf=-0.0420248
					16:leaf=0.05543
				10:[divs<4] yes=17,no=18,missing=17
					17:leaf=-0.0388945
					18:leaf=-0.0885398
			6:[divs<14] yes=11,no=12,missing=11
				11:[ips<9] yes=19,no=20,missing=19
					19:leaf=0.79134
					20:leaf=-0.0884523
				12:[ips<58] yes=21,no=22,missing=21
					21:leaf=-0.0608054
					22:leaf=0.0284163
		4:[ips<61] yes=7,no=8,missing=7
			7:[divs<4] yes=13,no=14,missing=13
				13:[log_froms<3] yes=23,no=24,missing=23
					23:leaf=0.0190571
					24:leaf=0.296458
				14:[citys<13] yes=25,no=26,missing=25
					25:leaf=-0.00992245
					26:leaf=0.0480549
			8:leaf=-0.0994067
	2:leaf=-0.100138
booster[54]:
0:[divs<35] yes=1,no=2,missing=1
	1:[log_ids<32] yes=3,no=4,missing=3
		3:[ips<16] yes=5,no=6,missing=5
			5:[log_ids<21] yes=9,no=10,missing=9
				9:[divs<16] yes=17,no=18,missing=17
					17:leaf=0.00617439
					18:leaf=0.356572
				10:[citys<7] yes=19,no=20,missing=19
					19:leaf=-0.0798068
					20:leaf=0.0291015
			6:[divs<7] yes=11,no=12,missing=11
				11:[divs<5] yes=21,no=22,missing=21
					21:leaf=0.00220713
					22:leaf=-0.0858437
				12:[citys<9] yes=23,no=24,missing=23
					23:leaf=0.17027
					24:leaf=-0.102102
		4:[divs<9] yes=7,no=8,missing=7
			7:[citys<13] yes=13,no=14,missing=13
				13:[divs<4] yes=25,no=26,missing=25
					25:leaf=-0.0318311
					26:leaf=-0.101956
				14:[citys<15] yes=27,no=28,missing=27
					27:leaf=0.183856
					28:leaf=-0.103932
			8:[citys<6] yes=15,no=16,missing=15
				15:[ips<62] yes=29,no=30,missing=29
					29:leaf=-0.0727241
					30:leaf=0.0128026
				16:[ips<13] yes=31,no=32,missing=31
					31:leaf=0.14415
					32:leaf=0.00337748
	2:leaf=-0.100099
booster[55]:
0:[divs<35] yes=1,no=2,missing=1
	1:[log_ids<23] yes=3,no=4,missing=3
		3:[log_froms<2] yes=5,no=6,missing=5
			5:[log_ids<9] yes=9,no=10,missing=9
				9:[citys<8] yes=17,no=18,missing=17
					17:leaf=-0.0196638
					18:leaf=0.329954
				10:[log_ids<14] yes=19,no=20,missing=19
					19:leaf=-0.10225
					20:leaf=-0.0273771
			6:[divs<3] yes=11,no=12,missing=11
				11:[log_ids<11] yes=21,no=22,missing=21
					21:leaf=0.104794
					22:leaf=-0.0353167
				12:[log_ids<15] yes=23,no=24,missing=23
					23:leaf=-0.0153904
					24:leaf=0.0378982
		4:[divs<29] yes=7,no=8,missing=7
			7:[log_ids<49] yes=13,no=14,missing=13
				13:[log_froms<3] yes=25,no=26,missing=25
					25:leaf=0.00429019
					26:leaf=-0.0713107
				14:[divs<14] yes=27,no=28,missing=27
					27:leaf=-0.100407
					28:leaf=-0.0299017
			8:[log_ids<114] yes=15,no=16,missing=15
				15:[log_ids<94] yes=29,no=30,missing=29
					29:leaf=-0.0976825
					30:leaf=0.112765
				16:[log_froms<3] yes=31,no=32,missing=31
					31:leaf=0.00879347
					32:leaf=-0.0983981
	2:leaf=-0.100061
booster[56]:
0:[divs<35] yes=1,no=2,missing=1
	1:[log_ids<12] yes=3,no=4,missing=3
		3:[citys<6] yes=5,no=6,missing=5
			5:[log_ids<7] yes=9,no=10,missing=9
				9:[citys<2] yes=17,no=18,missing=17
					17:leaf=-0.0168563
					18:leaf=0.0485805
				10:[log_froms<2] yes=19,no=20,missing=19
					19:leaf=-0.0784397
					20:leaf=-0.0102724
			6:[log_ids<10] yes=11,no=12,missing=11
				11:[citys<8] yes=21,no=22,missing=21
					21:leaf=-0.0482703
					22:leaf=0.153371
				12:[divs<3] yes=23,no=24,missing=23
					23:leaf=0.349157
					24:leaf=0.0946495
		4:[log_ids<14] yes=7,no=8,missing=7
			7:[citys<6] yes=13,no=14,missing=13
				13:[divs<6] yes=25,no=26,missing=25
					25:leaf=-0.0652439
					26:leaf=-0.104078
				14:leaf=-0.114209
			8:[citys<13] yes=15,no=16,missing=15
				15:[log_ids<32] yes=27,no=28,missing=27
					27:leaf=0.000741919
					28:leaf=-0.024515
				16:[citys<19] yes=29,no=30,missing=29
					29:leaf=0.0504022
					30:leaf=-0.105116
	2:leaf=-0.100023
booster[57]:
0:[ips<68] yes=1,no=2,missing=1
	1:[citys<2] yes=3,no=4,missing=3
		3:[log_ids<24] yes=5,no=6,missing=5
			5:[ips<18] yes=9,no=10,missing=9
				9:[ips<10] yes=15,no=16,missing=15
					15:leaf=-0.043817
					16:leaf=0.0646675
				10:leaf=0.578453
			6:leaf=-0.0999668
		4:[log_ids<7] yes=7,no=8,missing=7
			7:[ips<6] yes=11,no=12,missing=11
				11:[log_ids<6] yes=17,no=18,missing=17
					17:leaf=0.0541459
					18:leaf=-0.0349484
				12:[log_froms<2] yes=19,no=20,missing=19
					19:leaf=0.0611479
					20:leaf=0.237927
			8:[ips<4] yes=13,no=14,missing=13
				13:leaf=-0.10089
				14:[citys<11] yes=21,no=22,missing=21
					21:leaf=-0.0093725
					22:leaf=0.0164187
	2:leaf=-0.0999899
booster[58]:
0:[ips<68] yes=1,no=2,missing=1
	1:[divs<35] yes=3,no=4,missing=3
		3:[log_froms<4] yes=5,no=6,missing=5
			5:[ips<4] yes=7,no=8,missing=7
				7:[types<2] yes=11,no=12,missing=11
					11:leaf=-0.011706
					12:leaf=-0.0874789
				8:[types<2] yes=13,no=14,missing=13
					13:leaf=-0.0118791
					14:leaf=0.00474142
			6:[ips<21] yes=9,no=10,missing=9
				9:[ips<17] yes=15,no=16,missing=15
					15:leaf=0.0407297
					16:leaf=0.338309
				10:leaf=-0.0767882
		4:leaf=-0.0985697
	2:leaf=-0.0999529
booster[59]:
0:[divs<35] yes=1,no=2,missing=1
	1:[citys<2] yes=3,no=4,missing=3
		3:[divs<5] yes=5,no=6,missing=5
			5:[log_froms<2] yes=9,no=10,missing=9
				9:[divs<2] yes=17,no=18,missing=17
					17:leaf=-0.019161
					18:leaf=-0.0645191
				10:[divs<4] yes=19,no=20,missing=19
					19:leaf=-0.0223073
					20:leaf=0.0782484
			6:[divs<13] yes=11,no=12,missing=11
				11:[divs<7] yes=21,no=22,missing=21
					21:leaf=-0.0636525
					22:leaf=-0.0996789
				12:[log_froms<3] yes=23,no=24,missing=23
					23:leaf=-0.0565242
					24:leaf=0.138346
		4:[log_froms<4] yes=7,no=8,missing=7
			7:[log_froms<3] yes=13,no=14,missing=13
				13:[citys<15] yes=25,no=26,missing=25
					25:leaf=0.00207527
					26:leaf=-0.078382
				14:[citys<18] yes=27,no=28,missing=27
					27:leaf=-0.0278205
					28:leaf=0.15375
			8:[citys<4] yes=15,no=16,missing=15
				15:leaf=0.195332
				16:leaf=-0.0817838
	2:leaf=-0.0999172
booster[60]:
0:[divs<35] yes=1,no=2,missing=1
	1:[log_ids<7] yes=3,no=4,missing=3
		3:[log_froms<3] yes=5,no=6,missing=5
			5:[log_froms<2] yes=9,no=10,missing=9
				9:[log_ids<2] yes=17,no=18,missing=17
					17:leaf=0.0822855
					18:leaf=-0.0163373
				10:[log_ids<5] yes=19,no=20,missing=19
					19:leaf=0.00575824
					20:leaf=0.100198
			6:[citys<5] yes=11,no=12,missing=11
				11:[citys<3] yes=21,no=22,missing=21
					21:leaf=-0.0673014
					22:leaf=-0.114592
				12:leaf=-0.0305119
		4:[citys<6] yes=7,no=8,missing=7
			7:[log_ids<32] yes=13,no=14,missing=13
				13:[log_ids<31] yes=23,no=24,missing=23
					23:leaf=-0.00926584
					24:leaf=0.106943
				14:[log_ids<132] yes=25,no=26,missing=25
					25:leaf=-0.0701258
					26:leaf=-0.0109729
			8:[log_ids<12] yes=15,no=16,missing=15
				15:[log_ids<10] yes=27,no=28,missing=27
					27:leaf=0.0133003
					28:leaf=0.148393
				16:[divs<6] yes=29,no=30,missing=29
					29:leaf=-0.0507012
					30:leaf=0.00866822
	2:leaf=-0.0998785
booster[61]:
0:[ips<68] yes=1,no=2,missing=1
	1:[citys<3] yes=3,no=4,missing=3
		3:[ips<61] yes=5,no=6,missing=5
			5:[log_ids<20] yes=9,no=10,missing=9
				9:[ips<10] yes=17,no=18,missing=17
					17:leaf=-0.016157
					18:leaf=0.0547062
				10:[types<3] yes=19,no=20,missing=19
					19:leaf=-0.0857334
					20:leaf=0.0667519
			6:[log_ids<313] yes=11,no=12,missing=11
				11:leaf=0.024532
				12:leaf=0.099895
		4:[log_ids<49] yes=7,no=8,missing=7
			7:[ips<25] yes=13,no=14,missing=13
				13:[ips<21] yes=21,no=22,missing=21
					21:leaf=0.0122441
					22:leaf=-0.0971057
				14:[citys<6] yes=23,no=24,missing=23
					23:leaf=0.148217
					24:leaf=0.0149494
			8:[ips<34] yes=15,no=16,missing=15
				15:[citys<4] yes=25,no=26,missing=25
					25:leaf=-0.0556136
					26:leaf=-0.100415
				16:[types<2] yes=27,no=28,missing=27
					27:leaf=-0.0992493
					28:leaf=0.00952974
	2:leaf=-0.0998522
booster[62]:
0:[ips<68] yes=1,no=2,missing=1
	1:[citys<2] yes=3,no=4,missing=3
		3:[ips<10] yes=5,no=6,missing=5
			5:[ips<3] yes=9,no=10,missing=9
				9:[types<2] yes=17,no=18,missing=17
					17:leaf=-0.00444972
					18:leaf=-0.0743512
				10:[log_froms<2] yes=19,no=20,missing=19
					19:leaf=-0.0954658
					20:leaf=-0.0577815
			6:[ips<11] yes=11,no=12,missing=11
				11:[types<2] yes=21,no=22,missing=21
					21:leaf=-0.0941684
					22:leaf=0.872252
				12:[ips<13] yes=23,no=24,missing=23
					23:leaf=-0.0989874
					24:leaf=-0.01461
		4:[citys<13] yes=7,no=8,missing=7
			7:[ips<7] yes=13,no=14,missing=13
				13:[ips<6] yes=25,no=26,missing=25
					25:leaf=-0.00348111
					26:leaf=0.0555401
				14:[citys<6] yes=27,no=28,missing=27
					27:leaf=-0.0177538
					28:leaf=0.00228571
			8:[ips<44] yes=15,no=16,missing=15
				15:[ips<42] yes=29,no=30,missing=29
					29:leaf=0.0348033
					30:leaf=0.144148
				16:leaf=-0.0980899
	2:leaf=-0.0998108
booster[63]:
0:[ips<68] yes=1,no=2,missing=1
	1:[citys<2] yes=3,no=4,missing=3
		3:[ips<10] yes=5,no=6,missing=5
			5:[ips<3] yes=9,no=10,missing=9
				9:[types<2] yes=17,no=18,missing=17
					17:leaf=-0.00946098
					18:leaf=-0.0721693
				10:[ips<6] yes=19,no=20,missing=19
					19:leaf=-0.0532711
					20:leaf=-0.0916021
			6:[types<2] yes=11,no=12,missing=11
				11:[log_froms<2] yes=21,no=22,missing=21
					21:leaf=-0.00995609
					22:leaf=-0.0993611
				12:[ips<11] yes=23,no=24,missing=23
					23:leaf=0.375278
					24:leaf=0.00871258
		4:[citys<13] yes=7,no=8,missing=7
			7:[log_froms<4] yes=13,no=14,missing=13
				13:[log_froms<3] yes=25,no=26,missing=25
					25:leaf=0.00116214
					26:leaf=-0.0217585
				14:[citys<4] yes=27,no=28,missing=27
					27:leaf=0.173415
					28:leaf=-0.0868485
			8:[ips<29] yes=15,no=16,missing=15
				15:[ips<28] yes=29,no=30,missing=29
					29:leaf=0.0369466
					30:leaf=0.160229
				16:[ips<34] yes=31,no=32,missing=31
					31:leaf=-0.116648
					32:leaf=0.0331058
	2:leaf=-0.0997673
booster[64]:
0:[divs<35] yes=1,no=2,missing=1
	1:[log_ids<7] yes=3,no=4,missing=3
		3:[log_froms<3] yes=5,no=6,missing=5
			5:[log_froms<2] yes=9,no=10,missing=9
				9:[citys<5] yes=17,no=18,missing=17
					17:leaf=-0.0121431
					18:leaf=0.168566
				10:[divs<3] yes=19,no=20,missing=19
					19:leaf=0.0996069
					20:leaf=0.0140447
			6:[citys<3] yes=11,no=12,missing=11
				11:[log_ids<6] yes=21,no=22,missing=21
					21:leaf=0.00426721
					22:leaf=-0.0833045
				12:[citys<5] yes=23,no=24,missing=23
					23:leaf=-0.111555
					24:leaf=-0.0438695
		4:[citys<6] yes=7,no=8,missing=7
			7:[log_ids<32] yes=13,no=14,missing=13
				13:[log_ids<15] yes=25,no=26,missing=25
					25:leaf=-0.031485
					26:leaf=0.0144228
				14:[divs<13] yes=27,no=28,missing=27
					27:leaf=-0.0729569
					28:leaf=-0.0178894
			8:[log_ids<12] yes=15,no=16,missing=15
				15:[divs<3] yes=29,no=30,missing=29
					29:leaf=0.140328
					30:leaf=0.0392489
				16:[divs<6] yes=31,no=32,missing=31
					31:leaf=-0.0547292
					32:leaf=0.00885277
	2:leaf=-0.0997275
booster[65]:
0:[ips<68] yes=1,no=2,missing=1
	1:[citys<2] yes=3,no=4,missing=3
		3:[ips<10] yes=5,no=6,missing=5
			5:[ips<6] yes=9,no=10,missing=9
				9:[log_froms<2] yes=17,no=18,missing=17
					17:leaf=-0.0507839
					18:leaf=-0.00531281
				10:leaf=-0.0941036
			6:[types<2] yes=11,no=12,missing=11
				11:[log_froms<2] yes=19,no=20,missing=19
					19:leaf=0.00599338
					20:leaf=-0.0989427
				12:[ips<11] yes=21,no=22,missing=21
					21:leaf=0.264917
					22:leaf=0.0133124
		4:[citys<13] yes=7,no=8,missing=7
			7:[log_froms<4] yes=13,no=14,missing=13
				13:[log_froms<3] yes=23,no=24,missing=23
					23:leaf=0.00139684
					24:leaf=-0.0222487
				14:[ips<21] yes=25,no=26,missing=25
					25:leaf=0.141138
					26:leaf=-0.0852773
			8:[ips<29] yes=15,no=16,missing=15
				15:[ips<28] yes=27,no=28,missing=27
					27:leaf=0.0351895
					28:leaf=0.150337
				16:[ips<34] yes=29,no=30,missing=29
					29:leaf=-0.114102
					30:leaf=0.0281988
	2:leaf=-0.099682
booster[66]:
0:[ips<68] yes=1,no=2,missing=1
	1:[log_ids<23] yes=3,no=4,missing=3
		3:[log_froms<2] yes=5,no=6,missing=5
			5:[log_ids<9] yes=9,no=10,missing=9
				9:[citys<8] yes=17,no=18,missing=17
					17:leaf=-0.0116751
					18:leaf=0.220431
				10:[ips<8] yes=19,no=20,missing=19
					19:leaf=-0.100928
					20:leaf=-0.00782173
			6:[ips<14] yes=11,no=12,missing=11
				11:[log_ids<21] yes=21,no=22,missing=21
					21:leaf=0.0139905
					22:leaf=-0.083456
				12:[log_ids<22] yes=23,no=24,missing=23
					23:leaf=-0.00503961
					24:leaf=0.179365
		4:[ips<12] yes=7,no=8,missing=7
			7:[ips<7] yes=13,no=14,missing=13
				13:[ips<4] yes=25,no=26,missing=25
					25:leaf=-0.0976809
					26:leaf=-0.00873695
				14:leaf=-0.102604
			8:[log_froms<2] yes=15,no=16,missing=15
				15:[log_ids<25] yes=27,no=28,missing=27
					27:leaf=0.978707
					28:leaf=-0.035524
				16:[log_ids<26] yes=29,no=30,missing=29
					29:leaf=-0.0979045
					30:leaf=-0.0013651
	2:leaf=-0.0996316
booster[67]:
0:[divs<35] yes=1,no=2,missing=1
	1:[ips<68] yes=3,no=4,missing=3
		3:[citys<2] yes=5,no=6,missing=5
			5:[divs<5] yes=7,no=8,missing=7
				7:[ips<10] yes=11,no=12,missing=11
					11:leaf=-0.0356083
					12:leaf=0.0647199
				8:[divs<13] yes=13,no=14,missing=13
					13:leaf=-0.0772507
					14:leaf=0.0348931
			6:[citys<13] yes=9,no=10,missing=9
				9:[ips<62] yes=15,no=16,missing=15
					15:leaf=-0.00287347
					16:leaf=0.0302229
				10:[citys<19] yes=17,no=18,missing=17
					17:leaf=0.036752
					18:leaf=-0.100731
		4:leaf=-0.0969964
	2:leaf=-0.0995926
booster[68]:
0:[ips<68] yes=1,no=2,missing=1
	1:[log_ids<11] yes=3,no=4,missing=3
		3:[ips<10] yes=5,no=6,missing=5
			5:[ips<7] yes=9,no=10,missing=9
				9:[ips<5] yes=15,no=16,missing=15
					15:leaf=-0.00789824
					16:leaf=0.068716
				10:[citys<8] yes=17,no=18,missing=17
					17:leaf=-0.0566666
					18:leaf=0.089678
			6:[citys<6] yes=11,no=12,missing=11
				11:leaf=-0.0981708
				12:leaf=0.272633
		4:[ips<4] yes=7,no=8,missing=7
			7:leaf=-0.100445
			8:[ips<5] yes=13,no=14,missing=13
				13:[log_ids<16] yes=19,no=20,missing=19
					19:leaf=-0.0512642
					20:leaf=0.216545
				14:[types<2] yes=21,no=22,missing=21
					21:leaf=-0.0277796
					22:leaf=0.00480145
	2:leaf=-0.0995185
booster[69]:
0:[ips<68] yes=1,no=2,missing=1
	1:[citys<2] yes=3,no=4,missing=3
		3:[log_froms<2] yes=5,no=6,missing=5
			5:[ips<14] yes=9,no=10,missing=9
				9:[ips<3] yes=17,no=18,missing=17
					17:leaf=-0.0228383
					18:leaf=-0.0973678
				10:[ips<19] yes=19,no=20,missing=19
					19:leaf=0.0944561
					20:leaf=-0.0882977
			6:[ips<3] yes=11,no=12,missing=11
				11:[types<2] yes=21,no=22,missing=21
					21:leaf=0.0711118
					22:leaf=-0.0636864
				12:[types<2] yes=23,no=24,missing=23
					23:leaf=-0.0614746
					24:leaf=0.020143
		4:[ips<62] yes=7,no=8,missing=7
			7:[citys<3] yes=13,no=14,missing=13
				13:[ips<12] yes=25,no=26,missing=25
					25:leaf=0.000297688
					26:leaf=-0.082915
				14:[ips<7] yes=27,no=28,missing=27
					27:leaf=0.0211009
					28:leaf=-0.00206856
			8:[citys<3] yes=15,no=16,missing=15
				15:[ips<65] yes=29,no=30,missing=29
					29:leaf=0.0992301
					30:leaf=0.0284512
				16:leaf=-0.0957153
	2:leaf=-0.0994537
booster[70]:
0:[divs<35] yes=1,no=2,missing=1
	1:[log_froms<4] yes=3,no=4,missing=3
		3:[types<3] yes=5,no=6,missing=5
			5:[citys<6] yes=9,no=10,missing=9
				9:[divs<9] yes=15,no=16,missing=15
					15:leaf=0.000203099
					16:leaf=-0.0329999
				10:[log_froms<2] yes=17,no=18,missing=17
					17:leaf=-0.0682526
					18:leaf=0.00906464
			6:[log_froms<3] yes=11,no=12,missing=11
				11:[divs<6] yes=19,no=20,missing=19
					19:leaf=-0.0726624
					20:leaf=0.148989
				12:[citys<11] yes=21,no=22,missing=21
					21:leaf=-0.104966
					22:leaf=-0.0150361
		4:[divs<24] yes=7,no=8,missing=7
			7:[divs<21] yes=13,no=14,missing=13
				13:[divs<10] yes=23,no=24,missing=23
					23:leaf=0.038196
					24:leaf=-0.0816032
				14:leaf=0.21995
			8:leaf=-0.0905269
	2:leaf=-0.0994304
booster[71]:
0:[divs<35] yes=1,no=2,missing=1
	1:[ips<68] yes=3,no=4,missing=3
		3:[log_froms<4] yes=5,no=6,missing=5
			5:[ips<62] yes=7,no=8,missing=7
				7:[divs<29] yes=11,no=12,missing=11
					11:leaf=-0.00595107
					12:leaf=0.00994147
				8:[divs<31] yes=13,no=14,missing=13
					13:leaf=0.0129983
					14:leaf=0.0988265
			6:[divs<24] yes=9,no=10,missing=9
				9:[divs<21] yes=15,no=16,missing=15
					15:leaf=0.00804297
					16:leaf=0.19535
				10:leaf=-0.0889961
		4:leaf=-0.0959016
	2:leaf=-0.0993566
booster[72]:
0:[divs<35] yes=1,no=2,missing=1
	1:[log_ids<49] yes=3,no=4,missing=3
		3:[ips<25] yes=5,no=6,missing=5
			5:[ips<21] yes=9,no=10,missing=9
				9:[ips<14] yes=15,no=16,missing=15
					15:leaf=-0.00237772
					16:leaf=0.0278241
				10:[log_ids<25] yes=17,no=18,missing=17
					17:leaf=0.140692
					18:leaf=-0.108777
			6:[divs<8] yes=11,no=12,missing=11
				11:[log_ids<48] yes=19,no=20,missing=19
					19:leaf=0.0819219
					20:leaf=0.416728
				12:[ips<32] yes=21,no=22,missing=21
					21:leaf=-0.106627
					22:leaf=0.128836
		4:[types<2] yes=7,no=8,missing=7
			7:leaf=-0.0998777
			8:[ips<34] yes=13,no=14,missing=13
				13:[divs<23] yes=23,no=24,missing=23
					23:leaf=-0.0999217
					24:leaf=-0.00780674
				14:[ips<35] yes=25,no=26,missing=25
					25:leaf=0.114492
					26:leaf=0.000600555
	2:leaf=-0.099278
booster[73]:
0:[divs<35] yes=1,no=2,missing=1
	1:[log_ids<45] yes=3,no=4,missing=3
		3:[log_ids<43] yes=5,no=6,missing=5
			5:[ips<29] yes=9,no=10,missing=9
				9:[ips<25] yes=17,no=18,missing=17
					17:leaf=0.000669235
					18:leaf=0.0605601
				10:leaf=-0.108009
			6:[divs<9] yes=11,no=12,missing=11
				11:leaf=-0.0982568
				12:[divs<10] yes=19,no=20,missing=19
					19:leaf=0.151441
					20:leaf=0.0531925
		4:[ips<30] yes=7,no=8,missing=7
			7:[divs<23] yes=13,no=14,missing=13
				13:leaf=-0.100515
				14:[divs<24] yes=21,no=22,missing=21
					21:leaf=0.0716064
					22:leaf=-0.0983106
			8:[ips<35] yes=15,no=16,missing=15
				15:[divs<5] yes=23,no=24,missing=23
					23:leaf=0.235954
					24:leaf=0.0385759
				16:[types<2] yes=25,no=26,missing=25
					25:leaf=-0.0993016
					26:leaf=-0.000433505
	2:leaf=-0.0991921
booster[74]:
0:[ips<68] yes=1,no=2,missing=1
	1:[log_ids<7] yes=3,no=4,missing=3
		3:[log_froms<3] yes=5,no=6,missing=5
			5:[ips<5] yes=9,no=10,missing=9
				9:[ips<4] yes=17,no=18,missing=17
					17:leaf=0.03335
					18:leaf=-0.029038
				10:[types<3] yes=19,no=20,missing=19
					19:leaf=0.0890909
					20:leaf=-0.114031
			6:[types<3] yes=11,no=12,missing=11
				11:[ips<4] yes=21,no=22,missing=21
					21:leaf=-0.0853259
					22:leaf=-0.0388502
				12:leaf=-0.10715
		4:[ips<4] yes=7,no=8,missing=7
			7:[log_ids<8] yes=13,no=14,missing=13
				13:[ips<3] yes=23,no=24,missing=23
					23:leaf=0.0543622
					24:leaf=-0.0886363
				14:leaf=-0.100483
			8:[log_ids<49] yes=15,no=16,missing=15
				15:[ips<14] yes=25,no=26,missing=25
					25:leaf=-0.00471245
					26:leaf=0.0193384
				16:[types<2] yes=27,no=28,missing=27
					27:leaf=-0.0996928
					28:leaf=-0.00022513
	2:leaf=-0.0990868
booster[75]:
0:[ips<68] yes=1,no=2,missing=1
	1:[ips<62] yes=3,no=4,missing=3
		3:[citys<3] yes=5,no=6,missing=5
			5:[ips<23] yes=9,no=10,missing=9
				9:[ips<20] yes=15,no=16,missing=15
					15:leaf=-0.01686
					16:leaf=0.232213
				10:leaf=-0.098393
			6:[ips<20] yes=11,no=12,missing=11
				11:[ips<16] yes=17,no=18,missing=17
					17:leaf=-0.000707457
					18:leaf=0.049205
				12:[ips<25] yes=19,no=20,missing=19
					19:leaf=-0.0787834
					20:leaf=0.00375389
		4:[citys<3] yes=7,no=8,missing=7
			7:[ips<65] yes=13,no=14,missing=13
				13:leaf=0.093252
				14:leaf=0.023853
			8:leaf=-0.094362
	2:leaf=-0.0989804
booster[76]:
0:[divs<35] yes=1,no=2,missing=1
	1:[log_ids<23] yes=3,no=4,missing=3
		3:[log_froms<2] yes=5,no=6,missing=5
			5:[divs<10] yes=9,no=10,missing=9
				9:[log_ids<9] yes=17,no=18,missing=17
					17:leaf=0.00305126
					18:leaf=-0.0512511
				10:[citys<3] yes=19,no=20,missing=19
					19:leaf=0.452305
					20:leaf=-0.0837784
			6:[log_ids<15] yes=11,no=12,missing=11
				11:[log_ids<12] yes=21,no=22,missing=21
					21:leaf=0.0201173
					22:leaf=-0.0710333
				12:[divs<9] yes=23,no=24,missing=23
					23:leaf=0.0473585
					24:leaf=-0.0335048
		4:[divs<12] yes=7,no=8,missing=7
			7:[log_ids<49] yes=13,no=14,missing=13
				13:[log_ids<48] yes=25,no=26,missing=25
					25:leaf=-0.0207542
					26:leaf=0.156699
				14:leaf=-0.099649
			8:[log_ids<27] yes=15,no=16,missing=15
				15:leaf=-0.103304
				16:[log_ids<28] yes=27,no=28,missing=27
					27:leaf=0.248824
					28:leaf=-0.000542648
	2:leaf=-0.0989246
booster[77]:
0:[ips<68] yes=1,no=2,missing=1
	1:[log_ids<12] yes=3,no=4,missing=3
		3:[ips<10] yes=5,no=6,missing=5
			5:[ips<7] yes=9,no=10,missing=9
				9:[ips<5] yes=17,no=18,missing=17
					17:leaf=-0.00865081
					18:leaf=0.0435083
				10:[citys<5] yes=19,no=20,missing=19
					19:leaf=0.0544361
					20:leaf=-0.0646554
			6:[citys<6] yes=11,no=12,missing=11
				11:leaf=-0.101469
				12:[citys<7] yes=21,no=22,missing=21
					21:leaf=0.286913
					22:leaf=0.115927
		4:[log_ids<14] yes=7,no=8,missing=7
			7:[types<2] yes=13,no=14,missing=13
				13:[ips<11] yes=23,no=24,missing=23
					23:leaf=-0.0559589
					24:leaf=0.0572509
				14:leaf=-0.104776
			8:[ips<4] yes=15,no=16,missing=15
				15:leaf=-0.0997879
				16:[ips<5] yes=25,no=26,missing=25
					25:leaf=0.126665
					26:leaf=-0.00336916
	2:leaf=-0.0987702
booster[78]:
0:[divs<35] yes=1,no=2,missing=1
	1:[ips<68] yes=3,no=4,missing=3
		3:[citys<19] yes=5,no=6,missing=5
			5:[citys<18] yes=7,no=8,missing=7
				7:[ips<62] yes=9,no=10,missing=9
					9:leaf=-0.00208978
					10:leaf=0.0206663
				8:leaf=0.13247
			6:leaf=-0.0987232
		4:leaf=-0.0933529
	2:leaf=-0.0987081
booster[79]:
0:[log_ids<511] yes=1,no=2,missing=1
	1:[log_ids<45] yes=3,no=4,missing=3
		3:[log_ids<43] yes=5,no=6,missing=5
			5:[log_ids<32] yes=9,no=10,missing=9
				9:[log_ids<31] yes=17,no=18,missing=17
					17:leaf=0.00197892
					18:leaf=0.060748
				10:[citys<11] yes=19,no=20,missing=19
					19:leaf=-0.0577532
					20:leaf=0.0678015
			6:[citys<6] yes=11,no=12,missing=11
				11:leaf=-0.0958662
				12:[log_ids<44] yes=21,no=22,missing=21
					21:leaf=0.132491
					22:leaf=0.0717848
		4:[types<2] yes=7,no=8,missing=7
			7:[log_froms<2] yes=13,no=14,missing=13
				13:[log_ids<49] yes=23,no=24,missing=23
					23:leaf=0.182778
					24:leaf=-0.0949381
				14:leaf=-0.100091
			8:[log_ids<97] yes=15,no=16,missing=15
				15:[log_froms<4] yes=25,no=26,missing=25
					25:leaf=-0.0801829
					26:leaf=0.0689565
				16:[log_ids<99] yes=27,no=28,missing=27
					27:leaf=0.0756723
					28:leaf=-0.00275464
	2:leaf=-0.0981551
booster[80]:
0:[divs<35] yes=1,no=2,missing=1
	1:[log_froms<4] yes=3,no=4,missing=3
		3:[types<3] yes=5,no=6,missing=5
			5:[citys<13] yes=9,no=10,missing=9
				9:[divs<29] yes=15,no=16,missing=15
					15:leaf=-0.00476646
					16:leaf=0.00923741
				10:[citys<19] yes=17,no=18,missing=17
					17:leaf=0.0267668
					18:leaf=-0.0962172
			6:[log_froms<3] yes=11,no=12,missing=11
				11:[divs<6] yes=19,no=20,missing=19
					19:leaf=-0.0749032
					20:leaf=0.116859
				12:[citys<11] yes=21,no=22,missing=21
					21:leaf=-0.104073
					22:leaf=0.0217942
		4:[divs<24] yes=7,no=8,missing=7
			7:[divs<21] yes=13,no=14,missing=13
				13:[types<3] yes=23,no=24,missing=23
					23:leaf=-0.0832728
					24:leaf=0.144863
				14:leaf=0.162039
			8:leaf=-0.0866137
	2:leaf=-0.0984354
booster[81]:
0:[divs<35] yes=1,no=2,missing=1
	1:[ips<68] yes=3,no=4,missing=3
		3:[log_froms<4] yes=5,no=6,missing=5
			5:[ips<62] yes=7,no=8,missing=7
				7:[citys<3] yes=11,no=12,missing=11
					11:leaf=-0.0149254
					12:leaf=0.00123367
				8:[citys<4] yes=13,no=14,missing=13
					13:leaf=0.0264467
					14:leaf=-0.0929762
			6:[ips<17] yes=9,no=10,missing=9
				9:[ips<9] yes=15,no=16,missing=15
					15:leaf=0.13287
					16:leaf=-0.0890467
				10:leaf=0.105867
		4:leaf=-0.0924465
	2:leaf=-0.09827
booster[82]:
0:[ips<68] yes=1,no=2,missing=1
	1:[log_ids<7] yes=3,no=4,missing=3
		3:[ips<6] yes=5,no=6,missing=5
			5:[log_froms<3] yes=9,no=10,missing=9
				9:[ips<5] yes=17,no=18,missing=17
					17:leaf=0.00876494
					18:leaf=0.045789
				10:[types<3] yes=19,no=20,missing=19
					19:leaf=-0.0563754
					20:leaf=-0.101965
			6:[types<2] yes=11,no=12,missing=11
				11:leaf=0.123938
				12:leaf=0.0348435
		4:[ips<4] yes=7,no=8,missing=7
			7:[log_ids<8] yes=13,no=14,missing=13
				13:[ips<3] yes=21,no=22,missing=21
					21:leaf=-0.00278543
					22:leaf=-0.0868814
				14:leaf=-0.100219
			8:[log_ids<8] yes=15,no=16,missing=15
				15:[ips<7] yes=23,no=24,missing=23
					23:leaf=-0.0936278
					24:leaf=0.0972564
				16:[ips<5] yes=25,no=26,missing=25
					25:leaf=0.0601065
					26:leaf=-0.00104139
	2:leaf=-0.0980408
booster[83]:
0:[divs<35] yes=1,no=2,missing=1
	1:[log_ids<23] yes=3,no=4,missing=3
		3:[log_froms<2] yes=5,no=6,missing=5
			5:[divs<10] yes=9,no=10,missing=9
				9:[log_ids<9] yes=15,no=16,missing=15
					15:leaf=-0.00232756
					16:leaf=-0.0500377
				10:[divs<14] yes=17,no=18,missing=17
					17:leaf=0.44732
					18:leaf=-0.0896583
			6:[divs<9] yes=11,no=12,missing=11
				11:[log_ids<19] yes=19,no=20,missing=19
					19:leaf=0.00903365
					20:leaf=0.071139
				12:[citys<2] yes=21,no=22,missing=21
					21:leaf=0.211604
					22:leaf=-0.0527093
		4:[divs<3] yes=7,no=8,missing=7
			7:leaf=-0.102082
			8:[divs<4] yes=13,no=14,missing=13
				13:[log_ids<28] yes=23,no=24,missing=23
					23:leaf=0.191456
					24:leaf=-0.00177767
				14:[divs<7] yes=25,no=26,missing=25
					25:leaf=-0.0555937
					26:leaf=-0.00272164
	2:leaf=-0.0979442
booster[84]:
0:[divs<35] yes=1,no=2,missing=1
	1:[types<3] yes=3,no=4,missing=3
		3:[ips<68] yes=5,no=6,missing=5
			5:[citys<19] yes=9,no=10,missing=9
				9:[citys<18] yes=15,no=16,missing=15
					15:leaf=-0.000297271
					16:leaf=0.126269
				10:leaf=-0.0944177
			6:leaf=-0.0908472
		4:[ips<10] yes=7,no=8,missing=7
			7:[ips<9] yes=11,no=12,missing=11
				11:[divs<9] yes=17,no=18,missing=17
					17:leaf=-0.0755938
					18:leaf=0.356604
				12:leaf=0.305014
			8:[citys<11] yes=13,no=14,missing=13
				13:leaf=-0.101512
				14:leaf=0.016752
	2:leaf=-0.0977309
booster[85]:
0:[log_ids<45] yes=1,no=2,missing=1
	1:[log_ids<43] yes=3,no=4,missing=3
		3:[log_ids<32] yes=7,no=8,missing=7
			7:[log_ids<31] yes=15,no=16,missing=15
				15:[log_ids<25] yes=27,no=28,missing=27
					27:leaf=0.00721166
					28:leaf=-0.0181985
				16:[citys<5] yes=29,no=30,missing=29
					29:leaf=-0.0989144
					30:leaf=0.115378
			8:[citys<11] yes=17,no=18,missing=17
				17:[types<3] yes=31,no=32,missing=31
					31:leaf=-0.0666305
					32:leaf=0.212829
				18:[types<2] yes=33,no=34,missing=33
					33:leaf=0.143725
					34:leaf=-0.113329
		4:[citys<6] yes=9,no=10,missing=9
			9:leaf=-0.0945233
			10:[log_froms<3] yes=19,no=20,missing=19
				19:[log_ids<44] yes=35,no=36,missing=35
					35:leaf=0.138345
					36:leaf=0.0633635
				20:leaf=-0.0939343
	2:[types<2] yes=5,no=6,missing=5
		5:[log_froms<2] yes=11,no=12,missing=11
			11:[log_ids<49] yes=21,no=22,missing=21
				21:leaf=0.141796
				22:leaf=-0.0938748
			12:leaf=-0.0999525
		6:[log_ids<97] yes=13,no=14,missing=13
			13:[log_froms<4] yes=23,no=24,missing=23
				23:[citys<10] yes=37,no=38,missing=37
					37:leaf=-0.0997508
					38:leaf=0.0135443
				24:[log_ids<60] yes=39,no=40,missing=39
					39:leaf=-0.0881182
					40:leaf=0.102667
			14:[log_ids<99] yes=25,no=26,missing=25
				25:leaf=0.0769215
				26:[log_froms<4] yes=41,no=42,missing=41
					41:leaf=-0.00517172
					42:leaf=-0.0968111
booster[86]:
0:[ips<68] yes=1,no=2,missing=1
	1:[log_ids<7] yes=3,no=4,missing=3
		3:[log_froms<3] yes=5,no=6,missing=5
			5:[ips<5] yes=9,no=10,missing=9
				9:[ips<4] yes=17,no=18,missing=17
					17:leaf=0.0300313
					18:leaf=-0.0303441
				10:[types<3] yes=19,no=20,missing=19
					19:leaf=0.0693031
					20:leaf=-0.106976
			6:[ips<5] yes=11,no=12,missing=11
				11:[ips<4] yes=21,no=22,missing=21
					21:leaf=-0.0837313
					22:leaf=0.0113873
				12:leaf=-0.0813202
		4:[ips<4] yes=7,no=8,missing=7
			7:[log_ids<8] yes=13,no=14,missing=13
				13:[ips<3] yes=23,no=24,missing=23
					23:leaf=0.0386819
					24:leaf=-0.0858804
				14:leaf=-0.0999791
			8:[log_ids<49] yes=15,no=16,missing=15
				15:[log_ids<8] yes=25,no=26,missing=25
					25:leaf=-0.0531449
					26:leaf=0.00800604
				16:[ips<34] yes=27,no=28,missing=27
					27:leaf=-0.0844432
					28:leaf=0.00165155
	2:leaf=-0.0972157
booster[87]:
0:[divs<35] yes=1,no=2,missing=1
	1:[log_ids<460] yes=3,no=4,missing=3
		3:[log_ids<49] yes=5,no=6,missing=5
			5:[ips<14] yes=7,no=8,missing=7
				7:[log_ids<21] yes=11,no=12,missing=11
					11:leaf=0.00499023
					12:leaf=-0.0439042
				8:[log_ids<28] yes=13,no=14,missing=13
					13:leaf=0.0395769
					14:leaf=-0.000243005
			6:[divs<14] yes=9,no=10,missing=9
				9:leaf=-0.0993788
				10:[ips<34] yes=15,no=16,missing=15
					15:leaf=-0.0632675
					16:leaf=0.00440934
		4:leaf=0.0921182
	2:leaf=-0.0970656
booster[88]:
0:[ips<68] yes=1,no=2,missing=1
	1:[log_ids<464] yes=3,no=4,missing=3
		3:[log_ids<49] yes=5,no=6,missing=5
			5:[ips<25] yes=7,no=8,missing=7
				7:[ips<23] yes=11,no=12,missing=11
					11:leaf=0.00127988
					12:leaf=-0.104413
				8:[ips<26] yes=13,no=14,missing=13
					13:leaf=0.116484
					14:leaf=0.00957613
			6:[ips<34] yes=9,no=10,missing=9
				9:[log_froms<4] yes=15,no=16,missing=15
					15:leaf=-0.0996782
					16:leaf=0.106009
				10:[ips<35] yes=17,no=18,missing=17
					17:leaf=0.0673217
					18:leaf=-0.00579122
		4:leaf=0.0933857
	2:leaf=-0.0967048
booster[89]:
0:[divs<35] yes=1,no=2,missing=1
	1:[log_froms<4] yes=3,no=4,missing=3
		3:[types<3] yes=5,no=6,missing=5
			5:[citys<6] yes=9,no=10,missing=9
				9:[divs<9] yes=15,no=16,missing=15
					15:leaf=0.00228581
					16:leaf=-0.0245521
				10:[log_froms<2] yes=17,no=18,missing=17
					17:leaf=-0.0551321
					18:leaf=0.00861877
			6:[log_froms<3] yes=11,no=12,missing=11
				11:[divs<13] yes=19,no=20,missing=19
					19:leaf=-0.00118199
					20:leaf=0.272832
				12:[citys<11] yes=21,no=22,missing=21
					21:leaf=-0.102942
					22:leaf=0.0210319
		4:[divs<7] yes=7,no=8,missing=7
			7:leaf=0.172532
			8:[divs<21] yes=13,no=14,missing=13
				13:leaf=-0.0839009
				14:leaf=0.0953119
	2:leaf=-0.0965432
booster[90]:
0:[divs<35] yes=1,no=2,missing=1
	1:[citys<19] yes=3,no=4,missing=3
		3:[citys<18] yes=5,no=6,missing=5
			5:[log_froms<3] yes=7,no=8,missing=7
				7:[divs<17] yes=9,no=10,missing=9
					9:leaf=0.00483981
					10:leaf=-0.00978769
				8:[divs<4] yes=11,no=12,missing=11
					11:leaf=0.113015
					12:leaf=-0.0194624
			6:leaf=0.121717
		4:leaf=-0.0936595
	2:leaf=-0.0962073
booster[91]:
0:[ips<68] yes=1,no=2,missing=1
	1:[log_ids<464] yes=3,no=4,missing=3
		3:[log_ids<11] yes=5,no=6,missing=5
			5:[ips<10] yes=7,no=8,missing=7
				7:[citys<8] yes=11,no=12,missing=11
					11:leaf=0.00258148
					12:leaf=0.0984426
				8:[citys<6] yes=13,no=14,missing=13
					13:leaf=-0.0938689
					14:leaf=0.197558
			6:[log_ids<15] yes=9,no=10,missing=9
				9:[divs<5] yes=15,no=16,missing=15
					15:leaf=-0.00957038
					16:leaf=-0.0887395
				10:[log_ids<17] yes=17,no=18,missing=17
					17:leaf=0.0386863
					18:leaf=-0.0033385
		4:leaf=0.092878
	2:leaf=-0.0958631
booster[92]:
0:[ips<68] yes=1,no=2,missing=1
	1:[ips<62] yes=3,no=4,missing=3
		3:[citys<3] yes=5,no=6,missing=5
			5:[ips<15] yes=9,no=10,missing=9
				9:[ips<7] yes=15,no=16,missing=15
					15:leaf=-0.01548
					16:leaf=0.0118109
				10:[ips<18] yes=17,no=18,missing=17
					17:leaf=-0.10059
					18:leaf=-0.0246407
			6:[ips<7] yes=11,no=12,missing=11
				11:[log_froms<2] yes=19,no=20,missing=19
					19:leaf=-0.064859
					20:leaf=0.0276354
				12:[ips<9] yes=21,no=22,missing=21
					21:leaf=-0.0466093
					22:leaf=0.00222779
		4:[citys<3] yes=7,no=8,missing=7
			7:[ips<65] yes=13,no=14,missing=13
				13:leaf=0.0912469
				14:leaf=0.020171
			8:leaf=-0.0921283
	2:leaf=-0.095446
booster[93]:
0:[divs<35] yes=1,no=2,missing=1
	1:[ips<62] yes=3,no=4,missing=3
		3:[citys<3] yes=5,no=6,missing=5
			5:[ips<23] yes=9,no=10,missing=9
				9:[ips<20] yes=15,no=16,missing=15
					15:leaf=-0.00988859
					16:leaf=0.263347
				10:leaf=-0.0972335
			6:[divs<3] yes=11,no=12,missing=11
				11:[types<2] yes=17,no=18,missing=17
					17:leaf=0.0547567
					18:leaf=-0.0268446
				12:[ips<14] yes=19,no=20,missing=19
					19:leaf=-0.0122501
					20:leaf=0.00689597
		4:[citys<3] yes=7,no=8,missing=7
			7:[divs<26] yes=13,no=14,missing=13
				13:leaf=0.0232246
				14:leaf=0.0898533
			8:leaf=-0.0938798
	2:leaf=-0.0952768
booster[94]:
0:[divs<35] yes=1,no=2,missing=1
	1:[log_ids<7] yes=3,no=4,missing=3
		3:[ips<6] yes=5,no=6,missing=5
			5:[divs<3] yes=9,no=10,missing=9
				9:[log_froms<2] yes=17,no=18,missing=17
					17:leaf=-0.00869416
					18:leaf=0.0608236
				10:[ips<3] yes=19,no=20,missing=19
					19:leaf=0.0515183
					20:leaf=-0.0182485
			6:[divs<2] yes=11,no=12,missing=11
				11:[log_froms<2] yes=21,no=22,missing=21
					21:leaf=-0.0881434
					22:leaf=0.0103966
				12:[divs<4] yes=23,no=24,missing=23
					23:leaf=0.0817084
					24:leaf=0.123032
		4:[ips<4] yes=7,no=8,missing=7
			7:[log_ids<8] yes=13,no=14,missing=13
				13:[divs<3] yes=25,no=26,missing=25
					25:leaf=-0.0881147
					26:leaf=0.0569054
				14:leaf=-0.0997078
			8:[log_ids<8] yes=15,no=16,missing=15
				15:[ips<7] yes=27,no=28,missing=27
					27:leaf=-0.0860266
					28:leaf=0.104816
				16:[ips<5] yes=29,no=30,missing=29
					29:leaf=0.0465596
					30:leaf=0.000348407
	2:leaf=-0.0948263
booster[95]:
0:[divs<35] yes=1,no=2,missing=1
	1:[log_ids<2] yes=3,no=4,missing=3
		3:leaf=0.0918609
		4:[ips<2] yes=5,no=6,missing=5
			5:[log_ids<5] yes=7,no=8,missing=7
				7:leaf=-0.0842466
				8:[log_ids<8] yes=11,no=12,missing=11
					11:leaf=0.0408364
					12:leaf=-0.0910254
			6:[log_ids<12] yes=9,no=10,missing=9
				9:[ips<10] yes=13,no=14,missing=13
					13:leaf=0.00249256
					14:leaf=0.137732
				10:[log_ids<14] yes=15,no=16,missing=15
					15:leaf=-0.0817193
					16:leaf=0.00138822
	2:leaf=-0.0943228
booster[96]:
0:[ips<68] yes=1,no=2,missing=1
	1:[log_ids<464] yes=3,no=4,missing=3
		3:[log_ids<49] yes=5,no=6,missing=5
			5:[log_ids<43] yes=7,no=8,missing=7
				7:[ips<29] yes=11,no=12,missing=11
					11:leaf=0.00146432
					12:leaf=-0.106789
				8:[log_froms<3] yes=13,no=14,missing=13
					13:leaf=0.0561708
					14:leaf=-0.0997761
			6:[ips<34] yes=9,no=10,missing=9
				9:[log_froms<4] yes=15,no=16,missing=15
					15:leaf=-0.0995444
					16:leaf=0.0903556
				10:[ips<35] yes=17,no=18,missing=17
					17:leaf=0.0725856
					18:leaf=-0.00668926
		4:leaf=0.0907649
	2:leaf=-0.0938852
booster[97]:
0:[ips<68] yes=1,no=2,missing=1
	1:[log_ids<464] yes=3,no=4,missing=3
		3:[log_ids<21] yes=5,no=6,missing=5
			5:[ips<15] yes=7,no=8,missing=7
				7:[log_ids<15] yes=11,no=12,missing=11
					11:leaf=-0.0017639
					12:leaf=0.030476
				8:[ips<18] yes=13,no=14,missing=13
					13:leaf=-0.0693438
					14:leaf=0.041953
			6:[ips<12] yes=9,no=10,missing=9
				9:[ips<7] yes=15,no=16,missing=15
					15:leaf=-0.0223304
					16:leaf=-0.1024
				10:[log_ids<25] yes=17,no=18,missing=17
					17:leaf=0.0419467
					18:leaf=-0.00164761
		4:leaf=0.0895419
	2:leaf=-0.0933519
booster[98]:
0:[log_ids<7] yes=1,no=2,missing=1
	1:[divs<3] yes=3,no=4,missing=3
		3:[log_ids<5] yes=7,no=8,missing=7
			7:[ips<4] yes=15,no=16,missing=15
				15:[ips<3] yes=29,no=30,missing=29
					29:leaf=-0.00596148
					30:leaf=0.108228
				16:[divs<2] yes=31,no=32,missing=31
					31:leaf=-0.0368482
					32:leaf=-0.0751633
			8:[divs<2] yes=17,no=18,missing=17
				17:[log_ids<6] yes=33,no=34,missing=33
					33:leaf=0.0298101
					34:leaf=-0.0722002
				18:[log_froms<3] yes=35,no=36,missing=35
					35:leaf=0.0975675
					36:leaf=-0.0925286
		4:[ips<6] yes=9,no=10,missing=9
			9:[ips<3] yes=19,no=20,missing=19
				19:[log_ids<6] yes=37,no=38,missing=37
					37:leaf=0.0667309
					38:leaf=-0.0254158
				20:[ips<5] yes=39,no=40,missing=39
					39:leaf=-0.0358608
					40:leaf=0.0142177
			10:[divs<4] yes=21,no=22,missing=21
				21:leaf=0.00182742
				22:leaf=0.101962
	2:[ips<4] yes=5,no=6,missing=5
		5:[ips<2] yes=11,no=12,missing=11
			11:[log_ids<9] yes=23,no=24,missing=23
				23:leaf=0.121116
				24:leaf=-0.0887771
			12:leaf=-0.0993949
		6:[log_ids<8] yes=13,no=14,missing=13
			13:[ips<7] yes=25,no=26,missing=25
				25:[ips<6] yes=41,no=42,missing=41
					41:leaf=-0.0459716
					42:leaf=-0.115531
				26:[divs<5] yes=43,no=44,missing=43
					43:leaf=0.144044
					44:leaf=-0.0876331
			14:[ips<5] yes=27,no=28,missing=27
				27:[log_ids<16] yes=45,no=46,missing=45
					45:leaf=-0.0557877
					46:leaf=0.141741
				28:[ips<6] yes=47,no=48,missing=47
					47:leaf=-0.0500979
					48:leaf=0.000797042
booster[99]:
0:[divs<35] yes=1,no=2,missing=1
	1:[log_froms<4] yes=3,no=4,missing=3
		3:[log_froms<3] yes=5,no=6,missing=5
			5:[citys<15] yes=9,no=10,missing=9
				9:[citys<13] yes=15,no=16,missing=15
					15:leaf=-8.82037e-005
					16:leaf=0.0518891
				10:[divs<21] yes=17,no=18,missing=17
					17:leaf=-0.0845141
					18:leaf=0.0592298
			6:[divs<4] yes=11,no=12,missing=11
				11:[types<2] yes=19,no=20,missing=19
					19:leaf=0.36928
					20:leaf=-0.00753685
				12:[citys<16] yes=21,no=22,missing=21
					21:leaf=-0.0287244
					22:leaf=0.0422687
		4:[divs<7] yes=7,no=8,missing=7
			7:leaf=0.14064
			8:[divs<21] yes=13,no=14,missing=13
				13:leaf=-0.0826139
				14:leaf=0.0934364
	2:leaf=-0.0930479
booster[100]:
0:[divs<35] yes=1,no=2,missing=1
	1:[log_froms<4] yes=3,no=4,missing=3
		3:[types<3] yes=5,no=6,missing=5
			5:[citys<13] yes=9,no=10,missing=9
				9:[divs<29] yes=15,no=16,missing=15
					15:leaf=-0.00322779
					16:leaf=0.00702598
				10:[log_froms<2] yes=17,no=18,missing=17
					17:leaf=-0.107491
					18:leaf=0.0234456
			6:[log_froms<3] yes=11,no=12,missing=11
				11:[citys<5] yes=19,no=20,missing=19
					19:leaf=0.0816951
					20:leaf=-0.102596
				12:[citys<11] yes=21,no=22,missing=21
					21:leaf=-0.10254
					22:leaf=0.00920644
		4:[divs<7] yes=7,no=8,missing=7
			7:leaf=0.133345
			8:[divs<21] yes=13,no=14,missing=13
				13:leaf=-0.0817897
				14:leaf=0.0828357
	2:leaf=-0.0924424
booster[101]:
0:[ips<68] yes=1,no=2,missing=1
	1:[citys<19] yes=3,no=4,missing=3
		3:[citys<18] yes=5,no=6,missing=5
			5:[log_froms<3] yes=7,no=8,missing=7
				7:[citys<15] yes=9,no=10,missing=9
					9:leaf=0.00257541
					10:leaf=-0.0572166
				8:[divs<4] yes=11,no=12,missing=11
					11:leaf=0.0859271
					12:leaf=-0.0182519
			6:leaf=0.115719
		4:leaf=-0.0905676
	2:leaf=-0.0918658
booster[102]:
0:[divs<35] yes=1,no=2,missing=1
	1:[log_froms<4] yes=3,no=4,missing=3
		3:[log_froms<3] yes=5,no=6,missing=5
			5:[divs<17] yes=9,no=10,missing=9
				9:[divs<6] yes=15,no=16,missing=15
					15:leaf=-0.0039098
					16:leaf=0.0145802
				10:[divs<19] yes=17,no=18,missing=17
					17:leaf=-0.101595
					18:leaf=-0.00226609
			6:[types<3] yes=11,no=12,missing=11
				11:[divs<4] yes=19,no=20,missing=19
					19:leaf=0.0762738
					20:leaf=-0.00948601
				12:[divs<6] yes=21,no=22,missing=21
					21:leaf=-0.0587889
					22:leaf=-0.101022
		4:[ips<17] yes=7,no=8,missing=7
			7:[divs<7] yes=13,no=14,missing=13
				13:leaf=0.111345
				14:leaf=-0.0872216
			8:leaf=0.0833758
	2:leaf=-0.0913019
booster[103]:
0:[ips<68] yes=1,no=2,missing=1
	1:[citys<19] yes=3,no=4,missing=3
		3:[citys<18] yes=5,no=6,missing=5
			5:[ips<62] yes=7,no=8,missing=7
				7:[ips<35] yes=9,no=10,missing=9
					9:leaf=0.000150702
					10:leaf=-0.0117814
				8:[citys<3] yes=11,no=12,missing=11
					11:leaf=0.0195128
					12:leaf=-0.0903737
			6:leaf=0.112603
		4:leaf=-0.0897742
	2:leaf=-0.090686
booster[104]:
0:[divs<35] yes=1,no=2,missing=1
	1:[log_froms<4] yes=3,no=4,missing=3
		3:[ips<68] yes=5,no=6,missing=5
			5:[divs<29] yes=9,no=10,missing=9
				9:[divs<17] yes=13,no=14,missing=13
					13:leaf=0.00145193
					14:leaf=-0.0548743
				10:[log_froms<3] yes=15,no=16,missing=15
					15:leaf=0.0010908
					16:leaf=0.0433605
			6:leaf=-0.0784127
		4:[ips<17] yes=7,no=8,missing=7
			7:[divs<7] yes=11,no=12,missing=11
				11:leaf=0.0794428
				12:leaf=-0.0840055
			8:leaf=0.0794444
	2:leaf=-0.0899912
booster[105]:
0:[log_ids<23] yes=1,no=2,missing=1
	1:[log_ids<22] yes=3,no=4,missing=3
		3:[log_ids<21] yes=7,no=8,missing=7
			7:[divs<16] yes=13,no=14,missing=13
				13:[divs<8] yes=25,no=26,missing=25
					25:leaf=0.00925186
					26:leaf=-0.0305531
				14:leaf=0.236314
			8:[divs<9] yes=15,no=16,missing=15
				15:leaf=-0.108034
				16:[divs<10] yes=27,no=28,missing=27
					27:leaf=0.124776
					28:leaf=-0.0874699
		4:[citys<5] yes=9,no=10,missing=9
			9:[citys<4] yes=17,no=18,missing=17
				17:leaf=-0.0983658
				18:[divs<9] yes=29,no=30,missing=29
					29:leaf=0.042966
					30:leaf=-0.0931336
			10:[citys<6] yes=19,no=20,missing=19
				19:[divs<8] yes=31,no=32,missing=31
					31:leaf=-0.0996851
					32:leaf=0.249521
				20:[types<2] yes=33,no=34,missing=33
					33:leaf=0.24789
					34:leaf=-0.0332331
	2:[divs<3] yes=5,no=6,missing=5
		5:leaf=-0.100564
		6:[divs<4] yes=11,no=12,missing=11
			11:[types<2] yes=21,no=22,missing=21
				21:[citys<5] yes=35,no=36,missing=35
					35:leaf=0.0579711
					36:leaf=-0.108029
				22:[citys<5] yes=37,no=38,missing=37
					37:leaf=0.052493
					38:leaf=0.472495
			12:[divs<6] yes=23,no=24,missing=23
				23:[citys<14] yes=39,no=40,missing=39
					39:leaf=-0.101761
					40:leaf=0.00519171
				24:[log_ids<24] yes=41,no=42,missing=41
					41:leaf=-0.120758
					42:leaf=-0.000115137
booster[106]:
0:[log_ids<12] yes=1,no=2,missing=1
	1:[ips<10] yes=3,no=4,missing=3
		3:[types<2] yes=7,no=8,missing=7
			7:[divs<5] yes=15,no=16,missing=15
				15:[ips<9] yes=27,no=28,missing=27
					27:leaf=0.0273396
					28:leaf=-0.112351
				16:[ips<6] yes=29,no=30,missing=29
					29:leaf=-0.0066555
					30:leaf=-0.095683
			8:[divs<5] yes=17,no=18,missing=17
				17:[log_ids<6] yes=31,no=32,missing=31
					31:leaf=0.00210093
					32:leaf=-0.0748525
				18:[ips<5] yes=33,no=34,missing=33
					33:leaf=-0.0715606
					34:leaf=0.0970871
		4:[divs<5] yes=9,no=10,missing=9
			9:[ips<11] yes=19,no=20,missing=19
				19:[divs<3] yes=35,no=36,missing=35
					35:leaf=0.140161
					36:leaf=-0.0922127
				20:leaf=0.242797
			10:[divs<9] yes=21,no=22,missing=21
				21:[ips<11] yes=37,no=38,missing=37
					37:leaf=-0.104242
					38:leaf=-0.0132746
				22:leaf=0.161899
	2:[log_ids<14] yes=5,no=6,missing=5
		5:[types<2] yes=11,no=12,missing=11
			11:[divs<3] yes=23,no=24,missing=23
				23:leaf=-0.104076
				24:[divs<5] yes=39,no=40,missing=39
					39:leaf=0.101351
					40:leaf=-0.0730911
			12:leaf=-0.103241
		6:[ips<4] yes=13,no=14,missing=13
			13:leaf=-0.0980135
			14:[ips<5] yes=25,no=26,missing=25
				25:[divs<4] yes=41,no=42,missing=41
					41:leaf=0.154269
					42:leaf=-0.00469493
				26:[ips<6] yes=43,no=44,missing=43
					43:leaf=-0.0841173
					44:leaf=-4.90648e-006
booster[107]:
0:[log_ids<2] yes=1,no=2,missing=1
	1:leaf=0.0660258
	2:[ips<2] yes=3,no=4,missing=3
		3:[log_ids<5] yes=5,no=6,missing=5
			5:leaf=-0.0735325
			6:[log_ids<8] yes=9,no=10,missing=9
				9:[log_froms<2] yes=15,no=16,missing=15
					15:leaf=-0.00511184
					16:leaf=0.0587975
				10:leaf=-0.0897276
		4:[log_ids<7] yes=7,no=8,missing=7
			7:[log_froms<3] yes=11,no=12,missing=11
				11:[log_froms<2] yes=17,no=18,missing=17
					17:leaf=-0.0137694
					18:leaf=0.0306824
				12:[divs<3] yes=19,no=20,missing=19
					19:leaf=-0.0928964
					20:leaf=-0.0431139
			8:[ips<4] yes=13,no=14,missing=13
				13:leaf=-0.0990972
				14:[log_ids<8] yes=21,no=22,missing=21
					21:leaf=-0.0498781
					22:leaf=0.000131067
booster[108]:
0:[log_ids<12] yes=1,no=2,missing=1
	1:[ips<10] yes=3,no=4,missing=3
		3:[citys<8] yes=7,no=8,missing=7
			7:[citys<6] yes=15,no=16,missing=15
				15:[ips<8] yes=25,no=26,missing=25
					25:leaf=0.0116371
					26:leaf=-0.0654746
				16:[log_ids<10] yes=27,no=28,missing=27
					27:leaf=-0.0572666
					28:leaf=-0.122778
			8:[log_froms<3] yes=17,no=18,missing=17
				17:[ips<9] yes=29,no=30,missing=29
					29:leaf=0.191893
					30:leaf=-0.0539452
				18:leaf=0.185658
		4:[citys<6] yes=9,no=10,missing=9
			9:leaf=-0.100396
			10:[citys<7] yes=19,no=20,missing=19
				19:[ips<11] yes=31,no=32,missing=31
					31:leaf=0.152139
					32:leaf=0.250141
				20:[log_ids<11] yes=33,no=34,missing=33
					33:leaf=0.148143
					34:leaf=-0.0340582
	2:[log_ids<14] yes=5,no=6,missing=5
		5:[citys<6] yes=11,no=12,missing=11
			11:[ips<11] yes=21,no=22,missing=21
				21:[citys<5] yes=35,no=36,missing=35
					35:leaf=-0.0866951
					36:leaf=0.0377025
				22:[citys<4] yes=37,no=38,missing=37
					37:leaf=0.203712
					38:leaf=-0.0915682
			12:leaf=-0.10728
		6:[ips<4] yes=13,no=14,missing=13
			13:leaf=-0.0971447
			14:[ips<5] yes=23,no=24,missing=23
				23:[log_froms<2] yes=39,no=40,missing=39
					39:leaf=-0.0957142
					40:leaf=0.093211
				24:[ips<6] yes=41,no=42,missing=41
					41:leaf=-0.090671
					42:leaf=0.0010771
booster[109]:
0:[log_ids<45] yes=1,no=2,missing=1
	1:[log_ids<43] yes=3,no=4,missing=3
		3:[ips<29] yes=7,no=8,missing=7
			7:[ips<25] yes=15,no=16,missing=15
				15:[ips<20] yes=25,no=26,missing=25
					25:leaf=0.00193877
					26:leaf=-0.0686218
				16:[divs<8] yes=27,no=28,missing=27
					27:leaf=0.0756087
					28:leaf=-0.10081
			8:leaf=-0.10327
		4:[divs<9] yes=9,no=10,missing=9
			9:leaf=-0.0963968
			10:[divs<10] yes=17,no=18,missing=17
				17:leaf=0.132661
				18:[divs<15] yes=29,no=30,missing=29
					29:leaf=-0.0813846
					30:leaf=0.0616716
	2:[ips<30] yes=5,no=6,missing=5
		5:[divs<23] yes=11,no=12,missing=11
			11:leaf=-0.0998106
			12:[divs<24] yes=19,no=20,missing=19
				19:[ips<19] yes=31,no=32,missing=31
					31:leaf=0.120632
					32:leaf=-0.0802244
				20:leaf=-0.0938728
		6:[ips<35] yes=13,no=14,missing=13
			13:[log_ids<46] yes=21,no=22,missing=21
				21:leaf=-0.092638
				22:[log_ids<49] yes=33,no=34,missing=33
					33:leaf=0.133856
					34:leaf=0.0312352
			14:[ips<60] yes=23,no=24,missing=23
				23:[divs<15] yes=35,no=36,missing=35
					35:leaf=-0.0352698
					36:leaf=-0.0987541
				24:[ips<68] yes=37,no=38,missing=37
					37:leaf=0.00411858
					38:leaf=-0.0891281
booster[110]:
0:[log_ids<49] yes=1,no=2,missing=1
	1:[ips<16] yes=3,no=4,missing=3
		3:[log_ids<39] yes=7,no=8,missing=7
			7:[log_ids<21] yes=13,no=14,missing=13
				13:[log_ids<20] yes=25,no=26,missing=25
					25:leaf=0.00274465
					26:leaf=0.0607575
				14:[ips<5] yes=27,no=28,missing=27
					27:leaf=0.0141397
					28:leaf=-0.0719445
			8:[types<3] yes=15,no=16,missing=15
				15:[log_ids<40] yes=29,no=30,missing=29
					29:leaf=0.360725
					30:leaf=0.0287237
				16:leaf=0.477005
		4:[log_ids<25] yes=9,no=10,missing=9
			9:[log_ids<24] yes=17,no=18,missing=17
				17:[log_ids<22] yes=31,no=32,missing=31
					31:leaf=-0.0425629
					32:leaf=0.0830855
				18:leaf=0.360637
			10:[log_ids<27] yes=19,no=20,missing=19
				19:leaf=-0.104924
				20:[log_ids<28] yes=33,no=34,missing=33
					33:leaf=0.147512
					34:leaf=0.000643215
	2:[types<2] yes=5,no=6,missing=5
		5:leaf=-0.0987673
		6:[ips<34] yes=11,no=12,missing=11
			11:[log_froms<4] yes=21,no=22,missing=21
				21:leaf=-0.0986837
				22:leaf=0.0820485
			12:[ips<35] yes=23,no=24,missing=23
				23:leaf=0.0542332
				24:[log_ids<118] yes=35,no=36,missing=35
					35:leaf=-0.0950967
					36:leaf=0.00137471
booster[111]:
0:[log_ids<12] yes=1,no=2,missing=1
	1:[ips<10] yes=3,no=4,missing=3
		3:[citys<8] yes=7,no=8,missing=7
			7:[citys<6] yes=15,no=16,missing=15
				15:[ips<9] yes=27,no=28,missing=27
					27:leaf=0.00672538
					28:leaf=-0.101287
				16:[divs<2] yes=29,no=30,missing=29
					29:leaf=0.0552264
					30:leaf=-0.0918827
			8:[divs<2] yes=17,no=18,missing=17
				17:leaf=0.173264
				18:[divs<5] yes=31,no=32,missing=31
					31:leaf=-0.0334031
					32:leaf=0.142177
		4:[citys<6] yes=9,no=10,missing=9
			9:leaf=-0.0985919
			10:[divs<6] yes=19,no=20,missing=19
				19:[divs<4] yes=33,no=34,missing=33
					33:leaf=0.143261
					34:leaf=0.212789
				20:[divs<8] yes=35,no=36,missing=35
					35:leaf=-0.030597
					36:leaf=0.138276
	2:[log_ids<14] yes=5,no=6,missing=5
		5:[citys<6] yes=11,no=12,missing=11
			11:[ips<9] yes=21,no=22,missing=21
				21:[divs<5] yes=37,no=38,missing=37
					37:leaf=-0.0978161
					38:leaf=-0.0561526
				22:[divs<5] yes=39,no=40,missing=39
					39:leaf=0.0684237
					40:leaf=-0.0969391
			12:leaf=-0.106085
		6:[divs<2] yes=13,no=14,missing=13
			13:[log_ids<20] yes=23,no=24,missing=23
				23:[citys<5] yes=41,no=42,missing=41
					41:leaf=0.35495
					42:leaf=0.0126838
				24:leaf=-0.0947118
			14:[divs<3] yes=25,no=26,missing=25
				25:[log_ids<16] yes=43,no=44,missing=43
					43:leaf=-0.00750596
					44:leaf=-0.10801
				26:[ips<4] yes=45,no=46,missing=45
					45:leaf=-0.0961534
					46:leaf=0.000624866
booster[112]:
0:[log_ids<23] yes=1,no=2,missing=1
	1:[log_ids<22] yes=3,no=4,missing=3
		3:[log_ids<21] yes=7,no=8,missing=7
			7:[divs<16] yes=15,no=16,missing=15
				15:[divs<8] yes=31,no=32,missing=31
					31:leaf=0.00791177
					32:leaf=-0.0304217
				16:leaf=0.201329
			8:[divs<9] yes=17,no=18,missing=17
				17:leaf=-0.105855
				18:[types<2] yes=33,no=34,missing=33
					33:leaf=-0.0881057
					34:leaf=0.101666
		4:[citys<5] yes=9,no=10,missing=9
			9:[citys<4] yes=19,no=20,missing=19
				19:leaf=-0.097654
				20:[divs<9] yes=35,no=36,missing=35
					35:leaf=0.0582909
					36:leaf=-0.092651
			10:[citys<8] yes=21,no=22,missing=21
				21:[divs<5] yes=37,no=38,missing=37
					37:leaf=-0.124883
					38:leaf=0.1885
				22:[types<2] yes=39,no=40,missing=39
					39:leaf=0.206217
					40:leaf=-0.142541
	2:[log_ids<27] yes=5,no=6,missing=5
		5:[citys<6] yes=11,no=12,missing=11
			11:[divs<4] yes=23,no=24,missing=23
				23:[citys<5] yes=41,no=42,missing=41
					41:leaf=0.0446855
					42:leaf=0.412539
				24:[types<2] yes=43,no=44,missing=43
					43:leaf=0.0496447
					44:leaf=-0.10051
			12:[citys<11] yes=25,no=26,missing=25
				25:leaf=-0.106248
				26:leaf=-0.141776
		6:[log_ids<28] yes=13,no=14,missing=13
			13:[divs<12] yes=27,no=28,missing=27
				27:[divs<4] yes=45,no=46,missing=45
					45:leaf=0.114126
					46:leaf=-0.104453
				28:[citys<4] yes=47,no=48,missing=47
					47:leaf=-0.0778481
					48:leaf=0.229114
			14:[citys<2] yes=29,no=30,missing=29
				29:leaf=-0.0975999
				30:[types<2] yes=49,no=50,missing=49
					49:leaf=-0.0229569
					50:leaf=0.00379576
booster[113]:
0:[log_froms<3] yes=1,no=2,missing=1
	1:[ips<6] yes=3,no=4,missing=3
		3:[citys<5] yes=7,no=8,missing=7
			7:[log_froms<2] yes=15,no=16,missing=15
				15:[ips<4] yes=27,no=28,missing=27
					27:leaf=-0.00507353
					28:leaf=-0.08408
				16:[types<2] yes=29,no=30,missing=29
					29:leaf=0.0149428
					30:leaf=-0.014217
			8:leaf=-0.11926
		4:[ips<7] yes=9,no=10,missing=9
			9:[citys<6] yes=17,no=18,missing=17
				17:[log_froms<2] yes=31,no=32,missing=31
					31:leaf=-0.0453692
					32:leaf=0.072724
				18:leaf=-0.084406
			10:[types<2] yes=19,no=20,missing=19
				19:[citys<8] yes=33,no=34,missing=33
					33:leaf=-0.0224756
					34:leaf=0.0441727
				20:[ips<8] yes=35,no=36,missing=35
					35:leaf=-0.0610287
					36:leaf=0.0128095
	2:[ips<34] yes=5,no=6,missing=5
		5:[ips<17] yes=11,no=12,missing=11
			11:[ips<16] yes=21,no=22,missing=21
				21:[citys<9] yes=37,no=38,missing=37
					37:leaf=-0.0296421
					38:leaf=0.110274
				22:[citys<5] yes=39,no=40,missing=39
					39:leaf=-0.0931779
					40:leaf=0.147012
			12:[citys<16] yes=23,no=24,missing=23
				23:[log_froms<4] yes=41,no=42,missing=41
					41:leaf=-0.111556
					42:leaf=0.0769079
				24:leaf=0.00570014
		6:[ips<44] yes=13,no=14,missing=13
			13:[citys<6] yes=25,no=26,missing=25
				25:leaf=-0.0871501
				26:[ips<43] yes=43,no=44,missing=43
					43:leaf=0.0456921
					44:leaf=0.110828
			14:leaf=-0.0939702
booster[114]:
0:[log_ids<49] yes=1,no=2,missing=1
	1:[ips<25] yes=3,no=4,missing=3
		3:[ips<23] yes=7,no=8,missing=7
			7:[log_ids<45] yes=13,no=14,missing=13
				13:[log_ids<39] yes=23,no=24,missing=23
					23:leaf=9.97381e-005
					24:leaf=0.0656048
				14:leaf=-0.096797
			8:leaf=-0.102197
		4:[divs<8] yes=9,no=10,missing=9
			9:[divs<7] yes=15,no=16,missing=15
				15:[ips<28] yes=25,no=26,missing=25
					25:leaf=-0.000670931
					26:leaf=0.0795698
				16:leaf=0.146857
			10:[ips<32] yes=17,no=18,missing=17
				17:leaf=-0.103769
				18:[divs<13] yes=27,no=28,missing=27
					27:leaf=-0.0794227
					28:leaf=0.136131
	2:[divs<14] yes=5,no=6,missing=5
		5:leaf=-0.0986852
		6:[ips<34] yes=11,no=12,missing=11
			11:[log_froms<4] yes=19,no=20,missing=19
				19:leaf=-0.0978753
				20:leaf=0.104177
			12:[ips<35] yes=21,no=22,missing=21
				21:leaf=0.0445655
				22:[ips<43] yes=29,no=30,missing=29
					29:leaf=-0.0955539
					30:leaf=-0.00128071
booster[115]:
0:[log_ids<49] yes=1,no=2,missing=1
	1:[log_froms<3] yes=3,no=4,missing=3
		3:[divs<19] yes=7,no=8,missing=7
			7:[divs<17] yes=13,no=14,missing=13
				13:[log_ids<36] yes=25,no=26,missing=25
					25:leaf=0.00184717
					26:leaf=0.0431511
				14:leaf=-0.101057
			8:[log_ids<33] yes=15,no=16,missing=15
				15:[ips<18] yes=27,no=28,missing=27
					27:leaf=-0.085062
					28:leaf=0.299839
				16:[ips<32] yes=29,no=30,missing=29
					29:leaf=-0.0950071
					30:leaf=0.0764462
		4:[log_ids<23] yes=9,no=10,missing=9
			9:[divs<16] yes=17,no=18,missing=17
				17:[ips<16] yes=31,no=32,missing=31
					31:leaf=-0.0193377
					32:leaf=0.0809882
				18:leaf=0.204611
			10:[divs<5] yes=19,no=20,missing=19
				19:[log_ids<30] yes=33,no=34,missing=33
					33:leaf=0.00106571
					34:leaf=0.152657
				20:leaf=-0.103555
	2:[divs<14] yes=5,no=6,missing=5
		5:leaf=-0.0985023
		6:[ips<34] yes=11,no=12,missing=11
			11:[log_froms<4] yes=21,no=22,missing=21
				21:leaf=-0.0975999
				22:leaf=0.096728
			12:[ips<35] yes=23,no=24,missing=23
				23:leaf=0.0423255
				24:[ips<43] yes=35,no=36,missing=35
					35:leaf=-0.0951379
					36:leaf=-0.00202604
booster[116]:
0:[ips<6] yes=1,no=2,missing=1
	1:[log_froms<2] yes=3,no=4,missing=3
		3:[ips<4] yes=7,no=8,missing=7
			7:[types<2] yes=15,no=16,missing=15
				15:[citys<3] yes=29,no=30,missing=29
					29:leaf=-0.00689782
					30:leaf=0.046709
				16:[ips<3] yes=31,no=32,missing=31
					31:leaf=-0.074793
					32:leaf=-0.012817
			8:leaf=-0.0894067
		4:[citys<5] yes=9,no=10,missing=9
			9:[types<2] yes=17,no=18,missing=17
				17:[log_froms<3] yes=33,no=34,missing=33
					33:leaf=0.00926547
					34:leaf=0.163145
				18:[ips<4] yes=35,no=36,missing=35
					35:leaf=-0.0820223
					36:leaf=0.00807756
			10:[log_froms<3] yes=19,no=20,missing=19
				19:leaf=-0.110007
				20:leaf=0.00929265
	2:[ips<7] yes=5,no=6,missing=5
		5:[log_froms<2] yes=11,no=12,missing=11
			11:[types<2] yes=21,no=22,missing=21
				21:[citys<5] yes=37,no=38,missing=37
