booster[0]:
0:[citys<4] yes=1,no=2,missing=1
	1:[log_ids<248] yes=3,no=4,missing=3
		3:leaf=-0.574633
		4:leaf=-0.266667
	2:[log_ids<7] yes=5,no=6,missing=5
		5:[id<13602] yes=7,no=8,missing=7
			7:leaf=0.2
			8:[id<84874] yes=11,no=12,missing=11
				11:leaf=-0.329032
				12:[id<90760] yes=17,no=18,missing=17
					17:leaf=0.026087
					18:leaf=-0.230769
		6:[log_ids<45] yes=9,no=10,missing=9
			9:[citys<11] yes=13,no=14,missing=13
				13:[log_ids<42] yes=19,no=20,missing=19
					19:leaf=-0.492857
					20:leaf=-0.0857143
				14:[divs<5] yes=21,no=22,missing=21
					21:leaf=-0.221053
					22:leaf=0.145946
			10:[id<166582] yes=15,no=16,missing=15
				15:leaf=-0.588017
				16:leaf=-0.247059
booster[1]:
0:[citys<4] yes=1,no=2,missing=1
	1:[log_ids<7] yes=3,no=4,missing=3
		3:[citys<3] yes=7,no=8,missing=7
			7:[ips<6] yes=13,no=14,missing=13
				13:leaf=-0.435443
				14:leaf=-0.230177
			8:[log_ids<4] yes=15,no=16,missing=15
				15:[divs<2] yes=23,no=24,missing=23
					23:leaf=-0.251517
					24:leaf=-0.106341
				16:leaf=-0.375639
		4:leaf=-0.454845
	2:[log_ids<12] yes=5,no=6,missing=5
		5:[citys<8] yes=9,no=10,missing=9
			9:[log_ids<7] yes=17,no=18,missing=17
				17:[divs<3] yes=25,no=26,missing=25
					25:leaf=0.166019
					26:leaf=-0.203885
				18:[ips<10] yes=27,no=28,missing=27
					27:leaf=-0.352697
					28:leaf=0.132301
			10:leaf=0.254205
		6:[citys<11] yes=11,no=12,missing=11
			11:[log_ids<45] yes=19,no=20,missing=19
				19:[log_ids<42] yes=29,no=30,missing=29
					29:leaf=-0.41292
					30:leaf=-0.0881972
				20:leaf=-0.459802
			12:[divs<36] yes=21,no=22,missing=21
				21:[ips<16] yes=31,no=32,missing=31
					31:leaf=0.193359
					32:leaf=-0.128488
				22:leaf=-0.45441
booster[2]:
0:[log_ids<21] yes=1,no=2,missing=1
	1:[ips<5] yes=3,no=4,missing=3
		3:[log_ids<19] yes=7,no=8,missing=7
			7:[log_ids<7] yes=13,no=14,missing=13
				13:leaf=-0.364865
				14:[id<3017] yes=23,no=24,missing=23
					23:leaf=-0.161672
					24:leaf=-0.398114
			8:[id<135386] yes=15,no=16,missing=15
				15:leaf=-0.088549
				16:leaf=-0.307917
		4:[log_ids<7] yes=9,no=10,missing=9
			9:[id<10991] yes=17,no=18,missing=17
				17:leaf=0.0880502
				18:[ips<6] yes=25,no=26,missing=25
					25:leaf=-0.291473
					26:leaf=-0.091599
			10:[ips<9] yes=19,no=20,missing=19
				19:leaf=-0.361741
				20:[log_ids<11] yes=27,no=28,missing=27
					27:leaf=-0.101641
					28:leaf=-0.316193
	2:[id<174217] yes=5,no=6,missing=5
		5:[ips<60] yes=11,no=12,missing=11
			11:leaf=-0.387972
			12:[ips<63] yes=21,no=22,missing=21
				21:leaf=0.419687
				22:[id<48178] yes=29,no=30,missing=29
					29:leaf=-0.181422
					30:leaf=-0.398622
		6:leaf=-0.182011
booster[3]:
0:[log_ids<45] yes=1,no=2,missing=1
	1:[ips<5] yes=3,no=4,missing=3
		3:[log_ids<7] yes=5,no=6,missing=5
			5:[ips<2] yes=9,no=10,missing=9
				9:[log_ids<2] yes=17,no=18,missing=17
					17:leaf=-0.31959
					18:leaf=-0.367143
				10:[id<162100] yes=19,no=20,missing=19
					19:leaf=-0.31143
					20:leaf=-0.216234
			6:[id<3687] yes=11,no=12,missing=11
				11:leaf=-0.148065
				12:leaf=-0.359124
		4:[log_ids<7] yes=7,no=8,missing=7
			7:[id<11203] yes=13,no=14,missing=13
				13:leaf=0.118178
				14:[ips<6] yes=21,no=22,missing=21
					21:leaf=-0.248827
					22:leaf=-0.0512155
			8:[log_ids<43] yes=15,no=16,missing=15
				15:[ips<25] yes=23,no=24,missing=23
					23:leaf=-0.311975
					24:leaf=-0.146669
				16:[divs<9] yes=25,no=26,missing=25
					25:leaf=-0.318514
					26:leaf=0.226011
	2:leaf=-0.354518
booster[4]:
0:[citys<4] yes=1,no=2,missing=1
	1:[log_ids<7] yes=3,no=4,missing=3
		3:[log_froms<2] yes=7,no=8,missing=7
			7:[citys<3] yes=15,no=16,missing=15
				15:[log_ids<2] yes=25,no=26,missing=25
					25:leaf=-0.292312
					26:leaf=-0.329461
				16:[log_ids<4] yes=27,no=28,missing=27
					27:leaf=0.190255
					28:leaf=-0.322893
			8:[citys<2] yes=17,no=18,missing=17
				17:[log_ids<6] yes=29,no=30,missing=29
					29:leaf=-0.319588
					30:leaf=-0.127948
				18:[log_ids<5] yes=31,no=32,missing=31
					31:leaf=-0.21093
					32:leaf=-0.115942
		4:[ips<62] yes=9,no=10,missing=9
			9:leaf=-0.328156
			10:leaf=-0.0792384
	2:[log_ids<12] yes=5,no=6,missing=5
		5:[citys<6] yes=11,no=12,missing=11
			11:[log_ids<7] yes=19,no=20,missing=19
				19:[log_froms<2] yes=33,no=34,missing=33
					33:leaf=-0.12805
					34:leaf=0.10561
				20:[ips<6] yes=35,no=36,missing=35
					35:leaf=-0.285022
					36:leaf=-0.104663
			12:[ips<9] yes=21,no=22,missing=21
				21:leaf=-0.0835647
				22:leaf=0.370224
		6:[log_ids<49] yes=13,no=14,missing=13
			13:[citys<11] yes=23,no=24,missing=23
				23:[ips<25] yes=37,no=38,missing=37
					37:leaf=-0.255279
					38:leaf=-0.051289
				24:[ips<16] yes=39,no=40,missing=39
					39:leaf=0.305398
					40:leaf=-0.00402901
			14:leaf=-0.314341
booster[5]:
0:[citys<4] yes=1,no=2,missing=1
	1:[ips<62] yes=3,no=4,missing=3
		3:[citys<3] yes=7,no=8,missing=7
			7:[ips<3] yes=13,no=14,missing=13
				13:[log_froms<2] yes=23,no=24,missing=23
					23:leaf=-0.287776
					24:leaf=-0.233174
				14:leaf=-0.303131
			8:[divs<3] yes=15,no=16,missing=15
				15:[ips<5] yes=25,no=26,missing=25
					25:leaf=0.054176
					26:leaf=-0.220538
				16:[ips<7] yes=27,no=28,missing=27
					27:leaf=-0.230279
					28:leaf=-0.297101
		4:leaf=-0.0123977
	2:[divs<10] yes=5,no=6,missing=5
		5:[citys<13] yes=9,no=10,missing=9
			9:[divs<5] yes=17,no=18,missing=17
				17:[ips<7] yes=29,no=30,missing=29
					29:leaf=0.0212607
					30:leaf=-0.114188
				18:[citys<8] yes=31,no=32,missing=31
					31:leaf=-0.212507
					32:leaf=0.0187452
			10:[divs<6] yes=19,no=20,missing=19
				19:leaf=-0.00904255
				20:leaf=0.360599
		6:[citys<8] yes=11,no=12,missing=11
			11:leaf=-0.324469
			12:[log_froms<3] yes=21,no=22,missing=21
				21:[ips<22] yes=33,no=34,missing=33
					33:leaf=0.263505
					34:leaf=-0.040345
				22:leaf=-0.304112
booster[6]:
0:[log_ids<32] yes=1,no=2,missing=1
	1:[ips<25] yes=3,no=4,missing=3
		3:[ips<5] yes=7,no=8,missing=7
			7:[log_ids<7] yes=13,no=14,missing=13
				13:[ips<2] yes=21,no=22,missing=21
					21:leaf=-0.263342
					22:leaf=-0.215325
				14:[id<19727] yes=23,no=24,missing=23
					23:leaf=-0.172861
					24:leaf=-0.307005
			8:[log_ids<11] yes=15,no=16,missing=15
				15:[ips<10] yes=25,no=26,missing=25
					25:leaf=-0.113076
					26:leaf=0.328815
				16:[ips<14] yes=27,no=28,missing=27
					27:leaf=-0.262054
					28:leaf=-0.139433
		4:leaf=0.496175
	2:[divs<9] yes=5,no=6,missing=5
		5:[id<161635] yes=9,no=10,missing=9
			9:leaf=-0.317728
			10:leaf=-0.178766
		6:[log_ids<45] yes=11,no=12,missing=11
			11:[log_ids<43] yes=17,no=18,missing=17
				17:[id<54757] yes=29,no=30,missing=29
					29:leaf=-0.0788323
					30:leaf=-0.315318
				18:leaf=0.263495
			12:[id<166670] yes=19,no=20,missing=19
				19:[ips<60] yes=31,no=32,missing=31
					31:leaf=-0.310091
					32:leaf=-0.203739
				20:leaf=-0.0771517
booster[7]:
0:[citys<5] yes=1,no=2,missing=1
	1:[log_ids<7] yes=3,no=4,missing=3
		3:[citys<3] yes=7,no=8,missing=7
			7:[log_froms<2] yes=15,no=16,missing=15
				15:[log_ids<2] yes=27,no=28,missing=27
					27:leaf=-0.193587
					28:leaf=-0.264447
				16:[log_ids<6] yes=29,no=30,missing=29
					29:leaf=-0.19431
					30:leaf=-0.0380253
			8:[log_ids<6] yes=17,no=18,missing=17
				17:[log_froms<2] yes=31,no=32,missing=31
					31:leaf=-0.0745731
					32:leaf=0.0844496
				18:[ips<6] yes=33,no=34,missing=33
					33:leaf=-0.29917
					34:leaf=-0.0261495
		4:[ips<62] yes=9,no=10,missing=9
			9:[log_ids<25] yes=19,no=20,missing=19
				19:[log_ids<15] yes=35,no=36,missing=35
					35:leaf=-0.28828
					36:leaf=-0.178317
				20:leaf=-0.310049
			10:[ips<70] yes=21,no=22,missing=21
				21:leaf=0.0939615
				22:leaf=-0.264529
	2:[log_ids<37] yes=5,no=6,missing=5
		5:[citys<8] yes=11,no=12,missing=11
			11:[log_ids<31] yes=23,no=24,missing=23
				23:[ips<7] yes=37,no=38,missing=37
					37:leaf=0.0886531
					38:leaf=-0.0891659
				24:leaf=0.256221
			12:[ips<20] yes=25,no=26,missing=25
				25:[citys<10] yes=39,no=40,missing=39
					39:leaf=0.325783
					40:leaf=0.141949
				26:leaf=-0.00816749
		6:[ips<14] yes=13,no=14,missing=13
			13:leaf=-0.067835
			14:leaf=-0.268265
booster[8]:
0:[log_froms<2] yes=1,no=2,missing=1
	1:[id<173530] yes=3,no=4,missing=3
		3:[id<69894] yes=7,no=8,missing=7
			7:[id<27765] yes=13,no=14,missing=13
				13:leaf=-0.308208
				14:[id<29395] yes=25,no=26,missing=25
					25:leaf=0.0537104
					26:leaf=-0.264889
			8:[id<75505] yes=15,no=16,missing=15
				15:[ips<10] yes=27,no=28,missing=27
					27:leaf=0.146097
					28:leaf=-0.170161
				16:[ips<2] yes=29,no=30,missing=29
					29:leaf=-0.166539
					30:leaf=-0.248962
		4:leaf=0.134474
	2:[divs<3] yes=5,no=6,missing=5
		5:[id<37817] yes=9,no=10,missing=9
			9:[id<31292] yes=17,no=18,missing=17
				17:[id<19297] yes=31,no=32,missing=31
					31:leaf=0.0952073
					32:leaf=-0.257954
				18:leaf=0.323548
			10:[id<84834] yes=19,no=20,missing=19
				19:leaf=-0.243111
				20:[id<96624] yes=33,no=34,missing=33
					33:leaf=0.24402
					34:leaf=-0.0757086
		6:[id<100567] yes=11,no=12,missing=11
			11:[id<97887] yes=21,no=22,missing=21
				21:[ips<27] yes=35,no=36,missing=35
					35:leaf=-0.135482
					36:leaf=-0.260449
				22:[divs<6] yes=37,no=38,missing=37
					37:leaf=0.485852
					38:leaf=0.224402
			12:[ips<6] yes=23,no=24,missing=23
				23:[id<162198] yes=39,no=40,missing=39
					39:leaf=-0.276393
					40:leaf=-0.171265
				24:[id<110298] yes=41,no=42,missing=41
					41:leaf=-0.303716
					42:leaf=-0.145392
booster[9]:
0:[citys<4] yes=1,no=2,missing=1
	1:[citys<3] yes=3,no=4,missing=3
		3:[ips<56] yes=7,no=8,missing=7
			7:[id<5746] yes=15,no=16,missing=15
				15:[log_froms<2] yes=29,no=30,missing=29
					29:leaf=-0.267522
					30:leaf=0.158221
				16:[ips<3] yes=31,no=32,missing=31
					31:leaf=-0.186861
					32:leaf=-0.237939
			8:leaf=0.0963363
		4:[ips<7] yes=9,no=10,missing=9
			9:[id<106057] yes=17,no=18,missing=17
				17:[id<91877] yes=33,no=34,missing=33
					33:leaf=-0.0383646
					34:leaf=0.329179
				18:[id<152931] yes=35,no=36,missing=35
					35:leaf=-0.242115
					36:leaf=0.0190545
			10:[ips<19] yes=19,no=20,missing=19
				19:[ips<12] yes=37,no=38,missing=37
					37:leaf=-0.249648
					38:leaf=-0.0245321
				20:leaf=-0.288443
	2:[log_froms<3] yes=5,no=6,missing=5
		5:[id<97983] yes=11,no=12,missing=11
			11:[citys<6] yes=21,no=22,missing=21
				21:[ips<7] yes=39,no=40,missing=39
					39:leaf=0.131934
					40:leaf=-0.212134
				22:[id<69730] yes=41,no=42,missing=41
					41:leaf=-0.0355253
					42:leaf=0.363324
			12:[id<143709] yes=23,no=24,missing=23
				23:[id<112957] yes=43,no=44,missing=43
					43:leaf=-0.0556303
					44:leaf=-0.200206
				24:[id<151984] yes=45,no=46,missing=45
					45:leaf=0.326266
					46:leaf=-0.0667238
		6:[id<132820] yes=13,no=14,missing=13
			13:[citys<16] yes=25,no=26,missing=25
				25:leaf=-0.293499
				26:leaf=-0.138575
			14:[ips<16] yes=27,no=28,missing=27
				27:leaf=-0.0954663
				28:leaf=0.177546
booster[10]:
0:[citys<4] yes=1,no=2,missing=1
	1:[log_ids<7] yes=3,no=4,missing=3
		3:[citys<2] yes=7,no=8,missing=7
			7:[id<136054] yes=15,no=16,missing=15
				15:[id<132044] yes=27,no=28,missing=27
					27:leaf=-0.158096
					28:leaf=0.363204
				16:leaf=-0.266258
			8:[id<150083] yes=17,no=18,missing=17
				17:[ips<3] yes=29,no=30,missing=29
					29:leaf=-0.195013
					30:leaf=-0.0163141
				18:[log_ids<4] yes=31,no=32,missing=31
					31:leaf=0.480403
					32:leaf=0.0498331
		4:[ips<62] yes=9,no=10,missing=9
			9:[id<163864] yes=19,no=20,missing=19
				19:[log_ids<14] yes=33,no=34,missing=33
					33:leaf=-0.286515
					34:leaf=-0.206376
				20:[log_ids<25] yes=35,no=36,missing=35
					35:leaf=0.0229649
					36:leaf=-0.253283
			10:leaf=0.0413954
	2:[log_ids<23] yes=5,no=6,missing=5
		5:[id<40248] yes=11,no=12,missing=11
			11:[id<25685] yes=21,no=22,missing=21
				21:[id<10350] yes=37,no=38,missing=37
					37:leaf=-0.174994
					38:leaf=0.15677
				22:leaf=0.646321
			12:[id<84684] yes=23,no=24,missing=23
				23:[id<73002] yes=39,no=40,missing=39
					39:leaf=-0.0372693
					40:leaf=-0.296835
				24:[id<100427] yes=41,no=42,missing=41
					41:leaf=0.179988
					42:leaf=-0.0339613
		6:[id<53430] yes=13,no=14,missing=13
			13:leaf=-0.308318
			14:[id<78235] yes=25,no=26,missing=25
				25:[id<70120] yes=43,no=44,missing=43
					43:leaf=-0.0808229
					44:leaf=0.43938
				26:[citys<11] yes=45,no=46,missing=45
					45:leaf=-0.216938
					46:leaf=0.295082
booster[11]:
0:[log_ids<45] yes=1,no=2,missing=1
	1:[ips<5] yes=3,no=4,missing=3
		3:[log_ids<7] yes=7,no=8,missing=7
			7:[id<165425] yes=15,no=16,missing=15
				15:[id<161971] yes=25,no=26,missing=25
					25:leaf=-0.107728
					26:leaf=0.502223
				16:leaf=-0.258443
			8:[id<19727] yes=17,no=18,missing=17
				17:leaf=-0.0206842
				18:leaf=-0.2729
		4:[log_ids<7] yes=9,no=10,missing=9
			9:[ips<6] yes=19,no=20,missing=19
				19:[id<110383] yes=27,no=28,missing=27
					27:leaf=0.11943
					28:leaf=-0.177495
				20:[id<109485] yes=29,no=30,missing=29
					29:leaf=0.0390769
					30:leaf=0.292516
			10:[id<25758] yes=21,no=22,missing=21
				21:[divs<11] yes=31,no=32,missing=31
					31:leaf=-0.255584
					32:leaf=-0.105834
				22:[id<28672] yes=33,no=34,missing=33
					33:leaf=0.427484
					34:leaf=-0.0767743
	2:[divs<23] yes=5,no=6,missing=5
		5:[log_ids<49] yes=11,no=12,missing=11
			11:leaf=-0.164505
			12:leaf=-0.290016
		6:[divs<35] yes=13,no=14,missing=13
			13:[divs<31] yes=23,no=24,missing=23
				23:leaf=-0.0125122
				24:leaf=0.252657
			14:leaf=-0.278481
booster[12]:
0:[log_ids<32] yes=1,no=2,missing=1
	1:[ips<25] yes=3,no=4,missing=3
		3:[ips<6] yes=7,no=8,missing=7
			7:[log_ids<7] yes=13,no=14,missing=13
				13:[id<5712] yes=23,no=24,missing=23
					23:leaf=-0.284899
					24:leaf=-0.0586778
				14:[log_ids<16] yes=25,no=26,missing=25
					25:leaf=-0.256893
					26:leaf=-0.0446195
			8:[log_ids<21] yes=15,no=16,missing=15
				15:[id<150573] yes=27,no=28,missing=27
					27:leaf=0.0397237
					28:leaf=-0.135616
				16:[ips<16] yes=29,no=30,missing=29
					29:leaf=-0.251671
					30:leaf=0.035199
		4:leaf=0.360617
	2:[divs<15] yes=5,no=6,missing=5
		5:[id<73813] yes=9,no=10,missing=9
			9:[id<65506] yes=17,no=18,missing=17
				17:leaf=-0.264139
				18:leaf=0.12456
			10:[id<161815] yes=19,no=20,missing=19
				19:leaf=-0.297188
				20:leaf=-0.112519
		6:[divs<17] yes=11,no=12,missing=11
			11:leaf=0.120029
			12:[divs<35] yes=21,no=22,missing=21
				21:[divs<29] yes=31,no=32,missing=31
					31:leaf=-0.17736
					32:leaf=0.0355529
				22:leaf=-0.267602
booster[13]:
0:[citys<3] yes=1,no=2,missing=1
	1:[log_ids<3] yes=3,no=4,missing=3
		3:[id<165364] yes=7,no=8,missing=7
			7:[id<115853] yes=15,no=16,missing=15
				15:[id<106532] yes=25,no=26,missing=25
					25:leaf=-0.0802936
					26:leaf=0.81419
				16:[id<135988] yes=27,no=28,missing=27
					27:leaf=-0.268059
					28:leaf=-0.160135
			8:leaf=0.233645
		4:[log_ids<20] yes=9,no=10,missing=9
			9:[log_ids<16] yes=17,no=18,missing=17
				17:[citys<2] yes=29,no=30,missing=29
					29:leaf=-0.199773
					30:leaf=-0.112279
				18:[id<60548] yes=31,no=32,missing=31
					31:leaf=0.217159
					32:leaf=-0.0560524
			10:[log_ids<109] yes=19,no=20,missing=19
				19:leaf=-0.277029
				20:leaf=-0.0387688
	2:[log_ids<45] yes=5,no=6,missing=5
		5:[id<171019] yes=11,no=12,missing=11
			11:[id<8894] yes=21,no=22,missing=21
				21:leaf=-0.26885
				22:[id<19296] yes=33,no=34,missing=33
					33:leaf=0.220809
					34:leaf=-0.000627198
			12:leaf=0.344783
		6:[citys<11] yes=13,no=14,missing=13
			13:[id<154556] yes=23,no=24,missing=23
				23:leaf=-0.268489
				24:leaf=-0.0146559
			14:leaf=0.013768
booster[14]:
0:[log_froms<2] yes=1,no=2,missing=1
	1:[id<41934] yes=3,no=4,missing=3
		3:[log_ids<2] yes=7,no=8,missing=7
			7:leaf=-0.11947
			8:leaf=-0.265955
		4:[log_ids<2] yes=9,no=10,missing=9
			9:[id<74718] yes=13,no=14,missing=13
				13:leaf=-0.221222
				14:[id<115926] yes=21,no=22,missing=21
					21:leaf=0.376731
					22:leaf=-0.150539
			10:[id<163705] yes=15,no=16,missing=15
				15:[id<51891] yes=23,no=24,missing=23
					23:leaf=0.187628
					24:leaf=-0.175107
				16:[log_ids<6] yes=25,no=26,missing=25
					25:leaf=-0.033928
					26:leaf=0.277964
	2:[divs<2] yes=5,no=6,missing=5
		5:leaf=0.477947
		6:[log_ids<7] yes=11,no=12,missing=11
			11:[id<162264] yes=17,no=18,missing=17
				17:[log_froms<3] yes=27,no=28,missing=27
					27:leaf=0.105701
					28:leaf=-0.230759
				18:leaf=-0.282275
			12:[id<171044] yes=19,no=20,missing=19
				19:[id<165266] yes=29,no=30,missing=29
					29:leaf=-0.0659693
					30:leaf=0.310906
				20:leaf=-0.268752
booster[15]:
0:[log_ids<45] yes=1,no=2,missing=1
	1:[log_froms<2] yes=3,no=4,missing=3
		3:[ips<16] yes=7,no=8,missing=7
			7:[log_ids<2] yes=15,no=16,missing=15
				15:[id<115926] yes=21,no=22,missing=21
					21:leaf=0.0588246
					22:leaf=-0.192175
				16:[log_ids<9] yes=23,no=24,missing=23
					23:leaf=-0.105981
					24:leaf=-0.215205
			8:leaf=0.210476
		4:[id<165941] yes=9,no=10,missing=9
			9:[id<160318] yes=17,no=18,missing=17
				17:[id<150899] yes=25,no=26,missing=25
					25:leaf=0.00327611
					26:leaf=-0.215282
				18:[id<162264] yes=27,no=28,missing=27
					27:leaf=0.503223
					28:leaf=0.145535
			10:[ips<11] yes=19,no=20,missing=19
				19:leaf=-0.289613
				20:leaf=0.0118507
	2:[log_ids<230] yes=5,no=6,missing=5
		5:[log_froms<3] yes=11,no=12,missing=11
			11:leaf=-0.250202
			12:leaf=-0.0867111
		6:[ips<69] yes=13,no=14,missing=13
			13:leaf=0.182071
			14:leaf=-0.239863
booster[16]:
0:[citys<5] yes=1,no=2,missing=1
	1:[log_ids<9] yes=3,no=4,missing=3
		3:[citys<3] yes=7,no=8,missing=7
			7:[id<96687] yes=13,no=14,missing=13
				13:[id<88702] yes=25,no=26,missing=25
					25:leaf=-0.0931233
					26:leaf=-0.267728
				14:[ips<3] yes=27,no=28,missing=27
					27:leaf=0.0572246
					28:leaf=-0.188715
			8:[id<31462] yes=15,no=16,missing=15
				15:[id<13581] yes=29,no=30,missing=29
					29:leaf=0.0682299
					30:leaf=-0.231181
				16:[id<40075] yes=31,no=32,missing=31
					31:leaf=0.4449
					32:leaf=0.0517609
		4:[log_ids<15] yes=9,no=10,missing=9
			9:[id<55184] yes=17,no=18,missing=17
				17:leaf=-0.281236
				18:[log_ids<12] yes=33,no=34,missing=33
					33:leaf=-0.109448
					34:leaf=-0.24035
			10:[log_ids<20] yes=19,no=20,missing=19
				19:[id<19355] yes=35,no=36,missing=35
					35:leaf=0.407731
					36:leaf=-0.00654368
				20:[ips<16] yes=37,no=38,missing=37
					37:leaf=-0.255362
					38:leaf=-0.0692222
	2:[id<165654] yes=5,no=6,missing=5
		5:[id<136967] yes=11,no=12,missing=11
			11:[ips<20] yes=21,no=22,missing=21
				21:[log_ids<8] yes=39,no=40,missing=39
					39:leaf=-0.133792
					40:leaf=0.162832
				22:[id<97799] yes=41,no=42,missing=41
					41:leaf=-0.212789
					42:leaf=0.113392
			12:[id<159722] yes=23,no=24,missing=23
				23:leaf=-0.212761
				24:leaf=-0.0162386
		6:leaf=0.297461
booster[17]:
0:[citys<2] yes=1,no=2,missing=1
	1:[log_ids<24] yes=3,no=4,missing=3
		3:[log_ids<16] yes=7,no=8,missing=7
			7:[log_ids<2] yes=13,no=14,missing=13
				13:leaf=-0.0188577
				14:[log_froms<2] yes=23,no=24,missing=23
					23:leaf=-0.169039
					24:leaf=-0.0844215
			8:leaf=0.102064
		4:leaf=-0.264771
	2:[log_ids<11] yes=5,no=6,missing=5
		5:[log_froms<3] yes=9,no=10,missing=9
			9:[log_froms<2] yes=15,no=16,missing=15
				15:[citys<3] yes=25,no=26,missing=25
					25:leaf=-0.0801646
					26:leaf=0.0496869
				16:[divs<2] yes=27,no=28,missing=27
					27:leaf=0.287278
					28:leaf=0.0609941
			10:[log_ids<9] yes=17,no=18,missing=17
				17:leaf=-0.197541
				18:leaf=0.122634
		6:[citys<6] yes=11,no=12,missing=11
			11:[divs<4] yes=19,no=20,missing=19
				19:[citys<3] yes=29,no=30,missing=29
					29:leaf=-0.247633
					30:leaf=0.345125
				20:[log_ids<32] yes=31,no=32,missing=31
					31:leaf=-0.0594466
					32:leaf=-0.198824
			12:[divs<6] yes=21,no=22,missing=21
				21:[log_ids<15] yes=33,no=34,missing=33
					33:leaf=-0.025347
					34:leaf=-0.137306
				22:[log_froms<3] yes=35,no=36,missing=35
					35:leaf=0.145329
					36:leaf=-0.10943
booster[18]:
0:[log_froms<2] yes=1,no=2,missing=1
	1:[id<27744] yes=3,no=4,missing=3
		3:leaf=-0.229026
		4:[divs<2] yes=7,no=8,missing=7
			7:[id<88702] yes=13,no=14,missing=13
				13:[id<74347] yes=25,no=26,missing=25
					25:leaf=0.0454073
					26:leaf=0.314114
				14:[id<115764] yes=27,no=28,missing=27
					27:leaf=-0.18231
					28:leaf=0.00281113
			8:[id<163705] yes=15,no=16,missing=15
				15:[divs<3] yes=29,no=30,missing=29
					29:leaf=-0.233024
					30:leaf=-0.0965808
				16:leaf=0.152791
	2:[divs<3] yes=5,no=6,missing=5
		5:[id<135058] yes=9,no=10,missing=9
			9:[id<37817] yes=17,no=18,missing=17
				17:[id<31292] yes=31,no=32,missing=31
					31:leaf=0.0473742
					32:leaf=0.315913
				18:[log_ids<10] yes=33,no=34,missing=33
					33:leaf=-0.116529
					34:leaf=0.088303
			10:[id<150971] yes=19,no=20,missing=19
				19:leaf=0.778179
				20:[id<165369] yes=35,no=36,missing=35
					35:leaf=-0.099785
					36:leaf=0.193807
		6:[id<100567] yes=11,no=12,missing=11
			11:[id<98466] yes=21,no=22,missing=21
				21:[log_froms<3] yes=37,no=38,missing=37
					37:leaf=0.0135349
					38:leaf=-0.136147
				22:leaf=0.453549
			12:[id<110298] yes=23,no=24,missing=23
				23:leaf=-0.213495
				24:[id<116797] yes=39,no=40,missing=39
					39:leaf=0.167286
					40:leaf=-0.0595125
booster[19]:
0:[id<166837] yes=1,no=2,missing=1
	1:[id<165418] yes=3,no=4,missing=3
		3:[log_ids<24] yes=7,no=8,missing=7
			7:[log_ids<14] yes=11,no=12,missing=11
				11:[log_ids<12] yes=15,no=16,missing=15
					15:leaf=-0.00182194
					16:leaf=-0.232028
				12:[divs<9] yes=17,no=18,missing=17
					17:leaf=0.118637
					18:leaf=-0.159315
			8:[id<46518] yes=13,no=14,missing=13
				13:[divs<14] yes=19,no=20,missing=19
					19:leaf=-0.260986
					20:leaf=-0.0899778
				14:[id<76973] yes=21,no=22,missing=21
					21:leaf=0.123684
					22:leaf=-0.142752
		4:leaf=0.373253
	2:[divs<7] yes=5,no=6,missing=5
		5:[log_ids<4] yes=9,no=10,missing=9
			9:leaf=-0.141456
			10:leaf=-0.281287
		6:leaf=0.192673
booster[20]:
0:[id<166837] yes=1,no=2,missing=1
	1:[id<165283] yes=3,no=4,missing=3
		3:[id<163472] yes=7,no=8,missing=7
			7:[id<160318] yes=9,no=10,missing=9
				9:[id<153074] yes=11,no=12,missing=11
					11:leaf=-0.00774313
					12:leaf=-0.190217
				10:[divs<5] yes=13,no=14,missing=13
					13:leaf=-0.0597125
					14:leaf=0.36404
			8:leaf=-0.194583
		4:leaf=0.285103
	2:[divs<7] yes=5,no=6,missing=5
		5:leaf=-0.25697
		6:leaf=0.121444
booster[21]:
0:[log_ids<7] yes=1,no=2,missing=1
	1:[log_ids<6] yes=3,no=4,missing=3
		3:[id<115881] yes=7,no=8,missing=7
			7:[id<113002] yes=15,no=16,missing=15
				15:[id<105103] yes=27,no=28,missing=27
					27:leaf=0.0265203
					28:leaf=-0.211345
				16:leaf=0.424935
			8:[id<152983] yes=17,no=18,missing=17
				17:[log_froms<2] yes=29,no=30,missing=29
					29:leaf=-0.082091
					30:leaf=-0.252626
				18:[id<165425] yes=31,no=32,missing=31
					31:leaf=0.163935
					32:leaf=-0.164493
		4:[id<133788] yes=9,no=10,missing=9
			9:[citys<4] yes=19,no=20,missing=19
				19:[id<62884] yes=33,no=34,missing=33
					33:leaf=0.059076
					34:leaf=-0.223006
				20:leaf=0.212585
			10:leaf=0.413081
	2:[citys<6] yes=5,no=6,missing=5
		5:[id<170234] yes=11,no=12,missing=11
			11:[log_ids<14] yes=21,no=22,missing=21
				21:[citys<4] yes=35,no=36,missing=35
					35:leaf=-0.222904
					36:leaf=-0.0876483
				22:[log_ids<20] yes=37,no=38,missing=37
					37:leaf=0.0492785
					38:leaf=-0.16227
			12:leaf=0.17128
		6:[id<69730] yes=13,no=14,missing=13
			13:[id<28672] yes=23,no=24,missing=23
				23:[id<18734] yes=39,no=40,missing=39
					39:leaf=-0.114222
					40:leaf=0.275205
				24:[citys<9] yes=41,no=42,missing=41
					41:leaf=-0.264493
					42:leaf=-0.0777926
			14:[log_ids<27] yes=25,no=26,missing=25
				25:[log_ids<11] yes=43,no=44,missing=43
					43:leaf=0.124651
					44:leaf=-0.136621
				26:[id<78655] yes=45,no=46,missing=45
					45:leaf=0.345914
					46:leaf=0.0894267
booster[22]:
0:[citys<2] yes=1,no=2,missing=1
	1:[id<138905] yes=3,no=4,missing=3
		3:[id<115718] yes=7,no=8,missing=7
			7:[id<110097] yes=13,no=14,missing=13
				13:[log_ids<3] yes=19,no=20,missing=19
					19:leaf=0.0248567
					20:leaf=-0.122055
				14:leaf=-0.260724
			8:[id<119050] yes=15,no=16,missing=15
				15:leaf=0.645053
				16:[id<134305] yes=21,no=22,missing=21
					21:leaf=-0.251516
					22:leaf=0.280024
		4:[id<165769] yes=9,no=10,missing=9
			9:leaf=-0.252127
			10:leaf=-0.0471163
	2:[id<5710] yes=5,no=6,missing=5
		5:leaf=-0.263852
		6:[id<9501] yes=11,no=12,missing=11
			11:leaf=0.240509
			12:[id<166841] yes=17,no=18,missing=17
				17:[id<14890] yes=23,no=24,missing=23
					23:leaf=-0.11372
					24:leaf=0.038002
				18:[log_ids<24] yes=25,no=26,missing=25
					25:leaf=-0.26552
					26:leaf=0.0732038
booster[23]:
0:[ips<68] yes=1,no=2,missing=1
	1:[ips<58] yes=3,no=4,missing=3
		3:[log_ids<45] yes=5,no=6,missing=5
			5:[ips<6] yes=7,no=8,missing=7
				7:[log_ids<7] yes=11,no=12,missing=11
					11:leaf=-0.0172156
					12:leaf=-0.111138
				8:[divs<5] yes=13,no=14,missing=13
					13:leaf=0.0818917
					14:leaf=-0.00968222
			6:[divs<18] yes=9,no=10,missing=9
				9:leaf=-0.221607
				10:leaf=-0.0871812
		4:leaf=0.367201
	2:leaf=-0.241648
booster[24]:
0:[id<133066] yes=1,no=2,missing=1
	1:[id<116797] yes=3,no=4,missing=3
		3:[id<115718] yes=7,no=8,missing=7
			7:[id<47803] yes=13,no=14,missing=13
				13:[id<45216] yes=21,no=22,missing=21
					21:leaf=-0.0113357
					22:leaf=0.356612
				14:[id<84847] yes=23,no=24,missing=23
					23:leaf=-0.117793
					24:leaf=0.00830447
			8:leaf=0.569566
		4:[log_ids<10] yes=9,no=10,missing=9
			9:leaf=-0.251366
			10:[id<125014] yes=15,no=16,missing=15
				15:leaf=-0.181765
				16:leaf=-0.0110577
	2:[id<135132] yes=5,no=6,missing=5
		5:leaf=0.461655
		6:[citys<2] yes=11,no=12,missing=11
			11:[id<140972] yes=17,no=18,missing=17
				17:leaf=0.0604592
				18:[id<163721] yes=25,no=26,missing=25
					25:leaf=-0.218595
					26:leaf=-0.0812634
			12:[id<142851] yes=19,no=20,missing=19
				19:[citys<4] yes=27,no=28,missing=27
					27:leaf=-0.239353
					28:leaf=0.0163744
				20:[id<147429] yes=29,no=30,missing=29
					29:leaf=0.331944
					30:leaf=0.0667773
booster[25]:
0:[ips<14] yes=1,no=2,missing=1
	1:[id<165899] yes=3,no=4,missing=3
		3:[id<165283] yes=7,no=8,missing=7
			7:[id<136378] yes=13,no=14,missing=13
				13:[id<135061] yes=17,no=18,missing=17
					17:leaf=-0.00466293
					18:leaf=0.380125
				14:[id<143040] yes=19,no=20,missing=19
					19:leaf=-0.240496
					20:leaf=-0.0580677
			8:leaf=0.26817
		4:[log_froms<2] yes=9,no=10,missing=9
			9:leaf=-0.105535
			10:leaf=-0.253839
	2:[id<32715] yes=5,no=6,missing=5
		5:leaf=-0.214088
		6:[ips<63] yes=11,no=12,missing=11
			11:[id<134274] yes=15,no=16,missing=15
				15:[citys<7] yes=21,no=22,missing=21
					21:leaf=-0.0556506
					22:leaf=0.134689
				16:[citys<7] yes=23,no=24,missing=23
					23:leaf=0.290234
					24:leaf=-0.0774273
			12:leaf=-0.0589967
booster[26]:
0:[log_ids<134] yes=1,no=2,missing=1
	1:[log_ids<90] yes=3,no=4,missing=3
		3:[log_ids<45] yes=7,no=8,missing=7
			7:[id<96564] yes=9,no=10,missing=9
				9:[id<88640] yes=11,no=12,missing=11
					11:leaf=0.0103467
					12:leaf=-0.186122
				10:[id<100535] yes=13,no=14,missing=13
					13:leaf=0.184602
					14:leaf=0.0156909
			8:leaf=-0.164151
		4:leaf=0.270023
	2:[ips<62] yes=5,no=6,missing=5
		5:leaf=-0.221768
		6:leaf=-0.0368744
booster[27]:
0:[ips<2] yes=1,no=2,missing=1
	1:[id<75106] yes=3,no=4,missing=3
		3:leaf=-0.195642
		4:[id<136054] yes=7,no=8,missing=7
			7:[id<109957] yes=13,no=14,missing=13
				13:[id<87338] yes=21,no=22,missing=21
					21:leaf=0.168639
					22:leaf=-0.185359
				14:[id<115853] yes=23,no=24,missing=23
					23:leaf=0.252074
					24:leaf=-0.043882
			8:leaf=-0.200547
	2:[id<47006] yes=5,no=6,missing=5
		5:[id<35264] yes=9,no=10,missing=9
			9:[id<31568] yes=15,no=16,missing=15
				15:[ips<12] yes=25,no=26,missing=25
					25:leaf=0.0827588
					26:leaf=-0.222616
				16:leaf=-0.229086
			10:[id<36646] yes=17,no=18,missing=17
				17:leaf=0.459819
				18:[id<44785] yes=27,no=28,missing=27
					27:leaf=-0.00069227
					28:leaf=0.287026
		6:[id<49300] yes=11,no=12,missing=11
			11:leaf=-0.251226
			12:[id<134216] yes=19,no=20,missing=19
				19:[id<117538] yes=29,no=30,missing=29
					29:leaf=-0.0173851
					30:leaf=-0.17261
				20:[id<135105] yes=31,no=32,missing=31
					31:leaf=0.394563
					32:leaf=-0.00413441
booster[28]:
0:[citys<6] yes=1,no=2,missing=1
	1:[id<100033] yes=3,no=4,missing=3
		3:[log_ids<48] yes=7,no=8,missing=7
			7:[divs<7] yes=15,no=16,missing=15
				15:[id<58481] yes=21,no=22,missing=21
					21:leaf=0.0149658
					22:leaf=-0.0977542
				16:leaf=-0.260541
			8:leaf=0.270088
		4:[log_ids<32] yes=9,no=10,missing=9
			9:[log_ids<14] yes=17,no=18,missing=17
				17:[id<110080] yes=23,no=24,missing=23
					23:leaf=0.151814
					24:leaf=-0.0340468
				18:[citys<2] yes=25,no=26,missing=25
					25:leaf=-0.0996581
					26:leaf=0.237917
			10:leaf=-0.268655
	2:[id<136816] yes=5,no=6,missing=5
		5:[log_ids<45] yes=11,no=12,missing=11
			11:[id<75936] yes=19,no=20,missing=19
				19:[citys<9] yes=27,no=28,missing=27
					27:leaf=0.182101
					28:leaf=-0.0414382
				20:[citys<7] yes=29,no=30,missing=29
					29:leaf=0.0183012
					30:leaf=0.311457
			12:leaf=-0.104645
		6:[log_ids<36] yes=13,no=14,missing=13
			13:leaf=-0.239264
			14:leaf=0.165542
booster[29]:
0:[id<5712] yes=1,no=2,missing=1
	1:leaf=-0.226501
	2:[citys<3] yes=3,no=4,missing=3
		3:[id<136018] yes=5,no=6,missing=5
			5:[id<86127] yes=9,no=10,missing=9
				9:[id<75505] yes=15,no=16,missing=15
					15:leaf=-0.00940748
					16:leaf=-0.274883
				10:[id<98653] yes=17,no=18,missing=17
					17:leaf=0.258315
					18:leaf=0.0055465
			6:[id<162198] yes=11,no=12,missing=11
				11:[log_ids<6] yes=19,no=20,missing=19
					19:leaf=-0.268826
					20:leaf=-0.108976
				12:[id<165845] yes=21,no=22,missing=21
					21:leaf=0.175031
					22:leaf=-0.203021
		4:[log_ids<4] yes=7,no=8,missing=7
			7:leaf=0.254492
			8:[log_ids<99] yes=13,no=14,missing=13
				13:[log_ids<43] yes=23,no=24,missing=23
					23:leaf=0.00143388
					24:leaf=0.159077
				14:[citys<11] yes=25,no=26,missing=25
					25:leaf=-0.230599
					26:leaf=0.0232564
booster[30]:
0:[id<171044] yes=1,no=2,missing=1
	1:[id<10442] yes=3,no=4,missing=3
		3:[id<5746] yes=5,no=6,missing=5
			5:leaf=0.00537176
			6:[citys<3] yes=9,no=10,missing=9
				9:leaf=-0.236002
				10:leaf=-0.0526923
		4:[id<19322] yes=7,no=8,missing=7
			7:[id<14890] yes=11,no=12,missing=11
				11:[id<11640] yes=15,no=16,missing=15
					15:leaf=0.225356
					16:leaf=-0.205356
				12:[log_ids<13] yes=17,no=18,missing=17
					17:leaf=0.151491
					18:leaf=0.379154
			8:[id<27800] yes=13,no=14,missing=13
				13:leaf=-0.18106
				14:[id<28555] yes=19,no=20,missing=19
					19:leaf=0.296549
					20:leaf=0.00135426
	2:leaf=-0.180178
booster[31]:
0:[divs<6] yes=1,no=2,missing=1
	1:[log_ids<20] yes=3,no=4,missing=3
		3:[log_ids<19] yes=7,no=8,missing=7
			7:[log_ids<16] yes=15,no=16,missing=15
				15:[id<84845] yes=23,no=24,missing=23
					23:leaf=0.000163264
					24:leaf=0.0701546
				16:[id<55962] yes=25,no=26,missing=25
					25:leaf=-0.0170906
					26:leaf=-0.258948
			8:leaf=0.305256
		4:[divs<4] yes=9,no=10,missing=9
			9:leaf=0.0481836
			10:[log_froms<3] yes=17,no=18,missing=17
				17:leaf=-0.247698
				18:leaf=-0.0925501
	2:[log_ids<15] yes=5,no=6,missing=5
		5:[id<136208] yes=11,no=12,missing=11
			11:leaf=-0.264133
			12:leaf=0.0898734
		6:[id<160318] yes=13,no=14,missing=13
			13:[divs<12] yes=19,no=20,missing=19
				19:[log_ids<17] yes=27,no=28,missing=27
					27:leaf=0.0431143
					28:leaf=-0.152889
				20:[id<116391] yes=29,no=30,missing=29
					29:leaf=0.108064
					30:leaf=-0.177009
			14:[divs<9] yes=21,no=22,missing=21
				21:leaf=0.243299
				22:leaf=-0.144804
booster[32]:
0:[divs<5] yes=1,no=2,missing=1
	1:[id<5712] yes=3,no=4,missing=3
		3:leaf=-0.246251
		4:[id<9913] yes=7,no=8,missing=7
			7:leaf=0.323756
			8:[id<156812] yes=13,no=14,missing=13
				13:[id<133434] yes=21,no=22,missing=21
					21:leaf=0.00836018
					22:leaf=0.130819
				14:[id<165395] yes=23,no=24,missing=23
					23:leaf=-0.191063
					24:leaf=0.0407066
	2:[id<143729] yes=5,no=6,missing=5
		5:[log_ids<8] yes=9,no=10,missing=9
			9:leaf=-0.249512
			10:[id<97938] yes=15,no=16,missing=15
				15:[ips<7] yes=25,no=26,missing=25
					25:leaf=0.165007
					26:leaf=-0.0167218
				16:[log_ids<16] yes=27,no=28,missing=27
					27:leaf=0.0301113
					28:leaf=-0.222362
		6:[divs<8] yes=11,no=12,missing=11
			11:[ips<16] yes=17,no=18,missing=17
				17:[id<162331] yes=29,no=30,missing=29
					29:leaf=0.187264
					30:leaf=-0.193037
				18:leaf=0.282931
			12:[id<160422] yes=19,no=20,missing=19
				19:leaf=0.0447499
				20:[log_ids<36] yes=31,no=32,missing=31
					31:leaf=-0.17585
					32:leaf=-0.0541343
booster[33]:
0:[id<5746] yes=1,no=2,missing=1
	1:leaf=0.194587
	2:[citys<6] yes=3,no=4,missing=3
		3:[id<165899] yes=5,no=6,missing=5
			5:[id<165283] yes=9,no=10,missing=9
				9:[divs<7] yes=17,no=18,missing=17
					17:leaf=-0.0290881
					18:leaf=-0.115489
				10:leaf=0.245882
			6:[divs<7] yes=11,no=12,missing=11
				11:leaf=-0.263264
				12:leaf=0.044942
		4:[id<98093] yes=7,no=8,missing=7
			7:[citys<9] yes=13,no=14,missing=13
				13:[divs<5] yes=19,no=20,missing=19
					19:leaf=0.292833
					20:leaf=0.108437
				14:[citys<11] yes=21,no=22,missing=21
					21:leaf=-0.184699
					22:leaf=0.0420992
			8:[divs<14] yes=15,no=16,missing=15
				15:[citys<7] yes=23,no=24,missing=23
					23:leaf=-0.277292
					24:leaf=-0.0586692
				16:leaf=0.16245
booster[34]:
0:[log_ids<2] yes=1,no=2,missing=1
	1:leaf=0.0539472
	2:[citys<11] yes=3,no=4,missing=3
		3:[log_froms<3] yes=5,no=6,missing=5
			5:[log_ids<9] yes=9,no=10,missing=9
				9:[log_ids<5] yes=15,no=16,missing=15
					15:leaf=-0.048281
					16:leaf=0.0395699
				10:[log_ids<23] yes=17,no=18,missing=17
					17:leaf=-0.0779857
					18:leaf=0.00961661
			6:[log_ids<9] yes=11,no=12,missing=11
				11:leaf=-0.25809
				12:[divs<9] yes=19,no=20,missing=19
					19:leaf=0.00361237
					20:leaf=-0.169158
		4:[divs<18] yes=7,no=8,missing=7
			7:[log_ids<28] yes=13,no=14,missing=13
				13:leaf=-0.0138048
				14:leaf=0.229294
			8:leaf=-0.0485892
booster[35]:
0:[divs<3] yes=1,no=2,missing=1
	1:[log_ids<7] yes=3,no=4,missing=3
		3:[citys<3] yes=7,no=8,missing=7
			7:[divs<2] yes=15,no=16,missing=15
				15:[citys<2] yes=29,no=30,missing=29
					29:leaf=-0.0125301
					30:leaf=0.196084
				16:[log_ids<6] yes=31,no=32,missing=31
					31:leaf=-0.102645
					32:leaf=0.112382
			8:[divs<2] yes=17,no=18,missing=17
				17:leaf=-0.0670778
				18:[citys<4] yes=33,no=34,missing=33
					33:leaf=0.182089
					34:leaf=0.0313936
		4:[citys<3] yes=9,no=10,missing=9
			9:leaf=-0.258291
			10:[citys<5] yes=19,no=20,missing=19
				19:leaf=0.0991822
				20:leaf=-0.119284
	2:[citys<3] yes=5,no=6,missing=5
		5:[log_ids<20] yes=11,no=12,missing=11
			11:[log_froms<2] yes=21,no=22,missing=21
				21:leaf=0.259086
				22:[log_ids<5] yes=35,no=36,missing=35
					35:leaf=-0.189584
					36:leaf=0.11228
			12:[divs<13] yes=23,no=24,missing=23
				23:leaf=-0.214466
				24:leaf=0.172306
		6:[log_ids<8] yes=13,no=14,missing=13
			13:[divs<4] yes=25,no=26,missing=25
				25:[log_ids<5] yes=37,no=38,missing=37
					37:leaf=-0.0909206
					38:leaf=-0.20074
				26:[divs<5] yes=39,no=40,missing=39
					39:leaf=0.0705237
					40:leaf=-0.209712
			14:[divs<4] yes=27,no=28,missing=27
				27:[log_ids<16] yes=41,no=42,missing=41
					41:leaf=0.0852957
					42:leaf=0.331321
				28:[log_ids<17] yes=43,no=44,missing=43
					43:leaf=0.0709581
					44:leaf=-0.0402374
booster[36]:
0:[ips<14] yes=1,no=2,missing=1
	1:[log_ids<21] yes=3,no=4,missing=3
		3:[log_ids<15] yes=7,no=8,missing=7
			7:[log_ids<9] yes=15,no=16,missing=15
				15:[ips<6] yes=27,no=28,missing=27
					27:leaf=0.00470507
					28:leaf=0.0649125
				16:[divs<6] yes=29,no=30,missing=29
					29:leaf=-0.0654127
					30:leaf=-0.192138
			8:[citys<4] yes=17,no=18,missing=17
				17:[ips<9] yes=31,no=32,missing=31
					31:leaf=0.000522568
					32:leaf=0.249325
				18:[ips<10] yes=33,no=34,missing=33
					33:leaf=0.0563963
					34:leaf=-0.252865
		4:[log_ids<29] yes=9,no=10,missing=9
			9:leaf=-0.257699
			10:leaf=0.0366153
	2:[ips<23] yes=5,no=6,missing=5
		5:[log_ids<22] yes=11,no=12,missing=11
			11:[ips<15] yes=19,no=20,missing=19
				19:leaf=0.0690878
				20:leaf=-0.135166
			12:[log_ids<25] yes=21,no=22,missing=21
				21:leaf=0.372809
				22:[divs<10] yes=35,no=36,missing=35
					35:leaf=-0.0907027
					36:leaf=0.178521
		6:[log_ids<120] yes=13,no=14,missing=13
			13:[divs<8] yes=23,no=24,missing=23
				23:leaf=0.0341067
				24:leaf=-0.216039
			14:[ips<63] yes=25,no=26,missing=25
				25:leaf=0.124805
				26:leaf=-0.0484364
booster[37]:
0:[ips<9] yes=1,no=2,missing=1
	1:[log_ids<12] yes=3,no=4,missing=3
		3:[id<147362] yes=7,no=8,missing=7
			7:[id<115853] yes=15,no=16,missing=15
				15:[id<115507] yes=27,no=28,missing=27
					27:leaf=-0.0101178
					28:leaf=0.283976
				16:[id<135061] yes=29,no=30,missing=29
					29:leaf=-0.236356
					30:leaf=-0.105129
			8:[ips<3] yes=17,no=18,missing=17
				17:[id<165364] yes=31,no=32,missing=31
					31:leaf=-0.188698
					32:leaf=0.197245
				18:[id<162264] yes=33,no=34,missing=33
					33:leaf=0.26349
					34:leaf=-0.110059
		4:[ips<5] yes=9,no=10,missing=9
			9:leaf=0.0501098
			10:[id<107988] yes=19,no=20,missing=19
				19:leaf=-0.26615
				20:leaf=-0.0507469
	2:[id<146597] yes=5,no=6,missing=5
		5:[id<116345] yes=11,no=12,missing=11
			11:[id<97948] yes=21,no=22,missing=21
				21:[id<25747] yes=35,no=36,missing=35
					35:leaf=-0.0954338
					36:leaf=0.0600294
				22:leaf=-0.233052
			12:[citys<5] yes=23,no=24,missing=23
				23:leaf=0.337253
				24:leaf=0.019309
		6:[ips<16] yes=13,no=14,missing=13
			13:leaf=-0.203584
			14:[log_ids<32] yes=25,no=26,missing=25
				25:leaf=0.10964
				26:leaf=-0.0879979
booster[38]:
0:[id<15113] yes=1,no=2,missing=1
	1:[divs<4] yes=3,no=4,missing=3
		3:[ips<4] yes=7,no=8,missing=7
			7:leaf=-0.159334
			8:leaf=0.0911039
		4:[id<10365] yes=9,no=10,missing=9
			9:leaf=-0.249892
			10:leaf=-0.0942701
	2:[id<19296] yes=5,no=6,missing=5
		5:[divs<4] yes=11,no=12,missing=11
			11:leaf=0.274414
			12:leaf=-0.0550956
		6:[id<25760] yes=13,no=14,missing=13
			13:leaf=-0.163697
			14:[id<42698] yes=15,no=16,missing=15
				15:[id<35264] yes=17,no=18,missing=17
					17:leaf=-0.0148318
					18:leaf=0.172997
				16:[id<46695] yes=19,no=20,missing=19
					19:leaf=-0.209091
					20:leaf=-0.0101239
booster[39]:
0:[id<147419] yes=1,no=2,missing=1
	1:[id<135061] yes=3,no=4,missing=3
		3:[id<116797] yes=7,no=8,missing=7
			7:[id<115718] yes=15,no=16,missing=15
				15:[id<112623] yes=25,no=26,missing=25
					25:leaf=0.011665
					26:leaf=-0.221135
				16:leaf=0.280448
			8:[id<121971] yes=17,no=18,missing=17
				17:leaf=-0.212025
				18:[divs<3] yes=27,no=28,missing=27
					27:leaf=-0.130571
					28:leaf=0.0720237
		4:[log_ids<6] yes=9,no=10,missing=9
			9:leaf=-0.0912882
			10:[log_ids<17] yes=19,no=20,missing=19
				19:[log_ids<8] yes=29,no=30,missing=29
					29:leaf=0.127904
					30:leaf=0.312784
				20:leaf=-0.0443445
	2:[log_ids<4] yes=5,no=6,missing=5
		5:[divs<2] yes=11,no=12,missing=11
			11:leaf=-0.0601203
			12:leaf=0.209024
		6:[divs<7] yes=13,no=14,missing=13
			13:[log_ids<9] yes=21,no=22,missing=21
				21:[id<162314] yes=31,no=32,missing=31
					31:leaf=0.0305175
					32:leaf=-0.207035
				22:[log_ids<17] yes=33,no=34,missing=33
					33:leaf=-0.256046
					34:leaf=-0.110387
			14:[id<166778] yes=23,no=24,missing=23
				23:leaf=-0.0936657
				24:leaf=0.167248
booster[40]:
0:[log_ids<7] yes=1,no=2,missing=1
	1:[id<31571] yes=3,no=4,missing=3
		3:[id<27744] yes=7,no=8,missing=7
			7:[id<12627] yes=15,no=16,missing=15
				15:[id<10428] yes=29,no=30,missing=29
					29:leaf=0.0475424
					30:leaf=0.209009
				16:[log_ids<4] yes=31,no=32,missing=31
					31:leaf=-0.137838
					32:leaf=-0.0152161
			8:leaf=0.428374
		4:[id<41934] yes=9,no=10,missing=9
			9:[id<36643] yes=17,no=18,missing=17
				17:leaf=-0.0589339
				18:leaf=-0.232208
			10:[id<47806] yes=19,no=20,missing=19
				19:leaf=0.261699
				20:[id<110893] yes=33,no=34,missing=33
					33:leaf=0.0584202
					34:leaf=-0.0308591
	2:[log_ids<19] yes=5,no=6,missing=5
		5:[id<96468] yes=11,no=12,missing=11
			11:[citys<7] yes=21,no=22,missing=21
				21:[id<71318] yes=35,no=36,missing=35
					35:leaf=-0.0555835
					36:leaf=-0.240604
				22:[id<77546] yes=37,no=38,missing=37
					37:leaf=-0.00716133
					38:leaf=0.143646
			12:[id<116786] yes=23,no=24,missing=23
				23:[id<108223] yes=39,no=40,missing=39
					39:leaf=-0.0109827
					40:leaf=0.330612
				24:[id<140186] yes=41,no=42,missing=41
					41:leaf=-0.172233
					42:leaf=0.0581395
		6:[id<41154] yes=13,no=14,missing=13
			13:[log_ids<21] yes=25,no=26,missing=25
				25:leaf=0.36116
				26:leaf=-0.024118
			14:[log_ids<22] yes=27,no=28,missing=27
				27:leaf=-0.192452
				28:[log_ids<25] yes=43,no=44,missing=43
					43:leaf=0.193574
					44:leaf=-0.0228555
booster[41]:
0:[id<170269] yes=1,no=2,missing=1
	1:[id<87338] yes=3,no=4,missing=3
		3:[id<84841] yes=5,no=6,missing=5
			5:[id<81625] yes=9,no=10,missing=9
				9:[id<72814] yes=15,no=16,missing=15
					15:leaf=-0.0107585
					16:leaf=0.107324
				10:leaf=-0.26737
			6:leaf=0.214855
		4:[divs<14] yes=7,no=8,missing=7
			7:[divs<7] yes=11,no=12,missing=11
				11:[id<96571] yes=17,no=18,missing=17
					17:leaf=-0.173505
					18:leaf=-0.015595
				12:[log_ids<23] yes=19,no=20,missing=19
					19:leaf=-0.139055
					20:leaf=-0.2643
			8:[log_ids<125] yes=13,no=14,missing=13
				13:leaf=0.184146
				14:leaf=0.0200062
	2:leaf=0.127712
booster[42]:
0:[citys<15] yes=1,no=2,missing=1
	1:[ips<60] yes=3,no=4,missing=3
		3:[log_ids<49] yes=5,no=6,missing=5
			5:[citys<6] yes=7,no=8,missing=7
				7:[log_ids<27] yes=9,no=10,missing=9
					9:leaf=0.00127881
					10:leaf=-0.126467
				8:[ips<9] yes=11,no=12,missing=11
					11:leaf=-0.0637815
					12:leaf=0.0697756
			6:leaf=-0.133652
		4:leaf=0.137961
	2:leaf=-0.139808
booster[43]:
0:[id<84847] yes=1,no=2,missing=1
	1:[id<78259] yes=3,no=4,missing=3
		3:[id<72918] yes=7,no=8,missing=7
			7:[id<41983] yes=15,no=16,missing=15
				15:[ips<12] yes=25,no=26,missing=25
					25:leaf=0.0383895
					26:leaf=-0.191848
				16:[ips<5] yes=27,no=28,missing=27
					27:leaf=-0.145352
					28:leaf=0.00203373
			8:[log_ids<8] yes=17,no=18,missing=17
				17:leaf=0.301464
				18:leaf=-0.016291
		4:[id<80146] yes=9,no=10,missing=9
			9:leaf=-0.255412
			10:leaf=-0.109383
	2:[divs<5] yes=5,no=6,missing=5
		5:[id<100535] yes=11,no=12,missing=11
			11:[id<96571] yes=19,no=20,missing=19
				19:[id<88649] yes=29,no=30,missing=29
					29:leaf=0.168788
					30:leaf=-0.120833
				20:[divs<3] yes=31,no=32,missing=31
					31:leaf=0.0421415
					32:leaf=0.365137
			12:[ips<8] yes=21,no=22,missing=21
				21:[id<115718] yes=33,no=34,missing=33
					33:leaf=-0.122202
					34:leaf=0.0278204
				22:[id<138968] yes=35,no=36,missing=35
					35:leaf=0.327301
					36:leaf=-0.0661978
		6:[ips<34] yes=13,no=14,missing=13
			13:[id<115287] yes=23,no=24,missing=23
				23:[divs<8] yes=37,no=38,missing=37
					37:leaf=-0.276842
					38:leaf=-0.0214744
				24:[divs<9] yes=39,no=40,missing=39
					39:leaf=0.0488014
					40:leaf=-0.149893
			14:leaf=0.124657
booster[44]:
0:[id<5712] yes=1,no=2,missing=1
	1:leaf=-0.190392
	2:[id<159738] yes=3,no=4,missing=3
		3:[id<110884] yes=5,no=6,missing=5
			5:[id<108234] yes=9,no=10,missing=9
				9:[id<105111] yes=15,no=16,missing=15
					15:leaf=0.0165545
					16:leaf=-0.159972
				10:leaf=0.314814
			6:[id<115287] yes=11,no=12,missing=11
				11:leaf=-0.219048
				12:[id<116797] yes=17,no=18,missing=17
					17:leaf=0.121836
					18:leaf=-0.0529706
		4:[id<171044] yes=7,no=8,missing=7
			7:[log_froms<3] yes=13,no=14,missing=13
				13:[id<165899] yes=19,no=20,missing=19
					19:leaf=0.0938464
					20:leaf=-0.0724781
				14:leaf=0.278061
			8:leaf=-0.0759285
booster[45]:
0:[log_froms<2] yes=1,no=2,missing=1
	1:[log_ids<5] yes=3,no=4,missing=3
		3:[log_ids<4] yes=7,no=8,missing=7
			7:[ips<3] yes=15,no=16,missing=15
				15:[citys<2] yes=27,no=28,missing=27
					27:leaf=-0.0199186
					28:leaf=-0.130168
				16:leaf=0.0529593
			8:leaf=0.127024
		4:[ips<7] yes=9,no=10,missing=9
			9:[log_ids<6] yes=17,no=18,missing=17
				17:leaf=-0.0582093
				18:leaf=-0.209922
			10:[log_ids<24] yes=19,no=20,missing=19
				19:[log_ids<16] yes=29,no=30,missing=29
					29:leaf=0.101982
					30:leaf=0.0304663
				20:leaf=-0.142098
	2:[log_ids<5] yes=5,no=6,missing=5
		5:[log_ids<4] yes=11,no=12,missing=11
			11:[ips<3] yes=21,no=22,missing=21
				21:[citys<2] yes=31,no=32,missing=31
					31:leaf=-0.0408493
					32:leaf=-0.0971767
				22:leaf=0.19318
			12:[citys<3] yes=23,no=24,missing=23
				23:leaf=-0.197676
				24:[citys<4] yes=33,no=34,missing=33
					33:leaf=-0.0294785
					34:leaf=-0.108432
		6:[ips<3] yes=13,no=14,missing=13
			13:leaf=0.126136
			14:[ips<4] yes=25,no=26,missing=25
				25:leaf=-0.178921
				26:[ips<7] yes=35,no=36,missing=35
					35:leaf=0.06552
					36:leaf=-0.000825743
booster[46]:
0:[divs<3] yes=1,no=2,missing=1
	1:[id<135061] yes=3,no=4,missing=3
		3:[id<115853] yes=7,no=8,missing=7
			7:[id<41934] yes=13,no=14,missing=13
				13:[id<27836] yes=23,no=24,missing=23
					23:leaf=0.0398574
					24:leaf=-0.18619
				14:[id<48117] yes=25,no=26,missing=25
					25:leaf=0.262991
					26:leaf=-0.0146316
			8:leaf=-0.199946
		4:[id<160450] yes=9,no=10,missing=9
			9:[id<152735] yes=15,no=16,missing=15
				15:[id<136035] yes=27,no=28,missing=27
					27:leaf=0.221925
					28:leaf=-0.100274
				16:leaf=0.279535
			10:[id<165497] yes=17,no=18,missing=17
				17:leaf=-0.00644993
				18:leaf=-0.127356
	2:[id<5894] yes=5,no=6,missing=5
		5:leaf=0.2154
		6:[id<25758] yes=11,no=12,missing=11
			11:[citys<3] yes=19,no=20,missing=19
				19:leaf=-0.217112
				20:[divs<4] yes=29,no=30,missing=29
					29:leaf=0.15533
					30:leaf=-0.0868703
			12:[id<28555] yes=21,no=22,missing=21
				21:leaf=0.248474
				22:[citys<2] yes=31,no=32,missing=31
					31:leaf=0.135864
					32:leaf=-0.0011602
booster[47]:
0:[divs<32] yes=1,no=2,missing=1
	1:[ips<14] yes=3,no=4,missing=3
		3:[log_froms<2] yes=5,no=6,missing=5
			5:[citys<3] yes=9,no=10,missing=9
				9:[divs<3] yes=15,no=16,missing=15
					15:leaf=-0.0370379
					16:leaf=0.0850203
				10:[ips<7] yes=17,no=18,missing=17
					17:leaf=-0.177834
					18:leaf=-0.000162282
			6:[ips<7] yes=11,no=12,missing=11
				11:[ips<6] yes=19,no=20,missing=19
					19:leaf=-0.0070602
					20:leaf=0.100534
				12:[divs<4] yes=21,no=22,missing=21
					21:leaf=-0.0939417
					22:leaf=-0.00677775
		4:[divs<4] yes=7,no=8,missing=7
			7:leaf=0.243344
			8:[divs<6] yes=13,no=14,missing=13
				13:leaf=-0.185346
				14:[ips<21] yes=23,no=24,missing=23
					23:leaf=0.100349
					24:leaf=-0.0205092
	2:leaf=-0.15314
booster[48]:
0:[divs<32] yes=1,no=2,missing=1
	1:[log_ids<43] yes=3,no=4,missing=3
		3:[divs<7] yes=5,no=6,missing=5
			5:[divs<6] yes=9,no=10,missing=9
				9:[citys<9] yes=15,no=16,missing=15
					15:leaf=-0.00427567
					16:leaf=-0.0741019
				10:[citys<5] yes=17,no=18,missing=17
					17:leaf=0.140866
					18:leaf=-0.0934028
			6:[log_ids<30] yes=11,no=12,missing=11
				11:[citys<5] yes=19,no=20,missing=19
					19:leaf=-0.187214
					20:leaf=-0.0268221
				12:[divs<13] yes=21,no=22,missing=21
					21:leaf=-0.0216585
					22:leaf=0.126675
		4:[log_ids<122] yes=7,no=8,missing=7
			7:[divs<13] yes=13,no=14,missing=13
				13:leaf=0.056268
				14:leaf=0.205036
			8:leaf=-0.0109897
	2:leaf=-0.131043
booster[49]:
0:[id<35264] yes=1,no=2,missing=1
	1:[id<31548] yes=3,no=4,missing=3
		3:[id<27748] yes=7,no=8,missing=7
			7:[divs<2] yes=13,no=14,missing=13
				13:leaf=-0.220605
				14:[id<22077] yes=23,no=24,missing=23
					23:leaf=0.00208397
					24:leaf=-0.187092
			8:[citys<4] yes=15,no=16,missing=15
				15:leaf=0.156533
				16:leaf=-0.0910837
		4:leaf=-0.237178
	2:[id<41974] yes=5,no=6,missing=5
		5:[log_ids<5] yes=9,no=10,missing=9
			9:leaf=0.310759
			10:[id<38407] yes=17,no=18,missing=17
				17:leaf=-0.02393
				18:leaf=0.204029
		6:[id<69894] yes=11,no=12,missing=11
			11:[citys<3] yes=19,no=20,missing=19
				19:[citys<2] yes=25,no=26,missing=25
					25:leaf=-0.110102
					26:leaf=0.149263
				20:[id<55602] yes=27,no=28,missing=27
					27:leaf=-0.116302
					28:leaf=-0.258155
			12:[id<71194] yes=21,no=22,missing=21
				21:leaf=0.256437
				22:[log_ids<11] yes=29,no=30,missing=29
					29:leaf=0.0190434
					30:leaf=-0.0313379
booster[50]:
0:[id<50585] yes=1,no=2,missing=1
	1:[id<47803] yes=3,no=4,missing=3
		3:[id<46708] yes=7,no=8,missing=7
			7:[id<42746] yes=13,no=14,missing=13
				13:[ips<12] yes=17,no=18,missing=17
					17:leaf=-0.0101756
					18:leaf=-0.19328
				14:leaf=-0.235581
			8:leaf=0.156174
		4:leaf=-0.249912
	2:[id<58481] yes=5,no=6,missing=5
		5:[ips<6] yes=9,no=10,missing=9
			9:leaf=0.0250696
			10:leaf=0.260984
		6:[id<62561] yes=11,no=12,missing=11
			11:leaf=-0.162129
			12:[log_ids<18] yes=15,no=16,missing=15
				15:[citys<2] yes=19,no=20,missing=19
					19:leaf=-0.0307597
					20:leaf=0.0338185
				16:[ips<12] yes=21,no=22,missing=21
					21:leaf=-0.259927
					22:leaf=0.00713538
booster[51]:
0:[id<165777] yes=1,no=2,missing=1
	1:[id<153074] yes=3,no=4,missing=3
		3:[id<150243] yes=7,no=8,missing=7
			7:[log_ids<49] yes=11,no=12,missing=11
				11:[divs<15] yes=15,no=16,missing=15
					15:leaf=-0.0114905
					16:leaf=0.13765
				12:[log_ids<133] yes=17,no=18,missing=17
					17:leaf=-0.231636
					18:leaf=-0.0185504
			8:leaf=0.238629
		4:[id<159751] yes=9,no=10,missing=9
			9:leaf=-0.227222
			10:[id<163791] yes=13,no=14,missing=13
				13:[divs<5] yes=19,no=20,missing=19
					19:leaf=-0.0285081
					20:leaf=0.116421
				14:leaf=-0.106591
	2:[id<171044] yes=5,no=6,missing=5
		5:leaf=0.160577
		6:leaf=-0.0439456
booster[52]:
0:[log_ids<49] yes=1,no=2,missing=1
	1:[log_ids<43] yes=3,no=4,missing=3
		3:[log_ids<33] yes=7,no=8,missing=7
			7:[ips<14] yes=9,no=10,missing=9
				9:[log_ids<20] yes=11,no=12,missing=11
					11:leaf=0.00545327
					12:leaf=-0.0924148
				10:[ips<15] yes=13,no=14,missing=13
					13:leaf=0.213942
					14:leaf=0.011442
			8:leaf=-0.0990353
		4:leaf=0.182163
	2:[ips<60] yes=5,no=6,missing=5
		5:leaf=-0.131089
		6:leaf=-0.00967141
booster[53]:
0:[log_ids<22] yes=1,no=2,missing=1
	1:[log_ids<12] yes=3,no=4,missing=3
		3:[citys<7] yes=7,no=8,missing=7
			7:[log_froms<3] yes=15,no=16,missing=15
				15:[divs<4] yes=25,no=26,missing=25
					25:leaf=0.0179231
					26:leaf=-0.02116
				16:leaf=-0.118539
			8:leaf=0.105878
		4:[log_ids<17] yes=9,no=10,missing=9
			9:[divs<7] yes=17,no=18,missing=17
				17:[log_ids<14] yes=27,no=28,missing=27
					27:leaf=-0.132132
					28:leaf=-0.0106429
				18:leaf=-0.189014
			10:[citys<4] yes=19,no=20,missing=19
				19:[log_ids<18] yes=29,no=30,missing=29
					29:leaf=0.263402
					30:leaf=-0.00887356
				20:leaf=-0.0904629
	2:[divs<20] yes=5,no=6,missing=5
		5:[citys<5] yes=11,no=12,missing=11
			11:[log_ids<39] yes=21,no=22,missing=21
				21:[log_ids<25] yes=31,no=32,missing=31
					31:leaf=0.0839653
					32:leaf=-0.177024
				22:leaf=0.128222
			12:[log_ids<37] yes=23,no=24,missing=23
				23:[citys<9] yes=33,no=34,missing=33
					33:leaf=0.250143
					34:leaf=0.0391923
				24:leaf=0.0149538
		6:[log_ids<230] yes=13,no=14,missing=13
			13:leaf=-0.151531
			14:leaf=0.0387794
booster[54]:
0:[divs<2] yes=1,no=2,missing=1
	1:[log_ids<6] yes=3,no=4,missing=3
		3:[ips<2] yes=7,no=8,missing=7
			7:[log_ids<2] yes=13,no=14,missing=13
				13:leaf=0.0565668
				14:leaf=-0.0597155
			8:[log_ids<3] yes=15,no=16,missing=15
				15:leaf=0.194149
				16:leaf=0.0273274
		4:leaf=-0.0304687
	2:[log_froms<2] yes=5,no=6,missing=5
		5:[ips<16] yes=9,no=10,missing=9
			9:[log_ids<8] yes=17,no=18,missing=17
				17:[ips<5] yes=23,no=24,missing=23
					23:leaf=-0.0730627
					24:leaf=0.0814127
				18:leaf=-0.268593
			10:leaf=0.132282
		6:[log_froms<3] yes=11,no=12,missing=11
			11:[log_ids<11] yes=19,no=20,missing=19
				19:[ips<5] yes=25,no=26,missing=25
					25:leaf=-0.0232025
					26:leaf=0.0564443
				20:[log_ids<19] yes=27,no=28,missing=27
					27:leaf=-0.0872029
					28:leaf=0.011412
			12:[log_ids<9] yes=21,no=22,missing=21
				21:leaf=-0.0979639
				22:[log_ids<20] yes=29,no=30,missing=29
					29:leaf=0.180969
					30:leaf=-0.0056718
booster[55]:
0:[id<166837] yes=1,no=2,missing=1
	1:[id<161890] yes=3,no=4,missing=3
		3:[citys<2] yes=7,no=8,missing=7
			7:[ips<3] yes=11,no=12,missing=11
				11:[id<135061] yes=17,no=18,missing=17
					17:leaf=-0.0289151
					18:leaf=0.222518
				12:[ips<10] yes=19,no=20,missing=19
					19:leaf=-0.228179
					20:leaf=0.0442916
			8:[ips<43] yes=13,no=14,missing=13
				13:[ips<23] yes=21,no=22,missing=21
					21:leaf=0.0176266
					22:leaf=-0.152937
				14:leaf=0.15118
		4:[id<163908] yes=9,no=10,missing=9
			9:leaf=0.232931
			10:[id<165755] yes=15,no=16,missing=15
				15:leaf=-0.0624326
				16:leaf=0.210006
	2:[ips<12] yes=5,no=6,missing=5
		5:leaf=-0.236579
		6:leaf=-0.00295544
booster[56]:
0:[ips<63] yes=1,no=2,missing=1
	1:[id<84841] yes=3,no=4,missing=3
		3:[id<75160] yes=5,no=6,missing=5
			5:[id<72918] yes=9,no=10,missing=9
				9:[ips<3] yes=17,no=18,missing=17
					17:leaf=-0.0652172
					18:leaf=0.010242
				10:leaf=0.185098
			6:[citys<3] yes=11,no=12,missing=11
				11:leaf=-0.258589
				12:[id<79527] yes=19,no=20,missing=19
					19:leaf=-0.0768291
					20:leaf=-0.00318253
		4:[id<94050] yes=7,no=8,missing=7
			7:[citys<2] yes=13,no=14,missing=13
				13:leaf=0.241581
				14:[id<86475] yes=21,no=22,missing=21
					21:leaf=0.112857
					22:leaf=-0.0243073
			8:[id<96571] yes=15,no=16,missing=15
				15:leaf=-0.178042
				16:[id<97813] yes=23,no=24,missing=23
					23:leaf=0.170425
					24:leaf=0.00976161
	2:leaf=-0.117777
booster[57]:
0:[ips<4] yes=1,no=2,missing=1
	1:[log_ids<8] yes=3,no=4,missing=3
		3:[ips<2] yes=7,no=8,missing=7
			7:[log_ids<3] yes=13,no=14,missing=13
				13:[log_ids<2] yes=23,no=24,missing=23
					23:leaf=-0.000478797
					24:leaf=-0.155153
				14:leaf=0.0499186
			8:[log_ids<5] yes=15,no=16,missing=15
				15:[log_ids<4] yes=25,no=26,missing=25
					25:leaf=0.0621213
					26:leaf=0.220279
				16:[ips<3] yes=27,no=28,missing=27
					27:leaf=0.0816321
					28:leaf=-0.102552
		4:leaf=-0.242683
	2:[log_ids<10] yes=5,no=6,missing=5
		5:[ips<5] yes=9,no=10,missing=9
			9:[divs<3] yes=17,no=18,missing=17
				17:leaf=-0.0301516
				18:leaf=-0.174607
			10:[ips<7] yes=19,no=20,missing=19
				19:[log_ids<8] yes=29,no=30,missing=29
					29:leaf=-0.0456746
					30:leaf=0.161871
				20:[divs<5] yes=31,no=32,missing=31
					31:leaf=-0.181478
					32:leaf=0.0544211
		6:[ips<6] yes=11,no=12,missing=11
			11:leaf=0.180938
			12:[log_ids<16] yes=21,no=22,missing=21
				21:[log_ids<14] yes=33,no=34,missing=33
					33:leaf=-0.0379861
					34:leaf=0.182691
				22:[ips<61] yes=35,no=36,missing=35
					35:leaf=-0.014491
					36:leaf=-0.13165
booster[58]:
0:[citys<3] yes=1,no=2,missing=1
	1:[id<136018] yes=3,no=4,missing=3
		3:[id<121927] yes=7,no=8,missing=7
			7:[id<110101] yes=13,no=14,missing=13
				13:[id<104066] yes=23,no=24,missing=23
					23:leaf=0.0146816
					24:leaf=0.319862
				14:[id<115718] yes=25,no=26,missing=25
					25:leaf=-0.237527
					26:leaf=-0.0669892
			8:leaf=0.223887
		4:[id<162198] yes=9,no=10,missing=9
			9:[id<150249] yes=15,no=16,missing=15
				15:[divs<3] yes=27,no=28,missing=27
					27:leaf=-0.188532
					28:leaf=0.0601782
				16:leaf=-0.203611
			10:[id<165425] yes=17,no=18,missing=17
				17:leaf=0.149924
				18:leaf=-0.0403394
	2:[log_ids<99] yes=5,no=6,missing=5
		5:[id<25699] yes=11,no=12,missing=11
			11:[log_ids<13] yes=19,no=20,missing=19
				19:[divs<3] yes=29,no=30,missing=29
					29:leaf=-0.0505244
					30:leaf=-0.256383
				20:leaf=0.00653792
			12:[id<36719] yes=21,no=22,missing=21
				21:[citys<4] yes=31,no=32,missing=31
					31:leaf=0.255323
					32:leaf=0.0391228
				22:[id<44713] yes=33,no=34,missing=33
					33:leaf=-0.22253
					34:leaf=-0.00572264
		6:leaf=-0.149243
booster[59]:
0:[id<96718] yes=1,no=2,missing=1
	1:[id<84841] yes=3,no=4,missing=3
		3:[id<78235] yes=7,no=8,missing=7
			7:[id<75154] yes=15,no=16,missing=15
				15:[ips<2] yes=27,no=28,missing=27
					27:leaf=-0.0926525
					28:leaf=0.0275448
				16:leaf=0.19353
			8:[id<80388] yes=17,no=18,missing=17
				17:leaf=-0.238274
				18:leaf=-0.105011
		4:[log_ids<5] yes=9,no=10,missing=9
			9:[id<87366] yes=19,no=20,missing=19
				19:leaf=0.196101
				20:leaf=0.0286363
			10:[ips<8] yes=21,no=22,missing=21
				21:leaf=-0.181224
				22:[citys<10] yes=29,no=30,missing=29
					29:leaf=0.166323
					30:leaf=0.0214437
	2:[id<99841] yes=5,no=6,missing=5
		5:[log_ids<24] yes=11,no=12,missing=11
			11:leaf=-0.175597
			12:leaf=-0.0174295
		6:[id<105111] yes=13,no=14,missing=13
			13:[ips<3] yes=23,no=24,missing=23
				23:leaf=0.200336
				24:leaf=-0.0611667
			14:[id<110039] yes=25,no=26,missing=25
				25:[log_ids<3] yes=31,no=32,missing=31
					31:leaf=-0.256128
					32:leaf=-0.0437664
				26:[id<113021] yes=33,no=34,missing=33
					33:leaf=0.128721
					34:leaf=-0.0188575
booster[60]:
0:[citys<13] yes=1,no=2,missing=1
	1:[divs<23] yes=3,no=4,missing=3
		3:[divs<8] yes=5,no=6,missing=5
			5:[log_ids<19] yes=7,no=8,missing=7
				7:[log_ids<17] yes=11,no=12,missing=11
					11:leaf=-0.014424
					12:leaf=-0.172815
				8:[citys<2] yes=13,no=14,missing=13
					13:leaf=0.203898
					14:leaf=0.0153166
			6:[citys<3] yes=9,no=10,missing=9
				9:leaf=0.0165571
				10:[citys<5] yes=15,no=16,missing=15
					15:leaf=-0.243333
					16:leaf=-0.0701265
		4:leaf=0.0842273
	2:leaf=0.0882747
booster[61]:
0:[id<27836] yes=1,no=2,missing=1
	1:[log_ids<3] yes=3,no=4,missing=3
		3:leaf=0.339942
		4:[log_ids<5] yes=7,no=8,missing=7
			7:leaf=-0.105826
			8:[log_ids<6] yes=13,no=14,missing=13
				13:leaf=0.176642
				14:[id<10836] yes=19,no=20,missing=19
					19:leaf=-0.128185
					20:leaf=0.106334
	2:[id<35264] yes=5,no=6,missing=5
		5:[id<31568] yes=9,no=10,missing=9
			9:[ips<4] yes=15,no=16,missing=15
				15:leaf=-0.106951
				16:leaf=0.0174553
			10:leaf=-0.228818
		6:[id<35826] yes=11,no=12,missing=11
			11:leaf=0.230028
			12:[id<41095] yes=17,no=18,missing=17
				17:[id<38457] yes=21,no=22,missing=21
					21:leaf=-0.0499207
					22:leaf=-0.193138
				18:[id<44356] yes=23,no=24,missing=23
					23:leaf=0.19043
					24:leaf=0.00375387
booster[62]:
0:[divs<19] yes=1,no=2,missing=1
	1:[log_ids<49] yes=3,no=4,missing=3
		3:[log_ids<36] yes=7,no=8,missing=7
			7:[divs<8] yes=9,no=10,missing=9
				9:[ips<17] yes=11,no=12,missing=11
					11:leaf=-0.00346991
					12:leaf=-0.0908522
				10:[ips<13] yes=13,no=14,missing=13
					13:leaf=-0.210018
					14:leaf=-0.0188367
			8:leaf=0.123759
		4:leaf=-0.140102
	2:[divs<33] yes=5,no=6,missing=5
		5:leaf=0.118781
		6:leaf=0.0520477
booster[63]:
0:[id<165425] yes=1,no=2,missing=1
	1:[ips<4] yes=3,no=4,missing=3
		3:[id<11584] yes=7,no=8,missing=7
			7:leaf=-0.178112
			8:[ips<2] yes=11,no=12,missing=11
				11:[id<104007] yes=17,no=18,missing=17
					17:leaf=-0.103592
					18:leaf=0.0483754
				12:[id<18099] yes=19,no=20,missing=19
					19:leaf=0.251738
					20:leaf=0.042309
		4:[ips<8] yes=9,no=10,missing=9
			9:[id<15310] yes=13,no=14,missing=13
				13:[divs<4] yes=21,no=22,missing=21
					21:leaf=0.113456
					22:leaf=-0.0151925
				14:[id<31465] yes=23,no=24,missing=23
					23:leaf=-0.217399
					24:leaf=-0.0526825
			10:[log_froms<2] yes=15,no=16,missing=15
				15:[id<99341] yes=25,no=26,missing=25
					25:leaf=-0.0530626
					26:leaf=0.348481
				16:[id<117506] yes=27,no=28,missing=27
					27:leaf=0.0135205
					28:leaf=-0.0763156
	2:[ips<16] yes=5,no=6,missing=5
		5:leaf=-0.215876
		6:leaf=-0.000760953
booster[64]:
0:[log_ids<134] yes=1,no=2,missing=1
	1:[log_ids<48] yes=3,no=4,missing=3
		3:[log_ids<5] yes=5,no=6,missing=5
			5:[ips<4] yes=7,no=8,missing=7
				7:[log_ids<4] yes=11,no=12,missing=11
					11:leaf=0.0192179
					12:leaf=0.128668
				8:[divs<4] yes=13,no=14,missing=13
					13:leaf=-0.122133
					14:leaf=0.0270824
			6:[ips<7] yes=9,no=10,missing=9
				9:[log_ids<15] yes=15,no=16,missing=15
					15:leaf=-0.0399567
					16:leaf=0.0542985
				10:[divs<4] yes=17,no=18,missing=17
					17:leaf=-0.069204
					18:leaf=0.054424
		4:leaf=0.127967
	2:leaf=-0.0787586
booster[65]:
0:[ips<6] yes=1,no=2,missing=1
	1:[log_ids<12] yes=3,no=4,missing=3
		3:[log_ids<2] yes=7,no=8,missing=7
			7:leaf=0.0381218
			8:[log_ids<5] yes=13,no=14,missing=13
				13:[ips<2] yes=23,no=24,missing=23
					23:leaf=-0.197355
					24:leaf=-0.0447653
				14:[citys<3] yes=25,no=26,missing=25
					25:leaf=0.0437912
					26:leaf=-0.0471215
		4:leaf=-0.211412
	2:[log_ids<9] yes=5,no=6,missing=5
		5:[citys<5] yes=9,no=10,missing=9
			9:[citys<4] yes=15,no=16,missing=15
				15:leaf=0.0273759
				16:leaf=0.292518
			10:[divs<3] yes=17,no=18,missing=17
				17:leaf=0.153536
				18:leaf=-0.0948966
		6:[ips<28] yes=11,no=12,missing=11
			11:[log_ids<33] yes=19,no=20,missing=19
				19:[citys<9] yes=27,no=28,missing=27
					27:leaf=0.00976773
					28:leaf=-0.107854
				20:[divs<15] yes=29,no=30,missing=29
					29:leaf=-0.170174
					30:leaf=-0.0252959
			12:[ips<44] yes=21,no=22,missing=21
				21:leaf=0.140168
				22:[citys<5] yes=31,no=32,missing=31
					31:leaf=0.0688987
					32:leaf=-0.0502187
booster[66]:
0:[ips<13] yes=1,no=2,missing=1
	1:[divs<7] yes=3,no=4,missing=3
		3:[divs<3] yes=7,no=8,missing=7
			7:[citys<6] yes=15,no=16,missing=15
				15:[ips<7] yes=21,no=22,missing=21
					21:leaf=0.00463521
					22:leaf=-0.204928
				16:leaf=0.159604
			8:[ips<3] yes=17,no=18,missing=17
				17:leaf=0.164167
				18:[ips<6] yes=23,no=24,missing=23
					23:leaf=-0.0211106
					24:leaf=0.0825294
		4:[citys<6] yes=9,no=10,missing=9
			9:leaf=-0.2016
			10:leaf=0.0836616
	2:[log_froms<3] yes=5,no=6,missing=5
		5:[ips<60] yes=11,no=12,missing=11
			11:[citys<3] yes=19,no=20,missing=19
				19:leaf=-0.165631
				20:[ips<16] yes=25,no=26,missing=25
					25:leaf=-0.141871
					26:leaf=-0.014159
			12:leaf=0.101022
		6:[citys<7] yes=13,no=14,missing=13
			13:leaf=0.155795
			14:leaf=-0.0183473
booster[67]:
0:[citys<11] yes=1,no=2,missing=1
	1:[divs<5] yes=3,no=4,missing=3
		3:[log_ids<5] yes=7,no=8,missing=7
			7:[log_froms<2] yes=11,no=12,missing=11
				11:[divs<3] yes=17,no=18,missing=17
					17:leaf=-0.0110964
					18:leaf=0.12006
				12:[log_ids<3] yes=19,no=20,missing=19
					19:leaf=0.0337569
					20:leaf=-0.0817284
			8:[citys<8] yes=13,no=14,missing=13
				13:[citys<5] yes=21,no=22,missing=21
					21:leaf=0.0216058
					22:leaf=0.0938856
				14:leaf=-0.1123
		4:[citys<2] yes=9,no=10,missing=9
			9:leaf=-0.17457
			10:[citys<4] yes=15,no=16,missing=15
				15:[log_ids<29] yes=23,no=24,missing=23
					23:leaf=-0.0166617
					24:leaf=0.191297
				16:[divs<13] yes=25,no=26,missing=25
					25:leaf=-0.03924
					26:leaf=-0.182008
	2:[citys<14] yes=5,no=6,missing=5
		5:leaf=0.178737
		6:leaf=0.0604416
booster[68]:
0:[id<170269] yes=1,no=2,missing=1
	1:[id<165899] yes=3,no=4,missing=3
		3:[id<41974] yes=5,no=6,missing=5
			5:[id<38407] yes=7,no=8,missing=7
				7:[id<35490] yes=11,no=12,missing=11
					11:leaf=0.0349177
					12:leaf=-0.135524
				8:leaf=0.294681
			6:[id<45216] yes=9,no=10,missing=9
				9:leaf=-0.178164
				10:[log_ids<26] yes=13,no=14,missing=13
					13:leaf=-0.0201369
					14:leaf=0.0526854
		4:leaf=-0.220659
	2:leaf=0.18586
booster[69]:
0:[id<5746] yes=1,no=2,missing=1
	1:leaf=0.154434
	2:[id<17992] yes=3,no=4,missing=3
		3:[citys<4] yes=5,no=6,missing=5
			5:[log_ids<5] yes=9,no=10,missing=9
				9:leaf=-0.0718663
				10:leaf=-0.276554
			6:leaf=0.101315
		4:[id<27836] yes=7,no=8,missing=7
			7:[ips<5] yes=11,no=12,missing=11
				11:leaf=0.262437
				12:leaf=-0.0830178
			8:[log_ids<3] yes=13,no=14,missing=13
				13:[id<155644] yes=15,no=16,missing=15
					15:leaf=-0.06065
					16:leaf=0.104158
				14:[ips<44] yes=17,no=18,missing=17
					17:leaf=0.0147982
					18:leaf=-0.0971028
booster[70]:
0:[id<25760] yes=1,no=2,missing=1
	1:[divs<2] yes=3,no=4,missing=3
		3:leaf=-0.250093
		4:[divs<4] yes=7,no=8,missing=7
			7:[id<8947] yes=11,no=12,missing=11
				11:leaf=-0.0880317
				12:[id<16750] yes=17,no=18,missing=17
					17:leaf=0.151808
					18:leaf=-0.0660477
			8:[log_ids<15] yes=13,no=14,missing=13
				13:leaf=-0.235649
				14:leaf=-0.0673614
	2:[id<27846] yes=5,no=6,missing=5
		5:leaf=0.219236
		6:[id<31465] yes=9,no=10,missing=9
			9:leaf=-0.153926
			10:[divs<3] yes=15,no=16,missing=15
				15:[id<36670] yes=19,no=20,missing=19
					19:leaf=0.24513
					20:leaf=0.0212291
				16:[id<134304] yes=21,no=22,missing=21
					21:leaf=0.00127659
					22:leaf=-0.0774948
booster[71]:
0:[divs<2] yes=1,no=2,missing=1
	1:[log_ids<6] yes=3,no=4,missing=3
		3:[ips<2] yes=7,no=8,missing=7
			7:leaf=0.0213575
			8:[log_ids<3] yes=13,no=14,missing=13
				13:leaf=0.197414
				14:leaf=0.00715014
		4:leaf=-0.0271956
	2:[divs<6] yes=5,no=6,missing=5
		5:[ips<13] yes=9,no=10,missing=9
			9:[ips<10] yes=15,no=16,missing=15
				15:[ips<9] yes=23,no=24,missing=23
					23:leaf=-0.016699
					24:leaf=-0.117829
				16:[divs<4] yes=25,no=26,missing=25
					25:leaf=-0.0457381
					26:leaf=0.146037
			10:[log_froms<3] yes=17,no=18,missing=17
				17:[log_ids<23] yes=27,no=28,missing=27
					27:leaf=-0.267042
					28:leaf=-0.121258
				18:leaf=0.0748083
		6:[ips<20] yes=11,no=12,missing=11
			11:[divs<16] yes=19,no=20,missing=19
				19:[log_froms<3] yes=29,no=30,missing=29
					29:leaf=0.0402458
					30:leaf=-0.0693271
				20:leaf=0.178185
			12:[log_ids<120] yes=21,no=22,missing=21
				21:[log_ids<37] yes=31,no=32,missing=31
					31:leaf=-0.035169
					32:leaf=-0.154069
				22:leaf=0.0412512
booster[72]:
0:[id<170269] yes=1,no=2,missing=1
	1:[ips<23] yes=3,no=4,missing=3
		3:[divs<8] yes=5,no=6,missing=5
			5:[id<100535] yes=9,no=10,missing=9
				9:[id<80146] yes=17,no=18,missing=17
					17:leaf=-0.0202241
					18:leaf=0.0700862
				10:[ips<10] yes=19,no=20,missing=19
					19:leaf=-0.0284242
					20:leaf=-0.161901
			6:[id<136399] yes=11,no=12,missing=11
				11:[id<40888] yes=21,no=22,missing=21
					21:leaf=-0.00403278
					22:leaf=0.161805
				12:leaf=-0.0704761
		4:[ips<34] yes=7,no=8,missing=7
			7:[divs<5] yes=13,no=14,missing=13
				13:leaf=-0.0573961
				14:leaf=-0.199828
			8:[id<97535] yes=15,no=16,missing=15
				15:leaf=-0.101131
				16:leaf=-0.00428642
	2:leaf=0.146399
booster[73]:
0:[log_ids<122] yes=1,no=2,missing=1
	1:[citys<4] yes=3,no=4,missing=3
		3:[divs<5] yes=5,no=6,missing=5
			5:[divs<2] yes=9,no=10,missing=9
				9:[log_ids<3] yes=15,no=16,missing=15
					15:leaf=0.0438667
					16:leaf=-0.0223306
				10:[log_ids<10] yes=17,no=18,missing=17
					17:leaf=-0.0132747
					18:leaf=-0.106955
			6:[citys<2] yes=11,no=12,missing=11
				11:leaf=-0.0921865
				12:[log_ids<7] yes=19,no=20,missing=19
					19:leaf=0.287987
					20:leaf=0.0654434
		4:[log_ids<43] yes=7,no=8,missing=7
			7:[log_ids<17] yes=13,no=14,missing=13
				13:[log_froms<2] yes=21,no=22,missing=21
					21:leaf=-0.0615205
					22:leaf=0.0705349
				14:[citys<5] yes=23,no=24,missing=23
					23:leaf=-0.20017
					24:leaf=-0.00666419
			8:leaf=0.188991
	2:leaf=-0.109352
booster[74]:
0:[citys<5] yes=1,no=2,missing=1
	1:[id<27783] yes=3,no=4,missing=3
		3:[id<19322] yes=7,no=8,missing=7
			7:[id<17761] yes=15,no=16,missing=15
				15:[citys<2] yes=23,no=24,missing=23
					23:leaf=0.10321
					24:leaf=-0.0950829
				16:leaf=0.165804
			8:leaf=-0.200299
		4:[id<31568] yes=9,no=10,missing=9
			9:leaf=0.231219
			10:[ips<5] yes=17,no=18,missing=17
				17:[id<36530] yes=25,no=26,missing=25
					25:leaf=-0.196732
					26:leaf=0.000933888
				18:[id<57230] yes=27,no=28,missing=27
					27:leaf=0.200448
					28:leaf=0.0326058
	2:[ips<8] yes=5,no=6,missing=5
		5:[id<38014] yes=11,no=12,missing=11
			11:leaf=0.0667446
			12:[id<109745] yes=19,no=20,missing=19
				19:leaf=-0.269005
				20:leaf=0.0314338
		6:[id<136967] yes=13,no=14,missing=13
			13:[id<126860] yes=21,no=22,missing=21
				21:[id<97983] yes=29,no=30,missing=29
					29:leaf=0.0137558
					30:leaf=-0.154552
				22:leaf=0.165816
			14:leaf=-0.0878719
booster[75]:
0:[id<5746] yes=1,no=2,missing=1
	1:leaf=0.140724
	2:[id<10442] yes=3,no=4,missing=3
		3:leaf=-0.192538
		4:[id<69894] yes=5,no=6,missing=5
			5:[id<11952] yes=7,no=8,missing=7
				7:leaf=0.134272
				8:[ips<12] yes=11,no=12,missing=11
					11:leaf=-0.0258699
					12:leaf=-0.136159
			6:[id<71194] yes=9,no=10,missing=9
				9:leaf=0.140306
				10:[id<74410] yes=13,no=14,missing=13
					13:leaf=-0.135202
					14:leaf=0.0113854
booster[76]:
0:[id<27836] yes=1,no=2,missing=1
	1:[id<25760] yes=3,no=4,missing=3
		3:[log_ids<5] yes=7,no=8,missing=7
			7:[id<12136] yes=13,no=14,missing=13
				13:leaf=0.015403
				14:leaf=-0.164114
			8:[ips<5] yes=15,no=16,missing=15
				15:leaf=0.216606
				16:[log_ids<16] yes=21,no=22,missing=21
					21:leaf=0.0784196
					22:leaf=-0.133848
		4:leaf=0.241052
	2:[id<35264] yes=5,no=6,missing=5
		5:[divs<4] yes=9,no=10,missing=9
			9:[id<30007] yes=17,no=18,missing=17
				17:leaf=-0.246772
				18:leaf=-0.0492919
			10:leaf=0.0242293
		6:[id<35628] yes=11,no=12,missing=11
			11:leaf=0.203665
			12:[id<38407] yes=19,no=20,missing=19
				19:leaf=-0.18171
				20:[id<58481] yes=23,no=24,missing=23
					23:leaf=0.0538514
					24:leaf=-0.00693481
booster[77]:
0:[id<104076] yes=1,no=2,missing=1
	1:[id<100535] yes=3,no=4,missing=3
		3:[log_ids<6] yes=7,no=8,missing=7
			7:[id<74347] yes=13,no=14,missing=13
				13:[id<49384] yes=23,no=24,missing=23
					23:leaf=0.0553905
					24:leaf=-0.124358
				14:[id<79787] yes=25,no=26,missing=25
					25:leaf=0.336151
					26:leaf=0.0117699
			8:[id<73513] yes=15,no=16,missing=15
				15:[log_froms<3] yes=27,no=28,missing=27
					27:leaf=0.00860262
					28:leaf=-0.139265
				16:[citys<6] yes=29,no=30,missing=29
					29:leaf=-0.180242
					30:leaf=-0.02938
		4:leaf=-0.257791
	2:[log_ids<6] yes=5,no=6,missing=5
		5:[id<106821] yes=9,no=10,missing=9
			9:leaf=0.132608
			10:[log_ids<2] yes=17,no=18,missing=17
				17:[id<115926] yes=31,no=32,missing=31
					31:leaf=0.0398056
					32:leaf=-0.0291427
				18:[citys<2] yes=33,no=34,missing=33
					33:leaf=-0.224813
					34:leaf=-0.0323204
		6:[log_ids<27] yes=11,no=12,missing=11
			11:[citys<6] yes=19,no=20,missing=19
				19:[id<117559] yes=35,no=36,missing=35
					35:leaf=0.245873
					36:leaf=0.0858086
				20:leaf=-0.0686133
			12:[citys<5] yes=21,no=22,missing=21
				21:leaf=-0.170598
				22:leaf=0.0640686
booster[78]:
0:[id<5712] yes=1,no=2,missing=1
	1:leaf=-0.25937
	2:[id<11621] yes=3,no=4,missing=3
		3:[ips<5] yes=5,no=6,missing=5
			5:leaf=0.0144041
			6:leaf=0.205483
		4:[log_ids<17] yes=7,no=8,missing=7
			7:[id<115842] yes=9,no=10,missing=9
				9:[id<41934] yes=13,no=14,missing=13
					13:leaf=-0.0650776
					14:leaf=0.0279154
				10:[id<165418] yes=15,no=16,missing=15
					15:leaf=-0.078746
					16:leaf=0.0979455
			8:[id<41154] yes=11,no=12,missing=11
				11:[ips<10] yes=17,no=18,missing=17
					17:leaf=0.266909
					18:leaf=0.0257524
				12:[ips<11] yes=19,no=20,missing=19
					19:leaf=-0.147812
					20:leaf=0.0441632
booster[79]:
0:[id<11599] yes=1,no=2,missing=1
	1:[id<9497] yes=3,no=4,missing=3
		3:leaf=0.00827364
		4:leaf=-0.222433
	2:[id<94050] yes=5,no=6,missing=5
		5:[divs<2] yes=7,no=8,missing=7
			7:[id<41934] yes=11,no=12,missing=11
				11:leaf=-0.0765751
				12:[id<75779] yes=17,no=18,missing=17
					17:leaf=0.364145
					18:leaf=-0.0496925
			8:[id<22077] yes=13,no=14,missing=13
				13:[divs<4] yes=19,no=20,missing=19
					19:leaf=0.228366
					20:leaf=-0.00476626
				14:[id<90092] yes=21,no=22,missing=21
					21:leaf=-0.0122295
					22:leaf=0.208712
		6:[id<96571] yes=9,no=10,missing=9
			9:leaf=-0.228992
			10:[id<160318] yes=15,no=16,missing=15
				15:[id<97905] yes=23,no=24,missing=23
					23:leaf=0.117484
					24:leaf=-0.0347641
				16:[divs<3] yes=25,no=26,missing=25
					25:leaf=-0.0193517
					26:leaf=0.126669
booster[80]:
0:[id<116355] yes=1,no=2,missing=1
	1:[id<100535] yes=3,no=4,missing=3
		3:[log_ids<133] yes=7,no=8,missing=7
			7:[log_ids<44] yes=13,no=14,missing=13
				13:[id<98595] yes=21,no=22,missing=21
					21:leaf=-0.0225461
					22:leaf=0.0725568
				14:leaf=-0.165897
			8:leaf=0.0798629
		4:[id<105009] yes=9,no=10,missing=9
			9:leaf=-0.217723
			10:[id<110080] yes=15,no=16,missing=15
				15:[log_ids<4] yes=23,no=24,missing=23
					23:leaf=-0.0679245
					24:leaf=0.13578
				16:[log_ids<2] yes=25,no=26,missing=25
					25:leaf=-0.0252288
					26:leaf=-0.160485
	2:[id<117538] yes=5,no=6,missing=5
		5:leaf=0.216805
		6:[log_froms<2] yes=11,no=12,missing=11
			11:[id<135988] yes=17,no=18,missing=17
				17:leaf=-0.0610311
				18:[log_ids<4] yes=27,no=28,missing=27
					27:leaf=0.251573
					28:leaf=0.00294974
			12:[id<133037] yes=19,no=20,missing=19
				19:leaf=-0.162082
				20:[id<135105] yes=29,no=30,missing=29
					29:leaf=0.142089
					30:leaf=-0.0343687
booster[81]:
0:[id<38457] yes=1,no=2,missing=1
	1:[ips<9] yes=3,no=4,missing=3
		3:[ips<7] yes=7,no=8,missing=7
			7:[id<5746] yes=13,no=14,missing=13
				13:leaf=0.177961
				14:[citys<4] yes=19,no=20,missing=19
					19:leaf=-0.0438407
					20:leaf=0.137753
			8:leaf=-0.176858
		4:[id<25747] yes=9,no=10,missing=9
			9:leaf=0.0218545
			10:leaf=0.208829
	2:[id<41934] yes=5,no=6,missing=5
		5:leaf=-0.200071
		6:[id<160375] yes=11,no=12,missing=11
			11:[id<155356] yes=15,no=16,missing=15
				15:[ips<27] yes=21,no=22,missing=21
					21:leaf=-0.0126364
					22:leaf=-0.147353
				16:leaf=0.198835
			12:[id<165418] yes=17,no=18,missing=17
				17:[citys<3] yes=23,no=24,missing=23
					23:leaf=-0.0774127
					24:leaf=-0.213343
				18:[ips<4] yes=25,no=26,missing=25
					25:leaf=0.061871
					26:leaf=-0.0834336
booster[82]:
0:[id<10442] yes=1,no=2,missing=1
	1:[id<5746] yes=3,no=4,missing=3
		3:leaf=-0.00570716
		4:leaf=-0.207399
	2:[id<11883] yes=5,no=6,missing=5
		5:leaf=0.177015
		6:[id<165899] yes=7,no=8,missing=7
			7:[id<135989] yes=9,no=10,missing=9
				9:[id<134299] yes=13,no=14,missing=13
					13:leaf=0.00340339
					14:leaf=-0.123205
				10:[id<143914] yes=15,no=16,missing=15
					15:leaf=0.173436
					16:leaf=0.0429639
			8:[id<170269] yes=11,no=12,missing=11
				11:leaf=-0.213163
				12:leaf=0.0166029
booster[83]:
0:[id<171044] yes=1,no=2,missing=1
	1:[id<165777] yes=3,no=4,missing=3
		3:[log_ids<31] yes=5,no=6,missing=5
			5:[id<143127] yes=7,no=8,missing=7
				7:[log_ids<26] yes=11,no=12,missing=11
					11:leaf=0.0189901
					12:leaf=0.151158
				8:[ips<6] yes=13,no=14,missing=13
					13:leaf=-0.11651
					14:leaf=0.0407388
			6:[id<46828] yes=9,no=10,missing=9
				9:leaf=0.0524523
				10:[ips<28] yes=15,no=16,missing=15
					15:leaf=-0.165149
					16:leaf=-0.0316258
		4:leaf=0.171836
	2:leaf=-0.163431
booster[84]:
0:[id<133456] yes=1,no=2,missing=1
	1:[id<11621] yes=3,no=4,missing=3
		3:[id<8975] yes=7,no=8,missing=7
			7:leaf=0.00175341
			8:leaf=0.161128
		4:[id<27800] yes=9,no=10,missing=9
			9:[ips<3] yes=13,no=14,missing=13
				13:leaf=-0.205199
				14:[ips<5] yes=21,no=22,missing=21
					21:leaf=0.0442036
					22:leaf=-0.0795383
			10:[id<29285] yes=15,no=16,missing=15
				15:leaf=0.134615
				16:[id<87338] yes=23,no=24,missing=23
					23:leaf=0.00862155
					24:leaf=-0.0366198
	2:[divs<15] yes=5,no=6,missing=5
		5:[id<136378] yes=11,no=12,missing=11
			11:[ips<3] yes=17,no=18,missing=17
				17:leaf=0.297826
				18:leaf=-0.000196961
			12:[id<142907] yes=19,no=20,missing=19
				19:leaf=-0.0867238
				20:[ips<3] yes=25,no=26,missing=25
					25:leaf=-0.0186944
					26:leaf=0.0967585
		6:leaf=-0.100774
booster[85]:
0:[id<11599] yes=1,no=2,missing=1
	1:[id<9497] yes=3,no=4,missing=3
		3:leaf=-0.000159258
		4:leaf=-0.241024
	2:[id<18014] yes=5,no=6,missing=5
		5:[log_ids<8] yes=7,no=8,missing=7
			7:leaf=0.176783
			8:leaf=0.00265678
		6:[id<27783] yes=9,no=10,missing=9
			9:[id<22077] yes=11,no=12,missing=11
				11:leaf=-0.00937114
				12:leaf=-0.189146
			10:[ips<12] yes=13,no=14,missing=13
				13:[log_ids<20] yes=15,no=16,missing=15
					15:leaf=0.00552634
					16:leaf=-0.198455
				14:[id<50585] yes=17,no=18,missing=17
					17:leaf=-0.0723216
					18:leaf=0.0806505
booster[86]:
0:[id<38457] yes=1,no=2,missing=1
	1:[log_ids<13] yes=3,no=4,missing=3
		3:[log_ids<8] yes=7,no=8,missing=7
			7:[id<15855] yes=15,no=16,missing=15
				15:[id<10492] yes=25,no=26,missing=25
					25:leaf=0.0239649
					26:leaf=-0.0890209
				16:[citys<2] yes=27,no=28,missing=27
					27:leaf=-0.0728959
					28:leaf=0.118921
			8:[ips<7] yes=17,no=18,missing=17
				17:leaf=-0.0545372
				18:leaf=-0.123475
		4:[log_ids<20] yes=9,no=10,missing=9
			9:[id<15385] yes=19,no=20,missing=19
				19:leaf=0.311355
				20:leaf=0.0573014
			10:leaf=-0.0222481
	2:[id<87283] yes=5,no=6,missing=5
		5:[id<84886] yes=11,no=12,missing=11
			11:[ips<8] yes=21,no=22,missing=21
				21:[ips<3] yes=29,no=30,missing=29
					29:leaf=-0.115416
					30:leaf=0.0305478
				22:[id<75198] yes=31,no=32,missing=31
					31:leaf=-0.164391
					32:leaf=0.103463
			12:leaf=-0.197867
		6:[id<170667] yes=13,no=14,missing=13
			13:[id<94047] yes=23,no=24,missing=23
				23:[citys<2] yes=33,no=34,missing=33
					33:leaf=0.197419
					34:leaf=-0.00990518
				24:[id<98620] yes=35,no=36,missing=35
					35:leaf=-0.0950631
					36:leaf=0.00722323
			14:leaf=-0.139578
booster[87]:
0:[id<27783] yes=1,no=2,missing=1
	1:[id<15180] yes=3,no=4,missing=3
		3:[citys<2] yes=7,no=8,missing=7
			7:leaf=0.121117
			8:[divs<3] yes=15,no=16,missing=15
				15:leaf=-0.164754
				16:[id<10834] yes=23,no=24,missing=23
					23:leaf=-0.0798073
					24:leaf=0.114517
		4:[id<18008] yes=9,no=10,missing=9
			9:leaf=-0.256456
			10:[id<19892] yes=17,no=18,missing=17
				17:leaf=0.0124708
				18:leaf=-0.169288
	2:[id<162240] yes=5,no=6,missing=5
		5:[id<29285] yes=11,no=12,missing=11
			11:leaf=0.130603
			12:[id<35256] yes=19,no=20,missing=19
				19:leaf=-0.0789865
				20:[id<36643] yes=25,no=26,missing=25
					25:leaf=0.204523
					26:leaf=0.0150885
		6:[id<165283] yes=13,no=14,missing=13
			13:leaf=-0.156657
			14:[id<166837] yes=21,no=22,missing=21
				21:leaf=0.0436662
				22:leaf=-0.115258
booster[88]:
0:[citys<2] yes=1,no=2,missing=1
	1:[ips<10] yes=3,no=4,missing=3
		3:[ips<3] yes=7,no=8,missing=7
			7:[ips<2] yes=13,no=14,missing=13
				13:leaf=0.0348157
				14:[log_froms<2] yes=23,no=24,missing=23
					23:leaf=0.114031
					24:leaf=0.0187668
			8:[divs<4] yes=15,no=16,missing=15
				15:leaf=-0.144244
				16:leaf=0.0210456
		4:leaf=0.105491
	2:[log_froms<3] yes=5,no=6,missing=5
		5:[ips<3] yes=9,no=10,missing=9
			9:[divs<3] yes=17,no=18,missing=17
				17:[log_froms<2] yes=25,no=26,missing=25
					25:leaf=-0.132098
					26:leaf=-0.0444409
				18:leaf=0.0253925
			10:[citys<9] yes=19,no=20,missing=19
				19:[divs<3] yes=27,no=28,missing=27
					27:leaf=0.0477483
					28:leaf=0.0028042
				20:[divs<9] yes=29,no=30,missing=29
					29:leaf=-0.166662
					30:leaf=0.0751777
		6:[ips<9] yes=11,no=12,missing=11
			11:leaf=-0.161919
			12:[ips<17] yes=21,no=22,missing=21
				21:leaf=0.0729507
				22:leaf=-0.0953379
booster[89]:
0:[divs<5] yes=1,no=2,missing=1
	1:[log_ids<7] yes=3,no=4,missing=3
		3:[log_ids<6] yes=7,no=8,missing=7
			7:[citys<3] yes=15,no=16,missing=15
				15:[divs<3] yes=29,no=30,missing=29
					29:leaf=0.00702875
					30:leaf=0.0961988
				16:[divs<3] yes=31,no=32,missing=31
					31:leaf=0.0218631
					32:leaf=-0.057208
			8:[citys<4] yes=17,no=18,missing=17
				17:[citys<2] yes=33,no=34,missing=33
					33:leaf=0.00517198
					34:leaf=-0.0978673
				18:leaf=0.0366193
		4:[citys<2] yes=9,no=10,missing=9
			9:leaf=0.162697
			10:[log_ids<8] yes=19,no=20,missing=19
				19:leaf=0.123215
				20:[citys<5] yes=35,no=36,missing=35
					35:leaf=-0.0348052
					36:leaf=0.0547597
	2:[citys<7] yes=5,no=6,missing=5
		5:[log_ids<11] yes=11,no=12,missing=11
			11:[citys<3] yes=21,no=22,missing=21
				21:leaf=0.118254
				22:leaf=-0.0478296
			12:[log_ids<15] yes=23,no=24,missing=23
				23:leaf=-0.242448
				24:[divs<11] yes=37,no=38,missing=37
					37:leaf=-0.0222871
					38:leaf=-0.137913
		6:[divs<12] yes=13,no=14,missing=13
			13:[log_ids<17] yes=25,no=26,missing=25
				25:leaf=0.0021901
				26:leaf=-0.0376231
			14:[divs<21] yes=27,no=28,missing=27
				27:leaf=0.198048
				28:leaf=0.00419429
booster[90]:
0:[log_ids<99] yes=1,no=2,missing=1
	1:[log_ids<36] yes=3,no=4,missing=3
		3:[id<168871] yes=5,no=6,missing=5
			5:[id<148948] yes=9,no=10,missing=9
				9:[id<142907] yes=11,no=12,missing=11
					11:leaf=-0.00561143
					12:leaf=0.190905
				10:[id<155355] yes=13,no=14,missing=13
					13:leaf=-0.194541
					14:leaf=-0.011328
			6:leaf=0.137995
		4:[id<73989] yes=7,no=8,missing=7
			7:leaf=0.302914
			8:leaf=-0.0492703
	2:leaf=-0.106725
booster[91]:
0:[citys<11] yes=1,no=2,missing=1
	1:[log_ids<48] yes=3,no=4,missing=3
		3:[id<109815] yes=7,no=8,missing=7
			7:[id<106823] yes=13,no=14,missing=13
				13:[id<104076] yes=17,no=18,missing=17
					17:leaf=-0.0370857
					18:leaf=0.0844364
				14:leaf=-0.158896
			8:[id<112612] yes=15,no=16,missing=15
				15:leaf=0.180932
				16:[log_ids<27] yes=19,no=20,missing=19
					19:leaf=0.00931072
					20:leaf=-0.120265
		4:[id<78188] yes=9,no=10,missing=9
			9:leaf=0.166505
			10:leaf=-0.00749204
	2:[log_ids<28] yes=5,no=6,missing=5
		5:leaf=0.0272606
		6:[id<95477] yes=11,no=12,missing=11
			11:leaf=0.0611612
			12:leaf=0.159449
booster[92]:
0:[id<92746] yes=1,no=2,missing=1
	1:[id<87338] yes=3,no=4,missing=3
		3:[log_ids<27] yes=7,no=8,missing=7
			7:[id<27836] yes=13,no=14,missing=13
				13:[id<21325] yes=21,no=22,missing=21
					21:leaf=-0.0156362
					22:leaf=0.217735
				14:[id<31465] yes=23,no=24,missing=23
					23:leaf=-0.141221
					24:leaf=-0.0177154
			8:[ips<20] yes=15,no=16,missing=15
				15:leaf=0.190143
				16:[log_ids<45] yes=25,no=26,missing=25
					25:leaf=-0.0592389
					26:leaf=0.0184462
		4:leaf=-0.215702
	2:[id<96718] yes=5,no=6,missing=5
		5:[citys<5] yes=9,no=10,missing=9
			9:leaf=0.275893
			10:leaf=0.0550733
		6:[log_ids<25] yes=11,no=12,missing=11
			11:[id<99841] yes=17,no=18,missing=17
				17:leaf=-0.0860911
				18:[id<122534] yes=27,no=28,missing=27
					27:leaf=0.0827612
					28:leaf=0.00642468
			12:[citys<5] yes=19,no=20,missing=19
				19:leaf=-0.233032
				20:[id<151170] yes=29,no=30,missing=29
					29:leaf=-0.0833268
					30:leaf=0.109747
booster[93]:
0:[divs<5] yes=1,no=2,missing=1
	1:[citys<9] yes=3,no=4,missing=3
		3:[id<14881] yes=7,no=8,missing=7
			7:[id<9024] yes=11,no=12,missing=11
				11:leaf=0.00696135
				12:leaf=-0.10703
			8:[id<27836] yes=13,no=14,missing=13
				13:[id<21325] yes=19,no=20,missing=19
					19:leaf=0.031044
					20:leaf=0.215068
				14:[id<58428] yes=21,no=22,missing=21
					21:leaf=-0.0330744
					22:leaf=0.0294353
		4:leaf=-0.104163
	2:[citys<13] yes=5,no=6,missing=5
		5:[id<160318] yes=9,no=10,missing=9
			9:[id<84880] yes=15,no=16,missing=15
				15:[id<50585] yes=23,no=24,missing=23
					23:leaf=-0.115187
					24:leaf=0.127294
				16:[id<145837] yes=25,no=26,missing=25
					25:leaf=-0.160827
					26:leaf=-0.0307379
			10:[id<165342] yes=17,no=18,missing=17
				17:leaf=0.116465
				18:leaf=-0.0313569
		6:leaf=0.124064
booster[94]:
0:[id<100535] yes=1,no=2,missing=1
	1:[id<80146] yes=3,no=4,missing=3
		3:[citys<4] yes=7,no=8,missing=7
			7:[id<65617] yes=15,no=16,missing=15
				15:[id<55310] yes=25,no=26,missing=25
					25:leaf=0.0261166
					26:leaf=0.25873
				16:[id<74410] yes=27,no=28,missing=27
					27:leaf=-0.255418
					28:leaf=0.0696964
			8:[id<69730] yes=17,no=18,missing=17
				17:[id<54178] yes=29,no=30,missing=29
					29:leaf=-0.0528115
					30:leaf=-0.261326
				18:[id<73813] yes=31,no=32,missing=31
					31:leaf=0.228655
					32:leaf=-0.115895
		4:[divs<3] yes=9,no=10,missing=9
			9:[id<88725] yes=19,no=20,missing=19
				19:leaf=0.132809
				20:[log_ids<3] yes=33,no=34,missing=33
					33:leaf=-0.236908
					34:leaf=-0.0161242
			10:[divs<6] yes=21,no=22,missing=21
				21:[log_ids<5] yes=35,no=36,missing=35
					35:leaf=0.0990765
					36:leaf=0.228209
				22:[log_ids<206] yes=37,no=38,missing=37
					37:leaf=-0.0959939
					38:leaf=0.0740008
	2:[id<109829] yes=5,no=6,missing=5
		5:[id<105111] yes=11,no=12,missing=11
			11:leaf=-0.00715402
			12:leaf=-0.202011
		6:[id<110945] yes=13,no=14,missing=13
			13:leaf=0.161663
			14:[log_ids<6] yes=23,no=24,missing=23
				23:[id<152983] yes=39,no=40,missing=39
					39:leaf=-0.147211
					40:leaf=0.0237126
				24:[citys<3] yes=41,no=42,missing=41
					41:leaf=-0.0240826
					42:leaf=0.0523787
booster[95]:
0:[id<163935] yes=1,no=2,missing=1
	1:[id<135989] yes=3,no=4,missing=3
		3:[id<117506] yes=7,no=8,missing=7
			7:[id<115764] yes=11,no=12,missing=11
				11:[id<110080] yes=17,no=18,missing=17
					17:leaf=-0.015257
					18:leaf=-0.122415
				12:[id<115819] yes=19,no=20,missing=19
					19:leaf=0.151817
					20:leaf=0.0339982
			8:[citys<3] yes=13,no=14,missing=13
				13:[id<133456] yes=21,no=22,missing=21
					21:leaf=-0.0923487
					22:leaf=0.0397424
				14:leaf=-0.161071
		4:[id<140297] yes=9,no=10,missing=9
			9:leaf=0.211748
			10:[log_ids<9] yes=15,no=16,missing=15
				15:[citys<3] yes=23,no=24,missing=23
					23:leaf=-0.0422826
					24:leaf=0.175637
				16:[log_ids<17] yes=25,no=26,missing=25
					25:leaf=-0.157408
					26:leaf=0.0654754
	2:[id<171019] yes=5,no=6,missing=5
		5:leaf=-0.149184
		6:leaf=0.00534021
booster[96]:
0:[id<5698] yes=1,no=2,missing=1
	1:leaf=-0.18137
	2:[id<52345] yes=3,no=4,missing=3
		3:[id<49310] yes=5,no=6,missing=5
			5:[log_ids<2] yes=9,no=10,missing=9
				9:leaf=-0.104733
				10:[log_ids<3] yes=13,no=14,missing=13
					13:leaf=0.167326
					14:leaf=0.0209297
			6:leaf=0.222672
		4:[id<58454] yes=7,no=8,missing=7
			7:leaf=-0.102008
			8:[log_ids<12] yes=11,no=12,missing=11
				11:[id<75505] yes=15,no=16,missing=15
					15:leaf=0.0941435
					16:leaf=0.00115877
				12:[id<161890] yes=17,no=18,missing=17
					17:leaf=-0.0563028
					18:leaf=0.0951776
booster[97]:
0:[log_ids<8] yes=1,no=2,missing=1
	1:[citys<5] yes=3,no=4,missing=3
		3:[id<105034] yes=7,no=8,missing=7
			7:[id<15855] yes=13,no=14,missing=13
				13:[id<10492] yes=23,no=24,missing=23
					23:leaf=-0.0337896
					24:leaf=-0.154072
				14:[id<31568] yes=25,no=26,missing=25
					25:leaf=0.110569
					26:leaf=0.000291601
			8:[id<115764] yes=15,no=16,missing=15
				15:leaf=-0.174854
				16:[id<136018] yes=27,no=28,missing=27
					27:leaf=0.0510612
					28:leaf=-0.0680659
		4:leaf=-0.179743
	2:[id<70799] yes=5,no=6,missing=5
		5:[id<10876] yes=9,no=10,missing=9
			9:leaf=0.112174
			10:[citys<4] yes=17,no=18,missing=17
				17:[log_ids<19] yes=29,no=30,missing=29
					29:leaf=-0.0584938
					30:leaf=0.0848627
				18:[id<35849] yes=31,no=32,missing=31
					31:leaf=-0.0522439
					32:leaf=-0.214345
		6:[id<131279] yes=11,no=12,missing=11
			11:[id<108223] yes=19,no=20,missing=19
				19:[citys<4] yes=33,no=34,missing=33
					33:leaf=-0.0724256
					34:leaf=0.0979748
				20:[log_ids<14] yes=35,no=36,missing=35
					35:leaf=0.0372077
					36:leaf=0.253403
			12:[log_ids<10] yes=21,no=22,missing=21
				21:leaf=0.107177
				22:[log_ids<16] yes=37,no=38,missing=37
					37:leaf=-0.147523
					38:leaf=-0.00466454
booster[98]:
0:[id<121971] yes=1,no=2,missing=1
	1:[id<41974] yes=3,no=4,missing=3
		3:[id<38407] yes=7,no=8,missing=7
			7:[id<35826] yes=13,no=14,missing=13
				13:[id<31465] yes=21,no=22,missing=21
					21:leaf=0.00267881
					22:leaf=0.0929284
				14:leaf=-0.0914506
			8:leaf=0.17425
		4:[id<46773] yes=9,no=10,missing=9
			9:leaf=-0.274725
			10:[divs<5] yes=15,no=16,missing=15
				15:[log_ids<23] yes=23,no=24,missing=23
					23:leaf=-0.0466807
					24:leaf=0.0703785
				16:[id<57095] yes=25,no=26,missing=25
					25:leaf=0.270628
					26:leaf=-0.0187792
	2:[id<131645] yes=5,no=6,missing=5
		5:leaf=0.190561
		6:[id<135989] yes=11,no=12,missing=11
			11:[id<134304] yes=17,no=18,missing=17
				17:leaf=0.0589207
				18:leaf=-0.138948
			12:[id<140297] yes=19,no=20,missing=19
				19:leaf=0.229626
				20:[id<150243] yes=27,no=28,missing=27
					27:leaf=-0.0690586
					28:leaf=0.0468034
booster[99]:
0:[citys<7] yes=1,no=2,missing=1
	1:[divs<16] yes=3,no=4,missing=3
		3:[ips<11] yes=7,no=8,missing=7
			7:[divs<4] yes=11,no=12,missing=11
				11:[ips<8] yes=17,no=18,missing=17
					17:leaf=0.000174426
					18:leaf=-0.0767021
				12:[citys<5] yes=19,no=20,missing=19
					19:leaf=0.0439118
					20:leaf=-0.0537819
			8:[log_froms<2] yes=13,no=14,missing=13
				13:leaf=0.126077
				14:[divs<7] yes=21,no=22,missing=21
					21:leaf=-0.194411
					22:leaf=-0.0252337
		4:leaf=0.129777
	2:[divs<5] yes=5,no=6,missing=5
		5:leaf=-0.150682
		6:[divs<9] yes=9,no=10,missing=9
			9:leaf=-0.0560002
			10:[divs<17] yes=15,no=16,missing=15
				15:leaf=0.0837907
				16:leaf=-0.0515295
booster[100]:
0:[citys<9] yes=1,no=2,missing=1
	1:[id<18014] yes=3,no=4,missing=3
		3:[id<14890] yes=7,no=8,missing=7
			7:[citys<4] yes=13,no=14,missing=13
				13:[id<5746] yes=21,no=22,missing=21
					21:leaf=0.131948
					22:leaf=-0.170593
				14:leaf=0.131342
			8:leaf=0.149887
		4:[id<31465] yes=9,no=10,missing=9
			9:[log_ids<11] yes=15,no=16,missing=15
				15:[id<27836] yes=23,no=24,missing=23
					23:leaf=-0.0886641
					24:leaf=-0.248371
				16:leaf=0.0817436
			10:[id<34150] yes=17,no=18,missing=17
				17:leaf=0.138057
				18:[log_ids<5] yes=25,no=26,missing=25
					25:leaf=0.0256068
					26:leaf=-0.0268524
	2:[id<109232] yes=5,no=6,missing=5
		5:[log_ids<23] yes=11,no=12,missing=11
			11:leaf=0.105481
			12:[divs<16] yes=19,no=20,missing=19
				19:leaf=-0.0701561
				20:leaf=-0.013652
		6:leaf=0.170056
booster[101]:
0:[ips<2] yes=1,no=2,missing=1
	1:[id<86127] yes=3,no=4,missing=3
		3:[id<75217] yes=7,no=8,missing=7
			7:[id<34916] yes=15,no=16,missing=15
				15:leaf=0.127433
				16:leaf=0.00855195
			8:leaf=-0.171917
		4:[id<110247] yes=9,no=10,missing=9
			9:[id<104007] yes=17,no=18,missing=17
				17:leaf=0.0759372
				18:leaf=0.216454
			10:[id<135988] yes=19,no=20,missing=19
				19:leaf=-0.0548642
				20:leaf=0.108755
	2:[ips<7] yes=5,no=6,missing=5
		5:[id<55555] yes=11,no=12,missing=11
			11:[id<41093] yes=21,no=22,missing=21
				21:[ips<3] yes=29,no=30,missing=29
					29:leaf=-0.0974154
					30:leaf=0.0104393
				22:[id<46366] yes=31,no=32,missing=31
					31:leaf=0.343229
					32:leaf=0.0145272
			12:[id<65445] yes=23,no=24,missing=23
				23:leaf=-0.218489
				24:[id<100666] yes=33,no=34,missing=33
					33:leaf=0.0299184
					34:leaf=-0.0528304
		6:[id<46777] yes=13,no=14,missing=13
			13:[ips<12] yes=25,no=26,missing=25
				25:[id<28725] yes=35,no=36,missing=35
					35:leaf=0.0949499
					36:leaf=-0.0489303
				26:leaf=-0.184655
			14:[log_froms<2] yes=27,no=28,missing=27
				27:[id<108366] yes=37,no=38,missing=37
					37:leaf=0.246094
					38:leaf=0.00482576
				28:[id<54512] yes=39,no=40,missing=39
					39:leaf=0.145761
					40:leaf=0.0108366
booster[102]:
0:[id<64660] yes=1,no=2,missing=1
	1:[id<55546] yes=3,no=4,missing=3
		3:[id<5712] yes=7,no=8,missing=7
			7:leaf=-0.185625
			8:[log_ids<32] yes=15,no=16,missing=15
				15:[divs<4] yes=25,no=26,missing=25
					25:leaf=0.000802566
					26:leaf=-0.110756
				16:leaf=0.0888997
		4:[divs<4] yes=9,no=10,missing=9
			9:leaf=-0.0683929
			10:leaf=-0.238476
	2:[id<136018] yes=5,no=6,missing=5
		5:[id<131150] yes=11,no=12,missing=11
			11:[divs<2] yes=17,no=18,missing=17
				17:[id<75546] yes=27,no=28,missing=27
					27:leaf=0.157047
					28:leaf=-0.0972287
				18:[log_ids<15] yes=29,no=30,missing=29
					29:leaf=0.0732008
					30:leaf=-0.0421767
			12:[id<134299] yes=19,no=20,missing=19
				19:leaf=0.252215
				20:leaf=0.044941
		6:[id<159751] yes=13,no=14,missing=13
			13:[ips<15] yes=21,no=22,missing=21
				21:[log_ids<8] yes=31,no=32,missing=31
					31:leaf=-0.172467
					32:leaf=-0.0599927
				22:leaf=0.0650013
			14:[divs<2] yes=23,no=24,missing=23
				23:leaf=-0.0595058
				24:[log_ids<25] yes=33,no=34,missing=33
					33:leaf=0.103143
					34:leaf=-0.0445946
booster[103]:
0:[log_ids<20] yes=1,no=2,missing=1
	1:[citys<5] yes=3,no=4,missing=3
		3:[log_ids<10] yes=7,no=8,missing=7
			7:[log_ids<8] yes=15,no=16,missing=15
				15:[citys<3] yes=27,no=28,missing=27
					27:leaf=0.028199
					28:leaf=-0.0236152
				16:[ips<7] yes=29,no=30,missing=29
					29:leaf=-0.0472022
					30:leaf=-0.135636
			8:[citys<3] yes=17,no=18,missing=17
				17:[ips<8] yes=31,no=32,missing=31
					31:leaf=-0.103657
					32:leaf=0.0743026
				18:[ips<9] yes=33,no=34,missing=33
					33:leaf=0.200374
					34:leaf=0.0472272
		4:[log_ids<11] yes=9,no=10,missing=9
			9:[ips<8] yes=19,no=20,missing=19
				19:[log_ids<7] yes=35,no=36,missing=35
					35:leaf=-0.0237904
					36:leaf=-0.059881
				20:[citys<8] yes=37,no=38,missing=37
					37:leaf=0.0915393
					38:leaf=0.0229152
			10:[ips<14] yes=21,no=22,missing=21
				21:leaf=-0.164268
				22:leaf=0.0255257
	2:[citys<5] yes=5,no=6,missing=5
		5:[log_froms<2] yes=11,no=12,missing=11
			11:leaf=-0.0450594
			12:[log_ids<29] yes=23,no=24,missing=23
				23:leaf=-0.247141
				24:leaf=-0.0784723
		6:[ips<44] yes=13,no=14,missing=13
			13:[log_ids<31] yes=25,no=26,missing=25
				25:[ips<18] yes=39,no=40,missing=39
					39:leaf=-0.00203792
					40:leaf=-0.158762
				26:[ips<25] yes=41,no=42,missing=41
					41:leaf=-0.00203902
					42:leaf=0.0913289
			14:leaf=-0.122136
booster[104]:
0:[ips<9] yes=1,no=2,missing=1
	1:[citys<4] yes=3,no=4,missing=3
		3:[id<65638] yes=7,no=8,missing=7
			7:[id<57071] yes=15,no=16,missing=15
				15:[id<45321] yes=29,no=30,missing=29
					29:leaf=0.0501568
					30:leaf=-0.106539
				16:leaf=0.260149
			8:[id<81604] yes=17,no=18,missing=17
				17:[id<75195] yes=31,no=32,missing=31
					31:leaf=-0.0256462
					32:leaf=-0.201086
				18:[id<87346] yes=33,no=34,missing=33
					33:leaf=0.13152
					34:leaf=-0.0184969
		4:[id<99927] yes=9,no=10,missing=9
			9:[citys<5] yes=19,no=20,missing=19
				19:[ips<6] yes=35,no=36,missing=35
					35:leaf=-0.103192
					36:leaf=0.0534228
				20:[id<71035] yes=37,no=38,missing=37
					37:leaf=-0.0670161
					38:leaf=-0.273954
			10:[id<112957] yes=21,no=22,missing=21
				21:leaf=0.0469336
				22:[id<159360] yes=39,no=40,missing=39
					39:leaf=-0.0920661
					40:leaf=-0.0151026
	2:[id<52023] yes=5,no=6,missing=5
		5:[citys<4] yes=11,no=12,missing=11
			11:leaf=0.233612
			12:[ips<12] yes=23,no=24,missing=23
				23:leaf=0.0929794
				24:leaf=-0.135308
		6:[ips<20] yes=13,no=14,missing=13
			13:[id<76765] yes=25,no=26,missing=25
				25:leaf=-0.135191
				26:[citys<7] yes=41,no=42,missing=41
					41:leaf=-0.0174831
					42:leaf=0.10464
			14:[id<127709] yes=27,no=28,missing=27
				27:[id<92601] yes=43,no=44,missing=43
					43:leaf=0.0562383
					44:leaf=0.166284
				28:leaf=-0.0351058
booster[105]:
0:[id<80146] yes=1,no=2,missing=1
	1:[id<75505] yes=3,no=4,missing=3
		3:[id<72814] yes=7,no=8,missing=7
			7:[log_ids<2] yes=11,no=12,missing=11
				11:leaf=-0.131659
				12:[id<9023] yes=15,no=16,missing=15
					15:leaf=0.0897043
					16:leaf=-0.0222672
			8:leaf=0.138183
		4:leaf=-0.17287
	2:[log_ids<97] yes=5,no=6,missing=5
		5:[log_ids<32] yes=9,no=10,missing=9
			9:[divs<8] yes=13,no=14,missing=13
				13:[divs<6] yes=17,no=18,missing=17
					17:leaf=0.0352218
					18:leaf=-0.047593
				14:leaf=0.114183
			10:leaf=-0.182195
		6:leaf=0.144078
booster[106]:
0:[divs<17] yes=1,no=2,missing=1
	1:[id<140215] yes=3,no=4,missing=3
		3:[id<135132] yes=5,no=6,missing=5
			5:[id<115718] yes=9,no=10,missing=9
				9:[id<110080] yes=13,no=14,missing=13
					13:leaf=-0.00695922
					14:leaf=-0.146324
				10:[citys<2] yes=15,no=16,missing=15
					15:leaf=-0.0119032
					16:leaf=0.111315
			6:leaf=-0.120131
		4:[id<143914] yes=7,no=8,missing=7
			7:leaf=0.213922
			8:[log_ids<10] yes=11,no=12,missing=11
				11:[log_ids<7] yes=17,no=18,missing=17
					17:leaf=0.0117832
					18:leaf=0.217853
				12:[divs<7] yes=19,no=20,missing=19
					19:leaf=-0.152412
					20:leaf=0.0524099
	2:leaf=-0.116971
booster[107]:
0:[citys<13] yes=1,no=2,missing=1
	1:[log_ids<33] yes=3,no=4,missing=3
		3:[log_ids<29] yes=5,no=6,missing=5
			5:[citys<4] yes=9,no=10,missing=9
				9:[log_froms<2] yes=13,no=14,missing=13
					13:leaf=0.00229163
					14:leaf=-0.0349703
				10:[log_ids<8] yes=15,no=16,missing=15
					15:leaf=0.0939655
					16:leaf=-0.0143055
			6:leaf=0.150671
		4:[divs<31] yes=7,no=8,missing=7
			7:[log_ids<49] yes=11,no=12,missing=11
				11:leaf=-0.0689694
				12:leaf=-0.147389
			8:leaf=0.0281314
	2:leaf=0.0896779
booster[108]:
0:[divs<13] yes=1,no=2,missing=1
	1:[ips<4] yes=3,no=4,missing=3
		3:[citys<3] yes=7,no=8,missing=7
			7:[ips<3] yes=13,no=14,missing=13
				13:[divs<3] yes=21,no=22,missing=21
					21:leaf=-0.0165334
					22:leaf=0.0819219
				14:[divs<3] yes=23,no=24,missing=23
					23:leaf=0.287177
					24:leaf=0.0504352
			8:[log_froms<2] yes=15,no=16,missing=15
				15:leaf=-0.00606282
				16:leaf=-0.0966581
		4:[ips<7] yes=9,no=10,missing=9
			9:[log_froms<2] yes=17,no=18,missing=17
				17:[divs<3] yes=25,no=26,missing=25
					25:leaf=-0.0831621
					26:leaf=-0.243944
				18:[citys<3] yes=27,no=28,missing=27
					27:leaf=-0.109693
					28:leaf=-0.00243281
			10:[ips<15] yes=19,no=20,missing=19
				19:[ips<14] yes=29,no=30,missing=29
					29:leaf=0.0136992
					30:leaf=0.158453
				20:[citys<6] yes=31,no=32,missing=31
					31:leaf=-0.00657115
					32:leaf=-0.113671
	2:[citys<4] yes=5,no=6,missing=5
		5:leaf=0.14245
		6:[ips<34] yes=11,no=12,missing=11
			11:leaf=-0.0873076
			12:leaf=0.0380076
booster[109]:
0:[id<134216] yes=1,no=2,missing=1
	1:[id<131645] yes=3,no=4,missing=3
		3:[divs<4] yes=7,no=8,missing=7
			7:[id<105144] yes=13,no=14,missing=13
				13:[id<102648] yes=23,no=24,missing=23
					23:leaf=-0.0191859
					24:leaf=0.20215
				14:[id<109815] yes=25,no=26,missing=25
					25:leaf=-0.261884
					26:leaf=-0.0355143
			8:[id<106045] yes=15,no=16,missing=15
				15:[id<93288] yes=27,no=28,missing=27
					27:leaf=0.0196226
					28:leaf=-0.145109
				16:[log_ids<15] yes=29,no=30,missing=29
					29:leaf=0.200896
					30:leaf=0.0237885
		4:leaf=-0.19461
	2:[id<153074] yes=5,no=6,missing=5
		5:[id<150243] yes=9,no=10,missing=9
			9:[log_ids<8] yes=17,no=18,missing=17
				17:[id<136018] yes=31,no=32,missing=31
					31:leaf=0.162369
					32:leaf=-0.190543
				18:[divs<5] yes=33,no=34,missing=33
					33:leaf=0.2065
					34:leaf=0.0363874
			10:leaf=0.252102
		6:[id<165272] yes=11,no=12,missing=11
			11:[log_ids<6] yes=19,no=20,missing=19
				19:leaf=0.0352682
				20:[id<160668] yes=35,no=36,missing=35
					35:leaf=0.00268414
					36:leaf=-0.19382
			12:[id<165899] yes=21,no=22,missing=21
				21:leaf=0.139257
				22:[log_ids<21] yes=37,no=38,missing=37
					37:leaf=-0.0920284
					38:leaf=0.0593665
booster[110]:
0:[ips<36] yes=1,no=2,missing=1
	1:[log_ids<22] yes=3,no=4,missing=3
		3:[log_froms<3] yes=5,no=6,missing=5
			5:[ips<12] yes=9,no=10,missing=9
				9:[log_froms<2] yes=17,no=18,missing=17
					17:leaf=-0.0162935
					18:leaf=0.0264624
				10:[log_ids<17] yes=19,no=20,missing=19
					19:leaf=0.0246732
					20:leaf=-0.134581
			6:[ips<8] yes=11,no=12,missing=11
				11:leaf=0.129593
				12:leaf=0.0087499
		4:[citys<8] yes=7,no=8,missing=7
			7:[ips<14] yes=13,no=14,missing=13
				13:leaf=0.0191738
				14:[ips<23] yes=21,no=22,missing=21
					21:leaf=0.184758
					22:leaf=0.0554786
			8:[log_ids<29] yes=15,no=16,missing=15
				15:leaf=0.0927076
				16:leaf=-0.040362
	2:leaf=-0.0992793
booster[111]:
0:[id<165899] yes=1,no=2,missing=1
	1:[id<65445] yes=3,no=4,missing=3
		3:[id<58481] yes=7,no=8,missing=7
			7:[id<54157] yes=11,no=12,missing=11
				11:[id<38457] yes=17,no=18,missing=17
					17:leaf=0.00162609
					18:leaf=-0.0765731
				12:leaf=0.257716
			8:leaf=-0.183527
		4:[citys<7] yes=9,no=10,missing=9
			9:[id<142907] yes=13,no=14,missing=13
				13:[id<136018] yes=19,no=20,missing=19
					19:leaf=0.00235386
					20:leaf=-0.106954
				14:[id<143995] yes=21,no=22,missing=21
					21:leaf=0.153031
					22:leaf=0.0260345
			10:[citys<10] yes=15,no=16,missing=15
				15:[id<99900] yes=23,no=24,missing=23
					23:leaf=0.170806
					24:leaf=0.0238007
